<?xml version="1.0"?>
<opencv_storage>
<my_svm type_id="opencv-ml-svm">
  <svm_type>C_SVC</svm_type>
  <kernel><type>RBF</type>
    <gamma>10.</gamma></kernel>
  <C>15.</C>
  <term_criteria><epsilon>2.2204460492503131e-016</epsilon>
    <iterations>100</iterations></term_criteria>
  <var_all>3000</var_all>
  <var_count>3000</var_count>
  <class_count>2</class_count>
  <class_labels type_id="opencv-matrix">
    <rows>1</rows>
    <cols>2</cols>
    <dt>i</dt>
    <data>
      -1 1</data></class_labels>
  <sv_total>166</sv_total>
  <support_vectors>
    <_>
      0. 1.89393945e-003 0. 0. 0. 2.84090918e-003 0. 9.46969725e-004 0.
      0. 1.89393945e-003 0. 0. 0. 0. 3.78787890e-003 0. 0. 0. 0. 0. 0.
      0. 0. 0. 0. 0. 0. 0. 0. 0. 9.46969725e-004 0. 0. 0. 0. 0. 0. 0. 0.
      0. 0. 0. 2.84090918e-003 0. 0. 0. 0. 0. 0. 0. 9.46969725e-004
      2.84090918e-003 9.46969725e-004 0. 0. 0. 0. 0. 0. 2.84090918e-003
      0. 0. 0. 0. 0. 0. 9.46969725e-004 9.46969725e-004 0.
      9.46969725e-004 0. 0. 0. 0. 0. 0. 7.57575780e-003 0. 0. 0. 0. 0.
      0. 0. 0. 0. 0. 0. 0. 9.46969725e-004 5.68181835e-003 0. 0. 0. 0.
      0. 0. 0. 0. 0. 0. 0. 9.46969725e-004 0. 0. 0. 9.46969725e-004
      9.46969725e-004 0. 0. 0. 0. 2.84090918e-003 0. 0. 9.46969725e-004
      0. 0. 0. 0. 9.46969725e-004 0. 0. 0. 0. 0. 1.89393945e-003 0. 0.
      0. 0. 0. 0. 0. 0. 0. 0. 0. 0. 9.46969725e-004 0. 0. 0. 0. 0. 0. 0.
      0. 0. 0. 0. 0. 0. 0. 0. 0. 0. 0. 9.46969725e-004 0. 0.
      9.46969725e-004 1.89393945e-003 0. 0. 0. 0. 0. 0. 0. 0. 0. 0. 0.
      0. 0. 9.46969725e-004 0. 9.46969725e-004 0. 0. 0. 0. 0.
      9.46969725e-004 9.46969725e-004 9.46969725e-004 0. 0. 0. 0. 0. 0.
      0. 0. 0. 0. 0. 0. 1.89393945e-003 0. 9.46969725e-004 0. 0. 0.
      9.46969725e-004 0. 0. 0. 0. 0. 2.84090918e-003 0. 0. 0. 0. 0.
      9.46969725e-004 0. 0. 9.46969725e-004 0. 0. 0. 0. 0. 0.
      9.46969725e-004 0. 0. 0. 0. 0. 0. 0. 0. 0. 0. 0. 0. 0. 0. 0. 0.
      6.62878808e-003 0. 0. 0. 0. 0. 1.89393945e-003 0. 0.
      9.46969725e-004 0. 4.73484863e-003 0. 0. 0. 0. 0. 0. 0.
      9.46969725e-004 0. 0. 0. 0. 0. 0. 0. 0. 0. 0. 0. 0. 0.
      9.46969725e-004 0. 0. 0. 0. 0. 0. 0. 2.84090918e-003
      3.78787890e-003 0. 0. 0. 0. 0. 0. 0. 0. 0. 7.57575780e-003 0. 0.
      0. 9.46969725e-004 0. 0. 0. 0. 0. 0. 0. 9.46969725e-004 0. 0. 0.
      0. 0. 0. 0. 1.89393945e-003 0. 0. 0. 0. 0. 0. 0. 9.46969725e-004
      0. 0. 0. 0. 0. 0. 0. 0. 9.46969725e-004 0. 1.89393945e-003 0. 0.
      0. 0. 0. 0. 0. 0. 9.46969725e-004 0. 0. 0. 0. 0. 0.
      1.89393945e-003 0. 0. 0. 0. 0. 0. 0. 0. 0. 0. 0. 0.
      9.46969725e-004 0. 0. 0. 0. 1.89393945e-003 0. 0. 0. 0. 0.
      2.84090918e-003 0. 0. 0. 0. 0. 0. 0. 0. 0. 4.73484863e-003 0. 0.
      0. 0. 0. 0. 0. 0. 0. 0. 0. 0. 9.46969725e-004 9.46969725e-004 0.
      0. 0. 1.89393945e-003 1.89393945e-003 0. 0. 0. 0. 0. 0. 0. 0. 0.
      0. 0. 0. 0. 0. 0. 0. 0. 0. 0. 0. 0. 1.89393945e-003 0.
      9.46969725e-004 0. 0. 0. 9.46969725e-004 0. 0. 0. 0. 0. 0. 0. 0.
      0. 0. 0. 9.46969725e-004 0. 0. 0. 9.46969725e-004 0.
      9.46969725e-004 0. 0. 0. 0. 0. 0. 0. 0. 9.46969725e-004 0. 0. 0.
      0. 2.84090918e-003 0. 0. 0. 0. 0. 0. 1.89393945e-003 0. 0. 0.
      1.89393945e-003 0. 0. 0. 0. 0. 0. 0. 0. 0. 0. 0. 3.78787890e-003
      0. 0. 0. 9.46969725e-004 0. 0. 0. 0. 0. 0. 0. 0. 0. 0. 0. 0. 0. 0.
      0. 9.46969725e-004 0. 0. 0. 0. 0. 0. 0. 1.89393945e-003 0.
      9.46969725e-004 0. 9.46969725e-004 0. 0. 0. 0. 0. 0. 0. 0. 0. 0.
      9.46969725e-004 0. 0. 0. 0. 1.89393945e-003 0. 0. 0.
      2.84090918e-003 0. 0. 0. 0. 0. 0. 0. 0. 9.46969725e-004
      2.84090918e-003 0. 1.89393945e-003 0. 0. 0. 0. 0. 9.46969725e-004
      0. 0. 0. 0. 0. 0. 9.46969725e-004 0. 0. 0. 0. 0. 0. 0. 0. 0. 0. 0.
      0. 0. 1.89393945e-003 0. 9.46969725e-004 0. 0. 0. 9.46969725e-004
      0. 0. 0. 0. 0. 0. 0. 0. 9.46969725e-004 0. 0. 0. 0. 0. 0. 0. 0. 0.
      9.46969725e-004 0. 0. 0. 0. 9.46969725e-004 0. 0. 0.
      9.46969725e-004 0. 0. 0. 0. 0. 0. 0. 0. 2.84090918e-003 0. 0. 0.
      0. 0. 0. 0. 0. 0. 0. 9.46969725e-004 0. 1.89393945e-003 0. 0. 0.
      9.46969725e-004 0. 0. 0. 0. 0. 0. 0. 0. 0. 0. 0. 0.
      2.84090918e-003 0. 0. 0. 0. 0. 0. 9.46969725e-004 0. 0. 0. 0. 0.
      0. 0. 0. 0. 0. 0. 0. 0. 0. 1.89393945e-003 0. 0. 1.89393945e-003
      0. 0. 0. 0. 9.46969725e-004 0. 9.46969725e-004 5.68181835e-003 0.
      0. 0. 0. 0. 0. 0. 0. 0. 0. 1.89393945e-003 0. 0. 0. 0. 0. 0. 0. 0.
      0. 0. 0. 0. 9.46969725e-004 0. 0. 0. 0. 0. 0. 9.46969725e-004
      9.46969725e-004 0. 0. 0. 0. 0. 0. 0. 1.98863633e-002 0. 0.
      9.46969725e-004 0. 0. 0. 0. 0. 0. 0. 0. 0. 0. 0. 0. 0. 0.
      9.46969725e-004 0. 0. 0. 0. 9.46969725e-004 0. 0. 0. 0. 0. 0. 0.
      0. 0. 0. 0. 0. 0. 0. 0. 0. 0. 0. 1.89393945e-003 0. 0.
      9.46969725e-004 0. 2.84090918e-003 0. 0. 0. 0. 0. 0. 0.
      3.78787890e-003 0. 2.84090918e-003 9.46969725e-004 0. 0. 0. 0. 0.
      0. 0. 0. 0. 0. 0. 0. 0. 0. 9.46969725e-004 0. 0. 0. 0. 0. 0. 0. 0.
      9.46969725e-004 0. 0. 0. 0. 0. 9.46969725e-004 0. 0. 0. 0. 0. 0.
      0. 0. 0. 0. 9.46969725e-004 0. 0. 0. 0. 0. 0. 0. 0. 0. 0. 0. 0. 0.
      0. 0. 0. 0. 0. 1.89393945e-003 0. 0. 9.46969725e-004
      1.89393945e-003 0. 9.46969725e-004 3.78787890e-003 0. 0. 0.
      9.46969725e-004 0. 0. 9.46969725e-004 0. 0. 0. 1.89393945e-003 0.
      0. 0. 0. 0. 0. 0. 0. 0. 0. 9.46969725e-004 0. 0. 0. 0. 0. 0. 0. 0.
      0. 0. 0. 0. 0. 0. 0. 0. 0. 0. 6.62878808e-003 0. 9.46969725e-004
      9.46969725e-004 2.84090918e-003 0. 0. 1.89393945e-003 0. 0. 0. 0.
      0. 9.46969725e-004 0. 0. 0. 0. 0. 0. 0. 0. 0. 0. 0. 0. 0. 0.
      1.51515156e-002 0. 0. 0. 0. 0. 0. 0. 9.46969725e-004 0. 0.
      9.46969725e-004 0. 9.46969725e-004 0. 1.89393945e-003
      9.46969725e-004 0. 0. 0. 0. 0. 0. 0. 0. 0. 0. 9.46969725e-004
      1.89393945e-003 0. 0. 9.46969725e-004 0. 0. 0. 0. 0.
      1.89393945e-003 0. 0. 0. 0. 0. 0. 0. 0. 0. 9.46969725e-004 0. 0.
      0. 0. 0. 0. 0. 0. 0. 0. 0. 0. 0. 0. 0. 0. 0. 0. 0. 9.46969725e-004
      0. 0. 0. 0. 0. 3.78787890e-003 9.46969725e-004 0. 0. 0.
      9.46969725e-004 0. 0. 0. 0. 0. 0. 0. 0. 0. 9.46969725e-004
      9.46969725e-004 0. 0. 9.46969725e-004 9.46969725e-004 0.
      9.46969725e-004 0. 0. 0. 0. 0. 0. 0. 0. 0. 0. 2.84090918e-003 0.
      0. 0. 0. 0. 9.46969725e-004 0. 0. 0. 0. 0. 0. 0. 0.
      1.89393945e-003 0. 0. 0. 0. 0. 1.89393945e-003 0. 0. 0. 0. 0. 0.
      9.46969725e-004 9.46969725e-004 0. 0. 0. 0. 0. 0. 0. 0.
      9.46969725e-004 0. 0. 0. 0. 0. 0. 0. 1.89393945e-003
      9.46969725e-004 0. 0. 0. 0. 0. 9.46969725e-004 0. 9.46969725e-004
      9.46969725e-004 0. 0. 0. 0. 0. 0. 0. 0. 9.46969725e-004 0. 0. 0.
      0. 0. 0. 0. 0. 0. 0. 0. 0. 9.46969725e-004 0. 0. 9.46969725e-004
      0. 0. 0. 9.46969725e-004 0. 0. 0. 0. 0. 0. 0. 0. 0. 0. 0. 0. 0. 0.
      0. 0. 1.89393945e-003 0. 9.46969725e-004 0. 0. 9.46969725e-004 0.
      0. 0. 0. 0. 0. 9.46969725e-004 2.84090918e-003 0. 9.46969725e-004
      0. 0. 0. 0. 1.89393945e-003 0. 0. 0. 0. 0. 0. 0. 0.
      9.46969725e-004 0. 0. 0. 0. 9.46969725e-004 0. 0. 0. 0. 0. 0. 0.
      0. 0. 0. 0. 0. 0. 0. 0. 0. 0. 1.89393945e-003 9.46969725e-004 0.
      0. 0. 0. 0. 0. 0. 0. 0. 0. 9.46969725e-004 0. 0. 0. 0. 0. 0. 0. 0.
      0. 9.46969725e-004 0. 0. 9.46969725e-004 0. 0. 0. 0. 0. 0. 0. 0.
      0. 0. 0. 0. 0. 0. 0. 0. 0. 0. 0. 0. 0. 4.73484863e-003
      9.46969725e-004 0. 0. 0. 0. 0. 9.46969725e-004 0. 0. 0. 0. 0.
      9.46969725e-004 0. 0. 3.78787890e-003 0. 0. 0. 0. 0.
      9.46969725e-004 0. 0. 0. 0. 0. 0. 0. 9.46969725e-004 0. 0. 0. 0.
      0. 0. 2.84090918e-003 1.89393945e-003 0. 0. 0. 0. 0. 0. 0.
      9.46969725e-004 0. 0. 0. 0. 9.46969725e-004 2.84090918e-003 0. 0.
      0. 9.46969725e-004 9.46969725e-004 0. 1.89393945e-003
      1.89393945e-003 0. 0. 0. 0. 0. 0. 0. 0. 0. 0. 0. 0. 0. 0. 0. 0. 0.
      0. 0. 9.46969725e-004 0. 0. 0. 0. 1.89393945e-003 0.
      3.78787890e-003 0. 0. 0. 1.89393945e-003 0. 2.84090918e-003 0.
      9.46969725e-004 0. 0. 3.78787890e-003 0. 0. 0. 0. 0. 0. 0. 0. 0.
      0. 0. 0. 0. 0. 0. 0. 0. 0. 0. 0. 2.84090918e-003 0. 0. 0. 0. 0. 0.
      0. 0. 0. 1.89393945e-003 0. 0. 0. 0. 0. 0. 0. 0. 1.89393945e-003
      0. 0. 0. 0. 0. 0. 0. 0. 0. 0. 0. 0. 0. 0. 0. 1.89393945e-003 0.
      9.46969725e-004 0. 0. 0. 0. 0. 0. 0. 9.46969725e-004 0. 0. 0. 0.
      0. 2.84090918e-003 0. 9.46969725e-004 0. 1.04166670e-002 0. 0.
      1.13636367e-002 0. 9.46969725e-004 0. 0. 0. 0. 0. 0. 0.
      2.84090918e-003 0. 0. 0. 0. 0. 0. 0. 0. 0. 0. 0. 0. 0. 0. 0. 0.
      9.46969725e-004 0. 0. 0. 0. 0. 0. 0. 0. 0. 0. 0. 0. 0. 0. 0.
      1.70454551e-002 0. 0. 0. 0. 0. 0. 0. 0. 0. 2.84090918e-003 0. 0.
      0. 0. 0. 0. 0. 0. 9.46969725e-004 1.89393945e-003 0. 0.
      9.46969725e-004 0. 0. 0. 0. 0. 0. 0. 0. 0. 9.46969725e-004 0. 0.
      0. 3.78787890e-003 0. 2.84090918e-003 0. 0. 0. 0. 0. 0. 0. 0. 0.
      0. 1.89393945e-003 0. 9.46969725e-004 0. 0. 0. 0. 0.
      9.46969725e-004 0. 0. 0. 0. 0. 0. 0. 0. 0. 5.68181835e-003
      9.46969725e-004 0. 0. 0. 0. 0. 0. 0. 9.46969725e-004 0. 0. 0. 0.
      0. 0. 0. 9.46969725e-004 0. 0. 0. 9.46969725e-004 0. 0.
      9.46969725e-004 0. 3.78787890e-003 0. 0. 0. 0. 0. 9.46969725e-004
      0. 0. 0. 0. 9.46969725e-004 0. 0. 0. 0. 0. 0. 0. 0. 0. 0.
      9.46969725e-004 0. 0. 0. 0. 1.89393945e-003 0. 0. 0. 0.
      9.46969725e-004 0. 0. 0. 9.46969725e-004 0. 0. 0. 9.46969725e-004
      0. 0. 9.46969725e-004 0. 1.89393945e-003 0. 0. 0. 0. 0. 0. 0.
      9.46969725e-004 9.46969725e-004 0. 0. 0. 0. 0. 0. 1.89393945e-003
      0. 0. 0. 0. 0. 0. 0. 0. 0. 1.89393945e-003 9.46969725e-004 0.
      1.89393945e-003 0. 9.46969725e-004 0. 0. 0. 0. 9.46969725e-004 0.
      0. 0. 1.89393945e-003 0. 0. 0. 0. 3.97727266e-002 0. 0. 0. 0. 0.
      0. 0. 0. 0. 0. 0. 9.46969725e-004 0. 0. 0. 0. 0. 9.46969725e-004
      9.46969725e-004 0. 9.46969725e-004 0. 0. 0. 0. 0. 9.46969725e-004
      0. 0. 0. 9.46969725e-004 0. 0. 1.89393945e-003 0. 0. 0. 0.
      9.46969725e-004 0. 0. 0. 0. 0. 9.46969725e-004 1.89393945e-003 0.
      0. 0. 0. 0. 0. 0. 0. 9.46969725e-004 9.46969725e-004 0. 0. 0. 0.
      0. 0. 9.46969725e-004 0. 0. 0. 0. 0. 0. 0. 9.46969725e-004 0. 0.
      0. 9.46969725e-004 0. 1.89393945e-003 0. 0. 3.78787890e-003
      9.46969725e-004 0. 0. 0. 0. 0. 0. 0. 0. 9.46969725e-004 0. 0. 0.
      0. 0. 0. 0. 0. 0. 0. 0. 0. 0. 0. 0. 0. 0. 0. 0. 1.89393945e-003 0.
      9.46969725e-004 0. 0. 0. 0. 0. 0. 0. 9.46969725e-004 0. 0. 0.
      1.89393945e-003 0. 0. 0. 0. 0. 9.46969725e-004 9.46969725e-004 0.
      0. 0. 0. 0. 0. 0. 0. 9.46969725e-004 0. 2.84090918e-003
      2.84090918e-003 0. 0. 0. 0. 0. 0. 1.89393945e-003 0. 0. 0. 0.
      3.78787890e-003 0. 0. 0. 0. 0. 0. 0. 0. 0. 0. 0. 0. 0. 0. 0. 0. 0.
      1.89393945e-003 0. 0. 0. 0. 0. 0. 0. 9.46969725e-004 0. 0. 0. 0.
      0. 0. 0. 0. 0. 0. 0. 0. 0. 0. 0. 0. 0. 0. 0. 0. 0. 0.
      9.46969725e-004 0. 3.78787890e-003 0. 9.46969725e-004 0. 0.
      1.89393945e-003 9.46969725e-004 0. 0. 0. 0. 0. 0. 0. 0. 0. 0. 0.
      0. 0. 0. 0. 0. 0. 0. 0. 9.46969725e-004 0. 0. 0. 0. 0. 0. 0. 0. 0.
      1.89393945e-003 1.89393945e-003 9.46969725e-004 0. 0. 0. 0. 0. 0.
      0. 0. 0. 0. 0. 1.89393945e-003 0. 0. 0. 0. 0. 0. 0. 0. 0. 0. 0. 0.
      0. 0. 9.46969725e-004 9.46969725e-004 2.84090918e-003
      9.46969725e-004 5.68181835e-003 0. 0. 0. 0. 0. 9.46969725e-004
      2.36742422e-002 0. 0. 0. 0. 0. 0. 3.78787890e-003 0. 0. 0. 0.
      9.46969725e-004 0. 0. 0. 0. 9.46969725e-004 0. 0. 1.89393945e-003
      0. 0. 9.46969725e-004 0. 0. 0. 0. 0. 0. 0. 0. 0. 0.
      5.68181835e-003 0. 0. 0. 0. 2.84090918e-003 0. 0. 1.89393945e-003
      0. 0. 0. 9.46969725e-004 9.46969725e-004 0. 0. 0. 0. 0. 0. 0. 0.
      1.89393945e-003 0. 0. 0. 0. 0. 0. 1.89393945e-003 0. 0. 0.
      9.46969725e-004 0. 0. 2.84090918e-003 0. 0. 0. 0. 0. 0.
      1.89393945e-003 0. 0. 0. 0. 9.46969725e-004 0. 0. 0.
      9.46969725e-004 0. 1.89393945e-003 0. 0. 0. 0. 0. 0.
      1.89393945e-003 0. 0. 0. 0. 0. 0. 0. 0. 0. 0. 0. 0.
      9.46969725e-004 0. 0. 0. 0. 0. 9.46969725e-004 0. 0. 0. 0. 0.
      2.84090918e-003 9.46969725e-004 0. 0. 0. 0. 9.46969725e-004 0. 0.
      0. 0. 0. 0. 0. 9.46969725e-004 0. 0. 0. 0. 0. 1.51515156e-002
      9.46969725e-004 0. 0. 0. 0. 9.46969725e-004 9.46969725e-004 0. 0.
      0. 0. 0. 0. 0. 0. 0. 0. 0. 9.46969725e-004 2.93560624e-002 0.
      5.68181835e-003 0. 9.46969725e-004 0. 0. 0. 9.46969725e-004 0. 0.
      0. 0. 0. 0. 0. 0. 0. 0. 0. 0. 0. 0. 0. 0. 0. 0. 0. 0. 0. 0. 0. 0.
      0. 0. 0. 0. 0. 0. 0. 0. 9.46969725e-004 0. 9.46969725e-004 0. 0.
      0. 0. 0. 0. 0. 0. 0. 0. 0. 0. 0. 0. 0. 0. 0. 0. 0. 0. 0.
      2.84090918e-003 0. 0. 0. 9.46969725e-004 0. 0. 0. 0. 0.
      9.46969725e-004 0. 0. 0. 0. 0. 0. 0. 0. 0. 9.46969725e-004 0. 0.
      9.46969725e-004 0. 0. 0. 0. 0. 0. 0. 0. 2.84090918e-003
      9.46969725e-004 0. 9.46969725e-004 0. 0. 0. 0. 0. 0.
      9.46969725e-004 0. 0. 9.46969725e-004 0. 9.46969725e-004 0. 0. 0.
      0. 0. 9.46969725e-004 0. 0. 2.84090918e-003 0. 0. 0. 0. 0. 0. 0.
      0. 0. 0. 0. 0. 0. 0. 9.46969725e-004 0. 0. 0. 0. 0.
      9.46969725e-004 1.89393945e-003 0. 0. 0. 0. 9.46969725e-004
      2.84090918e-003 0. 9.46969725e-004 2.84090918e-003 0. 0. 0. 0. 0.
      0. 0. 0. 0. 0. 0. 0. 1.89393945e-003 9.46969725e-004 0.
      9.46969725e-004 0. 9.46969725e-004 0. 0. 0. 0. 0. 0.
      9.46969725e-004 0. 0. 0. 0. 9.46969725e-004 0. 0. 0. 0. 0. 0. 0.
      0. 0. 0. 0. 0. 0. 9.46969725e-004 0. 9.46969725e-004 0.
      3.78787890e-003 0. 0. 0. 0. 0. 0. 0. 0. 0. 0. 0. 0.
      9.46969725e-004 9.46969725e-004 0. 9.46969725e-004 3.78787890e-003
      0. 0. 0. 9.46969725e-004 0. 0. 0. 0. 9.46969725e-004 0.
      9.46969725e-004 0. 0. 0. 0. 0. 0. 3.78787890e-003 0. 0. 0. 0. 0.
      0. 0. 0. 0. 3.78787890e-003 0. 0. 0. 0. 0. 0. 0. 1.89393945e-003
      0. 0. 0. 0. 0. 9.46969725e-004 0. 0. 1.89393945e-003 0. 0. 0. 0.
      0. 1.89393945e-003 0. 4.73484863e-003 0. 0. 0. 0. 0. 0. 0. 0. 0.
      9.46969725e-004 0. 0. 0. 0. 0. 0. 0. 0. 0. 0. 0. 0. 0. 0.
      1.51515156e-002 0. 0. 9.46969725e-004 0. 1.89393945e-003 0. 0. 0.
      0. 0. 0. 0. 9.46969725e-004 0. 0. 0. 0. 3.78787890e-003
      9.46969725e-004 0. 0. 0. 0. 0. 0. 0. 9.46969725e-004 0.
      9.46969725e-004 9.46969725e-004 0. 0. 0. 0. 0. 0. 0. 0. 0. 0. 0.
      0. 9.46969725e-004 9.46969725e-004 9.46969725e-004 9.46969725e-004
      0. 0. 9.46969725e-004 0. 0. 0. 0. 0. 0. 0. 0. 0. 0.
      9.46969725e-004 0. 0. 0. 0. 0. 0. 9.46969725e-004 0. 0. 0. 0. 0.
      0. 0. 0. 9.46969725e-004 0. 0. 0. 0. 0. 0. 0. 0. 0. 0. 0.
      1.89393945e-003 0. 0. 0. 0. 0. 0. 0. 0. 9.46969725e-004 0. 0. 0.
      0. 0. 0. 0. 0. 0. 0. 0. 2.84090918e-003 0. 0. 9.46969725e-004 0.
      0. 0. 0. 0. 0. 0. 0. 0. 0. 0. 0. 0. 2.84090918e-003 0. 0. 0.
      1.89393945e-003 0. 0. 0. 0. 0. 0. 0. 0. 0. 0. 0. 0.
      9.46969725e-004 0. 0. 0. 0. 0. 0. 0. 0. 0. 0. 0. 0. 0. 0. 0. 0. 0.
      0. 0. 0. 0. 0. 0. 2.84090918e-003 0. 0. 0. 9.46969725e-004 0. 0.
      2.46212129e-002 0. 0. 0. 0. 0. 0. 1.89393945e-003 0. 0. 0. 0. 0.
      0. 0. 9.46969725e-004 0. 5.68181835e-003 0. 0. 9.46969725e-004 0.
      0. 0. 0. 0. 0. 0. 0. 0. 9.46969725e-004 0. 0. 0. 0. 0. 0. 0. 0. 0.
      0. 0. 0. 0. 0. 9.46969725e-004 0. 0. 0. 0. 0. 0. 0. 0. 0. 0. 0. 0.
      0. 4.73484863e-003 0. 0. 0. 0. 0. 0. 0. 0. 0. 0. 0. 0. 0. 0. 0.
      1.89393945e-003 0. 0. 0. 0. 1.89393945e-003 0. 0. 0. 0. 0. 0. 0.
      0. 0. 0. 0. 0. 0. 0. 0. 0. 0. 9.46969725e-004 1.89393945e-003 0.
      0. 9.46969725e-004 0. 0. 9.46969725e-004 1.89393945e-003 0. 0. 0.
      0. 1.89393945e-003 0. 0. 0. 0. 0. 0. 0. 0. 9.46969725e-004 0. 0.
      0. 0. 0. 0. 3.78787890e-003 0. 0. 0. 0. 0. 0. 0. 0. 0. 0.
      1.89393945e-003 0. 0. 9.46969725e-004 0. 9.46969725e-004 0. 0.
      2.46212129e-002 0. 1.89393945e-003 0. 0. 0. 0. 0. 0. 0. 0. 0. 0.
      0. 0. 0. 0. 0. 0. 0. 0. 0. 0. 0. 0. 0. 0. 9.46969725e-004 0. 0.
      9.46969725e-004 0. 0. 0. 0. 9.46969725e-004 0. 0. 0. 0. 0. 0. 0.
      0. 0. 0. 0. 0. 0. 1.89393945e-003 0. 0. 0. 1.89393945e-003
      1.89393945e-003 0. 0. 0. 0. 0. 9.46969725e-004 0. 9.46969725e-004
      0. 0. 2.84090918e-003 0. 0. 0. 0. 0. 0. 0. 0. 0. 0. 0. 0. 0. 0. 0.
      0. 0. 0. 1.89393945e-003 0. 0. 0. 0. 0. 0. 0. 9.46969725e-004
      9.46969725e-004 0. 0. 0. 0. 0. 0. 0. 0. 0. 9.46969725e-004 0. 0.
      0. 0. 0. 0. 0. 0. 0. 0. 0. 0. 0. 9.46969725e-004 1.89393945e-003
      0. 0. 0. 0. 0. 0. 0. 0. 0. 0. 0. 0. 0. 0. 0. 0. 3.78787890e-003 0.
      9.46969725e-004 0. 0. 0. 0. 0. 0. 0. 9.46969725e-004 0. 0. 0. 0.
      0. 0. 0. 9.46969725e-004 0. 0. 9.46969725e-004 0. 0. 0. 0. 0. 0.
      0. 9.46969725e-004 0. 0. 0. 9.46969725e-004 9.46969725e-004 0.
      9.46969725e-004 0. 0. 9.46969725e-004 9.46969725e-004 0. 0. 0. 0.
      0. 0. 0. 0. 0. 0. 0. 0. 0. 0. 0. 0. 0. 0. 1.89393945e-003
      9.46969725e-004 0. 0. 0. 0. 0. 0. 0. 0. 0. 0. 0. 0. 0. 0. 0. 0. 0.
      0. 0. 0. 0. 0. 0. 0. 0. 0. 9.46969725e-004 0. 0. 0. 0. 0.
      9.46969725e-004 0. 0. 0. 0. 0. 0. 0. 0. 9.46969725e-004 0. 0. 0.
      0. 0. 0. 0. 0. 0. 9.46969725e-004 0. 0. 0. 9.46969725e-004
      9.46969725e-004 0. 0. 1.89393945e-003 0. 0. 9.46969725e-004 0. 0.
      0. 0. 9.46969725e-004 9.46969725e-004 0. 0. 0. 0. 0. 0. 0.
      9.46969725e-004 0. 0. 0. 1.89393945e-003 0. 0. 0. 0. 0.
      9.46969725e-004 0. 0. 0. 0. 0. 0. 0. 0. 0. 0. 0. 0. 0. 0. 0. 0. 0.
      0. 0. 0. 0. 9.46969725e-004 9.46969725e-004 0. 0. 0. 0. 0. 0. 0.</_>
    <_>
      0. 0. 1. 0. 0. 0. 0. 0. 0. 0. 0. 0. 0. 0. 0. 0. 0. 0. 0. 0. 0. 0.
      0. 0. 0. 0. 0. 0. 0. 0. 0. 0. 0. 0. 0. 0. 0. 0. 0. 0. 0. 0. 0. 0.
      0. 0. 0. 0. 0. 0. 0. 0. 0. 0. 0. 0. 0. 0. 0. 0. 0. 0. 0. 0. 0. 0.
      0. 0. 0. 0. 0. 0. 0. 0. 0. 0. 0. 0. 0. 0. 0. 0. 0. 0. 0. 0. 0. 0.
      0. 0. 0. 0. 0. 0. 0. 0. 0. 0. 0. 0. 0. 0. 0. 0. 0. 0. 0. 0. 0. 0.
      0. 0. 0. 0. 0. 0. 0. 0. 0. 0. 0. 0. 0. 0. 0. 0. 0. 0. 0. 0. 0. 0.
      0. 0. 0. 0. 0. 0. 0. 0. 0. 0. 0. 0. 0. 0. 0. 0. 0. 0. 0. 0. 0. 0.
      0. 0. 0. 0. 0. 0. 0. 0. 0. 0. 0. 0. 0. 0. 0. 0. 0. 0. 0. 0. 0. 0.
      0. 0. 0. 0. 0. 0. 0. 0. 0. 0. 0. 0. 0. 0. 0. 0. 0. 0. 0. 0. 0. 0.
      0. 0. 0. 0. 0. 0. 0. 0. 0. 0. 0. 0. 0. 0. 0. 0. 0. 0. 0. 0. 0. 0.
      0. 0. 0. 0. 0. 0. 0. 0. 0. 0. 0. 0. 0. 0. 0. 0. 0. 0. 0. 0. 0. 0.
      0. 0. 0. 0. 0. 0. 0. 0. 0. 0. 0. 0. 0. 0. 0. 0. 0. 0. 0. 0. 0. 0.
      0. 0. 0. 0. 0. 0. 0. 0. 0. 0. 0. 0. 0. 0. 0. 0. 0. 0. 0. 0. 0. 0.
      0. 0. 0. 0. 0. 0. 0. 0. 0. 0. 0. 0. 0. 0. 0. 0. 0. 0. 0. 0. 0. 0.
      0. 0. 0. 0. 0. 0. 0. 0. 0. 0. 0. 0. 0. 0. 0. 0. 0. 0. 0. 0. 0. 0.
      0. 0. 0. 0. 0. 0. 0. 0. 0. 0. 0. 0. 0. 0. 0. 0. 0. 0. 0. 0. 0. 0.
      0. 0. 0. 0. 0. 0. 0. 0. 0. 0. 0. 0. 0. 0. 0. 0. 0. 0. 0. 0. 0. 0.
      0. 0. 0. 0. 0. 0. 0. 0. 0. 0. 0. 0. 0. 0. 0. 0. 0. 0. 0. 0. 0. 0.
      0. 0. 0. 0. 0. 0. 0. 0. 0. 0. 0. 0. 0. 0. 0. 0. 0. 0. 0. 0. 0. 0.
      0. 0. 0. 0. 0. 0. 0. 0. 0. 0. 0. 0. 0. 0. 0. 0. 0. 0. 0. 0. 0. 0.
      0. 0. 0. 0. 0. 0. 0. 0. 0. 0. 0. 0. 0. 0. 0. 0. 0. 0. 0. 0. 0. 0.
      0. 0. 0. 0. 0. 0. 0. 0. 0. 0. 0. 0. 0. 0. 0. 0. 0. 0. 0. 0. 0. 0.
      0. 0. 0. 0. 0. 0. 0. 0. 0. 0. 0. 0. 0. 0. 0. 0. 0. 0. 0. 0. 0. 0.
      0. 0. 0. 0. 0. 0. 0. 0. 0. 0. 0. 0. 0. 0. 0. 0. 0. 0. 0. 0. 0. 0.
      0. 0. 0. 0. 0. 0. 0. 0. 0. 0. 0. 0. 0. 0. 0. 0. 0. 0. 0. 0. 0. 0.
      0. 0. 0. 0. 0. 0. 0. 0. 0. 0. 0. 0. 0. 0. 0. 0. 0. 0. 0. 0. 0. 0.
      0. 0. 0. 0. 0. 0. 0. 0. 0. 0. 0. 0. 0. 0. 0. 0. 0. 0. 0. 0. 0. 0.
      0. 0. 0. 0. 0. 0. 0. 0. 0. 0. 0. 0. 0. 0. 0. 0. 0. 0. 0. 0. 0. 0.
      0. 0. 0. 0. 0. 0. 0. 0. 0. 0. 0. 0. 0. 0. 0. 0. 0. 0. 0. 0. 0. 0.
      0. 0. 0. 0. 0. 0. 0. 0. 0. 0. 0. 0. 0. 0. 0. 0. 0. 0. 0. 0. 0. 0.
      0. 0. 0. 0. 0. 0. 0. 0. 0. 0. 0. 0. 0. 0. 0. 0. 0. 0. 0. 0. 0. 0.
      0. 0. 0. 0. 0. 0. 0. 0. 0. 0. 0. 0. 0. 0. 0. 0. 0. 0. 0. 0. 0. 0.
      0. 0. 0. 0. 0. 0. 0. 0. 0. 0. 0. 0. 0. 0. 0. 0. 0. 0. 0. 0. 0. 0.
      0. 0. 0. 0. 0. 0. 0. 0. 0. 0. 0. 0. 0. 0. 0. 0. 0. 0. 0. 0. 0. 0.
      0. 0. 0. 0. 0. 0. 0. 0. 0. 0. 0. 0. 0. 0. 0. 0. 0. 0. 0. 0. 0. 0.
      0. 0. 0. 0. 0. 0. 0. 0. 0. 0. 0. 0. 0. 0. 0. 0. 0. 0. 0. 0. 0. 0.
      0. 0. 0. 0. 0. 0. 0. 0. 0. 0. 0. 0. 0. 0. 0. 0. 0. 0. 0. 0. 0. 0.
      0. 0. 0. 0. 0. 0. 0. 0. 0. 0. 0. 0. 0. 0. 0. 0. 0. 0. 0. 0. 0. 0.
      0. 0. 0. 0. 0. 0. 0. 0. 0. 0. 0. 0. 0. 0. 0. 0. 0. 0. 0. 0. 0. 0.
      0. 0. 0. 0. 0. 0. 0. 0. 0. 0. 0. 0. 0. 0. 0. 0. 0. 0. 0. 0. 0. 0.
      0. 0. 0. 0. 0. 0. 0. 0. 0. 0. 0. 0. 0. 0. 0. 0. 0. 0. 0. 0. 0. 0.
      0. 0. 0. 0. 0. 0. 0. 0. 0. 0. 0. 0. 0. 0. 0. 0. 0. 0. 0. 0. 0. 0.
      0. 0. 0. 0. 0. 0. 0. 0. 0. 0. 0. 0. 0. 0. 0. 0. 0. 0. 0. 0. 0. 0.
      0. 0. 0. 0. 0. 0. 0. 0. 0. 0. 0. 0. 0. 0. 0. 0. 0. 0. 0. 0. 0. 0.
      0. 0. 0. 0. 0. 0. 0. 0. 0. 0. 0. 0. 0. 0. 0. 0. 0. 0. 0. 0. 0. 0.
      0. 0. 0. 0. 0. 0. 0. 0. 0. 0. 0. 0. 0. 0. 0. 0. 0. 0. 0. 0. 0. 0.
      0. 0. 0. 0. 0. 0. 0. 0. 0. 0. 0. 0. 0. 0. 0. 0. 0. 0. 0. 0. 0. 0.
      0. 0. 0. 0. 0. 0. 0. 0. 0. 0. 0. 0. 0. 0. 0. 0. 0. 0. 0. 0. 0. 0.
      0. 0. 0. 0. 0. 0. 0. 0. 0. 0. 0. 0. 0. 0. 0. 0. 0. 0. 0. 0. 0. 0.
      0. 0. 0. 0. 0. 0. 0. 0. 0. 0. 0. 0. 0. 0. 0. 0. 0. 0. 0. 0. 0. 0.
      0. 0. 0. 0. 0. 0. 0. 0. 0. 0. 0. 0. 0. 0. 0. 0. 0. 0. 0. 0. 0. 0.
      0. 0. 0. 0. 0. 0. 0. 0. 0. 0. 0. 0. 0. 0. 0. 0. 0. 0. 0. 0. 0. 0.
      0. 0. 0. 0. 0. 0. 0. 0. 0. 0. 0. 0. 0. 0. 0. 0. 0. 0. 0. 0. 0. 0.
      0. 0. 0. 0. 0. 0. 0. 0. 0. 0. 0. 0. 0. 0. 0. 0. 0. 0. 0. 0. 0. 0.
      0. 0. 0. 0. 0. 0. 0. 0. 0. 0. 0. 0. 0. 0. 0. 0. 0. 0. 0. 0. 0. 0.
      0. 0. 0. 0. 0. 0. 0. 0. 0. 0. 0. 0. 0. 0. 0. 0. 0. 0. 0. 0. 0. 0.
      0. 0. 0. 0. 0. 0. 0. 0. 0. 0. 0. 0. 0. 0. 0. 0. 0. 0. 0. 0. 0. 0.
      0. 0. 0. 0. 0. 0. 0. 0. 0. 0. 0. 0. 0. 0. 0. 0. 0. 0. 0. 0. 0. 0.
      0. 0. 0. 0. 0. 0. 0. 0. 0. 0. 0. 0. 0. 0. 0. 0. 0. 0. 0. 0. 0. 0.
      0. 0. 0. 0. 0. 0. 0. 0. 0. 0. 0. 0. 0. 0. 0. 0. 0. 0. 0. 0. 0. 0.
      0. 0. 0. 0. 0. 0. 0. 0. 0. 0. 0. 0. 0. 0. 0. 0. 0. 0. 0. 0. 0. 0.
      0. 0. 0. 0. 0. 0. 0. 0. 0. 0. 0. 0. 0. 0. 0. 0. 0. 0. 0. 0. 0. 0.
      0. 0. 0. 0. 0. 0. 0. 0. 0. 0. 0. 0. 0. 0. 0. 0. 0. 0. 0. 0. 0. 0.
      0. 0. 0. 0. 0. 0. 0. 0. 0. 0. 0. 0. 0. 0. 0. 0. 0. 0. 0. 0. 0. 0.
      0. 0. 0. 0. 0. 0. 0. 0. 0. 0. 0. 0. 0. 0. 0. 0. 0. 0. 0. 0. 0. 0.
      0. 0. 0. 0. 0. 0. 0. 0. 0. 0. 0. 0. 0. 0. 0. 0. 0. 0. 0. 0. 0. 0.
      0. 0. 0. 0. 0. 0. 0. 0. 0. 0. 0. 0. 0. 0. 0. 0. 0. 0. 0. 0. 0. 0.
      0. 0. 0. 0. 0. 0. 0. 0. 0. 0. 0. 0. 0. 0. 0. 0. 0. 0. 0. 0. 0. 0.
      0. 0. 0. 0. 0. 0. 0. 0. 0. 0. 0. 0. 0. 0. 0. 0. 0. 0. 0. 0. 0. 0.
      0. 0. 0. 0. 0. 0. 0. 0. 0. 0. 0. 0. 0. 0. 0. 0. 0. 0. 0. 0. 0. 0.
      0. 0. 0. 0. 0. 0. 0. 0. 0. 0. 0. 0. 0. 0. 0. 0. 0. 0. 0. 0. 0. 0.
      0. 0. 0. 0. 0. 0. 0. 0. 0. 0. 0. 0. 0. 0. 0. 0. 0. 0. 0. 0. 0. 0.
      0. 0. 0. 0. 0. 0. 0. 0. 0. 0. 0. 0. 0. 0. 0. 0. 0. 0. 0. 0. 0. 0.
      0. 0. 0. 0. 0. 0. 0. 0. 0. 0. 0. 0. 0. 0. 0. 0. 0. 0. 0. 0. 0. 0.
      0. 0. 0. 0. 0. 0. 0. 0. 0. 0. 0. 0. 0. 0. 0. 0. 0. 0. 0. 0. 0. 0.
      0. 0. 0. 0. 0. 0. 0. 0. 0. 0. 0. 0. 0. 0. 0. 0. 0. 0. 0. 0. 0. 0.
      0. 0. 0. 0. 0. 0. 0. 0. 0. 0. 0. 0. 0. 0. 0. 0. 0. 0. 0. 0. 0. 0.
      0. 0. 0. 0. 0. 0. 0. 0. 0. 0. 0. 0. 0. 0. 0. 0. 0. 0. 0. 0. 0. 0.
      0. 0. 0. 0. 0. 0. 0. 0. 0. 0. 0. 0. 0. 0. 0. 0. 0. 0. 0. 0. 0. 0.
      0. 0. 0. 0. 0. 0. 0. 0. 0. 0. 0. 0. 0. 0. 0. 0. 0. 0. 0. 0. 0. 0.
      0. 0. 0. 0. 0. 0. 0. 0. 0. 0. 0. 0. 0. 0. 0. 0. 0. 0. 0. 0. 0. 0.
      0. 0. 0. 0. 0. 0. 0. 0. 0. 0. 0. 0. 0. 0. 0. 0. 0. 0. 0. 0. 0. 0.
      0. 0. 0. 0. 0. 0. 0. 0. 0. 0. 0. 0. 0. 0. 0. 0. 0. 0. 0. 0. 0. 0.
      0. 0. 0. 0. 0. 0. 0. 0. 0. 0. 0. 0. 0. 0. 0. 0. 0. 0. 0. 0. 0. 0.
      0. 0. 0. 0. 0. 0. 0. 0. 0. 0. 0. 0. 0. 0. 0. 0. 0. 0. 0. 0. 0. 0.
      0. 0. 0. 0. 0. 0. 0. 0. 0. 0. 0. 0. 0. 0. 0. 0. 0. 0. 0. 0. 0. 0.
      0. 0. 0. 0. 0. 0. 0. 0. 0. 0. 0. 0. 0. 0. 0. 0. 0. 0. 0. 0. 0. 0.
      0. 0. 0. 0. 0. 0. 0. 0. 0. 0. 0. 0. 0. 0. 0. 0. 0. 0. 0. 0. 0. 0.
      0. 0. 0. 0. 0. 0. 0. 0. 0. 0. 0. 0. 0. 0. 0. 0. 0. 0. 0. 0. 0. 0.
      0. 0. 0. 0. 0. 0. 0. 0. 0. 0. 0. 0. 0. 0. 0. 0. 0. 0. 0. 0. 0. 0.
      0. 0. 0. 0. 0. 0. 0. 0. 0. 0. 0. 0. 0. 0. 0. 0. 0. 0. 0. 0. 0. 0.
      0. 0. 0. 0. 0. 0. 0. 0. 0. 0. 0. 0. 0. 0. 0. 0. 0. 0. 0. 0. 0. 0.
      0. 0. 0. 0. 0. 0. 0. 0. 0. 0. 0. 0. 0. 0. 0. 0. 0. 0. 0. 0. 0. 0.
      0. 0. 0. 0. 0. 0. 0. 0. 0. 0. 0. 0. 0. 0. 0. 0. 0. 0. 0. 0. 0. 0.
      0. 0. 0. 0. 0. 0. 0. 0. 0. 0. 0. 0. 0. 0. 0. 0. 0. 0. 0. 0. 0. 0.
      0. 0. 0. 0. 0. 0. 0. 0. 0. 0. 0. 0. 0. 0. 0. 0. 0. 0. 0. 0. 0. 0.
      0. 0. 0. 0. 0. 0. 0. 0. 0. 0. 0. 0. 0. 0. 0. 0. 0. 0. 0. 0. 0. 0.
      0. 0. 0. 0. 0. 0. 0. 0. 0. 0. 0. 0. 0. 0. 0. 0. 0. 0. 0. 0. 0. 0.
      0. 0. 0. 0. 0. 0. 0. 0. 0. 0. 0. 0. 0. 0. 0. 0. 0. 0. 0. 0. 0. 0.
      0. 0. 0. 0. 0. 0. 0. 0. 0. 0. 0. 0. 0. 0. 0. 0. 0. 0. 0. 0. 0. 0.
      0. 0. 0. 0. 0. 0. 0. 0. 0. 0. 0. 0. 0. 0. 0. 0. 0. 0. 0. 0. 0. 0.
      0. 0. 0. 0. 0. 0. 0. 0. 0. 0. 0. 0. 0. 0. 0. 0. 0. 0. 0. 0. 0. 0.
      0. 0. 0. 0. 0. 0. 0. 0. 0. 0. 0. 0. 0. 0. 0. 0. 0. 0. 0. 0. 0. 0.
      0. 0. 0. 0. 0. 0. 0. 0. 0. 0. 0. 0. 0. 0. 0. 0. 0. 0. 0. 0. 0. 0.
      0. 0. 0. 0. 0. 0. 0. 0. 0. 0. 0. 0. 0. 0. 0. 0. 0. 0. 0. 0. 0. 0.
      0. 0. 0. 0. 0. 0. 0. 0. 0. 0. 0. 0. 0. 0. 0. 0. 0. 0. 0. 0. 0. 0.
      0. 0. 0. 0. 0. 0. 0. 0. 0. 0. 0. 0. 0. 0. 0. 0. 0. 0. 0. 0. 0. 0.
      0. 0. 0. 0. 0. 0. 0. 0. 0. 0. 0. 0. 0. 0. 0. 0. 0. 0. 0. 0. 0. 0.
      0. 0. 0. 0. 0. 0. 0. 0. 0. 0. 0. 0. 0. 0. 0. 0. 0. 0. 0. 0. 0. 0.
      0. 0. 0. 0. 0. 0. 0. 0. 0. 0. 0. 0. 0. 0. 0. 0. 0. 0. 0. 0. 0. 0.
      0. 0. 0. 0. 0. 0. 0. 0. 0. 0. 0. 0. 0. 0. 0. 0. 0. 0. 0. 0. 0. 0.
      0. 0. 0. 0. 0. 0. 0. 0. 0. 0. 0. 0. 0. 0. 0. 0. 0. 0. 0. 0. 0. 0.
      0. 0. 0. 0. 0. 0. 0. 0. 0. 0. 0. 0. 0. 0. 0. 0. 0. 0. 0. 0. 0. 0.
      0. 0. 0. 0. 0. 0. 0. 0. 0. 0. 0. 0. 0. 0. 0. 0. 0. 0. 0. 0. 0. 0.
      0. 0. 0. 0. 0. 0. 0. 0. 0. 0. 0. 0. 0. 0. 0. 0. 0. 0. 0. 0. 0. 0.
      0. 0. 0. 0. 0. 0. 0. 0. 0. 0. 0. 0. 0. 0. 0. 0. 0. 0. 0. 0. 0. 0.
      0. 0. 0. 0. 0. 0. 0. 0. 0. 0. 0. 0. 0. 0. 0. 0. 0. 0. 0. 0. 0. 0.
      0. 0. 0. 0. 0. 0. 0. 0. 0. 0. 0. 0. 0. 0. 0. 0. 0. 0. 0. 0. 0. 0.
      0. 0. 0. 0. 0. 0. 0. 0. 0. 0. 0. 0. 0. 0. 0. 0. 0. 0. 0. 0. 0. 0.
      0. 0. 0. 0. 0. 0. 0. 0. 0. 0. 0. 0. 0. 0. 0. 0. 0. 0. 0. 0. 0. 0.
      0. 0. 0. 0. 0. 0. 0. 0. 0. 0. 0. 0. 0. 0. 0. 0. 0. 0. 0. 0. 0. 0.
      0. 0. 0. 0. 0. 0. 0. 0. 0. 0. 0. 0. 0. 0. 0. 0. 0. 0. 0. 0. 0. 0.
      0. 0. 0. 0. 0. 0. 0. 0. 0. 0. 0. 0. 0. 0. 0. 0. 0. 0. 0. 0. 0. 0.
      0. 0. 0. 0. 0. 0. 0. 0. 0. 0. 0. 0. 0. 0. 0. 0. 0. 0. 0. 0. 0. 0.
      0. 0. 0. 0. 0. 0. 0. 0. 0. 0. 0. 0. 0. 0. 0. 0. 0. 0. 0. 0. 0. 0.
      0. 0. 0. 0. 0. 0. 0. 0. 0. 0. 0. 0. 0. 0. 0. 0. 0. 0. 0. 0. 0. 0.
      0. 0. 0. 0. 0. 0. 0. 0. 0. 0. 0. 0. 0. 0. 0. 0. 0. 0. 0. 0. 0. 0.
      0. 0. 0. 0. 0. 0. 0. 0. 0. 0. 0. 0. 0. 0. 0. 0. 0. 0. 0. 0. 0. 0.
      0. 0. 0. 0. 0. 0. 0. 0. 0. 0. 0. 0. 0. 0. 0. 0. 0. 0. 0. 0. 0. 0.
      0. 0. 0. 0. 0. 0. 0. 0. 0. 0. 0. 0. 0. 0. 0. 0. 0. 0. 0. 0. 0. 0.
      0. 0. 0. 0. 0. 0. 0. 0. 0. 0. 0. 0. 0. 0. 0. 0. 0. 0. 0. 0. 0. 0.
      0. 0. 0. 0. 0. 0. 0. 0. 0. 0. 0. 0. 0. 0. 0. 0. 0. 0. 0. 0. 0. 0.
      0. 0. 0. 0. 0. 0. 0. 0. 0. 0. 0. 0. 0. 0. 0. 0. 0. 0. 0. 0. 0. 0.
      0. 0. 0. 0. 0. 0. 0. 0. 0. 0. 0. 0. 0. 0. 0. 0. 0. 0. 0. 0. 0. 0.
      0. 0. 0. 0. 0. 0. 0. 0. 0. 0. 0. 0. 0. 0. 0. 0. 0. 0. 0. 0. 0. 0.
      0. 0. 0. 0. 0. 0. 0. 0. 0. 0. 0. 0. 0. 0. 0. 0. 0. 0. 0. 0. 0. 0.
      0. 0. 0. 0. 0. 0. 0. 0.</_>
    <_>
      0. 0. 0. 0. 0. 1.63398695e-003 0. 0. 0. 0. 0. 0. 0. 0. 0. 0. 0. 0.
      0. 0. 0. 0. 0. 0. 0. 0. 0. 0. 0. 0. 0. 0. 0. 0. 1.63398695e-003
      1.63398695e-003 0. 0. 0. 0. 0. 0. 0. 0. 0. 1.63398695e-003 0.
      1.63398695e-003 0. 0. 0. 0. 0. 0. 0. 0. 0. 0. 0. 0. 0. 0. 0. 0. 0.
      0. 0. 0. 0. 0. 0. 0. 0. 0. 0. 1.63398695e-003 0. 3.26797389e-003
      0. 0. 0. 0. 0. 0. 0. 1.63398695e-003 0. 0. 0. 0. 0. 0.
      1.63398695e-003 0. 0. 0. 0. 0. 1.63398695e-003 0. 0. 0. 0. 0. 0.
      0. 4.90196096e-003 0. 0. 0. 0. 0. 0. 0. 0. 0. 0. 0. 0. 0. 0.
      1.63398695e-003 0. 1.63398695e-003 0. 0. 0. 0. 0. 0.
      1.63398695e-003 0. 0. 0. 0. 0. 0. 0. 0. 1.63398695e-003 0. 0. 0.
      0. 0. 0. 0. 0. 0. 0. 0. 0. 0. 0. 0. 0. 0. 0. 0. 0. 0. 0. 0. 0. 0.
      0. 0. 0. 0. 0. 0. 0. 0. 0. 0. 0. 0. 8.16993508e-003 0.
      4.90196096e-003 0. 0. 0. 0. 0. 0. 0. 0. 0. 0. 0. 0. 0. 0. 0. 0. 0.
      0. 0. 0. 0. 0. 0. 0. 0. 0. 0. 0. 0. 0. 1.63398695e-003 0.
      1.63398695e-003 0. 0. 0. 0. 0. 0. 0. 1.63398695e-003
      6.53594779e-003 0. 0. 0. 0. 0. 4.90196096e-003 0. 0. 0.
      1.63398695e-003 0. 0. 0. 0. 0. 0. 0. 0. 0. 0. 3.26797389e-003 0.
      0. 3.26797389e-003 0. 0. 0. 1.63398695e-003 0. 0. 0. 0. 0. 0. 0.
      0. 0. 0. 0. 0. 3.26797389e-003 0. 0. 0. 1.63398695e-003 0. 0. 0.
      0. 0. 0. 0. 0. 0. 0. 0. 0. 0. 0. 1.63398695e-003 0. 0. 0. 0. 0.
      1.63398695e-003 4.90196096e-003 0. 0. 0. 0. 0. 3.26797389e-003 0.
      0. 0. 0. 0. 0. 1.63398695e-003 0. 0. 0. 0. 0. 0. 1.63398695e-003
      1.63398695e-003 0. 0. 0. 1.63398695e-003 0. 0. 0. 0. 0. 0. 0. 0.
      0. 0. 0. 0. 0. 0. 0. 0. 0. 0. 0. 0. 0. 0. 0. 0. 0. 0. 0.
      6.53594779e-003 0. 0. 0. 0. 0. 0. 0. 0. 0. 0. 0. 0. 0. 0. 0. 0.
      1.63398695e-003 0. 0. 0. 0. 0. 0. 0. 0. 0. 3.26797389e-003 0. 0.
      0. 0. 0. 0. 0. 0. 0. 0. 0. 0. 0. 0. 0. 0. 4.90196096e-003 0. 0. 0.
      0. 0. 0. 0. 3.26797389e-003 0. 0. 0. 0. 0. 0. 0. 1.63398695e-003
      0. 0. 0. 0. 0. 0. 0. 0. 0. 1.63398695e-003 0. 0. 0.
      1.63398695e-003 0. 1.63398695e-003 0. 0. 0. 0. 0. 1.63398695e-003
      0. 0. 0. 3.26797389e-003 0. 0. 0. 0. 0. 4.90196096e-003 0. 0. 0.
      0. 3.26797389e-003 0. 0. 0. 0. 4.90196096e-003 0. 0. 0. 0. 0. 0.
      0. 0. 3.26797389e-003 0. 3.26797389e-003 1.63398695e-003 0. 0. 0.
      0. 0. 0. 0. 0. 0. 0. 0. 0. 0. 0. 0. 0. 0. 0. 0. 0. 0. 0. 0. 0. 0.
      0. 0. 0. 0. 0. 0. 0. 0. 0. 0. 0. 0. 0. 0. 0. 1.63398695e-003 0. 0.
      0. 0. 0. 1.63398695e-003 0. 0. 0. 0. 0. 0. 0. 0. 0. 0. 0. 0. 0. 0.
      0. 0. 1.63398695e-003 0. 0. 0. 0. 0. 0. 0. 0. 0. 0.
      3.26797389e-003 0. 0. 0. 0. 0. 0. 0. 0. 0. 1.63398695e-003 0. 0.
      0. 0. 0. 0. 0. 0. 0. 0. 0. 0. 0. 0. 0. 0. 0. 3.75817008e-002 0. 0.
      0. 0. 0. 0. 0. 1.63398695e-003 1.63398695e-003 0. 1.63398695e-003
      0. 0. 0. 0. 0. 0. 0. 0. 0. 0. 1.63398695e-003 0. 0. 0. 0. 0.
      3.26797389e-003 3.26797389e-003 3.26797389e-003 0. 3.26797389e-003
      6.53594779e-003 0. 0. 0. 0. 0. 3.26797389e-003 0. 0. 0. 0. 0. 0.
      0. 0. 0. 0. 0. 0. 0. 0. 0. 0. 0. 0. 0. 0. 0. 0. 0. 0. 0. 0. 0. 0.
      0. 0. 0. 0. 0. 0. 0. 0. 0. 0. 0. 0. 0. 4.90196096e-003 0. 0. 0. 0.
      0. 0. 0. 0. 1.63398695e-003 0. 0. 0. 0. 3.26797389e-003 0. 0. 0.
      0. 1.63398695e-003 0. 0. 0. 0. 0. 0. 0. 0. 0. 0. 0. 0. 0. 0. 0. 0.
      0. 0. 0. 0. 0. 0. 0. 0. 0. 0. 0. 0. 0. 0. 0. 0. 0. 0.
      4.90196096e-003 0. 0. 0. 0. 0. 4.90196096e-003 0. 0. 0. 0.
      1.63398695e-003 0. 0. 0. 0. 1.63398695e-003 0. 0. 1.63398695e-003
      0. 0. 0. 0. 0. 0. 1.63398695e-003 0. 0. 0. 3.26797389e-003 0. 0.
      0. 0. 1.63398695e-003 0. 0. 0. 0. 0. 0. 0. 0. 0. 0. 0. 0. 0. 0.
      3.26797389e-003 0. 0. 0. 0. 1.63398695e-003 0. 0. 0. 0. 0. 0. 0.
      0. 1.63398695e-003 0. 0. 0. 0. 0. 0. 0. 0. 1.63398695e-003 0. 0.
      0. 0. 0. 4.90196096e-003 0. 0. 0. 0. 0. 0. 0. 0. 0. 0. 0.
      4.90196096e-003 0. 0. 0. 0. 1.63398695e-003 0. 0. 0. 0. 0.
      1.63398695e-003 0. 0. 0. 0. 1.63398695e-003 0. 0. 0. 0. 0. 0. 0.
      0. 0. 0. 0. 0. 1.63398695e-003 0. 0. 0. 0. 0. 0. 0. 0. 0.
      1.63398695e-003 1.63398695e-003 0. 1.63398695e-003 0.
      3.26797389e-003 0. 0. 0. 0. 0. 0. 1.63398695e-003 0. 0. 0.
      3.26797389e-003 0. 1.63398695e-003 0. 0. 0. 0. 0. 0. 0. 0. 0.
      1.63398695e-003 0. 0. 0. 0. 0. 0. 0. 0. 0. 0. 0. 0. 0. 0.
      1.63398695e-003 1.14379087e-002 0. 0. 1.63398695e-003 0. 0. 0. 0.
      3.26797389e-003 0. 0. 0. 0. 0. 1.63398695e-003 1.63398695e-003 0.
      0. 0. 0. 0. 0. 0. 0. 0. 0. 0. 0. 0. 0. 0. 9.80392192e-003 0.
      1.63398695e-003 0. 0. 0. 0. 0. 0. 0. 0. 0. 0. 0. 0. 0. 0.
      9.80392192e-003 0. 0. 0. 0. 1.63398695e-003 0. 1.63398695e-003 0.
      0. 0. 0. 0. 0. 0. 0. 1.63398695e-003 0. 0. 1.63398695e-003 0.
      1.63398695e-003 0. 0. 0. 0. 4.90196096e-003 0. 0. 0. 0.
      1.63398695e-003 0. 0. 0. 0. 0. 0. 0. 0. 0. 3.26797389e-003 0. 0.
      4.90196096e-003 0. 0. 0. 0. 1.63398695e-003 0. 0. 0. 0. 0.
      3.26797389e-003 0. 0. 0. 0. 0. 0. 0. 0. 1.63398695e-003 0. 0. 0.
      0. 0. 0. 0. 0. 0. 0. 0. 1.63398695e-003 1.63398695e-003 0. 0. 0.
      0. 0. 0. 0. 0. 0. 1.63398695e-003 0. 0. 0. 0. 1.63398695e-003 0.
      0. 0. 0. 1.63398695e-003 0. 0. 0. 0. 0. 0. 0. 0. 0. 0. 0. 0. 0. 0.
      0. 0. 0. 0. 0. 0. 1.63398695e-003 0. 0. 0. 0. 0. 0. 0. 0. 0. 0. 0.
      1.63398695e-003 0. 0. 0. 0. 0. 0. 0. 0. 0. 0. 0. 0. 0. 0. 0. 0. 0.
      0. 0. 0. 0. 0. 0. 0. 0. 0. 0. 1.63398695e-003 0. 0. 0. 0. 0. 0. 0.
      0. 0. 0. 1.63398695e-003 0. 0. 0. 1.63398695e-003 0. 0. 0. 0.
      1.63398695e-003 0. 0. 0. 0. 0. 0. 0. 0. 0. 0. 0. 0. 0. 0. 0. 0. 0.
      0. 0. 0. 0. 0. 0. 0. 0. 0. 0. 1.63398695e-003 0. 0. 0. 0. 0. 0. 0.
      0. 0. 3.26797389e-003 1.63398695e-003 0. 0. 0. 0. 0. 0. 0. 0. 0.
      0. 0. 0. 0. 0. 0. 0. 0. 0. 0. 0. 0. 3.26797389e-003 0.
      1.63398695e-003 0. 1.63398695e-003 0. 0. 0. 0. 0. 0. 0.
      3.26797389e-003 0. 0. 0. 0. 0. 0. 0. 0. 0. 1.63398695e-003 0.
      1.63398695e-003 1.63398695e-003 0. 0. 0. 0. 0. 0. 0. 0. 0. 0.
      3.26797389e-003 0. 0. 0. 0. 0. 0. 1.63398695e-003 1.63398695e-003
      0. 0. 0. 0. 0. 3.26797389e-003 0. 0. 0. 0. 3.26797389e-003 0. 0.
      3.26797389e-003 0. 0. 0. 0. 0. 0. 0. 0. 0. 1.63398695e-003 0. 0.
      0. 0. 0. 0. 0. 0. 0. 0. 1.63398695e-003 0. 0. 0. 0. 0. 0. 0. 0. 0.
      0. 0. 1.63398695e-003 0. 0. 1.63398695e-003 0. 0. 0. 0. 0. 0. 0.
      0. 0. 0. 0. 0. 0. 0. 0. 0. 0. 0. 0. 0. 0. 0. 0. 0. 1.63398695e-003
      0. 1.63398695e-003 0. 0. 0. 0. 0. 0. 0. 9.80392192e-003 0. 0. 0.
      0. 0. 0. 0. 0. 0. 0. 0. 0. 0. 0. 0. 0. 0. 0. 0. 0. 0. 0. 0. 0. 0.
      0. 1.63398695e-003 0. 0. 0. 0. 1.63398695e-003 0. 0. 0. 0. 0. 0.
      0. 0. 0. 1.63398695e-003 0. 0. 1.63398695e-003 0. 0. 0. 0. 0. 0.
      0. 0. 0. 0. 0. 0. 3.26797389e-003 0. 0. 0. 0. 0. 0. 0. 0. 0. 0. 0.
      0. 0. 0. 0. 0. 0. 0. 0. 0. 1.63398695e-003 1.63398695e-003 0. 0.
      0. 0. 0. 0. 0. 0. 0. 0. 0. 0. 0. 0. 0. 0. 8.16993508e-003 0. 0. 0.
      0. 0. 0. 0. 0. 1.63398695e-003 0. 0. 0. 0. 0. 0. 0. 0.
      1.63398695e-003 0. 1.63398695e-003 0. 0. 8.16993508e-003 0. 0. 0.
      0. 0. 0. 0. 0. 0. 0. 0. 0. 0. 1.63398695e-003 0. 0. 0. 0. 0. 0. 0.
      0. 0. 0. 0. 0. 1.63398695e-003 0. 0. 0. 1.63398695e-003 0. 0. 0.
      0. 0. 0. 0. 0. 0. 0. 0. 1.63398695e-003 0. 0. 0. 0. 0. 0. 0. 0. 0.
      1.63398695e-003 0. 0. 0. 0. 0. 0. 0. 0. 0. 8.16993508e-003 0.
      1.63398695e-003 0. 6.53594779e-003 0. 0. 0. 1.63398695e-003 0. 0.
      0. 0. 0. 0. 0. 0. 0. 3.26797389e-003 0. 0. 0. 0. 0. 0. 0. 0. 0. 0.
      0. 0. 1.63398695e-003 0. 1.63398695e-003 0. 0. 0. 0. 0.
      1.63398695e-003 1.63398695e-003 1.63398695e-003 1.63398695e-003
      1.63398695e-003 0. 0. 0. 0. 0. 0. 0. 0. 0. 0. 0. 0. 0. 0. 0. 0. 0.
      0. 0. 0. 0. 0. 0. 0. 0. 0. 0. 0. 1.63398695e-003 1.63398695e-003
      0. 0. 0. 0. 0. 0. 0. 1.63398695e-003 1.63398695e-003 0. 0. 0. 0.
      0. 0. 0. 0. 0. 0. 0. 0. 0. 0. 0. 1.63398695e-003 0. 0. 0. 0. 0. 0.
      0. 0. 0. 0. 0. 1.63398695e-003 0. 3.26797389e-003 0. 0. 0. 0. 0.
      3.26797389e-003 0. 0. 0. 0. 0. 0. 0. 1.63398695e-003 0. 0. 0. 0.
      0. 0. 0. 0. 0. 0. 0. 0. 1.63398695e-003 0. 0. 1.63398695e-003 0.
      0. 0. 0. 0. 0. 0. 0. 0. 0. 0. 1.63398695e-003 0. 0. 0. 0. 0. 0. 0.
      0. 0. 0. 0. 0. 0. 0. 0. 0. 0. 0. 4.90196096e-003 0. 0. 0. 0. 0. 0.
      0. 0. 0. 0. 0. 6.53594779e-003 0. 0. 1.63398695e-003 0. 0.
      1.63398695e-003 0. 0. 0. 0. 0. 1.63398695e-003 0. 0.
      1.63398695e-003 1.63398695e-003 0. 1.63398695e-003 0. 0. 0. 0.
      1.63398695e-003 0. 0. 0. 0. 0. 0. 0. 0. 0. 0. 0. 0. 0. 0. 0. 0. 0.
      0. 0. 0. 0. 0. 0. 0. 0. 0. 0. 0. 0. 0. 0. 0. 0. 0. 0.
      1.63398695e-003 0. 0. 0. 0. 0. 1.63398695e-003 0. 0. 0. 0. 0. 0.
      0. 0. 0. 0. 0. 0. 0. 0. 0. 0. 0. 0. 3.26797389e-003 0. 0. 0. 0.
      1.63398695e-003 0. 0. 0. 0. 0. 1.63398695e-003 0. 0.
      1.63398695e-003 0. 1.63398695e-003 0. 0. 0. 0. 0. 0. 0. 0. 0.
      3.26797389e-003 0. 0. 0. 0. 0. 0. 0. 0. 0. 0. 0. 0. 0.
      1.63398695e-003 0. 0. 0. 1.63398695e-003 3.26797389e-003 0. 0. 0.
      0. 6.53594779e-003 0. 0. 0. 0. 0. 0. 0. 0. 0. 0. 0. 0.
      2.94117648e-002 0. 0. 0. 0. 0. 0. 0. 0. 0. 1.63398695e-003 0. 0.
      0. 0. 0. 0. 0. 0. 0. 0. 0. 0. 0. 0. 0. 0. 0. 1.63398695e-003 0. 0.
      0. 0. 0. 0. 0. 0. 0. 0. 0. 0. 0. 0. 0. 0. 0. 0. 0. 0. 0. 0. 0. 0.
      0. 0. 0. 0. 0. 0. 0. 0. 0. 0. 0. 0. 0. 0. 0. 0. 0. 0. 0. 0. 0. 0.
      0. 0. 0. 0. 0. 0. 0. 1.63398695e-003 0. 0. 0. 0. 0. 0. 0. 0. 0. 0.
      0. 0. 0. 0. 0. 0. 0. 0. 0. 0. 0. 0. 0. 0. 0. 0. 0. 0. 0. 0. 0. 0.
      0. 0. 0. 0. 0. 0. 1.63398695e-003 0. 0. 0. 0. 0. 0.
      1.63398695e-003 0. 0. 0. 0. 0. 0. 1.63398695e-003 0.
      1.30718956e-002 0. 0. 0. 0. 1.63398695e-003 0. 0. 0. 0. 0. 0. 0.
      0. 0. 0. 0. 0. 0. 0. 0. 0. 0. 0. 0. 0. 0. 0. 0. 0. 0. 0. 0.
      4.90196096e-003 0. 0. 0. 0. 0. 0. 8.16993508e-003 0. 0. 0. 0. 0.
      0. 0. 0. 0. 0. 0. 0. 0. 1.63398695e-003 0. 3.26797389e-003 0. 0.
      2.28758175e-002 0. 0. 0. 0. 0. 0. 0. 0. 0. 0. 0. 0.
      1.63398695e-003 0. 0. 0. 0. 0. 1.63398695e-003 0. 0. 0. 0. 0.
      3.26797389e-003 0. 9.80392192e-003 0. 0. 1.63398695e-003 0. 0. 0.
      0. 0. 0. 1.63398695e-003 9.80392192e-003 0. 0. 0. 0. 0. 0. 0. 0.
      0. 0. 0. 0. 0. 0. 0. 0. 0. 3.26797389e-003 0. 0. 0. 0. 0. 0. 0. 0.
      0. 0. 1.63398695e-003 0. 1.63398695e-003 0. 0. 0. 0. 0. 0. 0. 0.
      3.26797389e-003 0. 3.26797389e-003 0. 0. 0. 0. 0. 1.63398695e-003
      1.63398695e-003 0. 0. 0. 0. 0. 0. 0. 0. 0. 1.63398695e-003 0. 0.
      0. 0. 1.63398695e-003 0. 0. 0. 0. 0. 0. 0. 0. 0. 0. 0. 0. 0. 0. 0.
      0. 0. 0. 0. 0. 0. 0. 0. 0. 0. 0. 1.63398695e-003 0. 0. 0. 0. 0. 0.
      0. 0. 0. 0. 0. 0. 0. 0. 0. 1.63398695e-003 0. 0. 0. 0. 0. 0. 0. 0.
      0. 0. 0. 0. 0. 0. 0. 0. 0. 1.63398695e-003 0. 0. 0. 0. 0. 0. 0. 0.
      0. 0. 0. 0. 1.63398695e-003 0. 0. 0. 3.26797389e-003 0. 0. 0. 0.
      0. 0. 0. 0. 0. 1.63398695e-003 0. 0. 0. 0. 0. 0. 0.
      1.63398695e-003 0. 3.26797389e-003 0. 0. 0. 0. 0. 0. 0. 0. 0. 0.
      0. 0. 3.26797389e-003 0. 0. 1.63398695e-003 0. 0. 0. 0.
      1.63398695e-003 0. 0. 0. 0. 0. 0. 0. 0. 6.53594779e-003 0. 0. 0.
      0. 0. 0. 1.63398695e-003 0. 0. 0. 1.63398695e-003 0. 0. 0. 0. 0.
      0. 0. 0. 0. 0. 0. 0. 0. 0. 0. 0. 0. 0. 0. 0. 0. 0. 0. 0. 0. 0. 0.
      1.63398695e-003 0. 0. 0. 0. 1.63398695e-003 0. 0. 0.
      3.26797389e-003 0. 0. 0. 0. 0. 1.63398695e-003 0. 0. 0.
      1.63398695e-003 0. 0. 0. 1.63398695e-003 0. 0. 0. 0. 0. 0. 0. 0.
      3.26797389e-003 0. 0. 0. 0. 0. 0. 0. 1.63398695e-003 0. 0. 0. 0.
      0. 0. 0. 0. 0. 0. 0. 0. 0. 0. 0. 0. 0. 0. 0. 0. 0. 0. 0. 0. 0. 0.
      1.63398695e-003 0. 0. 0. 0. 0. 1.63398695e-003 0. 0. 0. 0. 0. 0.
      0. 0. 0. 0. 0. 1.63398695e-003 0. 0. 0. 0. 0. 0. 0. 0. 0. 0. 0. 0.
      0. 0. 1.63398695e-003 0. 0. 0. 6.53594779e-003 0. 0.
      3.26797389e-003 0. 0. 0. 1.63398695e-003 3.26797389e-003 0.
      1.63398695e-003 0. 0. 0. 0. 0. 0. 0. 0. 0. 0. 0. 0. 0. 0. 0. 0. 0.
      0. 0. 0. 0. 0. 1.63398695e-003 0. 0. 0. 1.63398695e-003 0. 0. 0.
      0. 0. 0. 0. 0. 0. 0. 8.16993508e-003 0. 0. 0. 0. 1.63398695e-003
      0. 0. 0. 0. 0. 0. 0. 0. 0. 0. 0. 0. 0. 0. 0. 0. 0. 0. 0. 0. 0. 0.
      0. 0. 0. 0. 0. 0. 0. 0. 0. 0. 0. 1.63398695e-003 0. 0. 0. 0. 0. 0.
      0. 0. 3.26797389e-003 1.63398695e-003 0. 0. 0. 0. 0. 0. 0.
      3.26797389e-003 0. 0. 0. 0. 0. 0. 0. 0. 1.63398695e-003 0. 0.
      1.63398695e-003 0. 0. 0. 0. 0. 0. 0. 0. 3.26797389e-003 0. 0. 0.
      8.16993508e-003 0. 1.63398695e-003 0. 0. 0. 0. 0. 0. 0. 0. 0. 0.
      0. 0. 1.63398695e-003 0. 0. 0. 1.63398695e-003 0. 0.
      1.63398695e-003 0. 0. 0. 0. 0. 0. 0. 0. 0. 0. 0. 0. 0.
      1.63398695e-003 0. 0. 0. 0. 0. 0. 0. 0. 0. 0. 0. 0. 0. 0. 0. 0. 0.
      0. 0. 0. 0. 0. 0. 0. 9.80392192e-003 0. 0. 0. 0. 0. 0. 0.
      1.63398695e-003 0. 0. 0. 0. 0. 0. 0. 0. 0. 0. 1.63398695e-003 0.
      0. 0. 0. 0. 0. 0. 0. 1.63398695e-003 0. 0. 0. 0. 0. 0. 0. 0. 0. 0.
      0. 0. 0. 0. 0. 0. 0. 0. 0. 0. 0. 0. 1.63398695e-003 0. 0. 0. 0. 0.
      0. 0. 0. 0. 0. 0. 0. 0. 0. 0. 0. 0. 1.63398695e-003 0. 0. 0. 0. 0.
      0. 0. 0. 0. 0. 0. 0. 0. 0. 0. 0. 0. 0. 1.63398695e-003 0. 0. 0.
      3.26797389e-003 0. 0. 0. 0. 0. 0. 0. 0. 0. 0. 0. 0. 0. 0. 0. 0. 0.
      0. 0. 0. 1.63398695e-003 0. 0. 0. 0. 0. 0. 0. 0. 0. 0. 0. 0. 0. 0.
      0. 4.24836613e-002 1.63398695e-003 0. 0. 0. 0. 0. 0. 0. 0. 0.
      1.63398695e-003 0. 0. 0. 0. 3.26797389e-003 0. 0. 0. 0. 0. 0. 0.
      0. 0. 0. 0. 0. 0. 0. 0. 0. 1.63398695e-003 0. 0. 0. 0. 0. 0. 0. 0.
      0. 0. 0. 0. 0. 0. 0. 0. 0. 0. 0. 0. 0. 0. 0. 4.90196096e-003
      1.63398695e-003 1.63398695e-003 0. 0. 0. 0. 0. 0. 0.
      1.63398695e-003 0. 0. 1.63398695e-003 1.63398695e-003 0. 0. 0. 0.
      0. 3.26797389e-003 0. 0. 0. 0. 0. 0. 1.63398695e-003 0. 0. 0. 0.
      0. 0. 0. 0. 0. 0. 0. 0. 0. 3.26797389e-003 0. 0. 0. 0. 0. 0. 0. 0.
      0. 0. 1.63398695e-003 0. 0. 0. 0. 0. 0. 0. 0. 0. 0. 0.
      1.63398695e-003 0. 0. 1.63398695e-003 0. 0. 0. 0. 1.63398695e-003
      0. 0. 0. 0. 0. 1.63398695e-003 0. 0. 0. 0. 0. 0. 0. 0. 0. 0. 0. 0.
      0. 0. 0. 0. 1.63398695e-003 0. 0. 0. 0. 0. 0. 0. 1.63398695e-003
      0. 0. 0. 0. 0. 0. 0. 0. 0. 0. 0. 0. 0. 0. 0. 0. 0. 0. 0. 0. 0. 0.
      0. 0. 0. 0. 0. 0. 0. 0. 0. 0. 0. 0. 0. 0. 0. 0. 0. 0. 0. 0. 0. 0.
      0. 0. 0. 0. 0. 0. 0. 0. 0. 0. 0. 0. 0. 0. 0. 0. 1.63398695e-003 0.
      0. 0. 0. 0. 1.63398695e-003 1.63398695e-003 0. 0. 0. 0. 0. 0. 0.
      0. 9.80392192e-003 0. 4.90196096e-003 0. 0. 0. 0. 0. 0. 0. 0. 0.
      0. 3.26797389e-003 0. 1.63398695e-003 1.63398695e-003 0.
      1.63398695e-003 0. 0. 0. 0. 0. 0. 0. 0. 0. 0. 0. 0. 0.
      1.63398695e-003 0. 0. 0. 0. 3.26797389e-003 0. 0. 0. 0. 0. 0. 0.
      0. 0. 0. 0. 1.63398695e-003 0. 0. 0. 0. 0. 0. 0. 1.63398695e-003
      0. 0. 0. 0. 0. 0. 0. 0. 0. 1.63398695e-003 0. 0. 0. 0.
      1.63398695e-003 0. 0. 0.</_>
    <_>
      0. 0. 0. 0. 0. 0. 1.50829565e-003 0. 0. 0. 0. 0. 0. 0. 0. 0. 0.
      4.52488707e-003 0. 0. 0. 0. 0. 0. 0. 0. 0. 1.50829565e-003 0. 0.
      0. 0. 0. 0. 0. 0. 0. 0. 0. 0. 0. 0. 0. 0. 0. 0. 1.50829565e-003 0.
      0. 0. 0. 0. 0. 0. 0. 1.50829565e-003 1.50829565e-003
      1.50829565e-003 0. 0. 0. 0. 0. 1.50829565e-003 0. 0. 0. 0.
      1.50829565e-003 0. 0. 0. 0. 0. 0. 0. 0. 3.01659130e-003 0. 0. 0.
      0. 0. 0. 0. 1.50829565e-003 0. 0. 0. 1.50829565e-003 0. 0. 0. 0.
      0. 1.50829565e-003 0. 0. 0. 0. 0. 1.50829565e-003 0. 0. 0. 0. 0.
      0. 0. 0. 1.50829565e-003 0. 0. 1.50829565e-003 0. 0.
      4.52488707e-003 0. 4.52488707e-003 0. 1.50829565e-003 0. 0. 0. 0.
      0. 0. 0. 3.01659130e-003 0. 0. 0. 0. 0. 1.50829565e-003
      1.50829565e-003 0. 0. 0. 0. 0. 0. 0. 0. 0. 0. 0. 0. 0. 0. 0. 0. 0.
      0. 0. 0. 0. 0. 0. 0. 0. 0. 0. 9.04977415e-003 0. 0. 0. 0. 0. 0. 0.
      0. 0. 0. 0. 0. 1.50829565e-003 1.50829565e-003 0. 0. 0.
      1.50829565e-003 0. 0. 0. 0. 0. 0. 0. 0. 0. 0. 0. 1.50829565e-003
      0. 0. 0. 0. 0. 0. 0. 0. 0. 0. 0. 0. 0. 0. 0. 0. 0. 0. 0. 0.
      1.50829565e-003 0. 0. 0. 0. 0. 0. 0. 0. 0. 0. 0. 0.
      4.52488707e-003 0. 0. 0. 1.50829565e-003 1.50829565e-003 0. 0. 0.
      0. 0. 0. 0. 0. 1.50829565e-003 0. 0. 0. 1.50829565e-003 0.
      4.52488707e-003 0. 0. 0. 0. 0. 0. 0. 0. 0. 0. 0. 1.50829565e-003
      0. 1.50829565e-003 0. 0. 9.04977415e-003 0. 0. 0. 0.
      4.52488707e-003 0. 0. 0. 0. 0. 4.52488707e-003 3.01659130e-003 0.
      3.01659130e-003 0. 0. 0. 1.50829565e-003 0. 0. 0. 0.
      1.50829565e-003 0. 1.50829565e-003 0. 0. 3.01659130e-003 0. 0. 0.
      0. 0. 0. 0. 0. 0. 0. 0. 0. 0. 0. 0. 0. 0. 0. 0. 0. 0. 0. 0. 0. 0.
      0. 0. 0. 0. 0. 1.05580697e-002 0. 4.52488707e-003 0. 0. 0. 0. 0.
      0. 0. 0. 0. 4.52488707e-003 0. 0. 0. 0. 0. 0. 0. 0. 0. 0. 0. 0. 0.
      0. 0. 0. 0. 0. 0. 0. 0. 2.26244349e-002 0. 0. 1.50829565e-003 0.
      0. 0. 0. 0. 0. 3.01659130e-003 0. 0. 0. 0. 0. 1.50829565e-003 0.
      0. 0. 0. 0. 0. 0. 0. 0. 0. 0. 3.01659130e-003 0. 0. 0. 0. 0. 0. 0.
      0. 0. 1.50829565e-003 0. 0. 0. 0. 0. 0. 0. 3.01659130e-003 0. 0.
      0. 0. 0. 0. 0. 0. 1.50829565e-003 0. 0. 0. 0. 0. 0.
      3.01659130e-003 0. 0. 0. 0. 0. 0. 0. 0. 0. 0. 0. 0. 0. 0. 0. 0. 0.
      0. 0. 0. 0. 0. 0. 0. 0. 1.50829565e-003 0. 1.50829565e-003 0. 0.
      0. 1.50829565e-003 0. 0. 0. 0. 0. 0. 0. 0. 1.50829565e-003 0. 0.
      0. 0. 0. 1.50829565e-003 0. 1.50829565e-003 0. 0. 0. 0. 0. 0. 0.
      0. 0. 0. 3.01659130e-003 0. 0. 0. 0. 0. 0. 0. 0. 0. 0. 0. 0. 0. 0.
      0. 0. 1.50829565e-003 0. 0. 0. 0. 0. 0. 0. 0. 0. 0. 0. 0. 0. 0. 0.
      0. 0. 0. 0. 0. 0. 0. 0. 0. 0. 0. 1.50829565e-003 0. 0. 0. 0. 0. 0.
      0. 0. 0. 0. 0. 0. 0. 0. 0. 0. 0. 0. 0. 0. 0. 0. 0. 0. 0. 0.
      3.01659130e-003 0. 0. 0. 0. 0. 0. 0. 1.50829565e-003 0. 0.
      1.05580697e-002 0. 0. 0. 0. 0. 0. 0. 0. 0. 0. 3.01659130e-003 0.
      0. 0. 0. 1.50829565e-003 0. 0. 0. 1.50829565e-003 0. 0. 0. 0.
      3.01659130e-003 3.01659130e-003 0. 0. 0. 1.50829565e-003 0. 0. 0.
      1.50829565e-003 0. 0. 0. 0. 0. 0. 0. 0. 6.03318261e-003 0. 0. 0.
      0. 0. 0. 0. 0. 0. 0. 0. 0. 0. 0. 0. 0. 0. 0. 0. 0. 0. 0.
      3.01659130e-003 0. 0. 0. 0. 1.50829565e-003 0. 0. 0. 0. 0.
      1.50829565e-003 0. 0. 0. 0. 0. 0. 0. 0. 0. 0. 0. 0. 0. 0. 0. 0. 0.
      0. 0. 1.50829565e-003 0. 0. 0. 0. 0. 0. 0. 4.52488707e-003 0. 0.
      6.03318261e-003 0. 0. 0. 0. 0. 0. 0. 0. 0. 0. 0. 0. 0. 0. 0. 0. 0.
      0. 0. 0. 0. 0. 0. 0. 0. 0. 0. 0. 1.50829565e-003 0. 0. 0. 0. 0. 0.
      0. 0. 0. 0. 1.50829565e-003 0. 0. 0. 0. 0. 0. 0. 0. 0. 0. 0. 0. 0.
      0. 0. 0. 0. 0. 0. 0. 0. 0. 0. 0. 0. 0. 0. 0. 0. 0. 0. 0. 0. 0. 0.
      0. 0. 1.50829565e-003 0. 0. 3.01659130e-003 0. 0. 0.
      1.50829565e-003 0. 0. 7.54147815e-003 0. 0. 0. 0. 0. 0. 0. 0. 0.
      0. 0. 0. 0. 0. 0. 0. 0. 0. 0. 0. 0. 0. 0. 0. 1.50829565e-003 0. 0.
      1.50829565e-003 0. 0. 0. 0. 0. 0. 0. 0. 0. 0. 0. 0. 0. 0. 0. 0. 0.
      0. 0. 0. 3.01659130e-003 0. 0. 0. 0. 0. 0. 0. 0. 0. 0. 0. 0. 0. 0.
      0. 0. 0. 0. 0. 0. 0. 0. 0. 1.50829565e-003 0. 0. 0.
      3.01659130e-003 0. 0. 0. 0. 0. 0. 1.50829565e-003 1.50829565e-003
      1.50829565e-003 0. 3.01659130e-003 0. 0. 1.50829565e-003
      4.52488707e-003 0. 4.52488707e-003 0. 0. 0. 0. 1.65912528e-002 0.
      0. 0. 0. 0. 0. 0. 0. 0. 0. 0. 0. 0. 0. 0. 0. 0. 0. 0. 0. 0. 0. 0.
      0. 3.01659130e-003 0. 0. 0. 0. 0. 0. 0. 0. 0. 0. 0. 0. 0. 0. 0. 0.
      0. 0. 0. 0. 0. 0. 0. 3.01659130e-003 0. 0. 0. 0. 0. 0. 0.
      1.50829565e-003 0. 0. 0. 0. 0. 2.56410260e-002 0. 0. 0. 0. 0. 0.
      1.50829565e-003 0. 0. 0. 0. 0. 0. 0. 1.50829565e-003 0.
      1.50829565e-003 0. 0. 0. 0. 0. 0. 0. 0. 0. 0. 0. 0. 0. 0. 0. 0. 0.
      1.50829565e-003 0. 3.01659130e-003 0. 0. 0. 0. 0. 0. 0. 0. 0. 0.
      0. 0. 0. 0. 1.50829565e-003 0. 0. 0. 0. 0. 0. 0. 0. 0. 0. 0. 0. 0.
      0. 0. 0. 0. 0. 0. 4.52488707e-003 1.50829565e-003 1.50829565e-003
      0. 0. 0. 0. 0. 0. 0. 0. 3.01659130e-003 0. 0. 0. 0.
      3.01659130e-003 1.50829565e-003 0. 0. 0. 0. 0. 0. 0. 0. 0. 0. 0.
      0. 0. 0. 1.50829565e-003 0. 4.52488707e-003 0. 0. 0.
      1.50829565e-003 0. 0. 0. 0. 4.52488707e-003 0. 0. 0. 0. 0.
      1.50829565e-003 1.50829565e-003 1.50829565e-003 0. 0. 0. 0. 0. 0.
      0. 0. 0. 0. 0. 0. 0. 0. 0. 0. 0. 0. 0. 0. 0. 0. 3.01659130e-003 0.
      0. 0. 0. 3.01659130e-003 0. 0. 0. 1.50829565e-003 0. 0. 0. 0. 0.
      0. 0. 0. 0. 0. 0. 0. 0. 1.50829565e-003 0. 0. 0. 0. 0.
      7.54147815e-003 0. 0. 0. 0. 1.50829565e-003 3.01659130e-003 0. 0.
      0. 0. 0. 0. 0. 0. 0. 1.50829565e-003 0. 0. 0. 0. 0. 0. 0. 0.
      1.50829565e-003 1.50829565e-003 0. 0. 0. 0. 0. 0. 0. 0.
      1.50829565e-003 0. 0. 1.50829565e-003 0. 0. 1.50829565e-003 0. 0.
      0. 1.50829565e-003 0. 0. 0. 0. 0. 0. 0. 0. 0. 0. 0. 0. 0.
      3.01659130e-003 1.50829565e-003 0. 1.50829565e-003 0. 0. 0. 0. 0.
      0. 0. 0. 0. 0. 0. 0. 0. 0. 1.50829565e-003 0. 0. 0. 0. 0. 0. 0. 0.
      0. 0. 3.01659130e-003 0. 0. 0. 0. 0. 0. 0. 0. 0. 0. 0. 0.
      3.01659130e-003 0. 0. 0. 0. 0. 0. 0. 0. 0. 0. 0. 0.
      1.50829565e-003 0. 0. 0. 0. 0. 0. 0. 0. 0. 0. 0. 0. 0. 0. 0. 0. 0.
      0. 0. 0. 0. 0. 0. 0. 0. 1.50829565e-003 0. 0. 0. 0. 0. 0. 0. 0.
      1.50829565e-003 0. 0. 0. 0. 0. 0. 0. 0. 0. 0. 0. 0.
      4.52488707e-003 0. 0. 0. 1.50829565e-003 0. 0. 0. 0. 0. 0. 0.
      3.01659130e-003 4.52488707e-003 0. 0. 0. 0. 1.50829565e-003 0. 0.
      0. 0. 0. 0. 0. 0. 1.50829565e-003 0. 0. 0. 0. 0. 0. 0. 0. 0. 0. 0.
      0. 0. 0. 0. 0. 0. 0. 0. 0. 0. 0. 0. 0. 0. 3.01659130e-003 0. 0. 0.
      0. 0. 0. 0. 0. 9.04977415e-003 0. 0. 0. 0. 0. 0. 1.50829565e-003
      0. 0. 0. 0. 3.01659130e-003 4.52488707e-003 0. 0. 0. 0. 0.
      1.50829565e-003 0. 0. 0. 0. 0. 0. 0. 0. 0. 0. 0. 0. 0.
      7.54147815e-003 0. 0. 0. 0. 0. 0. 0. 0. 0. 0. 0. 0. 0. 0. 0. 0.
      4.52488707e-003 0. 0. 0. 0. 4.52488707e-003 0. 1.50829565e-003 0.
      0. 0. 0. 0. 0. 0. 0. 0. 0. 0. 0. 0. 0. 0. 0. 0. 0. 0. 0. 0.
      3.01659130e-003 0. 0. 1.50829565e-003 0. 0. 1.50829565e-003 0. 0.
      0. 0. 0. 0. 0. 0. 0. 0. 0. 0. 0. 0. 0. 0. 0. 0. 0. 0. 0. 0. 0. 0.
      0. 0. 0. 0. 0. 0. 0. 0. 0. 0. 1.50829565e-003 0. 0. 0. 0. 0. 0. 0.
      1.50829565e-003 0. 0. 1.50829565e-003 0. 0. 0. 0. 0. 0.
      4.52488707e-003 0. 0. 0. 0. 0. 0. 0. 0. 0. 0. 0. 0. 0. 0. 0. 0.
      1.50829565e-003 0. 0. 0. 0. 0. 0. 0. 0. 0. 1.50829565e-003 0. 0.
      0. 0. 0. 7.54147815e-003 0. 0. 0. 0. 0. 0. 1.50829565e-003 0. 0.
      0. 3.01659130e-003 0. 1.50829565e-003 0. 0. 1.50829565e-003 0. 0.
      3.01659130e-003 0. 0. 1.50829565e-003 0. 0. 0. 0. 0. 0. 0. 0. 0.
      0. 0. 0. 0. 0. 0. 0. 0. 0. 0. 0. 0. 0. 3.01659130e-003 0. 0. 0.
      3.01659130e-003 0. 0. 0. 3.01659130e-003 0. 0. 0. 0. 0. 0. 0. 0.
      0. 1.50829565e-003 0. 0. 0. 0. 0. 0. 0. 0. 0. 0. 0. 0. 0. 0. 0.
      1.50829565e-003 1.50829565e-003 0. 1.50829565e-003 0. 0. 0. 0. 0.
      6.03318261e-003 0. 0. 0. 0. 0. 0. 0. 0. 0. 1.50829565e-003 0. 0.
      0. 0. 0. 0. 0. 0. 1.50829565e-003 0. 0. 0. 0. 0. 0. 0. 0. 0. 0. 0.
      0. 0. 0. 1.50829565e-003 0. 0. 0. 0. 1.50829565e-003 0. 0. 0.
      1.50829565e-003 0. 0. 0. 0. 0. 0. 0. 0. 0. 0. 0. 0.
      1.50829565e-003 0. 0. 0. 1.50829565e-003 0. 0. 0. 0. 0.
      1.50829565e-003 1.50829565e-003 0. 0. 0. 0. 0. 0. 3.01659130e-003
      0. 0. 0. 0. 0. 0. 0. 1.50829565e-003 0. 0. 0. 0. 0. 0. 0. 0. 0. 0.
      0. 0. 0. 0. 0. 0. 1.50829565e-003 0. 0. 4.52488707e-003 0. 0. 0.
      0. 0. 0. 0. 0. 0. 0. 0. 0. 1.50829565e-003 0. 0. 0. 0. 0. 0. 0.
      3.01659130e-003 0. 0. 0. 0. 0. 0. 0. 0. 0. 0. 0. 0.
      1.50829565e-003 0. 0. 0. 1.50829565e-003 0. 0. 0. 0. 0. 0. 0. 0.
      0. 0. 0. 0. 0. 0. 0. 0. 0. 0. 0. 0. 0. 0. 0. 0. 0. 0. 0. 0. 0. 0.
      1.50829565e-003 0. 0. 0. 0. 0. 0. 0. 0. 0. 4.52488707e-003 0.
      3.01659130e-003 3.01659130e-003 0. 0. 0. 0. 1.50829565e-003 0. 0.
      0. 0. 0. 0. 0. 0. 1.50829565e-003 4.52488707e-003 0.
      1.50829565e-003 0. 0. 0. 0. 0. 1.50829565e-003 0. 1.50829565e-003
      0. 0. 0. 1.50829565e-003 0. 0. 0. 1.50829565e-003 1.50829565e-003
      0. 0. 4.52488707e-003 0. 0. 0. 0. 0. 0. 0. 0. 0. 0. 0. 0. 0. 0. 0.
      0. 0. 0. 0. 1.50829565e-003 0. 0. 0. 0. 0. 0. 0. 0. 0. 0. 0. 0. 0.
      0. 0. 0. 0. 0. 0. 0. 4.52488707e-003 0. 0. 0. 0. 0. 0. 0. 0. 0. 0.
      0. 0. 0. 0. 0. 0. 0. 1.50829565e-003 0. 0. 0. 0. 0. 0. 0. 0. 0. 0.
      0. 4.52488707e-003 0. 1.50829565e-003 3.01659130e-003 0.
      3.01659130e-003 0. 0. 1.50829565e-003 0. 0. 1.50829565e-003 0. 0.
      3.01659130e-003 0. 0. 0. 0. 0. 0. 0. 0. 0. 3.01659130e-003 0. 0.
      0. 0. 0. 0. 0. 0. 6.03318261e-003 0. 0. 0. 1.50829565e-003 0. 0.
      0. 6.03318261e-003 0. 1.20663652e-002 0. 3.01659130e-003 0. 0. 0.
      0. 1.50829565e-003 0. 0. 1.50829565e-003 0. 1.50829565e-003 0. 0.
      0. 0. 0. 0. 0. 0. 1.50829565e-003 0. 1.50829565e-003
      1.50829565e-003 0. 0. 0. 0. 0. 0. 1.50829565e-003 0. 0. 0. 0. 0.
      0. 0. 1.50829565e-003 0. 0. 0. 0. 0. 0. 0. 0. 0. 0. 0. 0. 0. 0. 0.
      1.50829565e-003 1.50829565e-003 0. 0. 0. 0. 0. 0. 0.
      3.01659130e-003 0. 0. 0. 0. 0. 0. 0. 0. 0. 0. 0. 0. 0. 0. 0. 0. 0.
      0. 0. 0. 0. 0. 0. 0. 4.52488707e-003 0. 0. 3.01659130e-003 0. 0.
      0. 0. 0. 0. 0. 4.52488707e-003 0. 0. 0. 0. 0. 3.01659130e-003 0.
      0. 0. 0. 0. 1.50829565e-003 0. 0. 0. 0. 0. 0. 1.50829565e-003 0.
      1.50829565e-003 0. 0. 0. 0. 0. 0. 0. 0. 0. 0. 0. 0. 0. 0.
      1.50829565e-003 0. 1.50829565e-003 0. 0. 0. 0. 0. 0.
      1.50829565e-003 0. 0. 0. 0. 0. 0. 0. 0. 0. 0. 3.01659130e-003 0.
      0. 1.50829565e-003 1.50829565e-003 0. 0. 0. 0. 0. 0. 0.
      1.50829565e-003 0. 0. 0. 0. 0. 0. 0. 0. 0. 0. 0. 0. 0. 0. 0. 0.
      3.01659130e-003 0. 0. 0. 3.01659130e-003 0. 0. 0. 1.50829565e-003
      0. 3.01659130e-003 0. 0. 0. 0. 0. 0. 0. 0. 0. 0. 0. 0. 0. 0. 0.
      1.50829565e-003 0. 0. 0. 0. 0. 0. 0. 0. 0. 0. 0. 0.
      6.03318261e-003 0. 0. 0. 0. 0. 0. 0. 0. 0. 0. 0. 0. 0. 0. 0. 0. 0.
      0. 1.50829565e-003 0. 0. 0. 0. 0. 0. 0. 0. 0. 0. 0.
      1.50829565e-003 0. 1.50829565e-003 0. 0. 0. 0. 0. 0. 0. 0. 0.
      2.41327304e-002 0. 0. 0. 0. 3.01659130e-003 0. 0. 0. 0. 0. 0. 0.
      0. 1.50829565e-003 0. 0. 0. 0. 0. 1.50829565e-003 0. 0. 0. 0.
      3.01659130e-003 0. 0. 0. 0. 0. 0. 0. 0. 0. 3.01659130e-003 0. 0.
      0. 0. 0. 0. 1.50829565e-003 0. 0. 0. 0. 0. 3.01659130e-003 0. 0.
      0. 0. 0. 0. 0. 0. 0. 0. 0. 0. 0. 0. 0. 0. 0. 0. 0. 0. 0. 0. 0. 0.
      0. 0. 0. 0. 0. 0. 0. 1.50829565e-003 0. 0. 0. 3.01659130e-003 0.
      0. 0. 0. 0. 0. 0. 0. 3.01659130e-003 0. 0. 0. 0. 0. 0. 0. 0. 0. 0.
      1.50829565e-003 0. 0. 0. 0. 0. 0. 0. 0. 0. 0. 0. 0. 0. 0. 0. 0. 0.
      0. 0. 0. 0. 0. 0. 1.50829565e-003 0. 0. 0. 0. 0. 0. 0. 0. 0. 0. 0.
      0. 0. 0. 0. 0. 0. 0. 0. 0. 0. 0. 0. 0. 0. 0. 0. 0. 0. 0. 0. 0. 0.
      0. 1.50829565e-003 0. 0. 0. 0. 0. 0. 0. 0. 0. 0. 0.
      1.50829565e-003 0. 0. 0. 0. 0. 0. 0. 0. 0. 0. 0. 0.
      1.50829565e-003 0. 0. 1.50829565e-003 0. 0. 0. 0. 0. 0. 0. 0.
      1.50829565e-003 3.01659130e-003 0. 0. 0. 0. 1.50829565e-003 0. 0.
      0. 0. 0. 0. 0. 0. 0. 0. 0. 0. 0. 0. 0. 0. 1.50829565e-003 0. 0. 0.
      0. 0. 0. 0. 0. 0. 0. 0. 0. 0. 0. 0. 1.50829565e-003 0. 0. 0. 0. 0.
      0. 0. 0. 0. 0. 0. 0. 0. 0. 0. 0. 0. 0. 3.01659130e-003 0. 0. 0. 0.
      0. 0. 0. 1.65912528e-002 0. 0. 0. 0. 0. 0. 0. 0. 1.50829565e-003
      0. 0. 0. 0. 0. 0. 0. 0. 1.50829565e-003 0. 0. 0. 1.50829565e-003
      0. 0. 0. 0. 0. 0. 0. 0. 0. 0. 0. 0. 0. 0. 0. 0. 0. 0. 0. 0. 0. 0.
      0. 0. 0. 0. 0. 0. 0. 0. 0. 0. 0. 0. 0. 0. 0. 0. 0. 0.
      1.50829565e-003 0. 3.01659130e-003 0. 0. 0. 0. 0. 0. 0. 0. 0. 0.
      0. 4.52488707e-003 0. 0. 0. 0. 0. 0. 0. 0. 0. 0. 0. 0. 0. 0. 0. 0.
      1.50829565e-003 0. 0. 0. 0. 0. 0. 1.50829565e-003 0. 0. 0. 0. 0.
      0. 0. 0. 0. 0. 0. 0. 0. 0. 0. 0. 0. 0. 0. 3.01659130e-003 0. 0. 0.
      0. 0. 0. 0. 0. 0. 0. 0. 0. 0. 0. 0. 0. 0. 0. 0. 0. 0. 0. 0. 0. 0.
      0. 0. 0. 0. 0. 0. 0. 0. 0. 0. 0. 0. 0. 0. 0. 0. 1.50829565e-003 0.
      0. 0. 0. 1.50829565e-003 0. 0. 0. 0. 0. 0. 1.50829565e-003 0. 0.
      0. 0. 0. 0. 4.52488707e-003 0. 0. 0. 3.01659130e-003 0. 0. 0. 0.
      0. 0. 0. 0. 0. 0. 0. 0. 0. 0. 0. 0. 0. 0. 0. 0. 0. 0. 0. 0. 0. 0.
      0. 0. 0. 0. 0. 0. 0. 0. 0. 0. 1.50829565e-003 0. 0. 0. 0. 0. 0.
      1.50829565e-003 0. 0. 0. 0. 0. 0. 1.50829565e-003 0.
      1.50829565e-003 0. 0. 1.50829565e-003 1.50829565e-003 0. 0. 0. 0.
      0. 0. 0. 0. 0. 0. 0. 0. 1.50829565e-003 0. 0. 0. 0.
      1.50829565e-003 0. 0. 0. 1.50829565e-003 0. 7.54147815e-003
      1.50829565e-003 0. 1.50829565e-003 0. 0. 4.52488707e-003 0.
      1.50829565e-003 1.50829565e-003 0. 0. 3.01659130e-003 0. 0. 0. 0.
      0. 0. 0. 0. 0. 0. 0. 0. 0. 4.52488707e-003 0. 0. 0.
      3.01659130e-003 0. 0. 0. 0. 0. 0. 0. 0. 0. 0. 0. 0. 0. 0. 0. 0. 0.
      0. 0. 0. 0. 0. 0. 0. 0. 0. 0. 0. 0. 0. 0. 0. 0. 0. 3.01659130e-003
      0. 3.01659130e-003 4.52488707e-003 0. 0. 0. 0. 0. 0. 0. 0. 0. 0.
      0. 0. 1.50829565e-003 0. 0. 0. 0. 0. 0. 0. 0. 0. 1.50829565e-003
      1.50829565e-003 1.80995483e-002 0. 0. 0. 0. 0. 0. 0. 0. 0. 0. 0.
      0. 0. 0. 0. 0. 0. 0. 0. 0. 0. 0. 0. 0. 0. 0. 0. 0. 0. 0. 0. 0. 0.
      0. 0. 0. 0. 0. 0. 0. 0. 0. 0. 0. 0. 0. 0. 0. 0. 0. 0. 0. 0. 0. 0.
      0. 0. 0. 0. 0. 0. 0. 0. 1.50829565e-003 0. 0. 0. 0. 0. 0.
      1.50829565e-003 0. 7.54147815e-003 0. 0. 0. 1.50829565e-003 0. 0.
      0. 0. 0. 0. 0. 1.50829565e-003 0. 0. 0. 1.50829565e-003 0. 0. 0.
      0. 1.50829565e-003 0. 1.50829565e-003 0. 1.35746608e-002 0. 0. 0.
      0. 1.50829565e-003 1.50829565e-003 0. 0. 4.52488707e-003 0. 0. 0.
      0. 0. 0. 0. 3.01659130e-003 0. 0. 0. 3.01659130e-003 0. 0. 0. 0.
      0. 0. 0. 0. 0. 0. 0. 0. 0. 0. 0. 1.50829565e-003 0. 0. 0. 0.
      1.50829565e-003 4.52488707e-003 0. 0. 0. 0. 0. 0. 0. 0. 0. 0. 0.
      0. 0. 1.50829565e-003 0. 0. 0. 0. 3.01659130e-003 0. 0. 0. 0. 0.
      0. 0. 0. 0. 0. 0. 0. 0. 0. 6.03318261e-003 0. 0. 0. 0. 0. 0. 0. 0.
      0. 0. 0. 0. 0. 3.01659130e-003 0. 1.50829565e-003 0. 0. 0.</_>
    <_>
      0. 0. 0. 0. 0. 0. 0. 0. 0. 1.78253115e-003 0. 0. 0. 0. 0. 0. 0.
      8.91265552e-003 0. 0. 0. 0. 0. 0. 0. 0. 0. 1.78253115e-003 0. 0.
      0. 0. 0. 0. 0. 0. 0. 0. 0. 0. 0. 0. 0. 0. 0. 0. 0. 0. 0. 0. 0. 0.
      3.56506230e-003 0. 0. 0. 0. 1.78253115e-003 0. 0. 0. 0. 0. 0. 0.
      0. 0. 0. 0. 0. 0. 0. 0. 0. 0. 0. 0. 0. 0. 0. 0. 0. 0. 0.
      5.34759369e-003 0. 0. 0. 0. 0. 0. 0. 0. 0. 0. 0. 0. 0. 0. 0. 0. 0.
      0. 0. 0. 0. 0. 0. 0. 0. 0. 0. 0. 1.78253115e-003 0. 0. 0. 0. 0. 0.
      0. 0. 0. 0. 0. 0. 1.78253115e-003 0. 0. 0. 0. 0. 0. 0. 0. 0. 0. 0.
      0. 0. 0. 0. 0. 0. 0. 0. 0. 0. 0. 0. 7.13012461e-003 0. 0. 0. 0. 0.
      0. 0. 0. 0. 0. 0. 0. 0. 0. 0. 0. 0. 0. 0. 0. 0. 0. 0. 0. 0. 0. 0.
      0. 0. 0. 0. 0. 0. 0. 0. 0. 0. 0. 0. 0. 0. 0. 0. 0. 0. 0. 0. 0. 0.
      0. 0. 0. 0. 0. 0. 0. 0. 0. 0. 0. 0. 0. 0. 0. 0. 0. 0. 0. 0.
      3.56506230e-003 0. 0. 0. 0. 0. 3.56506230e-003 0. 0. 0. 0. 0. 0.
      0. 7.13012461e-003 0. 0. 0. 0. 0. 0. 0. 0. 0. 0. 0. 0. 0. 0. 0. 0.
      0. 0. 0. 0. 0. 0. 0. 0. 0. 0. 0. 0. 3.56506230e-003
      8.91265552e-003 0. 0. 0. 0. 0. 0. 0. 0. 0. 0. 3.56506230e-003 0.
      0. 0. 0. 0. 0. 1.78253115e-003 0. 0. 0. 0. 0. 0. 0. 0. 0. 0. 0.
      3.56506230e-003 0. 0. 0. 0. 0. 0. 0. 0. 5.34759369e-003 0. 0. 0.
      0. 0. 0. 0. 0. 0. 0. 0. 0. 0. 0. 0. 0. 0. 0. 0. 0. 0. 0.
      1.78253115e-003 0. 0. 0. 0. 0. 0. 0. 0. 7.13012461e-003 0. 0. 0.
      0. 0. 0. 0. 0. 0. 0. 0. 5.16934022e-002 0. 0. 0. 0. 0.
      1.78253115e-003 0. 0. 0. 1.78253115e-003 1.78253115e-003 0. 0. 0.
      0. 0. 0. 1.78253115e-003 0. 1.78253115e-003 0. 0. 0. 0. 0. 0. 0.
      0. 0. 1.78253115e-003 0. 0. 0. 0. 0. 0. 0. 0. 0. 0. 0. 0. 0. 0. 0.
      0. 0. 0. 0. 0. 0. 0. 0. 0. 0. 0. 0. 0. 0. 0. 0. 0. 0.
      1.78253115e-003 0. 0. 0. 0. 0. 0. 0. 0. 0. 0. 0. 0. 0. 0. 0. 0.
      3.56506230e-003 0. 0. 0. 0. 0. 0. 0. 0. 0. 0. 0. 0. 0. 0. 0. 0. 0.
      0. 0. 0. 0. 0. 0. 0. 0. 1.78253115e-003 0. 0. 0. 0. 0. 0. 0. 0. 0.
      0. 0. 0. 0. 3.56506230e-003 0. 0. 0. 0. 0. 0. 0. 0. 0. 0. 0. 0.
      1.78253115e-003 0. 0. 0. 0. 0. 0. 0. 0. 0. 0. 0. 1.78253115e-003
      0. 0. 0. 0. 0. 0. 0. 0. 0. 0. 0. 0. 1.24777183e-002 0. 0. 0. 0. 0.
      0. 0. 0. 0. 1.78253115e-003 0. 3.56506230e-003 1.78253115e-003 0.
      0. 0. 0. 0. 0. 0. 0. 0. 0. 0. 0. 0. 1.78253115e-003
      1.78253115e-003 0. 0. 0. 0. 0. 0. 0. 0. 0. 0. 0. 0. 0. 0. 0. 0. 0.
      0. 0. 0. 0. 0. 0. 0. 0. 0. 1.78253115e-003 0. 0. 0. 0. 0. 0. 0. 0.
      0. 0. 0. 0. 0. 0. 0. 3.56506230e-003 0. 0. 0. 0. 0. 0. 0. 0. 0. 0.
      0. 0. 0. 0. 0. 0. 0. 0. 0. 0. 0. 0. 0. 0. 0. 0. 0. 0. 0. 0. 0. 0.
      0. 0. 0. 0. 0. 0. 0. 0. 0. 0. 0. 0. 0. 0. 0. 0. 0. 0. 0.
      1.78253115e-003 0. 0. 0. 0. 0. 0. 0. 0. 0. 0. 0. 0. 0. 0. 0. 0. 0.
      0. 0. 0. 0. 0. 0. 0. 0. 0. 0. 0. 0. 0. 0. 1.78253115e-003 0. 0. 0.
      0. 0. 0. 0. 3.56506230e-003 0. 0. 0. 0. 0. 0. 0. 0. 0. 0. 0.
      1.78253115e-003 0. 0. 0. 0. 0. 0. 0. 0. 0. 0. 0. 0. 0. 0. 0. 0.
      3.56506230e-003 1.78253115e-003 0. 0. 0. 0. 1.78253115e-003 0. 0.
      0. 0. 0. 0. 0. 0. 0. 0. 0. 0. 0. 0. 0. 0. 0. 0. 0. 0. 0. 0. 0. 0.
      0. 0. 0. 0. 0. 0. 0. 0. 0. 0. 0. 0. 0. 0. 0. 0. 0. 0.
      1.78253115e-003 0. 0. 1.78253115e-003 0. 0. 0. 0. 0. 0.
      7.13012461e-003 0. 0. 0. 0. 0. 0. 0. 0. 0. 0. 0. 0. 0. 0. 0. 0. 0.
      0. 0. 0. 0. 0. 0. 0. 0. 3.56506230e-003 0. 0. 0. 0. 0. 0. 0. 0. 0.
      0. 0. 0. 0. 0. 1.78253115e-003 0. 0. 0. 0. 0. 0. 0. 0. 0. 0.
      2.85204984e-002 0. 0. 0. 0. 0. 0. 0. 0. 0. 0. 0. 0. 0. 0. 0. 0. 0.
      0. 0. 0. 0. 0. 0. 0. 1.96078420e-002 1.78253115e-003 0. 0. 0. 0.
      0. 1.78253115e-003 0. 0. 0. 4.81283404e-002 0. 0. 0. 0. 0.
      5.34759369e-003 0. 0. 0. 0. 0. 0. 0. 0. 0. 7.13012461e-003 0. 0.
      0. 0. 0. 0. 0. 0. 0. 0. 0. 0. 0. 0. 0. 0. 0. 0. 0. 0. 0. 0. 0. 0.
      1.78253115e-003 0. 0. 0. 0. 0. 0. 0. 0. 0. 0. 0. 0. 0. 0. 0. 0. 0.
      0. 0. 0. 0. 0. 0. 0. 0. 0. 0. 0. 0. 1.78253115e-003 0. 0.
      1.24777183e-002 1.78253115e-003 0. 0. 0. 0. 0. 0. 0. 0. 0. 0. 0.
      0. 0. 0. 0. 0. 0. 0. 0. 0. 0. 0. 0. 0. 0. 0. 0. 0. 0. 0. 0. 0. 0.
      0. 0. 0. 0. 0. 0. 0. 3.56506230e-003 0. 0. 0. 0. 0. 0. 0. 0. 0. 0.
      0. 1.78253115e-003 0. 0. 0. 0. 0. 3.56506230e-003 0. 0.
      1.78253115e-003 0. 0. 0. 0. 0. 0. 0. 0. 0. 0. 0. 0. 0. 0. 0. 0. 0.
      0. 0. 3.56506230e-003 0. 0. 0. 5.34759369e-003 5.34759369e-003 0.
      0. 0. 0. 1.78253115e-003 0. 0. 0. 0. 0. 5.34759369e-003 0. 0.
      1.78253115e-003 0. 0. 7.13012461e-003 1.78253115e-003 0. 0. 0. 0.
      0. 0. 0. 1.78253115e-003 1.78253115e-003 0. 0. 0. 0. 0.
      3.56506230e-003 0. 1.78253115e-003 0. 0. 0. 0. 0. 0.
      1.78253115e-003 0. 0. 0. 0. 0. 0. 0. 0. 0. 0. 0. 0. 0. 0. 0. 0.
      1.78253115e-003 0. 0. 0. 0. 0. 0. 0. 0. 0. 0. 0. 0. 0. 0.
      1.78253115e-003 0. 0. 0. 0. 0. 0. 0. 0. 0. 0. 0. 0. 0. 0. 0. 0. 0.
      0. 0. 0. 0. 0. 0. 0. 0. 0. 0. 0. 0. 0. 0. 0. 0. 0. 0. 0. 0. 0. 0.
      0. 0. 0. 0. 0. 0. 0. 0. 0. 0. 0. 0. 0. 0. 0. 0. 0. 0. 0. 0. 0. 0.
      0. 0. 0. 0. 0. 0. 0. 0. 0. 0. 0. 1.78253115e-003 0. 0. 0. 0. 0. 0.
      0. 0. 0. 0. 0. 0. 0. 0. 0. 0. 0. 0. 0. 0. 0. 0. 0. 0. 0. 0. 0. 0.
      0. 0. 0. 0. 0. 0. 0. 0. 0. 0. 0. 0. 0. 0. 0. 1.78253115e-003 0. 0.
      0. 0. 0. 0. 0. 0. 0. 0. 0. 0. 0. 0. 0. 0. 0. 0. 0. 0. 0. 0. 0. 0.
      0. 0. 0. 0. 0. 0. 0. 0. 0. 0. 0. 0. 0. 0. 0. 0. 0. 0. 0. 0. 0. 0.
      0. 0. 0. 0. 0. 0. 0. 0. 0. 0. 0. 5.34759369e-003 0. 0. 0. 0. 0. 0.
      0. 0. 0. 0. 0. 0. 1.24777183e-002 0. 0. 5.34759369e-003 0. 0. 0.
      0. 0. 0. 0. 1.78253115e-003 0. 0. 0. 0. 0. 0. 0. 0. 0. 0. 0. 0. 0.
      0. 0. 0. 0. 0. 0. 0. 0. 0. 0. 0. 0. 0. 0. 0. 0. 0. 0. 0. 0.
      1.78253115e-003 0. 0. 0. 8.91265552e-003 0. 0. 0. 0. 0. 0.
      1.78253115e-003 1.78253115e-003 0. 0. 0. 0. 1.24777183e-002 0. 0.
      0. 0. 0. 7.13012461e-003 0. 0. 0. 0. 1.78253115e-003 0. 0. 0. 0.
      0. 0. 0. 0. 0. 0. 0. 0. 0. 5.34759369e-003 0. 0. 0. 0. 0. 0. 0. 0.
      0. 0. 0. 0. 0. 0. 0. 0. 0. 0. 0. 0. 0. 0. 0. 0. 0. 0. 0. 0. 0. 0.
      0. 0. 0. 0. 0. 0. 0. 0. 0. 0. 1.78253115e-003 0. 3.56506230e-003
      0. 0. 0. 0. 0. 0. 0. 0. 0. 0. 0. 0. 0. 0. 0. 0. 0. 0. 0. 0. 0. 0.
      0. 0. 0. 0. 0. 0. 0. 0. 0. 0. 0. 0. 0. 0. 0. 0. 0. 0. 0. 0. 0. 0.
      0. 0. 0. 0. 0. 0. 0. 1.78253115e-003 0. 0. 0. 0. 0. 0. 0. 0. 0. 0.
      0. 0. 0. 0. 0. 0. 0. 0. 0. 0. 0. 0. 0. 0. 0. 0. 0. 0. 0. 0. 0. 0.
      3.56506230e-003 0. 0. 0. 0. 0. 1.78253115e-003 0. 3.56506230e-003
      0. 0. 0. 0. 0. 0. 0. 0. 0. 0. 0. 1.78253115e-003 0. 0. 0. 0. 0. 0.
      0. 0. 0. 0. 0. 0. 0. 0. 0. 0. 0. 0. 0. 0. 0. 0. 1.78253115e-003 0.
      0. 0. 0. 0. 0. 0. 0. 0. 0. 0. 0. 0. 0. 0. 0. 0. 0. 0. 0. 0. 0. 0.
      0. 0. 0. 0. 0. 0. 0. 0. 0. 0. 0. 0. 0. 0. 0. 0. 0. 0. 0. 0. 0. 0.
      0. 0. 0. 1.78253115e-003 0. 0. 0. 0. 0. 0. 0. 0. 0. 0. 0. 0. 0. 0.
      3.56506230e-003 0. 0. 0. 0. 0. 0. 0. 0. 0. 0. 0. 0. 0. 0. 0. 0. 0.
      0. 0. 0. 0. 0. 0. 0. 0. 0. 0. 0. 0. 0. 0. 0. 0. 1.78253115e-003 0.
      0. 0. 0. 0. 1.78253115e-003 0. 0. 0. 0. 0. 0. 0. 0. 0. 0. 0. 0.
      1.78253115e-003 0. 0. 0. 0. 0. 0. 5.34759369e-003 0. 0. 0. 0. 0.
      0. 0. 0. 0. 0. 0. 5.34759369e-003 0. 0. 0. 0. 0. 0. 0. 0. 0. 0. 0.
      0. 3.56506230e-003 0. 0. 1.42602492e-002 0. 0. 0. 0. 0. 0. 0. 0.
      0. 0. 0. 0. 0. 0. 0. 0. 0. 0. 0. 0. 3.56506230e-003 0. 0. 0. 0. 0.
      0. 0. 0. 0. 1.78253115e-003 0. 0. 0. 0. 0. 0. 0. 0. 0. 0. 0. 0. 0.
      0. 0. 0. 0. 0. 0. 0. 0. 0. 0. 0. 0. 0. 0. 0. 0. 0. 0. 0. 0. 0. 0.
      0. 0. 1.96078420e-002 0. 0. 0. 1.78253115e-003 0. 0. 0. 0. 0. 0.
      0. 0. 0. 0. 0. 0. 0. 0. 0. 0. 0. 0. 0. 0. 0. 0. 0. 0. 0. 0. 0. 0.
      0. 0. 0. 0. 0. 0. 0. 0. 0. 0. 0. 0. 0. 0. 0. 0. 0. 1.78253115e-003
      0. 0. 0. 0. 0. 0. 0. 0. 1.78253115e-003 0. 0. 0. 0. 0. 0. 0. 0. 0.
      0. 0. 0. 0. 1.78253115e-003 0. 0. 0. 0. 0. 0. 0. 0. 0. 0. 0. 0. 0.
      0. 0. 0. 0. 0. 0. 1.78253115e-003 0. 0. 0. 0. 0. 0. 0. 0. 0. 0. 0.
      0. 0. 0. 0. 0. 1.78253115e-003 0. 0. 0. 0. 0. 0. 0. 0. 0. 0. 0. 0.
      0. 1.78253115e-003 0. 0. 0. 0. 0. 0. 0. 0. 0. 0. 0. 0. 0.
      1.78253115e-003 0. 0. 0. 0. 0. 0. 0. 0. 0. 1.78253115e-003 0. 0.
      0. 0. 0. 0. 0. 0. 0. 0. 0. 0. 0. 0. 0. 0. 3.56506230e-003 0. 0. 0.
      0. 0. 0. 0. 0. 0. 0. 0. 1.78253115e-003 0. 0. 0. 0. 0. 0. 0. 0. 0.
      1.96078420e-002 0. 0. 0. 0. 0. 0. 0. 1.78253115e-003 0. 0. 0. 0.
      0. 0. 0. 0. 0. 0. 0. 0. 0. 0. 0. 1.78253115e-003 0. 0. 0. 0. 0. 0.
      0. 0. 0. 0. 0. 0. 0. 0. 0. 1.78253115e-003 0. 0. 0. 0. 0. 0. 0. 0.
      0. 0. 0. 0. 0. 0. 0. 0. 0. 0. 0. 0. 3.56506230e-003 0. 0. 0. 0. 0.
      0. 0. 0. 0. 0. 1.78253115e-003 0. 0. 0. 0. 0. 0. 0. 0.
      1.78253115e-003 0. 1.78253115e-003 0. 0. 0. 0. 5.34759369e-003 0.
      0. 0. 3.56506230e-003 0. 0. 0. 0. 0. 0. 0. 0. 0. 1.78253115e-003
      0. 0. 0. 0. 0. 0. 0. 0. 0. 0. 0. 0. 0. 0. 0. 0. 0. 0. 0. 0. 0. 0.
      0. 0. 0. 0. 0. 0. 0. 0. 0. 0. 0. 1.78253110e-002 0. 0. 0. 0. 0. 0.
      0. 0. 0. 0. 0. 0. 0. 3.56506230e-003 0. 0. 0. 0. 0. 0. 0. 0. 0. 0.
      0. 0. 0. 0. 0. 7.30837807e-002 0. 0. 0. 0. 0. 0. 0. 0. 0. 0. 0. 0.
      0. 0. 0. 0. 0. 0. 0. 0. 0. 0. 0. 0. 0. 0. 0. 0. 0. 0. 0. 0.
      1.78253115e-003 0. 0. 0. 0. 0. 0. 0. 0. 0. 0. 0. 0. 0. 0. 0. 0. 0.
      0. 0. 0. 0. 3.56506230e-003 0. 0. 0. 0. 0. 0. 0. 0. 0. 0. 0. 0. 0.
      0. 0. 0. 0. 0. 0. 0. 0. 0. 3.56506230e-003 0. 0. 0. 0. 0. 0. 0. 0.
      0. 0. 0. 0. 0. 0. 0. 0. 7.13012461e-003 0. 0. 0. 0. 0. 0. 0. 0. 0.
      0. 1.78253115e-003 0. 0. 0. 0. 0. 1.78253115e-003 0. 0. 0. 0. 0.
      0. 0. 0. 0. 0. 0. 0. 1.78253115e-003 0. 0. 5.34759369e-003 0. 0.
      0. 0. 0. 0. 0. 0. 0. 0. 0. 1.78253115e-003 0. 0. 0. 0. 0. 0. 0. 0.
      5.34759369e-003 0. 0. 1.78253115e-003 0. 0. 0. 0. 0. 0.
      1.78253115e-003 0. 0. 0. 0. 0. 0. 0. 0. 0. 0. 0. 3.56506230e-003
      0. 0. 0. 0. 0. 0. 0. 1.78253115e-003 0. 0. 1.96078420e-002 0. 0.
      0. 0. 8.91265552e-003 0. 0. 0. 0. 1.24777183e-002 0. 0. 0. 0. 0.
      0. 0. 1.78253115e-003 0. 0. 0. 0. 0. 0. 0. 0. 0. 0. 0.
      1.78253115e-003 0. 0. 0. 0. 0. 0. 0. 0. 0. 0. 1.78253115e-003 0.
      0. 0. 0. 0. 0. 0. 0. 0. 0. 0. 0. 0. 0. 0. 0. 0. 0. 0. 0. 0. 0. 0.
      1.78253115e-003 0. 0. 3.56506230e-003 0. 0. 0. 0. 0. 0. 0. 0. 0.
      0. 0. 0. 0. 0. 0. 1.78253115e-003 0. 0. 0. 0. 0. 0. 0. 0. 0. 0. 0.
      0. 0. 0. 0. 0. 0. 0. 0. 0. 0. 0. 0. 0. 0. 0. 0. 0. 0. 0. 0. 0. 0.
      0. 0. 0. 0. 0. 0. 0. 0. 0. 0. 0. 0. 0. 0. 3.56506230e-003 0. 0. 0.
      0. 1.78253115e-003 0. 0. 0. 0. 0. 0. 0. 0. 0. 0. 0.
      1.78253115e-003 0. 0. 0. 0. 0. 0. 1.78253115e-003 0. 0. 0. 0. 0.
      1.60427801e-002 0. 1.78253115e-003 0. 0. 8.91265552e-003 0. 0. 0.
      0. 0. 0. 0. 0. 0. 0. 0. 0. 0. 0. 0. 0. 3.56506230e-003 0. 0. 0. 0.
      0. 0. 0. 0. 0. 1.78253115e-003 0. 0. 0. 1.78253115e-003 0. 0. 0.
      0. 0. 0. 0. 0. 0. 0. 0. 3.56506230e-003 0. 0. 0. 3.56506230e-003
      0. 0. 0. 0. 0. 0. 0. 0. 0. 0. 0. 0. 0. 0. 0. 0. 0. 0. 0. 0. 0. 0.
      0. 0. 1.78253115e-003 0. 0. 0. 0. 0. 0. 0. 0. 0. 0. 0. 0. 0.
      1.78253115e-003 0. 0. 0. 0. 0. 0. 0. 0. 0. 0. 0. 1.78253115e-003
      0. 0. 0. 0. 0. 0. 0. 0. 0. 0. 0. 0. 0. 0. 0. 0. 0. 0. 0. 0. 0. 0.
      0. 0. 0. 0. 0. 0. 0. 0. 0. 0. 0. 0. 0. 0. 0. 0. 0. 0. 0. 0. 0. 0.
      0. 0. 0. 0. 0. 0. 0. 0. 0. 0. 0. 0. 0. 0. 0. 0. 0. 0. 0. 0. 0. 0.
      0. 0. 3.20855603e-002 1.78253115e-003 0. 0. 0. 0. 0. 0. 0. 0. 0.
      0. 1.78253115e-003 0. 0. 0. 0. 0. 0. 0. 0. 0. 0. 5.34759369e-003
      0. 1.78253115e-003 0. 0. 0. 0. 0. 0. 0. 0. 0. 0. 0. 0. 0. 0. 0. 0.
      0. 0. 0. 0. 0. 0. 0. 3.56506230e-003 0. 1.78253115e-003 0. 0. 0.
      0. 0. 0. 0. 0. 0. 0. 0. 0. 0. 0. 0. 0. 0. 0. 3.56506230e-003
      5.34759369e-003 0. 0. 0. 0. 0. 0. 0. 0. 0. 0. 0. 0. 0. 0. 0. 0. 0.
      0. 0. 0. 0. 1.78253115e-003 0. 0. 1.78253115e-003 0. 0. 0.
      1.78253115e-003 3.56506230e-003 0. 0. 0. 0. 0. 0. 0. 0. 0. 0. 0.
      0. 0. 0. 0. 0. 0. 0. 3.56506230e-003 0. 0. 0. 0. 0. 0. 0. 0. 0. 0.
      0. 0. 0. 0. 0. 0. 0. 0. 0. 0. 0. 0. 0. 0. 0. 0. 0. 0. 0. 0. 0. 0.
      0. 0. 0. 0. 0. 0. 0. 1.78253115e-003 0. 0. 0. 0. 0. 0. 0. 0. 0. 0.
      0. 0. 0. 0. 0. 0. 0. 0. 0. 0. 0. 0. 0. 0. 0. 0. 0. 1.78253115e-003
      0. 1.78253115e-003 0. 0. 0. 1.78253115e-003 0. 0. 0.
      5.34759369e-003 0. 0. 0. 1.78253115e-003 0. 1.78253115e-003 0. 0.
      0. 0. 0. 0. 0. 0. 0. 0. 0. 0. 0. 0. 0. 0. 0. 0. 0. 0.
      1.78253115e-003 0. 0. 0. 0. 0. 0. 0. 0. 0. 0. 0. 0. 0. 0. 0. 0. 0.
      0. 0. 0. 0. 0. 0. 0. 0. 0. 0. 0. 0. 0. 0. 0. 0. 0. 0.
      5.34759369e-003 0. 0. 0. 0. 0. 0. 0. 0. 0. 1.24777183e-002 0. 0.
      0. 0. 0. 0. 0. 0. 0. 0. 0. 0. 0. 0. 0. 0. 0. 0. 0. 0. 0. 0.
      3.56506230e-003 0. 0. 0. 1.78253115e-003 0. 0. 0. 0. 0. 0. 0. 0.
      1.78253115e-003 0. 0. 0. 0. 0. 0. 0. 1.78253115e-003 0.
      5.34759369e-003 0. 0. 0. 0. 0. 0. 0. 0. 0. 0. 0. 0. 0. 0. 0. 0. 0.
      0. 0. 0. 0. 0. 0. 0. 3.56506230e-003 0. 1.78253115e-003 0. 0. 0.
      0. 0. 0. 0. 0. 0. 0. 0. 0. 0. 0. 0. 0. 0. 0. 0. 0. 0.
      1.78253115e-003 0. 0. 0. 0. 0. 0. 0. 0. 0. 0. 0. 0. 0. 0. 0. 0.</_>
    <_>
      0. 0. 0. 0. 0. 3.26797389e-003 0. 0. 0. 0. 0. 0. 0. 0. 0. 0. 0. 0.
      0. 0. 0. 0. 0. 0. 0. 0. 0. 1.63398695e-003 0. 0. 0. 0. 0. 0. 0. 0.
      0. 0. 0. 0. 0. 0. 0. 0. 0. 0. 0. 0. 0. 0. 0. 0. 0. 0. 0. 0. 0. 0.
      0. 0. 0. 0. 0. 0. 0. 0. 0. 0. 0. 0. 1.30718956e-002 0. 0. 0. 0. 0.
      0. 4.90196096e-003 0. 0. 0. 0. 0. 0. 0. 0. 0. 0. 0. 0. 0. 0. 0. 0.
      0. 0. 0. 0. 4.90196096e-003 0. 0. 0. 0. 0. 0. 0. 0. 0. 0. 0. 0. 0.
      0. 0. 0. 0. 4.90196096e-003 0. 0. 0. 0. 0. 0. 0. 0. 0. 0. 0. 0. 0.
      0. 0. 0. 0. 0. 0. 0. 0. 0. 0. 0. 0. 0. 0. 0. 0. 0. 0. 0.
      1.63398695e-003 0. 0. 0. 0. 0. 0. 0. 0. 0. 0. 0. 0. 0. 0. 0. 0. 0.
      0. 0. 0. 0. 0. 0. 0. 0. 0. 3.26797389e-003 6.53594779e-003 0.
      1.63398695e-003 0. 0. 0. 0. 0. 0. 0. 0. 0. 0. 0. 0. 0. 0.
      3.26797389e-003 0. 0. 0. 0. 0. 0. 0. 0. 0. 0. 0. 0. 0. 0. 0. 0. 0.
      0. 0. 0. 0. 0. 0. 0. 0. 0. 0. 0. 0. 0. 0. 0. 0. 0. 0. 0. 0. 0. 0.
      0. 1.63398695e-003 0. 0. 0. 0. 0. 0. 1.63398695e-003 0. 0.
      1.63398695e-003 0. 0. 0. 0. 0. 0. 0. 0. 0. 0. 1.30718956e-002 0.
      0. 0. 0. 0. 0. 0. 0. 0. 0. 0. 0. 0. 0. 0. 0. 0. 0. 0. 0.
      1.63398695e-003 1.63398695e-003 0. 0. 0. 0. 0. 0. 0. 0. 0. 0. 0.
      0. 0. 1.63398695e-003 0. 0. 0. 0. 0. 0. 0. 0. 0. 0. 0. 0. 0. 0. 0.
      0. 0. 0. 0. 0. 0. 0. 0. 0. 0. 0. 0. 0. 0. 0. 0. 0. 0. 0. 0. 0. 0.
      0. 0. 0. 0. 0. 0. 0. 0. 0. 0. 0. 0. 0. 0. 0. 9.80392192e-003 0. 0.
      0. 0. 0. 0. 0. 1.30718956e-002 0. 0. 0. 0. 1.63398695e-003 0. 0.
      0. 0. 0. 0. 0. 0. 0. 0. 0. 0. 0. 0. 0. 0. 0. 1.63398695e-003 0. 0.
      0. 0. 0. 0. 0. 0. 2.45098043e-002 0. 0. 0. 0. 0. 0. 0. 0. 0. 0. 0.
      0. 0. 0. 0. 0. 0. 0. 0. 0. 0. 0. 0. 0. 8.16993508e-003 0. 0. 0. 0.
      0. 0. 0. 0. 0. 0. 0. 0. 0. 0. 0. 0. 0. 0. 0. 0. 0. 0. 0. 0. 0.
      1.63398695e-003 0. 0. 4.90196096e-003 0. 0. 0. 0. 0. 0. 0.
      1.63398695e-003 0. 0. 0. 0. 0. 0. 0. 0. 0. 0. 0. 0.
      8.16993508e-003 0. 0. 0. 0. 0. 0. 0. 0. 0. 0. 0. 0. 0. 0. 0. 0. 0.
      0. 4.90196096e-003 0. 0. 0. 0. 0. 0. 0. 0. 0. 0. 0. 0. 0. 0.
      1.63398695e-003 0. 0. 0. 0. 0. 0. 0. 0. 0. 0. 0. 0. 0. 0. 0. 0. 0.
      0. 0. 0. 0. 0. 0. 0. 0. 0. 0. 0. 0. 0. 0. 0. 0. 0. 6.53594779e-003
      0. 0. 0. 8.16993508e-003 0. 0. 0. 0. 0. 0. 0. 0. 0. 0. 0. 0. 0. 0.
      0. 0. 0. 0. 0. 0. 0. 0. 0. 0. 1.96078438e-002 0. 0. 0. 0. 0. 0. 0.
      0. 0. 0. 0. 0. 0. 0. 0. 0. 0. 0. 0. 0. 0. 0. 0. 0. 0. 0. 0. 0. 0.
      0. 0. 0. 3.26797389e-003 0. 0. 0. 0. 0. 0. 0. 0. 0. 0. 0.
      1.63398695e-003 0. 0. 0. 0. 0. 0. 0. 0. 0. 0. 0. 0. 0. 0. 0. 0. 0.
      0. 0. 0. 0. 0. 0. 0. 0. 0. 0. 0. 0. 0. 0. 0. 0. 0. 0.
      3.26797389e-003 0. 0. 0. 0. 0. 0. 0. 0. 0. 0. 0. 0. 0. 0. 0. 0. 0.
      0. 0. 0. 0. 0. 0. 0. 0. 0. 0. 0. 0. 0. 0. 0. 0. 0. 0. 0. 0. 0. 0.
      0. 0. 0. 0. 0. 0. 0. 0. 0. 3.26797389e-003 0. 0. 0. 0. 0. 0. 0. 0.
      0. 0. 1.63398695e-003 0. 0. 0. 0. 0. 0. 0. 0. 0. 0. 0. 0. 0. 0. 0.
      0. 0. 3.26797389e-003 0. 0. 0. 0. 0. 0. 1.63398695e-003 0. 0. 0.
      0. 0. 0. 0. 0. 0. 0. 0. 0. 0. 0. 0. 0. 0. 1.63398695e-003
      6.53594779e-003 0. 0. 0. 0. 0. 0. 0. 0. 0. 0. 0. 0. 0. 0. 0. 0. 0.
      0. 0. 0. 0. 0. 0. 0. 0. 0. 0. 0. 1.47058824e-002 0. 0. 0. 0. 0. 0.
      0. 0. 0. 0. 0. 0. 0. 0. 0. 0. 0. 0. 0. 0. 0. 0. 0. 0. 0. 0. 0. 0.
      0. 0. 0. 0. 0. 0. 0. 0. 0. 1.63398695e-003 0. 0. 0. 0. 0. 0. 0. 0.
      0. 0. 0. 0. 0. 0. 0. 0. 0. 0. 0. 0. 0. 0. 0. 0. 0. 0. 0. 0. 0. 0.
      4.90196096e-003 0. 1.30718956e-002 0. 0. 0. 0. 0. 0. 0. 0. 0. 0.
      0. 0. 0. 0. 0. 0. 0. 0. 0. 0. 0. 0. 0. 0. 0. 0. 0. 0. 0. 0. 0.
      3.26797389e-003 0. 0. 0. 0. 0. 1.63398695e-003 0. 0. 0. 0. 0. 0.
      0. 0. 0. 0. 0. 0. 0. 0. 0. 0. 0. 0. 0. 0. 0. 0. 0. 0. 0.
      3.26797389e-003 0. 0. 0. 0. 0. 1.63398695e-003 0. 0. 0. 0. 0.
      1.79738570e-002 0. 0. 0. 0. 0. 0. 0. 0. 0. 0. 0. 0. 0. 0.
      1.63398695e-003 0. 0. 0. 0. 0. 0. 0. 0. 0. 0. 0. 0. 0. 0. 0. 0. 0.
      0. 0. 0. 0. 4.73856218e-002 0. 0. 1.47058824e-002 0. 0. 0. 0. 0.
      0. 0. 0. 0. 0. 1.63398695e-003 0. 0. 0. 0. 0. 0. 0. 0. 0. 0. 0. 0.
      0. 0. 0. 0. 0. 0. 0. 0. 0. 1.63398695e-003 1.63398695e-003 0. 0.
      1.63398695e-003 0. 0. 0. 1.63398695e-003 0. 3.26797389e-003 0. 0.
      0. 0. 1.63398695e-003 0. 0. 0. 0. 0. 0. 0. 0. 0. 0.
      1.63398695e-003 0. 0. 0. 0. 3.26797389e-003 0. 0. 0. 0. 0. 0. 0.
      0. 0. 0. 0. 0. 0. 0. 0. 0. 0. 0. 0. 0. 0. 0. 0. 0. 0. 0. 0. 0. 0.
      0. 0. 0. 0. 0. 0. 0. 0. 0. 0. 0. 0. 0. 0. 0. 0. 0. 0. 0. 0. 0. 0.
      0. 0. 0. 0. 0. 0. 0. 0. 0. 0. 0. 0. 0. 0. 0. 0. 0. 0. 0. 0. 0. 0.
      0. 0. 0. 0. 0. 0. 0. 0. 0. 0. 0. 0. 0. 0. 0. 0. 0. 0. 0. 0. 0. 0.
      0. 0. 0. 0. 0. 0. 0. 0. 0. 0. 0. 0. 0. 9.80392192e-003 0. 0. 0. 0.
      0. 0. 0. 0. 0. 0. 0. 0. 0. 0. 0. 0. 0. 0. 0. 0. 0. 3.26797389e-003
      0. 0. 0. 0. 0. 0. 0. 0. 0. 0. 0. 0. 0. 0. 0. 0. 0. 0. 0. 0. 0. 0.
      0. 0. 3.26797389e-003 0. 0. 0. 0. 0. 0. 0. 0. 0. 0.
      1.63398695e-003 0. 0. 0. 0. 0. 0. 0. 1.47058824e-002 0. 0. 0. 0.
      0. 0. 0. 0. 0. 1.63398695e-003 0. 0. 0. 0. 0. 0. 0. 0. 0. 0. 0. 0.
      0. 0. 0. 0. 0. 0. 0. 0. 0. 0. 0. 0. 0. 0. 0. 0. 0. 0. 0. 0. 0.
      4.90196096e-003 0. 0. 0. 0. 0. 0. 0. 0. 0. 0. 0. 0. 0.
      1.63398702e-002 0. 0. 0. 0. 0. 1.63398695e-003 0. 0. 0. 0. 0. 0.
      0. 0. 0. 1.63398695e-003 0. 0. 0. 0. 0. 0. 0. 0. 0. 0. 0. 0. 0. 0.
      0. 0. 0. 0. 0. 0. 0. 0. 0. 0. 0. 0. 0. 0. 0. 0. 0. 0. 0. 0. 0.
      3.26797389e-003 0. 0. 0. 0. 0. 0. 0. 0. 1.63398695e-003 0. 0. 0.
      0. 0. 0. 0. 6.53594779e-003 0. 0. 0. 1.63398695e-003 0. 0. 0. 0.
      0. 0. 0. 0. 0. 0. 0. 0. 0. 0. 0. 0. 0. 0. 0. 0. 0. 0. 0. 0. 0. 0.
      0. 0. 0. 1.63398695e-003 0. 0. 0. 0. 0. 0. 0. 0. 0. 0. 0. 0. 0.
      3.26797389e-003 0. 1.63398695e-003 0. 0. 0. 0. 0. 0.
      1.63398695e-003 0. 0. 0. 0. 0. 0. 0. 0. 0. 0. 1.63398695e-003 0.
      0. 0. 0. 1.63398695e-003 0. 4.90196096e-003 0. 0. 2.45098043e-002
      0. 0. 0. 0. 0. 0. 0. 0. 0. 0. 0. 0. 0. 0. 0. 0. 0. 0. 0. 0. 0. 0.
      0. 0. 0. 0. 0. 0. 0. 0. 0. 0. 0. 0. 0. 0. 0. 0. 0. 0. 0. 0. 0. 0.
      0. 0. 0. 0. 0. 0. 0. 0. 3.10457516e-002 0. 0. 0. 0. 0. 0. 0. 0. 0.
      0. 1.63398695e-003 0. 0. 0. 0. 0. 0. 1.30718956e-002 0. 0. 0. 0.
      0. 0. 0. 0. 0. 0. 0. 0. 0. 0. 0. 0. 0. 0. 0. 0. 0. 0. 0.
      3.26797389e-003 0. 1.63398695e-003 0. 0. 0. 0. 6.53594779e-003 0.
      0. 1.63398695e-003 0. 0. 0. 0. 0. 0. 0. 0. 0. 0. 0. 0. 0. 0. 0. 0.
      0. 0. 0. 0. 0. 0. 0. 0. 0. 0. 0. 0. 0. 1.63398695e-003 0. 0. 0. 0.
      0. 0. 0. 0. 0. 0. 0. 0. 0. 0. 0. 0. 0. 0. 0. 0. 0. 0. 0. 0. 0. 0.
      0. 0. 0. 0. 0. 0. 0. 0. 0. 0. 0. 0. 4.90196096e-003 0. 0. 0. 0. 0.
      0. 3.26797389e-003 0. 0. 0. 0. 0. 0. 0. 0. 0. 0. 0. 0. 0. 0. 0. 0.
      0. 0. 0. 0. 0. 0. 0. 0. 0. 0. 0. 0. 0. 0. 0. 0. 0. 0. 0.
      3.26797389e-003 0. 0. 0. 1.63398695e-003 0. 0. 0. 0. 0. 0. 0. 0.
      0. 0. 0. 0. 0. 0. 0. 0. 0. 0. 0. 0. 0. 0. 0. 0. 0. 4.90196096e-003
      9.80392192e-003 0. 0. 0. 0. 0. 0. 0. 0. 0. 0. 0. 0.
      1.63398695e-003 0. 0. 0. 0. 0. 0. 0. 0. 0. 0. 0. 8.16993508e-003
      0. 0. 0. 0. 0. 0. 0. 0. 0. 0. 0. 0. 0. 0. 0. 0. 0. 0. 0. 0. 0. 0.
      0. 0. 0. 0. 0. 0. 0. 0. 0. 0. 0. 0. 0. 0. 1.63398695e-003 0. 0. 0.
      0. 0. 0. 0. 0. 0. 0. 0. 0. 0. 0. 0. 0. 0. 0. 0. 0. 0. 0. 0. 0. 0.
      1.63398695e-003 0. 0. 0. 0. 0. 0. 0. 0. 0. 0. 0. 0. 0. 0. 0. 0. 0.
      0. 0. 0. 0. 0. 0. 0. 0. 0. 0. 0. 1.63398695e-003 0. 0. 0. 0. 0. 0.
      0. 0. 0. 0. 0. 0. 0. 0. 0. 0. 0. 0. 0. 0. 0. 0. 0. 0. 0.
      1.63398695e-003 0. 0. 0. 0. 0. 0. 0. 0. 0. 0. 0. 0. 0. 0. 0. 0. 0.
      0. 0. 0. 0. 0. 0. 0. 0. 0. 0. 0. 0. 0. 0. 0. 0. 0. 0. 0. 0. 0. 0.
      0. 0. 0. 0. 0. 0. 0. 0. 6.53594779e-003 0. 0. 0. 0. 0. 0. 0. 0. 0.
      0. 0. 0. 0. 0. 0. 0. 0. 0. 0. 0. 0. 0. 0. 0. 0. 0. 3.10457516e-002
      0. 0. 4.90196096e-003 0. 0. 0. 0. 0. 0. 0. 0. 0. 0. 0. 0. 0. 0. 0.
      0. 0. 0. 0. 0. 0. 0. 0. 0. 0. 0. 0. 0. 1.63398695e-003 0. 0. 0. 0.
      3.26797389e-003 0. 0. 0. 3.26797389e-003 0. 8.16993508e-003 0. 0.
      1.63398695e-003 0. 0. 0. 0. 0. 0. 0. 0. 2.12418307e-002 0. 0. 0.
      0. 0. 0. 0. 0. 0. 0. 0. 0. 1.63398695e-003 0. 0. 0. 0. 0. 0. 0. 0.
      0. 0. 0. 0. 0. 0. 0. 0. 0. 0. 0. 0. 0. 0. 0. 0. 0. 0. 0. 0. 0. 0.
      1.63398695e-003 0. 0. 0. 0. 0. 0. 0. 0. 0. 0. 0. 0. 0. 0. 0. 0. 0.
      0. 0. 0. 0. 0. 0. 0. 0. 1.96078438e-002 0. 0. 0. 0. 0. 0. 0. 0. 0.
      0. 0. 0. 3.26797389e-003 0. 1.63398695e-003 0. 0. 0. 0. 0. 0. 0.
      0. 0. 1.63398695e-003 1.63398695e-003 1.63398695e-003 0. 0. 0. 0.
      0. 0. 0. 0. 0. 6.53594779e-003 3.26797389e-003 0. 0. 0. 0. 0. 0.
      0. 0. 0. 0. 0. 0. 0. 0. 0. 0. 0. 0. 0. 0. 0. 0. 0. 0. 0. 0.
      1.63398695e-003 0. 0. 0. 0. 0. 0. 0. 0. 0. 0. 0. 0.
      5.88235296e-002 0. 9.80392192e-003 0. 0. 0. 0. 0. 0. 0. 0. 0. 0.
      0. 0. 0. 0. 0. 0. 0. 0. 0. 0. 0. 0. 0. 0. 0. 0. 0. 0. 0. 0. 0. 0.
      0. 0. 0. 0. 0. 0. 0. 0. 0. 0. 0. 0. 1.63398695e-003 0. 0. 0. 0. 0.
      0. 0. 0. 0. 0. 0. 0. 0. 0. 0. 0. 0. 0. 0. 0. 0. 0. 0. 0. 0. 0. 0.
      0. 0. 0. 0. 0. 0. 0. 0. 0. 3.26797389e-003 0. 0. 1.63398695e-003
      1.63398695e-003 0. 0. 0. 0. 0. 0. 0. 0. 0. 0. 0. 0. 0. 0. 0. 0. 0.
      0. 0. 0. 0. 0. 0. 3.26797389e-003 0. 0. 0. 0. 0. 0. 0. 0. 0. 0. 0.
      0. 0. 0. 0. 0. 0. 0. 0. 0. 0. 0. 0. 0. 0. 0. 0. 0. 0.
      1.63398695e-003 0. 0. 0. 0. 0. 0. 4.57516350e-002 0. 0.
      6.53594779e-003 0. 0. 0. 0. 0. 0. 1.63398695e-003 0. 0. 0. 0. 0.
      0. 0. 0. 0. 0. 1.63398695e-003 0. 0. 0. 0. 0. 0. 0. 0. 0. 0. 0. 0.
      0. 0. 0. 0. 1.63398695e-003 0. 0. 0. 0. 0. 0. 0. 0. 0. 0. 0. 0.
      6.53594779e-003 0. 0. 0. 0. 0. 0. 0. 0. 0. 0. 0. 0. 0. 0. 0.
      3.26797389e-003 0. 0. 0. 0. 0. 0. 0. 0. 0. 0. 0. 0. 0. 0. 0. 0. 0.
      0. 0. 0. 0. 0. 0. 0. 0. 0. 0. 0. 0. 0. 0. 0. 0. 0. 1.63398695e-003
      0. 0. 0. 0. 0. 0. 0. 0. 0. 0. 0. 0. 0. 0. 0. 0. 0. 0. 0. 0. 0. 0.
      0. 0. 0. 0. 0. 0. 0. 0. 0. 0. 0. 0. 0. 0. 0. 0. 0. 0. 0. 0. 0.
      8.16993508e-003 0. 0. 0. 0. 0. 0. 0. 0. 0. 0. 0. 0. 0. 0. 0. 0. 0.
      0. 0. 0. 0. 0. 0. 0. 0. 0. 0. 0. 0. 0. 0. 0. 0. 0. 0. 0. 0. 0. 0.
      0. 0. 0. 0. 0. 0. 0. 0. 0. 0. 0. 0. 0. 1.63398695e-003 0. 0. 0. 0.
      0. 0. 0. 0. 0. 0. 0. 0. 0. 0. 0. 0. 0. 0. 0. 0. 0. 0. 0. 0. 0. 0.
      6.53594779e-003 0. 0. 0. 0. 0. 0. 0. 0. 0. 0. 0. 0. 0. 0. 0. 0. 0.
      0. 0. 0. 0. 0. 0. 0. 0. 0. 0. 0. 0. 0. 0. 0. 0. 0. 0. 0. 0. 0. 0.
      0. 0. 0. 0. 0. 0. 6.53594779e-003 0. 0. 0. 0. 0. 0. 0. 0. 0. 0. 0.
      0. 0. 0. 0. 0. 4.90196096e-003 0. 0. 3.26797389e-003 0. 0. 0. 0.
      0. 0. 0. 0. 0. 0. 0. 0. 0. 0. 0. 0. 0. 0. 1.63398695e-003 0.
      4.90196096e-003 0. 0. 0. 0. 2.61437912e-002 0. 0. 0. 0. 0. 0. 0.
      0. 1.63398695e-003 0. 0. 0. 0. 0. 0. 0. 0. 0. 0. 0. 0. 0. 0. 0. 0.
      0. 0. 0. 0. 0. 0. 0. 1.63398695e-003 0. 0. 0. 0. 0. 0. 0. 0. 0. 0.
      0. 0. 0. 0. 0. 0. 0. 0. 0. 0. 0. 0. 0. 0. 0. 0. 0. 0. 0. 0. 0. 0.
      0. 0. 0. 0. 0. 0. 0. 0. 0. 0. 0. 0. 0. 0. 0. 0. 0. 0. 0. 0. 0. 0.
      1.63398695e-003 0. 0. 0. 0. 0. 0. 0. 0. 0. 0. 0. 0. 0. 0. 0. 0. 0.
      0. 0. 0. 0. 1.63398695e-003 0. 0. 0. 0. 0. 0. 0. 0. 0. 0. 0. 0. 0.
      0. 0. 0. 0. 0. 0. 0. 0. 0. 0. 0. 0. 0. 0. 0. 0. 0. 0. 0. 0.
      1.63398695e-003 0. 0. 0. 1.30718956e-002 0. 0. 0. 0. 0. 0. 0. 0.
      0. 0. 0. 0. 0. 1.63398695e-003 0. 0. 0. 0. 0. 0. 0. 0. 0. 0.
      1.63398695e-003 0. 0. 0. 0. 0. 0. 0. 0. 0. 0. 0. 0. 0. 0. 0. 0. 0.
      0. 0. 0. 0. 0. 0. 0. 0. 0. 0. 0. 0. 0. 0. 0. 0. 0. 0. 0. 0. 0. 0.
      0. 0. 0. 0. 0. 0. 0. 0. 0. 0. 0. 0. 0. 0. 0. 0. 0. 0.
      1.63398695e-003 0. 0. 0. 0. 0. 0. 0. 0. 3.26797389e-003 0.
      6.53594779e-003 0. 0. 0. 0. 0. 0. 0. 0. 0. 0. 0. 0. 0. 0. 0. 0. 0.
      0. 0. 0. 0. 0. 0. 0. 0. 0. 0. 0. 0. 0. 0. 0. 0. 0. 0. 0. 0. 0. 0.
      1.63398695e-003 0. 0. 0. 0. 0. 1.63398695e-003 0. 0. 0. 0. 0. 0.
      0. 0. 0. 0. 0. 0. 0. 0. 0. 1.63398695e-003 0. 0. 0. 0. 0. 0. 0. 0.
      0. 0. 0. 0. 0. 3.26797389e-003 0. 0. 0. 0. 0. 0. 0. 0. 0. 0. 0. 0.
      0. 0. 0. 0. 0. 0. 0. 0. 0. 0. 0. 0. 0. 0. 0. 0. 0. 0. 0. 0.
      1.63398695e-003 0. 0. 0. 0. 0. 0. 0. 0. 0. 0. 0. 0. 0. 0. 0. 0. 0.
      0. 0. 0. 0. 0. 0. 0. 0. 0. 0. 0. 0. 0. 0. 0. 0. 2.28758175e-002 0.
      1.63398695e-003 0. 0. 0. 0. 0. 0. 0. 0. 0. 0. 0. 0. 0. 0. 0. 0.
      4.90196096e-003 0. 0. 0. 0. 0. 0. 0. 1.63398695e-003 0. 0. 0. 0.
      0. 0. 0. 1.63398695e-003 3.26797389e-003 0. 0. 0. 0. 0. 0. 0. 0.
      0. 0. 0. 0. 0. 0. 0. 0. 0. 0. 0. 0. 1.63398695e-003 0. 0. 0.
      1.63398695e-003 0. 0. 0. 0. 0. 0. 0. 0. 0. 0. 0. 0. 0. 0.</_>
    <_>
      0. 0. 0. 0. 0. 3.26797389e-003 0. 0. 0. 3.26797389e-003 0. 0. 0.
      0. 0. 0. 0. 4.90196096e-003 0. 0. 0. 0. 0. 0. 0. 0. 0.
      6.53594779e-003 0. 1.63398695e-003 0. 0. 0. 0. 0. 0. 0. 0. 0. 0.
      0. 0. 1.63398695e-003 0. 0. 4.90196096e-003 0. 0. 0. 0. 0. 0. 0.
      0. 0. 0. 0. 0. 0. 0. 0. 0. 0. 0. 0. 0. 0. 0. 0. 0. 4.90196096e-003
      0. 0. 0. 0. 0. 0. 2.61437912e-002 1.63398695e-003 1.63398695e-003
      0. 0. 3.26797389e-003 0. 4.90196096e-003 3.26797389e-003 0. 0. 0.
      0. 0. 0. 0. 0. 0. 0. 0. 0. 0. 0. 0. 0. 0. 0. 0. 0. 0. 0. 0. 0. 0.
      0. 0. 1.63398695e-003 0. 0. 0. 0. 1.63398695e-003 0. 0. 0. 0. 0.
      0. 1.63398695e-003 0. 0. 0. 0. 0. 0. 0. 0. 0. 0. 0. 0. 0.
      3.26797389e-003 0. 0. 0. 0. 0. 0. 0. 0. 0. 1.63398695e-003 0. 0.
      0. 0. 0. 0. 0. 0. 8.16993508e-003 0. 0. 0. 0. 1.63398695e-003 0.
      0. 0. 0. 0. 0. 0. 0. 0. 0. 0. 0. 0. 1.63398695e-003 0. 0. 0. 0. 0.
      0. 0. 0. 0. 0. 0. 0. 0. 0. 0. 0. 0. 0. 0. 0. 0. 0. 3.26797389e-003
      0. 0. 0. 0. 0. 0. 0. 0. 0. 0. 0. 0. 0. 0. 0. 0. 0. 0. 0. 0. 0. 0.
      1.63398695e-003 6.53594779e-003 0. 0. 1.14379087e-002 0. 0. 0. 0.
      0. 0. 0. 0. 0. 0. 0. 0. 0. 1.63398695e-003 0. 0. 0.
      1.63398695e-003 0. 0. 0. 0. 0. 0. 0. 0. 0. 0. 6.53594779e-003 0.
      0. 0. 0. 0. 0. 0. 8.16993508e-003 0. 1.63398695e-003 0. 0. 0. 0.
      0. 0. 0. 0. 0. 0. 0. 0. 0. 0. 0. 3.26797389e-003 0. 0.
      1.63398695e-003 0. 0. 0. 0. 0. 0. 4.90196096e-003 0. 0. 0. 0. 0.
      0. 0. 0. 0. 0. 0. 0. 0. 0. 0. 0. 0. 0. 0. 0. 0. 0. 0. 0. 0. 0. 0.
      0. 0. 0. 0. 0. 0. 0. 0. 0. 0. 0. 0. 0. 0. 0. 1.14379087e-002 0. 0.
      0. 0. 0. 0. 0. 0. 0. 0. 0. 0. 0. 0. 0. 0. 0. 0. 0. 0. 0. 0. 0. 0.
      0. 0. 0. 0. 0. 0. 0. 0. 0. 0. 0. 0. 0. 0. 0. 0. 1.63398695e-003 0.
      0. 0. 0. 0. 0. 0. 0. 0. 0. 0. 0. 0. 0. 0. 0. 0. 0. 0. 0. 0. 0. 0.
      0. 0. 0. 0. 0. 0. 0. 0. 0. 0. 0. 0. 1.63398695e-003 0. 0. 0. 0.
      1.63398695e-003 0. 0. 0. 0. 0. 0. 0. 0. 0. 0. 0. 0. 0. 0. 0. 0. 0.
      0. 0. 0. 0. 0. 0. 0. 0. 0. 0. 0. 0. 0. 0. 0. 0. 0. 6.53594779e-003
      0. 1.63398695e-003 0. 0. 0. 0. 0. 0. 0. 0. 0. 0. 0. 0. 0. 0. 0. 0.
      0. 1.63398695e-003 0. 0. 0. 0. 0. 0. 0. 0. 0. 0. 0. 0. 0. 0. 0. 0.
      0. 0. 0. 0. 0. 0. 0. 0. 0. 0. 0. 0. 0. 0. 0. 0. 0. 0. 0.
      1.63398695e-003 0. 0. 0. 0. 0. 0. 0. 0. 0. 0. 0. 0. 0. 0. 0. 0. 0.
      0. 0. 0. 1.63398695e-003 0. 0. 0. 0. 0. 0. 0. 0. 4.90196096e-003
      0. 0. 0. 0. 0. 0. 0. 0. 0. 0. 0. 0. 0. 0. 0. 0. 0. 0. 0.
      1.30718956e-002 0. 0. 3.26797389e-003 0. 0. 3.26797389e-003 0. 0.
      0. 0. 0. 0. 0. 3.26797389e-003 0. 0. 0. 0. 1.63398695e-003 0. 0.
      0. 0. 0. 0. 0. 0. 0. 3.26797389e-003 1.63398695e-003
      1.63398695e-003 0. 0. 0. 0. 0. 0. 0. 0. 0. 0. 3.26797389e-003 0.
      0. 0. 0. 0. 0. 0. 0. 0. 0. 0. 0. 0. 0. 0. 0. 0. 0. 0. 0. 0. 0. 0.
      0. 0. 0. 3.26797389e-003 0. 0. 0. 0. 0. 0. 0. 0. 0. 0. 0. 0. 0. 0.
      0. 0. 0. 0. 0. 0. 0. 0. 0. 0. 0. 0. 0. 0. 0. 0. 0. 0. 0. 0. 0. 0.
      0. 0. 0. 0. 0. 0. 0. 0. 0. 0. 0. 0. 0. 0. 0. 0. 0. 0.
      3.26797389e-003 0. 0. 0. 0. 0. 0. 0. 0. 0. 0. 0. 0. 0. 0.
      4.90196096e-003 0. 0. 3.26797389e-003 0. 0. 0. 0. 0. 0. 0. 0. 0.
      0. 0. 0. 0. 0. 0. 0. 1.63398695e-003 0. 0. 1.63398695e-003 0. 0.
      4.90196096e-003 0. 0. 0. 0. 0. 0. 0. 0. 0. 0. 1.63398695e-003 0.
      0. 0. 0. 0. 0. 0. 0. 3.26797389e-003 4.90196096e-003 0. 0.
      1.63398695e-003 0. 0. 0. 0. 0. 0. 0. 1.63398695e-003 0. 0. 0. 0.
      0. 0. 3.26797389e-003 0. 0. 0. 1.63398695e-003 0. 0. 0. 0. 0.
      3.26797389e-003 0. 0. 0. 0. 0. 0. 0. 0. 1.63398695e-003 0. 0. 0.
      0. 0. 0. 0. 0. 0. 0. 0. 0. 0. 0. 1.63398695e-003 0. 0. 0. 0. 0. 0.
      0. 0. 0. 0. 0. 0. 0. 0. 0. 0. 0. 1.63398695e-003 0. 0. 0. 0. 0. 0.
      3.26797389e-003 0. 0. 3.26797389e-003 0. 0. 0. 0. 0.
      1.63398695e-003 0. 0. 0. 0. 0. 0. 0. 0. 0. 0. 0. 1.63398695e-003
      1.63398695e-003 0. 0. 0. 0. 0. 1.63398695e-003 0. 1.63398695e-003
      0. 0. 0. 0. 0. 0. 0. 0. 0. 0. 0. 0. 0. 0. 0. 4.90196096e-003 0. 0.
      0. 0. 0. 0. 0. 0. 0. 0. 0. 0. 0. 0. 0. 0. 0. 0. 0. 0. 0.
      1.63398695e-003 0. 0. 0. 0. 0. 0. 0. 0. 0. 0. 0. 0. 0. 0. 0. 0. 0.
      0. 0. 0. 0. 0. 0. 0. 0. 0. 0. 0. 0. 2.61437912e-002 0. 0.
      1.63398695e-003 0. 0. 0. 0. 0. 0. 0. 0. 0. 0. 1.63398695e-003
      1.63398695e-003 0. 0. 0. 1.63398695e-003 0. 0. 0. 0. 0. 0. 0. 0.
      0. 0. 0. 0. 0. 0. 0. 0. 0. 8.16993508e-003 0. 0. 0. 0. 0.
      4.90196096e-003 0. 0. 0. 0. 0. 0. 0. 0. 0. 0. 0. 0. 0. 0. 0. 0. 0.
      0. 0. 1.63398695e-003 1.63398695e-003 0. 0. 0. 0. 0. 0. 0. 0.
      3.26797389e-003 1.63398695e-003 0. 0. 1.63398695e-003
      1.63398695e-003 0. 3.26797389e-003 0. 0. 1.63398695e-003 0. 0. 0.
      0. 1.30718956e-002 0. 0. 0. 6.53594779e-003 1.63398695e-003 0. 0.
      0. 0. 0. 0. 0. 0. 0. 0. 0. 0. 3.26797389e-003 0. 0. 0. 0. 0. 0. 0.
      0. 0. 0. 0. 0. 0. 0. 0. 0. 0. 0. 0. 1.63398695e-003 0. 0. 0. 0. 0.
      0. 0. 0. 0. 0. 0. 0. 0. 0. 0. 1.63398695e-003 0. 0. 0. 0. 0. 0. 0.
      0. 0. 0. 0. 0. 0. 0. 0. 0. 0. 0. 0. 1.63398695e-003 0. 0. 0. 0.
      8.16993508e-003 0. 0. 0. 0. 0. 0. 0. 0. 0. 0. 0. 0. 0. 0. 0. 0. 0.
      0. 0. 0. 0. 0. 0. 0. 0. 0. 0. 0. 0. 0. 0. 0. 0. 0. 0. 0. 0. 0. 0.
      0. 0. 0. 0. 1.63398695e-003 0. 4.90196096e-003 0. 0. 0. 0. 0. 0.
      0. 0. 0. 0. 0. 0. 0. 3.26797389e-003 0. 0. 0. 0. 0. 0. 0.
      3.26797389e-003 0. 0. 0. 1.63398695e-003 0. 0. 0. 0. 0. 0. 0. 0.
      0. 0. 0. 0. 0. 0. 0. 0. 0. 0. 0. 0. 0. 0. 0. 0. 0. 0. 0. 0. 0. 0.
      0. 8.16993508e-003 1.63398695e-003 0. 0. 0. 0. 0. 0.
      1.63398695e-003 0. 0. 0. 0. 0. 0. 1.63398695e-003 0. 0. 0. 0. 0.
      0. 0. 0. 0. 0. 0. 0. 0. 0. 0. 0. 0. 0. 0. 0. 0. 0. 0. 0. 0. 0. 0.
      0. 0. 0. 0. 0. 0. 0. 0. 0. 0. 0. 0. 0. 0. 0. 0. 0. 0. 0. 0. 0. 0.
      0. 0. 0. 0. 3.26797389e-003 0. 0. 0. 0. 0. 0. 0. 0.
      3.26797389e-003 0. 0. 0. 0. 0. 4.90196096e-003 0. 0. 0. 0. 0. 0.
      0. 0. 9.80392192e-003 0. 0. 0. 0. 0. 0. 0. 0. 0. 0. 0. 0. 0. 0. 0.
      0. 0. 0. 0. 0. 0. 0. 0. 0. 0. 0. 0. 0. 0. 0. 0. 0. 0. 0. 0. 0. 0.
      0. 0. 0. 0. 0. 0. 0. 0. 0. 0. 0. 0. 0. 1.63398695e-003 0. 0. 0. 0.
      0. 0. 0. 1.14379087e-002 0. 0. 0. 0. 0. 0. 0. 0. 0. 0. 0. 0. 0. 0.
      0. 0. 1.63398695e-003 0. 0. 0. 0. 0. 0. 0. 0. 0. 0. 0. 0. 0. 0. 0.
      1.63398695e-003 0. 0. 0. 0. 0. 0. 0. 0. 0. 0. 0. 0.
      1.14379087e-002 0. 0. 0. 0. 0. 0. 0. 0. 0. 0. 1.63398695e-003
      4.73856218e-002 0. 0. 1.63398695e-003 0. 0. 0. 0. 0. 0. 0. 0. 0.
      0. 0. 0. 0. 0. 0. 0. 0. 0. 0. 0. 0. 0. 0. 0. 0. 0. 0. 0. 0. 0. 0.
      0. 0. 0. 0. 0. 0. 0. 0. 0. 0. 0. 0. 0. 0. 0. 0. 0. 0. 0. 0. 0.
      1.63398695e-003 0. 0. 0. 0. 0. 0. 0. 0. 0. 4.90196096e-003 0. 0.
      0. 0. 0. 0. 0. 0. 0. 0. 0. 0. 0. 0. 0. 0. 0. 0. 0. 0. 0. 0. 0. 0.
      0. 0. 0. 1.63398695e-003 0. 0. 0. 0. 0. 6.53594779e-003 0. 0. 0.
      0. 6.53594779e-003 0. 3.26797389e-003 1.63398695e-003 0. 0. 0. 0.
      0. 0. 0. 0. 0. 0. 0. 0. 0. 0. 0. 1.63398695e-003 0.
      1.63398695e-003 0. 0. 0. 0. 0. 0. 0. 4.90196096e-003 0. 0. 0. 0.
      0. 0. 0. 0. 0. 0. 0. 0. 0. 0. 0. 0. 0. 0. 0. 0. 0. 0. 0. 0. 0. 0.
      0. 0. 0. 0. 0. 0. 1.63398695e-003 0. 0. 0. 0. 0. 0. 0. 0. 0.
      3.26797389e-003 0. 0. 0. 0. 0. 0. 1.63398695e-003 0.
      3.26797389e-003 0. 0. 0. 0. 0. 0. 4.90196096e-003 0. 0. 0. 0. 0.
      0. 0. 0. 0. 0. 0. 0. 0. 0. 0. 0. 0. 0. 0. 0. 0. 0. 0.
      1.63398695e-003 0. 0. 1.63398695e-003 0. 0. 0. 0. 0. 0. 0. 0. 0.
      0. 0. 0. 0. 0. 0. 0. 0. 0. 0. 1.63398695e-003 0. 0. 0.
      1.63398695e-003 0. 0. 0. 0. 0. 0. 6.53594779e-003 0. 0.
      1.63398695e-003 0. 0. 0. 0. 0. 0. 0. 0. 3.26797389e-003
      9.80392192e-003 0. 0. 4.90196096e-003 0. 0. 0. 0. 0. 0. 0. 0.
      3.26797389e-003 0. 0. 0. 0. 0. 0. 0. 0. 0. 0. 3.26797389e-003 0.
      0. 0. 0. 0. 0. 0. 0. 0. 0. 0. 0. 0. 0. 0. 0. 0. 0. 0. 0. 0. 0.
      1.63398695e-003 0. 0. 0. 0. 1.63398695e-003 0. 0. 0. 0. 0. 0. 0.
      0. 0. 0. 0. 0. 0. 0. 0. 0. 0. 0. 0. 0. 0. 0. 0. 0. 0. 0. 0. 0. 0.
      0. 0. 0. 0. 0. 0. 0. 0. 0. 0. 0. 0. 0. 0. 1.63398695e-003
      1.63398695e-003 0. 0. 0. 0. 0. 0. 0. 0. 0. 0. 0. 0. 0. 0. 0.
      6.53594779e-003 0. 0. 0. 0. 0. 0. 0. 0. 1.63398695e-003 0. 0. 0.
      0. 0. 0. 0. 0. 0. 0. 0. 0. 0. 0. 0. 0. 0. 0. 0. 0. 0. 0.
      1.63398695e-003 0. 0. 0. 0. 0. 0. 0. 0. 0. 0. 0. 0. 0. 0. 0. 0. 0.
      0. 0. 0. 0. 0. 0. 0. 0. 0. 0. 0. 0. 0. 0. 0. 0. 0. 0. 0. 0. 0. 0.
      0. 0. 0. 1.63398695e-003 0. 0. 0. 0. 0. 0. 0. 0. 0. 0. 0. 0. 0. 0.
      0. 0. 0. 1.63398695e-003 0. 0. 3.26797389e-003 0. 0. 0. 0. 0. 0.
      0. 0. 0. 0. 0. 0. 0. 0. 0. 1.63398695e-003 0. 0. 0. 0. 0. 0. 0. 0.
      0. 0. 0. 1.63398695e-003 0. 0. 0. 0. 0. 0. 0. 0. 0. 0. 0.
      6.04575165e-002 0. 0. 0. 0. 0. 0. 0. 0. 0. 0. 0. 0. 0. 0. 0. 0. 0.
      0. 0. 0. 0. 0. 0. 0. 0. 0. 0. 0. 0. 0. 0. 0. 0. 0. 0. 0. 0. 0. 0.
      0. 0. 0. 0. 0. 0. 0. 0. 0. 0. 0. 0. 0. 0. 0. 0. 2.28758175e-002 0.
      0. 0. 0. 0. 0. 0. 0. 0. 0. 0. 0. 0. 0. 0. 0. 0. 0. 0. 0. 0. 0.
      1.63398695e-003 0. 0. 0. 0. 0. 0. 0. 0. 0. 0. 0. 0. 0. 0. 0.
      1.63398695e-003 0. 0. 0. 0. 0. 0. 0. 0. 0. 0. 0. 0. 0. 0. 0. 0. 0.
      0. 0. 0. 0. 0. 0. 0. 0. 0. 0. 0. 0. 0. 0. 0. 0. 0. 0. 0. 0. 0. 0.
      0. 0. 0. 0. 0. 0. 3.26797389e-003 0. 0. 0. 0. 0. 0. 0. 0. 0. 0. 0.
      1.63398695e-003 0. 0. 0. 0. 0. 0. 1.63398702e-002 0. 0. 0.
      3.26797389e-003 0. 0. 0. 0. 0. 0. 0. 1.63398695e-003 0. 0. 0. 0.
      0. 0. 0. 0. 0. 0. 0. 0. 0. 0. 0. 0. 1.63398695e-003 0. 0. 0. 0. 0.
      0. 0. 1.63398695e-003 0. 0. 0. 0. 0. 0. 0. 0. 0. 0. 0. 0. 0. 0. 0.
      0. 0. 0. 0. 0. 0. 0. 1.63398695e-003 0. 0. 0. 0. 0. 0. 0.
      1.63398695e-003 0. 0. 0. 0. 0. 0. 0. 0. 0. 0. 0. 0. 0. 0. 0. 0. 0.
      0. 0. 0. 0. 0. 0. 0. 0. 0. 0. 3.26797389e-003 9.80392192e-003 0.
      0. 3.26797389e-003 0. 0. 0. 0. 0. 0. 1.79738570e-002 0. 0. 0. 0.
      0. 0. 0. 0. 0. 0. 0. 0. 0. 0. 3.26797389e-003 0. 0. 0. 0. 0. 0. 0.
      0. 0. 0. 0. 0. 3.26797389e-003 0. 0. 0. 0. 0. 0. 0. 0. 0. 0. 0. 0.
      0. 3.26797389e-003 0. 0. 0. 0. 0. 0. 0. 0. 0. 0. 0. 0.
      1.63398695e-003 0. 0. 0. 0. 0. 0. 0. 0. 0. 0. 0. 0. 0. 0. 0. 0. 0.
      0. 0. 1.63398695e-003 0. 0. 0. 0. 0. 0. 0. 0. 3.26797389e-003 0.
      0. 0. 0. 0. 0. 0. 0. 0. 0. 0. 0. 0. 0. 0. 0. 0. 0. 1.63398695e-003
      0. 0. 0. 0. 0. 0. 0. 0. 0. 0. 0. 0. 0. 0. 0. 0. 0. 0. 0. 0. 0. 0.
      0. 0. 0. 0. 4.90196096e-003 0. 0. 0. 0. 0. 0. 0. 1.63398695e-003
      0. 0. 0. 0. 0. 0. 0. 0. 4.90196096e-003 0. 3.26797389e-003 0. 0.
      0. 0. 0. 0. 0. 0. 0. 0. 0. 0. 0. 0. 0. 0. 1.63398695e-003 0. 0. 0.
      0. 0. 0. 1.63398695e-003 0. 0. 0. 0. 0. 0. 0. 0. 0. 0. 0. 0. 0. 0.
      0. 0. 0. 1.63398695e-003 0. 0. 0. 0. 0. 3.26797389e-003 0. 0. 0.
      6.53594779e-003 0. 0. 0. 0. 0. 0. 0. 0. 0. 0. 0. 0. 0. 0. 0. 0. 0.
      0. 0. 0. 0. 0. 0. 0. 0. 0. 0. 0. 0. 0. 0. 0. 0. 0. 0. 0.
      1.63398695e-003 0. 0. 0. 0. 0. 0. 0. 0. 0. 0. 0. 0. 0. 0. 0. 0. 0.
      0. 0. 1.63398695e-003 0. 0. 0. 0. 0. 0. 0. 0. 0. 0. 0. 0. 0. 0. 0.
      1.63398695e-003 0. 3.26797389e-003 0. 0. 0. 0. 0. 0. 0. 0. 0. 0.
      0. 1.63398695e-003 1.63398695e-003 0. 0. 0. 0. 0. 0. 0. 0. 0. 0.
      0. 0. 0. 0. 1.63398695e-003 0. 0. 0. 0. 0. 0. 0. 0. 0.
      4.90196096e-003 0. 0. 0. 1.63398695e-003 0. 0. 0. 0. 0. 0. 0. 0.
      0. 0. 0. 0. 0. 0. 0. 0. 0. 0. 0. 0. 0. 0. 0. 0. 0. 0. 0. 0. 0. 0.
      0. 0. 0. 0. 0. 0. 0. 0. 0. 0. 0. 8.16993508e-003 0. 0. 0.
      1.63398695e-003 0. 0. 0. 0. 1.63398695e-003 0. 0. 0.
      1.63398695e-003 0. 0. 0. 0. 0. 0. 0. 0. 0. 0. 0. 0. 0. 0. 0. 0. 0.
      0. 0. 0. 0. 0. 0. 0. 0. 0. 0. 0. 0. 0. 0. 0. 0. 0. 0. 0. 0. 0. 0.
      0. 0. 0. 0. 0. 0. 0. 0. 0. 0. 0. 0. 0. 0. 0. 0. 0. 0. 0. 0. 0. 0.
      0. 0. 0. 0. 0. 0. 1.63398695e-003 0. 0. 0. 0. 0. 0. 0. 0. 0. 0. 0.
      0. 0. 0. 0. 0. 0. 0. 0. 0. 0. 0. 0. 0. 1.63398695e-003 0. 0. 0. 0.
      0. 0. 0. 0. 0. 0. 0. 0. 0. 0. 0. 0. 0. 0. 0. 0. 0. 0. 0. 0. 0. 0.
      0. 0. 0. 0. 0. 0. 0. 0. 0. 0. 0. 0. 0. 0. 0. 1.63398695e-003 0. 0.
      0. 0. 0. 0. 0. 0. 0. 0. 0. 0. 0. 0. 0. 0. 0. 0. 0. 0. 0. 0. 0. 0.
      0. 0. 1.63398695e-003 0. 0. 0. 0. 0. 0. 0. 0. 0. 0. 0. 0. 0. 0. 0.
      1.63398695e-003 0. 0. 0. 0. 0. 0. 0. 0. 0. 0. 0. 0. 0. 0. 0. 0. 0.
      1.63398695e-003 0. 0. 0. 0. 0. 0. 0. 0. 1.63398695e-003 0. 0. 0.
      0. 0. 0. 0. 0. 0. 0. 0. 0. 0. 0. 1.63398695e-003 0. 0. 0. 0. 0. 0.
      3.26797389e-003 0. 0. 0. 0. 0. 0. 0. 0. 1.63398695e-003 0. 0. 0.
      0. 0. 0. 0. 0. 0. 1.63398695e-003 0. 0. 0. 0. 0. 0.
      2.12418307e-002 1.63398695e-003 0. 0. 0. 0. 0. 0. 0. 0. 0. 0. 0.
      0. 0. 0. 9.80392192e-003 0. 0. 0. 0. 0. 0. 0. 0. 0. 0. 0. 0. 0. 0.
      0. 0. 0. 0. 0. 0. 0. 0. 0. 0. 4.90196096e-003 1.63398695e-003 0.
      0. 0. 0. 0. 0. 0. 0. 0. 0. 0. 0. 0. 0. 0. 0. 0. 0. 0. 0. 0. 0.
      3.26797389e-003 0. 0. 0. 0. 0. 0. 0. 5.88235296e-002 0. 0. 0. 0.
      0. 0. 0. 0. 0. 0. 0. 0. 0. 0. 0. 0. 0. 0. 0. 0. 0. 0. 0. 0.
      6.53594779e-003 0. 0. 0. 0. 0. 0. 0. 0. 0. 0. 0. 0. 0. 0. 0. 0. 0.
      0. 0. 0. 1.63398695e-003 1.63398695e-003 0. 0. 0. 0. 0. 0. 0. 0.
      1.63398695e-003 0. 0. 0. 0. 0. 0. 0. 0. 0. 0. 0. 0. 0. 0. 0. 0. 0.
      0. 0. 0. 0. 0. 0. 0. 0. 0. 0. 0. 0. 0. 0. 0. 0. 0. 0. 0. 0. 0. 0.
      0. 0. 0. 0. 0. 0. 0. 0. 0. 8.16993508e-003 0. 0. 0. 0. 0. 0. 0. 0.
      0. 0. 0. 0. 0. 0. 0. 0.</_>
    <_>
      0. 0. 0. 0. 0. 0. 0. 1.63398695e-003 0. 0. 0. 0. 0. 0. 0. 0. 0. 0.
      0. 0. 0. 0. 3.26797389e-003 0. 0. 0. 0. 1.63398695e-003 0. 0. 0.
      0. 0. 0. 0. 0. 0. 0. 0. 0. 0. 1.63398695e-003 0. 0. 0. 0. 0. 0. 0.
      0. 0. 0. 0. 0. 0. 0. 0. 0. 0. 0. 0. 0. 0. 0. 0. 0. 0. 0. 0.
      1.63398695e-003 0. 0. 0. 0. 0. 0. 0. 1.63398695e-003 0. 0. 0. 0.
      0. 0. 0. 0. 4.90196096e-003 0. 1.63398695e-003 0. 0. 0.
      1.63398695e-003 0. 0. 0. 0. 0. 0. 1.63398695e-003 0. 0. 0. 0. 0.
      0. 1.63398695e-003 0. 0. 0. 0. 1.63398695e-003 0. 0. 0. 0. 0. 0.
      0. 0. 0. 1.63398695e-003 0. 0. 0. 0. 0. 0. 0. 1.63398695e-003 0.
      0. 0. 0. 0. 0. 4.90196096e-003 0. 0. 0. 0. 0. 0. 0. 0.
      3.26797389e-003 0. 0. 0. 0. 0. 0. 0. 0. 0. 0. 0. 0. 0. 0. 0. 0. 0.
      0. 1.14379087e-002 0. 0. 0. 0. 0. 0. 0. 0. 0. 0. 0. 0.
      3.26797389e-003 0. 0. 0. 0. 0. 0. 0. 1.63398695e-003 0. 0. 0. 0.
      0. 0. 0. 0. 0. 0. 0. 0. 0. 0. 0. 0. 0. 0. 0. 0. 0. 0. 0.
      1.63398695e-003 0. 0. 0. 0. 0. 0. 0. 0. 0. 0. 0. 0. 0. 0.
      1.63398695e-003 0. 6.53594779e-003 0. 0. 1.63398695e-003 0. 0. 0.
      0. 0. 0. 0. 3.26797389e-003 1.63398695e-003 0. 0. 0. 0. 0. 0. 0.
      0. 0. 0. 0. 0. 0. 1.63398695e-003 0. 0. 1.63398695e-003
      1.63398695e-003 0. 0. 0. 0. 0. 0. 0. 0. 0. 0. 0. 0. 0. 0. 0. 0. 0.
      0. 0. 0. 0. 0. 0. 0. 0. 0. 0. 0. 0. 0. 0. 3.26797389e-003 0. 0. 0.
      0. 0. 0. 0. 0. 0. 0. 0. 0. 0. 0. 0. 0. 0. 0. 0. 0. 0. 0. 0. 0.
      4.90196096e-003 4.90196096e-003 0. 0. 0. 0. 1.63398695e-003 0. 0.
      0. 1.63398695e-003 0. 0. 0. 0. 0. 0. 0. 0. 0. 0. 0. 0.
      1.63398695e-003 0. 0. 0. 0. 0. 0. 0. 0. 0. 0. 1.63398695e-003 0.
      0. 0. 0. 0. 0. 0. 0. 0. 0. 0. 3.26797389e-003 0. 0. 0. 0. 0. 0. 0.
      0. 0. 3.43137272e-002 0. 0. 0. 0. 1.63398695e-003 0.
      4.90196096e-003 0. 0. 0. 0. 0. 0. 1.63398695e-003 0. 0. 0. 0. 0.
      0. 0. 0. 0. 0. 1.63398695e-003 0. 0. 0. 0. 0. 0. 0. 0. 0. 0. 0. 0.
      0. 0. 0. 0. 0. 0. 0. 0. 0. 0. 0. 0. 0. 0. 0. 0. 0. 0. 0. 0.
      1.63398695e-003 0. 0. 0. 0. 0. 0. 0. 0. 0. 0. 0. 0. 0. 0. 0. 0. 0.
      0. 0. 0. 0. 0. 0. 0. 0. 0. 0. 0. 0. 0. 0. 0. 0. 0. 0. 0. 0. 0. 0.
      4.90196096e-003 0. 0. 0. 0. 3.26797389e-003 0. 1.63398695e-003 0.
      0. 0. 0. 0. 0. 0. 1.63398695e-003 0. 0. 0. 0. 0. 0. 0. 0. 0. 0. 0.
      0. 0. 0. 0. 0. 0. 0. 3.26797389e-003 0. 0. 0. 0. 0. 0. 0. 0. 0. 0.
      0. 0. 0. 0. 0. 0. 1.63398695e-003 0. 1.63398695e-003 0. 0. 0. 0.
      0. 0. 0. 0. 0. 0. 0. 0. 0. 0. 1.63398695e-003 0. 0. 0. 0. 0. 0. 0.
      0. 1.63398695e-003 0. 0. 0. 0. 0. 0. 0. 0. 0. 0. 0. 0. 0. 0. 0. 0.
      3.26797389e-003 0. 0. 0. 1.63398695e-003 0. 0. 0. 0. 0. 0. 0. 0.
      0. 0. 0. 0. 0. 0. 0. 0. 0. 0. 0. 0. 0. 0. 0. 0. 0. 0. 0. 0. 0.
      1.63398695e-003 4.90196096e-003 0. 0. 0. 0. 0. 0. 0. 0. 0.
      1.63398695e-003 0. 0. 0. 0. 0. 0. 0. 0. 0. 0. 0. 0. 0.
      1.63398695e-003 0. 0. 0. 0. 0. 0. 0. 0. 1.63398695e-003 0. 0. 0.
      0. 1.63398695e-003 0. 0. 0. 0. 0. 0. 0. 0. 0. 0. 1.63398695e-003
      0. 0. 0. 1.63398695e-003 0. 0. 0. 0. 0. 0. 0. 0. 0. 0. 0. 0. 0. 0.
      0. 0. 0. 0. 1.63398695e-003 0. 0. 0. 0. 0. 0. 0. 1.63398695e-003
      0. 0. 0. 0. 0. 0. 0. 0. 0. 0. 0. 0. 0. 0. 0. 0. 0. 0. 0. 0.
      1.63398695e-003 0. 0. 0. 0. 0. 0. 0. 0. 0. 0. 0. 0. 0. 0.
      1.63398695e-003 0. 0. 0. 0. 0. 0. 0. 0. 0. 0. 0. 0. 0. 0. 0. 0. 0.
      0. 0. 0. 0. 0. 1.63398695e-003 0. 0. 0. 0. 3.26797389e-003 0. 0.
      0. 0. 0. 0. 1.63398695e-003 1.63398695e-003 0. 0. 0. 0. 0. 0. 0.
      0. 0. 0. 0. 0. 0. 0. 0. 0. 0. 0. 0. 0. 0. 1.63398695e-003 0.
      1.63398695e-003 0. 1.63398695e-003 0. 0. 0. 0. 0. 0. 0. 0. 0. 0.
      0. 0. 0. 0. 0. 0. 0. 0. 0. 0. 0. 0. 0. 0. 0. 0. 0. 1.63398695e-003
      0. 0. 0. 0. 0. 0. 1.47058824e-002 0. 0. 0. 0. 0. 0. 0. 0. 0.
      1.63398695e-003 0. 0. 3.26797389e-003 1.63398695e-003 0. 0. 0. 0.
      0. 1.63398695e-003 0. 0. 0. 0. 0. 0. 0. 0. 0. 0. 0. 0. 0.
      1.63398695e-003 0. 1.63398695e-003 0. 0. 0. 0. 0. 0. 0. 0. 0. 0.
      1.63398695e-003 0. 0. 0. 0. 8.16993508e-003 0. 0. 0. 0. 0.
      1.63398695e-003 0. 0. 0. 0. 0. 0. 0. 0. 0. 0. 0. 0. 0. 0. 0. 0. 0.
      0. 0. 0. 0. 0. 0. 0. 0. 0. 0. 0. 0. 0. 0. 0. 1.63398695e-003 0. 0.
      0. 0. 0. 0. 1.63398695e-003 0. 0. 0. 0. 1.63398695e-003
      1.63398695e-003 0. 0. 0. 0. 0. 6.53594779e-003 0. 0. 0. 0. 0. 0.
      8.16993508e-003 0. 0. 0. 0. 0. 0. 0. 0. 0. 0. 0. 0. 0. 0. 0. 0. 0.
      0. 1.63398695e-003 0. 0. 0. 0. 0. 0. 0. 0. 0. 0. 0. 0. 0.
      4.90196096e-003 0. 0. 0. 0. 0. 0. 0. 0. 0. 0. 0. 0. 0. 0. 0. 0. 0.
      0. 0. 0. 0. 0. 0. 0. 0. 0. 0. 0. 0. 0. 1.63398695e-003 0. 0. 0.
      1.63398695e-003 0. 0. 0. 0. 0. 0. 0. 0. 0. 0. 0. 0.
      1.63398695e-003 0. 4.90196096e-003 0. 0. 0. 0. 0. 0. 0. 0. 0.
      1.63398695e-003 0. 0. 0. 0. 0. 0. 0. 1.63398695e-003 0. 0. 0. 0.
      0. 0. 0. 0. 0. 0. 0. 0. 0. 0. 0. 0. 0. 0. 0. 0. 0. 0. 0. 0. 0. 0.
