<?xml version="1.0"?>
<opencv_storage>
<my_svm type_id="opencv-ml-svm">
  <svm_type>C_SVC</svm_type>
  <kernel><type>RBF</type>
    <gamma>10.</gamma></kernel>
  <C>15.</C>
  <term_criteria><epsilon>2.2204460492503131e-016</epsilon>
    <iterations>100</iterations></term_criteria>
  <var_all>3000</var_all>
  <var_count>3000</var_count>
  <class_count>2</class_count>
  <class_labels type_id="opencv-matrix">
    <rows>1</rows>
    <cols>2</cols>
    <dt>i</dt>
    <data>
      -1 1</data></class_labels>
  <sv_total>161</sv_total>
  <support_vectors>
    <_>
      0. 0. 0. 0. 0. 0. 0. 0. 0. 0. 0. 0. 0. 9.25925933e-003 0. 0. 0. 0.
      0. 0. 0. 0. 0. 0. 0. 3.08641978e-003 0. 0. 0. 0. 0. 0. 0. 0. 0. 0.
      0. 0. 0. 0. 0. 3.08641978e-003 0. 0. 0. 0. 0. 0. 0. 0. 0. 0. 0. 0.
      3.08641978e-003 0. 0. 3.08641978e-003 0. 0. 0. 0. 6.17283955e-003
      0. 0. 0. 0. 0. 0. 0. 0. 0. 0. 0. 0. 0. 0. 0. 0. 0. 0. 0. 0. 0. 0.
      0. 0. 0. 0. 0. 0. 0. 0. 3.08641978e-003 0. 0. 0. 0. 0. 0. 0.
      3.08641978e-003 0. 0. 0. 0. 0. 0. 3.08641978e-003 0. 0.
      3.08641978e-003 3.08641978e-003 0. 0. 0. 3.08641978e-003 0. 0. 0.
      0. 0. 3.08641978e-003 0. 0. 0. 0. 0. 0. 0. 0. 0. 0. 0. 0. 0. 0. 0.
      0. 0. 0. 0. 0. 0. 3.08641978e-003 0. 0. 0. 0. 0. 0. 0. 0. 0. 0. 0.
      0. 0. 3.08641978e-003 0. 0. 3.08641978e-003 0. 9.25925933e-003 0.
      0. 0. 0. 0. 0. 0. 0. 0. 0. 0. 3.08641978e-003 0. 0. 0.
      3.08641978e-003 0. 0. 0. 0. 0. 0. 0. 0. 0. 0. 0. 0. 0. 0. 0. 0. 0.
      0. 0. 0. 0. 6.17283955e-003 0. 0. 0. 0. 3.08641978e-003 0. 0. 0.
      0. 0. 0. 0. 0. 0. 0. 0. 0. 0. 0. 0. 0. 0. 0. 0. 0. 0. 0. 0. 0. 0.
      0. 0. 0. 0. 0. 0. 0. 0. 0. 0. 3.08641978e-003 0. 0. 0. 0. 0. 0. 0.
      0. 0. 0. 0. 0. 0. 0. 0. 0. 6.17283955e-003 0. 0. 0. 0. 0. 0. 0. 0.
      3.08641978e-003 0. 0. 0. 0. 0. 0. 0. 0. 0. 0. 0. 0. 0. 0. 0. 0. 0.
      0. 0. 0. 0. 0. 0. 0. 0. 0. 0. 0. 0. 0. 0. 0. 0. 3.08641978e-003 0.
      0. 0. 0. 0. 0. 0. 0. 0. 6.17283955e-003 0. 0. 0. 0. 0. 0. 0.
      6.17283955e-003 0. 0. 0. 0. 0. 0. 0. 0. 0. 0. 0. 0. 0. 0.
      2.77777780e-002 0. 0. 0. 0. 0. 0. 0. 0. 3.08641978e-003
      9.25925933e-003 0. 0. 0. 0. 3.08641978e-003 0. 0. 3.08641978e-003
      0. 0. 0. 0. 3.08641978e-003 0. 0. 0. 0. 0. 0. 0. 0. 0. 0. 0. 0. 0.
      0. 0. 0. 0. 0. 0. 0. 0. 0. 0. 0. 0. 0. 0. 0. 0. 0. 0. 0. 0. 0.
      6.17283955e-003 0. 0. 0. 0. 0. 0. 0. 3.08641978e-003 0. 0. 0. 0.
      0. 0. 0. 0. 0. 0. 3.08641978e-003 0. 0. 0. 0. 0. 0. 0. 0. 0. 0. 0.
      3.08641978e-003 0. 0. 0. 0. 0. 0. 0. 0. 0. 0. 0. 0. 0. 0. 0. 0. 0.
      0. 0. 0. 0. 0. 0. 0. 0. 0. 3.08641978e-003 0. 0. 0. 0. 0. 0. 0. 0.
      0. 0. 0. 0. 0. 0. 0. 0. 0. 0. 0. 0. 0. 6.17283955e-003 0. 0. 0. 0.
      0. 1.54320989e-002 0. 0. 0. 0. 0. 0. 0. 0. 0. 0. 0. 0. 0. 0. 0. 0.
      0. 0. 3.08641978e-003 0. 0. 0. 0. 0. 0. 0. 0. 0. 0. 0. 0. 0. 0. 0.
      0. 0. 0. 0. 0. 0. 0. 0. 0. 0. 0. 0. 3.08641978e-003 0. 0. 0. 0. 0.
      0. 0. 0. 0. 0. 0. 0. 0. 0. 0. 0. 6.17283955e-003 0. 0. 0. 0. 0. 0.
      0. 0. 0. 0. 3.08641978e-003 6.17283955e-003 0. 0. 0. 0. 0. 0. 0.
      0. 0. 0. 0. 0. 0. 0. 0. 0. 6.17283955e-003 0. 0. 0. 0. 0. 0. 0. 0.
      3.08641978e-003 0. 0. 0. 0. 0. 0. 0. 0. 0. 0. 0. 0. 0.
      3.08641978e-003 0. 0. 0. 3.08641978e-003 0. 0. 0. 0. 0. 0. 0. 0.
      0. 0. 0. 0. 0. 6.17283955e-003 0. 0. 0. 0. 0. 0. 3.08641978e-003
      0. 0. 0. 0. 0. 0. 0. 0. 0. 0. 0. 0. 0. 0. 0. 0. 0. 0.
      3.08641978e-003 0. 0. 0. 0. 0. 0. 0. 0. 0. 0. 0. 0. 0.
      3.08641978e-003 0. 0. 0. 0. 0. 0. 0. 0. 0. 0. 3.08641978e-003 0.
      0. 0. 0. 0. 3.08641978e-003 0. 0. 0. 0. 0. 0. 0. 0. 0.
      3.08641978e-003 0. 0. 0. 0. 0. 0. 0. 3.08641978e-003 0. 0. 0. 0.
      0. 0. 0. 0. 0. 0. 0. 0. 0. 0. 0. 0. 0. 0. 0. 0. 0. 0. 0. 0. 0. 0.
      0. 0. 0. 0. 0. 0. 0. 0. 0. 3.08641978e-003 0. 0. 0. 0. 0.
      3.08641978e-003 0. 0. 0. 0. 6.17283955e-003 0. 0. 0. 0. 0. 0. 0.
      0. 1.23456791e-002 0. 0. 0. 0. 0. 0. 0. 0. 0. 0. 0. 0. 0. 0. 0. 0.
      0. 0. 0. 0. 0. 0. 0. 0. 0. 0. 0. 0. 0. 0. 0. 0. 0. 3.08641978e-003
      3.08641978e-003 0. 0. 0. 0. 0. 0. 0. 0. 0. 0. 0. 0.
      3.08641978e-003 0. 0. 0. 3.08641978e-003 0. 3.08641978e-003 0. 0.
      0. 0. 0. 0. 0. 0. 0. 0. 0. 0. 0. 0. 0. 0. 0. 0. 0. 0. 0. 0. 0. 0.
      0. 0. 0. 0. 0. 0. 0. 0. 0. 0. 0. 0. 0. 0. 0. 0. 0. 0. 0.
      3.08641978e-003 0. 0. 0. 0. 0. 0. 6.17283955e-003 0. 0. 0.
      3.08641978e-003 0. 0. 0. 0. 0. 0. 0. 0. 0. 0. 0. 0. 0. 0. 0. 0. 0.
      0. 0. 0. 0. 0. 6.17283955e-003 0. 0. 0. 6.17283955e-003 0. 0. 0.
      0. 0. 0. 0. 0. 0. 0. 0. 0. 0. 0. 0. 0. 0. 0. 0. 0. 0. 0. 0. 0.
      3.08641978e-003 0. 0. 0. 0. 3.08641978e-003 0. 0. 0. 0. 0. 0. 0.
      0. 0. 0. 0. 0. 0. 3.08641978e-003 0. 0. 0. 0. 0. 0. 0. 0. 0. 0. 0.
      0. 0. 0. 0. 0. 0. 0. 0. 0. 0. 0. 0. 0. 0. 0. 0. 0. 0. 0. 0.
      3.08641978e-003 0. 0. 3.08641978e-003 0. 0. 0. 0. 0. 0. 0. 0. 0.
      0. 0. 0. 6.17283955e-003 0. 0. 0. 0. 0. 0. 0. 0. 0. 0.
      1.54320989e-002 0. 0. 0. 0. 0. 0. 0. 0. 0. 0. 0. 0. 0. 0. 0. 0.
      3.08641978e-003 0. 0. 0. 0. 0. 0. 0. 0. 0. 0. 0. 3.08641978e-003
      0. 0. 0. 0. 0. 3.08641978e-003 0. 0. 0. 0. 3.08641978e-003 0. 0.
      0. 0. 0. 3.08641978e-003 0. 3.08641978e-003 0. 0. 0. 0. 0.
      3.08641978e-003 0. 0. 0. 0. 0. 0. 3.08641978e-003 0. 0. 0. 0. 0.
      0. 0. 0. 0. 0. 0. 0. 0. 0. 0. 0. 3.08641978e-003 0. 0. 0. 0. 0. 0.
      0. 0. 0. 0. 0. 0. 0. 0. 0. 0. 0. 0. 0. 0. 0. 0. 0. 0. 0.
      3.08641978e-003 0. 0. 0. 0. 0. 0. 0. 3.08641978e-003 0. 0. 0. 0.
      3.08641978e-003 0. 0. 0. 0. 0. 0. 0. 0. 0. 0. 3.08641978e-003 0.
      0. 0. 3.08641978e-003 0. 0. 3.08641978e-003 0. 0. 0. 0. 0. 0. 0.
      0. 0. 0. 0. 0. 3.08641978e-003 3.08641978e-003 3.08641978e-003 0.
      0. 0. 0. 0. 3.08641978e-003 0. 0. 0. 0. 0. 0. 0. 0. 0. 0. 0. 0. 0.
      0. 0. 0. 0. 0. 0. 0. 0. 0. 0. 0. 3.08641978e-003 0. 0. 0. 0.
      3.08641978e-003 0. 0. 0. 0. 0. 0. 0. 0. 0. 0. 0. 0. 0.
      6.17283955e-003 0. 0. 0. 0. 0. 0. 0. 0. 0. 0. 0. 0. 0.
      6.17283955e-003 0. 0. 0. 0. 3.08641978e-003 0. 0. 0. 0. 0. 0. 0.
      3.08641978e-003 0. 0. 0. 0. 0. 0. 0. 0. 0. 0. 0. 0. 0. 0. 0. 0. 0.
      0. 0. 0. 0. 0. 0. 0. 0. 0. 0. 0. 0. 0. 0. 0. 0. 0. 0. 0. 0. 0. 0.
      0. 0. 0. 0. 0. 0. 0. 0. 0. 0. 0. 0. 6.17283955e-003 0. 0.
      3.08641978e-003 0. 0. 0. 0. 0. 0. 0. 0. 0. 3.08641978e-003 0. 0.
      0. 0. 0. 3.08641978e-003 0. 0. 0. 0. 0. 0. 0. 0. 0. 0.
      3.08641978e-003 0. 0. 0. 0. 0. 0. 0. 0. 0. 3.08641978e-003 0. 0.
      0. 0. 0. 0. 0. 0. 0. 0. 0. 0. 0. 0. 0. 0. 3.08641978e-003 0. 0. 0.
      0. 0. 0. 0. 0. 0. 0. 0. 0. 1.85185187e-002 0. 0. 0. 0. 0. 0. 0. 0.
      0. 0. 0. 0. 1.23456791e-002 0. 0. 0. 0. 0. 9.25925933e-003 0. 0.
      0. 0. 0. 0. 0. 0. 0. 0. 0. 0. 0. 0. 0. 0. 0. 0. 0. 0.
      3.08641978e-003 0. 0. 0. 0. 0. 9.25925933e-003 0. 0. 0. 0. 0. 0.
      0. 3.08641978e-003 0. 1.23456791e-002 3.08641978e-003 0. 0. 0. 0.
      0. 0. 0. 0. 0. 0. 0. 0. 0. 0. 0. 0. 0. 0. 0. 0. 0. 0. 0. 0. 0.
      3.08641978e-003 0. 0. 0. 0. 0. 0. 0. 0. 0. 0. 0. 0. 0. 0. 0.
      3.08641978e-003 0. 0. 0. 0. 0. 0. 0. 3.08641978e-003 0. 0. 0. 0.
      0. 0. 6.17283955e-003 3.08641978e-003 0. 0. 0. 0. 0. 0. 0. 0. 0.
      0. 3.08641978e-003 0. 0. 0. 3.08641978e-003 0. 0. 0. 0. 0. 0. 0.
      0. 0. 3.08641978e-003 0. 0. 0. 0. 0. 0. 0. 0. 0. 0. 0. 0. 0. 0. 0.
      0. 0. 0. 0. 0. 0. 0. 0. 0. 0. 0. 0. 0. 0. 0. 0. 0. 0. 0. 0. 0. 0.
      3.08641978e-003 3.08641978e-003 0. 0. 0. 6.17283955e-003 0. 0. 0.
      0. 0. 3.08641978e-003 0. 0. 0. 0. 0. 0. 0. 0. 0. 0. 0. 0. 0. 0. 0.
      0. 0. 0. 0. 0. 0. 0. 0. 0. 0. 0. 0. 0. 0. 0. 0. 0. 0.
      3.08641978e-003 0. 0. 0. 0. 0. 0. 0. 0. 0. 0. 0. 0. 0. 0. 0. 0. 0.
      6.17283955e-003 0. 0. 0. 0. 0. 0. 0. 0. 0. 0. 0. 0. 0. 0. 0. 0. 0.
      0. 0. 0. 0. 3.08641978e-003 0. 0. 0. 0. 0. 0. 0. 6.17283955e-003
      0. 0. 0. 0. 6.17283955e-003 0. 0. 0. 0. 0. 0. 0. 0. 0. 0. 0. 0. 0.
      0. 0. 0. 0. 0. 0. 0. 0. 0. 0. 0. 3.08641978e-003 0. 0. 0. 0. 0. 0.
      0. 0. 0. 0. 0. 0. 0. 0. 0. 0. 0. 9.25925933e-003 0. 0. 0. 0. 0. 0.
      0. 0. 0. 0. 0. 0. 0. 0. 0. 0. 0. 0. 0. 0. 0. 0. 0. 0. 0. 0. 0. 0.
      0. 0. 0. 0. 0. 0. 0. 0. 3.08641978e-003 0. 0. 0. 3.08641978e-003
      0. 3.08641978e-003 0. 0. 0. 0. 0. 1.23456791e-002 0. 0. 0. 0. 0.
      0. 0. 0. 0. 0. 0. 0. 0. 0. 0. 0. 0. 0. 0. 0. 0. 0. 0. 0. 0. 0. 0.
      0. 0. 0. 0. 0. 0. 0. 0. 0. 0. 0. 3.08641978e-003 0. 0. 0. 0. 0. 0.
      0. 0. 0. 0. 0. 0. 0. 0. 0. 0. 0. 0. 3.08641978e-003 0. 0. 0. 0.
      3.08641978e-003 0. 0. 0. 0. 0. 0. 0. 0. 0. 0. 0. 0. 0. 0. 0. 0. 0.
      0. 0. 0. 0. 0. 0. 0. 0. 0. 0. 0. 0. 0. 3.08641978e-003 0. 0. 0. 0.
      0. 0. 0. 0. 0. 0. 0. 0. 0. 0. 0. 0. 0. 0. 0. 0. 0. 0. 0. 0. 0. 0.
      0. 0. 0. 0. 0. 0. 0. 0. 0. 0. 0. 0. 0. 0. 0. 0. 0. 3.08641978e-003
      0. 0. 0. 0. 0. 0. 3.08641978e-003 0. 0. 0. 0. 0. 0.
      6.17283955e-003 0. 0. 0. 0. 0. 0. 0. 0. 0. 0. 0. 0. 0. 0. 0. 0. 0.
      0. 0. 0. 0. 0. 0. 0. 0. 0. 0. 0. 0. 0. 0. 0. 0. 0. 0. 0. 0. 0. 0.
      0. 0. 0. 0. 0. 0. 0. 0. 0. 0. 0. 0. 0. 3.08641978e-003 0. 0.
      3.08641978e-003 0. 6.17283955e-003 0. 0. 0. 0. 1.54320989e-002
      6.17283955e-003 0. 0. 0. 0. 0. 0. 0. 3.08641978e-003 0. 0.
      3.08641978e-003 0. 0. 0. 0. 0. 0. 0. 0. 3.08641978e-003
      3.08641978e-003 0. 0. 0. 0. 0. 0. 0. 0. 0. 0. 0. 0. 0. 0. 0. 0. 0.
      0. 0. 0. 0. 0. 0. 0. 0. 0. 0. 0. 0. 3.08641978e-003 0. 0. 0. 0. 0.
      0. 0. 0. 0. 0. 0. 0. 0. 3.08641978e-003 0. 0. 0. 0. 0. 0. 0. 0. 0.
      0. 6.17283955e-003 0. 3.08641978e-003 0. 0. 0. 0. 0. 0. 0. 0. 0.
      0. 0. 0. 0. 0. 0. 0. 0. 9.25925933e-003 0. 3.08641978e-003 0. 0.
      3.08641978e-003 0. 0. 3.08641978e-003 0. 0. 0. 0. 0. 0. 0.
      3.08641978e-003 0. 0. 0. 9.25925933e-003 0. 0. 0. 0. 0. 0. 0. 0.
      0. 0. 0. 0. 0. 0. 0. 0. 0. 0. 0. 0. 0. 0. 0. 0. 0. 0. 0. 0. 0. 0.
      0. 3.08641978e-003 0. 6.17283955e-003 0. 0. 0. 0. 0. 0. 0. 0. 0.
      0. 0. 0. 0. 0. 0. 0. 0. 0. 0. 0. 0. 0. 0. 0. 0. 0. 0. 0. 0. 0. 0.
      0. 0. 0. 0. 0. 0. 0. 3.08641978e-003 0. 0. 0. 0. 0. 0. 0. 0. 0. 0.
      0. 0. 0. 0. 0. 0. 0. 0. 0. 0. 0. 0. 3.08641978e-003 0. 0. 0. 0. 0.
      3.08641978e-003 0. 0. 0. 0. 0. 0. 0. 0. 0. 0. 0. 0. 0. 0. 0. 0. 0.
      0. 0. 0. 0. 0. 0. 0. 0. 3.08641978e-003 0. 0. 0. 0. 0. 0. 0. 0.
      3.08641978e-003 0. 0. 0. 0. 0. 0. 0. 0. 0. 0. 0. 0. 0. 0.
      3.08641978e-003 0. 0. 0. 0. 0. 0. 0. 0. 0. 0. 0. 0. 0. 0. 0. 0. 0.
      0. 0. 6.17283955e-003 0. 0. 0. 0. 0. 0. 0. 0. 0. 3.08641978e-003
      0. 0. 0. 0. 0. 0. 3.08641978e-003 6.17283955e-003 0. 0.
      9.25925933e-003 3.08641978e-003 0. 0. 0. 0. 0. 0. 0. 0. 0. 0. 0.
      0. 0. 0. 0. 0. 0. 0. 0. 0. 0. 0. 0. 0. 0. 0. 0. 0. 0. 0. 0. 0. 0.
      0. 0. 0. 0. 0. 0. 0. 0. 0. 0. 0. 3.08641978e-003 6.17283955e-003
      0. 0. 0. 0. 0. 0. 0. 0. 0. 0. 0. 0. 0. 0. 0. 0. 0. 0. 0. 0. 0. 0.
      0. 0. 0. 0. 0. 0. 0. 0. 0. 0. 0. 0. 0. 0. 0. 0. 0. 0. 0. 0. 0. 0.
      0. 0. 0. 0. 0. 0. 0. 0. 0. 0. 0. 0. 0. 0. 0. 0. 0. 0. 0. 0. 0. 0.
      0. 0. 0. 0. 3.08641978e-003 0. 0. 0. 0. 0. 0. 0. 0. 0. 0. 0. 0. 0.
      6.17283955e-003 0. 0. 0. 0. 0. 0. 0. 0. 0. 0. 0. 0.
      3.08641978e-003 0. 0. 0. 0. 3.08641978e-003 0. 0. 0.
      3.08641978e-003 0. 0. 3.08641978e-003 0. 3.08641978e-003 0. 0. 0.
      0. 0. 0. 6.17283955e-003 0. 0. 0. 6.17283955e-003 0. 0. 0. 0. 0.
      0. 0. 0. 0. 0. 0. 0. 0. 0. 0. 0. 3.08641978e-003 0. 0. 0. 0. 0. 0.
      0. 0. 0. 0. 0. 0. 0. 0. 0. 0. 0. 0. 0. 3.08641978e-003 0. 0. 0. 0.
      0. 0. 0. 0. 0. 0. 0. 0. 0. 0. 0. 0. 0. 0. 0. 0. 0. 0. 0. 0. 0. 0.
      0. 0. 0. 3.08641978e-003 0. 0. 0. 0. 0. 0. 0. 0. 0. 0. 0. 0. 0. 0.
      0. 0. 0. 0. 0. 0. 0. 0. 0. 0. 0. 0. 0. 0. 0. 0. 3.08641978e-003 0.
      0. 0. 3.08641978e-003 0. 3.08641978e-003 0. 0. 0. 0. 0. 0. 0. 0.
      0. 0. 0. 0. 0. 0. 0. 0. 0. 0. 0. 0. 0. 0. 3.08641978e-003 0. 0. 0.
      0. 3.08641978e-003 0. 0. 0. 0. 0. 0. 0. 0. 0. 0. 0. 0. 0. 0. 0. 0.
      0. 3.08641978e-003 0. 0. 0. 0. 0. 0. 0. 0. 0. 0. 0. 0. 0. 0. 0. 0.
      0. 0. 0. 0. 0. 0. 0. 0. 3.08641978e-003 0. 0. 0. 0. 0. 0. 0. 0. 0.
      0. 0. 0. 0. 0. 0. 0. 0. 0. 0. 0. 0. 0. 0. 0. 0. 0. 0. 0. 0. 0. 0.
      0. 0. 0. 0. 0. 0. 0. 0. 0. 0. 3.08641978e-003 0. 0. 0.
      3.08641978e-003 0. 0. 0. 0. 0. 0. 0. 0. 0. 0. 0. 0. 0. 0. 0. 0. 0.
      0. 0. 0. 0. 0. 0. 0. 0. 0. 0. 0. 0. 0. 0. 0. 0. 0. 0. 0. 0.
      3.08641978e-003 3.08641978e-003 0. 0. 0. 0. 0. 0. 0. 0. 0. 0. 0.
      0. 0. 0. 0. 0. 0. 0. 0. 0. 0. 0. 0. 0. 0. 0. 0. 0. 0. 0. 0. 0. 0.
      0. 0. 0. 0. 0. 0. 0. 0. 0. 0. 0. 0. 0. 0. 0. 0. 0. 0. 0. 0. 0. 0.
      0. 0. 3.08641978e-003 0. 0. 0. 0. 0. 0. 0. 6.17283955e-003
      3.08641978e-003 0. 0. 0. 0. 0. 0. 0. 0. 0. 0. 0. 0. 0. 0. 0. 0.
      3.08641978e-003 0. 3.08641978e-003 0. 0. 0. 0. 0. 0. 0. 0. 0. 0.
      0. 0. 0. 0. 0. 0. 0. 0. 0. 0. 0. 0. 0. 0. 0. 0. 0. 0.
      3.08641978e-003 0. 0. 0. 0. 0. 0. 0. 0. 0. 3.08641978e-003 0. 0.
      0. 0. 0. 0. 0. 0. 0. 0. 0. 0. 0. 0. 0. 0. 0. 0. 0. 0. 0. 0. 0. 0.
      0. 0. 0. 0. 0. 0. 0. 0. 0. 0. 0. 0. 0. 0. 0. 0. 0. 0.
      3.08641978e-003 0. 0. 0. 0. 0. 0. 0. 0. 0. 0. 0. 0. 0. 0.
      3.08641978e-003 0. 0. 0. 0. 0. 0. 0. 3.08641978e-003 0. 0. 0. 0.
      0. 0. 0. 0. 0. 0. 0. 0. 0. 0. 0. 0. 0. 0. 0. 0. 0. 0. 0. 0. 0. 0.
      0. 0. 0. 0. 0. 0. 0. 0. 0. 0. 0. 3.08641978e-003 0. 0. 0. 0. 0. 0.
      0. 0. 0. 0. 0. 0. 0. 0. 0. 0. 0. 0. 0. 0. 0. 0. 0. 0. 0. 0. 0. 0.
      0. 0. 0. 0. 0. 0. 0. 6.17283955e-003 0. 0. 0. 0. 0. 0. 0. 0. 0. 0.
      0. 3.08641978e-003 0. 0. 0. 0. 3.08641978e-003 0. 3.08641978e-003
      0. 0. 0. 3.08641978e-003 0. 0. 0. 0. 0. 0. 0. 1.23456791e-002 0.
      0. 0. 0. 0. 0. 0. 3.08641978e-003 3.08641978e-003 0. 0. 0. 0. 0.
      3.08641978e-003 0. 0. 0. 3.08641978e-003 0. 0. 0. 0. 0. 0. 0. 0.
      0. 0. 0. 0. 0. 0. 0. 0. 0. 0. 3.08641978e-003 0. 0. 0. 0.
      3.08641978e-003 0. 0. 0. 0. 0.</_>
    <_>
      0. 0. 0. 0. 0. 0. 0. 0. 0. 0. 1.50829565e-003 0. 0. 0. 0. 0. 0.
      6.03318261e-003 0. 0. 0. 1.50829565e-003 4.52488707e-003 0. 0. 0.
      0. 0. 0. 4.52488707e-003 0. 0. 0. 0. 0. 0. 0. 0. 0. 0. 0. 0. 0. 0.
      0. 1.50829565e-003 0. 1.50829565e-003 0. 0. 0. 0. 0.
      6.03318261e-003 0. 0. 0. 1.50829565e-003 0. 0. 0. 0. 0. 0. 0. 0.
      0. 0. 1.50829565e-003 0. 1.50829565e-003 0. 0. 0. 0. 0. 0. 0. 0.
      0. 0. 1.05580697e-002 4.52488707e-003 0. 0. 0. 0. 0. 0. 0. 0. 0.
      0. 0. 0. 0. 0. 0. 0. 0. 0. 0. 0. 0. 0. 0. 0. 0. 0. 0.
      3.01659130e-003 0. 0. 0. 0. 1.50829565e-003 0. 3.01659130e-003
      1.50829565e-003 0. 0. 0. 0. 0. 0. 0. 0. 0. 0. 0. 0. 0. 0. 0. 0.
      1.50829565e-003 0. 0. 0. 0. 0. 0. 0. 0. 0. 0. 0. 0. 0. 0.
      1.50829565e-003 0. 0. 0. 0. 0. 0. 0. 0. 0. 0. 0. 0.
      1.50829565e-003 1.50829565e-003 0. 0. 0. 0. 1.50829565e-003 0. 0.
      0. 0. 0. 0. 0. 0. 1.50829565e-003 0. 0. 0. 0. 0. 0. 0. 0. 0. 0. 0.
      0. 0. 0. 0. 3.01659130e-003 3.01659130e-003 0. 0. 0.
      1.50829565e-003 0. 3.01659130e-003 0. 0. 0. 3.01659130e-003 0.
      1.50829565e-003 0. 0. 0. 0. 0. 0. 1.50829565e-003 0. 0. 0. 0. 0.
      0. 0. 3.01659130e-003 0. 0. 0. 1.50829565e-003 3.01659130e-003 0.
      0. 1.50829565e-003 0. 0. 0. 0. 0. 0. 0. 0. 0. 0. 0. 0. 0. 0. 0. 0.
      0. 0. 0. 0. 0. 0. 0. 0. 0. 0. 0. 1.50829565e-003 0. 0. 0. 0. 0.
      3.01659130e-003 0. 0. 0. 0. 0. 0. 0. 0. 0. 0. 0. 0. 0. 0. 0. 0. 0.
      0. 0. 0. 0. 0. 0. 0. 0. 0. 3.01659130e-003 3.01659130e-003
      1.50829565e-003 0. 0. 0. 0. 0. 0. 0. 0. 0. 1.20663652e-002 0. 0.
      0. 0. 0. 0. 0. 0. 0. 0. 0. 0. 0. 0. 0. 1.50829565e-003 0. 0. 0.
      6.03318261e-003 0. 0. 0. 0. 0. 0. 0. 0. 0. 0. 3.01659130e-003 0.
      0. 0. 0. 0. 0. 0. 0. 0. 0. 0. 0. 1.50829565e-003 0. 0. 0.
      1.50829565e-003 0. 1.50829565e-003 0. 0. 0. 0. 0. 0. 0. 0. 0.
      1.50829565e-003 0. 0. 3.01659130e-003 1.50829565e-003 0. 0. 0. 0.
      0. 0. 3.01659130e-003 0. 0. 0. 0. 0. 0. 1.50829565e-003 0. 0. 0.
      0. 0. 0. 0. 0. 0. 0. 0. 0. 0. 0. 0. 0. 0. 0. 0. 0. 0. 0. 0. 0.
      1.50829565e-003 0. 0. 1.50829565e-003 0. 0. 0. 1.50829565e-003 0.
      0. 0. 0. 0. 4.52488707e-003 0. 0. 0. 1.50829565e-003 0. 0. 0. 0.
      0. 0. 0. 0. 3.01659130e-003 0. 0. 0. 0. 3.01659130e-003 0. 0. 0.
      0. 0. 0. 0. 0. 0. 0. 0. 0. 0. 0. 0. 0. 0. 0. 0. 0. 0. 0. 0. 0.
      6.03318261e-003 0. 0. 0. 0. 0. 0. 0. 0. 0. 0. 0. 0. 0.
      1.50829565e-003 0. 0. 1.50829565e-003 0. 0. 0. 0. 0. 0. 0. 0. 0.
      0. 0. 0. 0. 0. 0. 0. 0. 0. 0. 0. 0. 0. 0. 0. 0. 0. 0. 0.
      3.01659130e-003 0. 0. 0. 0. 0. 0. 0. 0. 0. 0. 0. 0.
      1.50829565e-003 0. 0. 0. 1.50829565e-003 0. 0. 0. 1.50829565e-003
      0. 0. 0. 0. 1.50829565e-003 0. 0. 0. 1.50829565e-003 0. 0. 0. 0.
      0. 0. 0. 0. 0. 0. 0. 0. 0. 0. 0. 1.50829565e-003 0. 0. 0.
      4.52488707e-003 0. 0. 0. 0. 0. 0. 0. 0. 1.50829565e-003 0. 0. 0.
      0. 0. 0. 0. 0. 3.01659130e-003 0. 0. 0. 0. 0. 1.50829565e-003 0.
      0. 0. 0. 1.50829565e-003 0. 1.35746608e-002 9.04977415e-003 0. 0.
      0. 0. 0. 0. 4.52488707e-003 1.50829565e-003 0. 0. 0. 0. 0. 0. 0.
      0. 1.50829565e-003 0. 0. 0. 0. 0. 0. 0. 0. 1.50829565e-003 0. 0.
      0. 0. 0. 1.05580697e-002 0. 3.01659130e-003 0. 0. 0. 0. 0. 0. 0.
      6.03318261e-003 0. 0. 0. 0. 0. 0. 0. 0. 0. 0. 0. 0. 0. 0. 0. 0. 0.
      0. 0. 0. 1.50829565e-003 0. 0. 0. 0. 0. 0. 0. 0. 0. 0. 0. 0.
      3.01659130e-003 0. 0. 0. 1.50829565e-003 0. 0. 0. 0. 0. 0. 0. 0.
      0. 6.03318261e-003 0. 0. 0. 0. 0. 0. 0. 0. 0. 0. 0. 0. 0. 0. 0. 0.
      0. 0. 0. 0. 0. 0. 0. 0. 0. 0. 1.50829565e-003 0. 0. 0. 0. 0. 0.
      1.50829565e-003 0. 0. 0. 0. 1.50829565e-003 0. 0. 0. 0. 0. 0. 0.
      0. 0. 0. 0. 0. 0. 0. 0. 0. 0. 0. 0. 0. 0. 0. 0. 0. 0. 0. 0. 0. 0.
      0. 0. 0. 0. 0. 0. 0. 0. 0. 0. 0. 0. 1.50829563e-002
      3.01659130e-003 0. 0. 0. 0. 0. 0. 0. 0. 0. 0. 0. 0. 0. 0. 0. 0. 0.
      0. 0. 0. 0. 0. 0. 0. 0. 1.50829565e-003 3.01659130e-003 0. 0. 0.
      0. 0. 0. 0. 0. 0. 0. 0. 0. 0. 0. 0. 0. 0. 0. 0. 9.04977415e-003 0.
      0. 0. 0. 0. 0. 0. 0. 0. 6.03318261e-003 0. 4.52488707e-003 0. 0.
      0. 0. 0. 0. 3.01659130e-003 4.52488707e-003 0. 0. 0. 0. 0. 0. 0.
      0. 0. 0. 0. 1.50829565e-003 4.52488707e-003 0. 0. 1.50829565e-003
      3.01659130e-003 0. 0. 1.50829565e-003 0. 1.50829565e-003 0. 0. 0.
      0. 0. 0. 0. 0. 0. 4.52488707e-003 0. 0. 0. 0. 0. 0.
      1.50829565e-003 0. 0. 0. 0. 0. 0. 0. 1.50829565e-003 0. 0. 0. 0.
      7.54147815e-003 0. 0. 0. 0. 0. 0. 0. 0. 0. 0. 0. 0. 0. 0. 0. 0. 0.
      0. 0. 0. 0. 0. 0. 0. 0. 0. 0. 0. 0. 0. 0. 0. 0. 0. 0. 0. 0.
      1.20663652e-002 0. 0. 0. 0. 0. 0. 0. 0. 0. 0. 0. 0. 0.
      3.01659130e-003 0. 0. 0. 0. 0. 0. 0. 0. 0. 3.01659130e-003 0. 0.
      3.01659130e-003 0. 0. 0. 0. 0. 0. 0. 0. 1.50829565e-003 0. 0. 0.
      0. 0. 0. 0. 0. 1.50829565e-003 0. 0. 0. 0. 0. 0. 0. 0. 0. 0. 0. 0.
      0. 0. 0. 0. 1.50829565e-003 1.50829565e-003 3.01659130e-003 0. 0.
      0. 1.50829565e-003 0. 0. 0. 0. 0. 1.50829565e-003 0. 0. 0. 0. 0.
      0. 0. 0. 0. 0. 0. 0. 0. 4.52488707e-003 0. 0. 0. 0. 0. 0. 0. 0. 0.
      0. 0. 0. 0. 0. 0. 0. 0. 1.50829565e-003 0. 0. 0. 0. 0. 0. 0. 0. 0.
      0. 1.50829565e-003 0. 0. 0. 0. 0. 0. 1.50829565e-003 0. 0. 0. 0.
      0. 0. 0. 0. 0. 0. 0. 0. 0. 0. 0. 1.50829565e-003 0. 0. 0.
      1.50829565e-003 0. 0. 3.01659130e-003 0. 0. 0. 0. 0. 0. 0. 0. 0.
      0. 0. 0. 0. 0. 1.50829565e-003 0. 0. 0. 0. 0. 0. 0. 0. 0. 0. 0. 0.
      0. 0. 0. 0. 0. 7.54147815e-003 0. 0. 1.50829565e-003 0. 0. 0. 0.
      0. 0. 0. 0. 0. 0. 0. 0. 0. 0. 0. 0. 0. 0. 0. 0. 0. 0. 0. 0. 0. 0.
      0. 0. 0. 0. 0. 0. 0. 0. 0. 0. 3.01659130e-003 0. 0. 0. 0. 0. 0. 0.
      0. 0. 0. 0. 0. 0. 0. 1.50829565e-003 0. 0. 0. 0. 0. 0. 0.
      1.50829565e-003 0. 0. 0. 0. 0. 0. 0. 0. 0. 0. 0. 0. 0. 0. 0. 0. 0.
      0. 0. 0. 0. 0. 0. 0. 0. 0. 0. 0. 1.50829565e-003 0. 0. 0.
      1.50829565e-003 0. 0. 0. 0. 0. 0. 0. 0. 0. 3.01659130e-003 0. 0.
      3.01659130e-003 0. 0. 0. 0. 0. 0. 4.52488707e-003 0. 0. 0. 0. 0.
      0. 0. 0. 0. 0. 0. 0. 0. 0. 0. 0. 0. 0. 0. 1.50829565e-003 0. 0. 0.
      0. 0. 0. 0. 0. 0. 0. 0. 0. 0. 0. 0. 0. 6.03318261e-003 0. 0. 0. 0.
      0. 0. 0. 0. 0. 0. 0. 1.50829565e-003 0. 0. 0. 7.54147815e-003
      1.50829565e-003 0. 1.50829565e-003 0. 1.50829565e-003 0. 0. 0. 0.
      0. 0. 0. 0. 0. 0. 0. 0. 0. 0. 0. 0. 0. 0. 0. 0. 0. 0. 0.
      1.50829565e-003 0. 0. 0. 0. 0. 0. 0. 0. 0. 0. 0. 0.
      1.50829565e-003 0. 0. 1.50829565e-003 0. 1.50829565e-003 0. 0. 0.
      0. 0. 0. 1.50829565e-003 0. 0. 1.50829565e-003 0. 0. 0. 0. 0. 0.
      0. 0. 0. 0. 0. 0. 0. 1.50829565e-003 0. 0. 0. 0. 0. 0.
      3.01659130e-003 0. 0. 0. 0. 0. 0. 0. 0. 0. 0. 0. 0. 0. 0. 0. 0. 0.
      0. 0. 0. 0. 0. 0. 0. 0. 0. 0. 0. 0. 0. 0. 0. 0. 0. 6.03318261e-003
      0. 0. 1.50829565e-003 6.03318261e-003 0. 0. 2.26244349e-002 0. 0.
      0. 0. 0. 0. 0. 0. 0. 0. 0. 0. 0. 0. 0. 0. 0. 0. 0. 3.01659130e-003
      0. 0. 0. 0. 0. 0. 0. 1.50829565e-003 0. 0. 0. 0. 4.52488707e-003
      0. 0. 4.52488707e-003 0. 0. 4.52488707e-003 0. 3.01659130e-003 0.
      0. 0. 0. 0. 0. 0. 0. 0. 0. 0. 0. 0. 0. 0. 0. 0. 0. 0. 0. 0. 0. 0.
      0. 0. 0. 0. 0. 0. 3.01659130e-003 0. 0. 0. 0. 0. 0.
      3.01659130e-003 0. 0. 0. 0. 0. 0. 0. 0. 0. 0. 0. 0. 0. 0. 0. 0. 0.
      0. 0. 0. 0. 0. 1.50829565e-003 0. 0. 0. 0. 0. 0. 0. 0. 0. 0. 0. 0.
      0. 0. 0. 0. 0. 3.01659130e-003 0. 0. 0. 4.52488707e-003 0. 0. 0.
      3.01659130e-003 0. 0. 0. 0. 0. 0. 0. 0. 0. 0. 7.54147815e-003
      1.50829565e-003 0. 0. 0. 0. 0. 0. 0. 0. 0. 6.03318261e-003 0. 0.
      0. 1.50829565e-003 0. 0. 0. 0. 0. 0. 0. 0. 1.50829565e-003 0. 0.
      0. 0. 0. 0. 0. 3.01659130e-003 0. 0. 0. 0. 0. 0. 0. 0.
      1.50829565e-003 0. 0. 0. 0. 0. 0. 0. 3.01659130e-003 0.
      1.50829565e-003 0. 0. 0. 0. 0. 4.52488707e-003 0. 0.
      1.50829565e-003 0. 0. 0. 0. 0. 1.50829565e-003 1.50829565e-003 0.
      0. 0. 0. 0. 0. 0. 1.50829565e-003 0. 0. 0. 0. 0. 0. 0. 0. 0. 0.
      1.50829565e-003 0. 0. 0. 0. 3.01659130e-003 0. 0. 0. 0. 0. 0. 0.
      0. 0. 0. 0. 0. 0. 0. 0. 0. 1.50829565e-003 0. 0. 0. 0. 0. 0. 0. 0.
      0. 0. 0. 0. 0. 0. 0. 0. 7.54147815e-003 0. 0. 0. 0. 0. 0. 0. 0. 0.
      0. 0. 3.01659130e-003 3.01659130e-003 0. 0. 0. 0. 0. 0. 0. 0. 0.
      0. 0. 0. 0. 0. 9.04977415e-003 0. 4.52488707e-003 0. 0. 0. 0. 0.
      4.52488707e-003 0. 0. 0. 0. 3.01659130e-003 0. 0. 0. 0. 0.
      1.50829565e-003 0. 0. 0. 0. 0. 0. 0. 0. 0. 0. 0. 0. 0. 0. 0. 0.
      1.50829565e-003 0. 0. 0. 0. 0. 0. 0. 0. 3.01659130e-003 0.
      1.50829565e-003 0. 1.50829565e-003 0. 0. 0. 0. 0. 0. 0. 0. 0. 0.
      0. 0. 0. 4.52488707e-003 0. 0. 0. 0. 0. 0. 0. 0. 0. 0. 0. 0. 0. 0.
      1.50829565e-003 0. 0. 0. 0. 0. 0. 0. 0. 0. 0. 0. 0. 0. 0. 0. 0. 0.
      0. 0. 0. 0. 0. 0. 0. 0. 0. 0. 0. 0. 0. 1.50829565e-003 0. 0. 0. 0.
      0. 0. 0. 0. 0. 0. 0. 0. 0. 0. 0. 0. 0. 0. 0. 6.03318261e-003 0. 0.
      0. 0. 0. 0. 0. 0. 0. 0. 0. 0. 0. 0. 0. 0. 0. 3.01659130e-003 0. 0.
      0. 0. 0. 1.50829565e-003 0. 0. 0. 0. 0. 0. 0. 0. 0. 0.
      1.50829565e-003 0. 0. 0. 0. 0. 0. 0. 3.01659130e-003 0. 0.
      1.50829565e-003 0. 0. 1.50829565e-003 0. 0. 0. 0. 0. 0. 0. 0. 0.
      1.50829565e-003 0. 3.01659130e-003 0. 0. 0. 0. 0. 0. 0. 0. 0. 0.
      0. 0. 0. 1.50829565e-003 0. 0. 0. 0. 6.03318261e-003 0.
      1.50829565e-003 0. 0. 0. 0. 0. 0. 0. 0. 0. 0. 0. 3.01659130e-003
      0. 0. 0. 0. 0. 0. 0. 3.01659130e-003 0. 3.01659130e-003 0. 0. 0.
      0. 0. 0. 0. 0. 0. 0. 0. 1.50829565e-003 0. 0. 0. 0.
      1.50829565e-003 0. 0. 0. 0. 0. 3.01659130e-003 0. 0. 0. 0. 0. 0.
      1.50829565e-003 0. 0. 0. 0. 0. 0. 0. 0. 0. 0. 0. 0. 0. 0. 0. 0.
      1.50829565e-003 0. 0. 0. 0. 0. 0. 0. 0. 0. 0. 0. 0. 0.
      3.01659130e-003 0. 0. 0. 0. 0. 0. 0. 0. 0. 0. 0. 0. 0.
      4.52488707e-003 0. 1.50829565e-003 0. 0. 0. 0. 0. 0.
      1.50829565e-003 0. 0. 0. 0. 0. 0. 0. 0. 0. 0. 0. 0.
      3.01659130e-003 0. 0. 0. 0. 0. 0. 0. 0. 3.01659130e-003 0.
      1.50829565e-003 0. 0. 0. 0. 0. 0. 0. 0. 1.50829565e-003 0.
      1.50829565e-003 1.50829565e-003 0. 0. 0. 0. 0. 0. 0. 0. 0. 0. 0.
      3.01659130e-003 0. 0. 0. 1.50829565e-003 0. 0. 1.50829565e-003 0.
      0. 0. 0. 0. 0. 0. 0. 0. 0. 0. 0. 1.50829565e-003 0. 0. 0. 0. 0. 0.
      0. 0. 0. 1.50829565e-003 0. 0. 0. 7.54147815e-003 0. 0. 0. 0. 0.
      1.50829565e-003 1.50829565e-003 0. 0. 0. 0. 0. 0. 0. 0. 0. 0. 0.
      0. 1.50829565e-003 0. 0. 1.50829565e-003 0. 0. 0. 0. 0. 0. 0. 0.
      0. 0. 0. 0. 0. 0. 0. 0. 0. 0. 1.50829565e-003 0. 0. 0. 0. 0. 0. 0.
      0. 0. 0. 1.50829565e-003 0. 0. 0. 0. 3.01659130e-003
      1.50829565e-003 0. 0. 0. 0. 0. 0. 0. 0. 0. 3.01659130e-003 0. 0.
      1.50829565e-003 0. 0. 0. 0. 0. 0. 0. 0. 0. 0. 0. 0. 0. 0. 0. 0.
      1.50829565e-003 0. 4.52488707e-003 0. 0. 0. 0. 0. 0. 0. 0. 0.
      4.52488707e-003 0. 0. 1.50829565e-003 0. 1.50829565e-003 0. 0. 0.
      0. 0. 0. 0. 0. 0. 0. 0. 0. 0. 0. 0. 0. 0. 0. 0. 0. 0. 0.
      1.50829565e-003 0. 1.50829565e-003 0. 0. 0. 0. 1.50829565e-003
      1.50829565e-003 0. 0. 0. 0. 0. 0. 0. 0. 1.50829565e-003 0. 0. 0.
      0. 0. 0. 0. 0. 0. 0. 0. 0. 3.01659130e-003 0. 1.50829565e-003 0.
      1.50829565e-003 0. 0. 0. 0. 0. 0. 0. 0. 0. 0. 0. 0. 0. 0. 0. 0. 0.
      1.50829565e-003 0. 0. 0. 0. 0. 1.50829565e-003 0. 0. 0. 0. 0. 0.
      3.01659130e-003 0. 0. 0. 0. 0. 0. 3.01659130e-003 0. 0. 0.
      4.52488707e-003 0. 0. 0. 0. 3.01659130e-003 0. 0. 0. 0.
      6.03318261e-003 0. 0. 0. 0. 0. 0. 0. 0. 0. 0. 0. 0. 0. 0. 0.
      1.50829565e-003 0. 0. 0. 0. 0. 0. 0. 1.50829565e-003 0.
      1.50829565e-003 0. 0. 0. 1.50829565e-003 0. 0. 0. 0. 0. 0. 0. 0.
      0. 0. 1.50829565e-003 0. 0. 0. 0. 0. 0. 0. 0. 0. 0. 0. 0. 0. 0. 0.
      0. 0. 1.50829565e-003 0. 0. 6.03318261e-003 1.50829565e-003 0.
      4.52488707e-003 0. 0. 0. 0. 0. 0. 3.01659130e-003 0. 0. 0. 0. 0.
      0. 0. 0. 1.50829565e-003 0. 0. 1.50829565e-003 0. 1.50829565e-003
      0. 0. 0. 0. 0. 0. 0. 0. 0. 0. 0. 0. 0. 0. 0. 0. 0. 0. 0.
      1.50829565e-003 0. 0. 0. 0. 0. 0. 0. 0. 0. 1.50829565e-003 0.
      1.50829565e-003 0. 0. 0. 0. 0. 0. 0. 0. 1.50829565e-003 0. 0. 0.
      0. 0. 0. 0. 0. 1.50829565e-003 0. 0. 0. 0. 0. 0. 0. 0. 0. 0. 0. 0.
      0. 0. 0. 4.52488707e-003 1.50829565e-003 0. 0. 0. 0. 0. 0. 0. 0.
      0. 0. 0. 0. 0. 0. 0. 0. 1.50829565e-003 0. 0. 0. 0. 0. 0. 0. 0. 0.
      0. 0. 0. 0. 0. 1.50829565e-003 1.50829565e-003 0. 0. 0. 0. 0. 0.
      0. 0. 0. 0. 0. 0. 0. 1.50829565e-003 4.52488707e-003 0. 0. 0. 0.
      0. 0. 0. 0. 0. 0. 0. 0. 0. 0. 0. 0. 0. 0. 0. 0. 1.05580697e-002 0.
      0. 0. 0. 0. 0. 0. 0. 0. 0. 0. 0. 0. 0. 0. 0. 0. 0. 0. 0. 0. 0. 0.
      1.50829565e-003 0. 0. 0. 1.50829565e-003 0. 0. 0. 0. 0. 0. 0. 0.
      0. 0. 1.50829565e-003 0. 1.50829565e-003 0. 0. 0. 0. 0. 0. 0. 0.
      1.50829565e-003 1.50829565e-003 0. 0. 0. 0. 3.01659130e-003 0. 0.
      0. 0. 0. 0. 0. 0. 0. 0. 0. 0. 0. 4.52488707e-003 0. 0. 0. 0. 0. 0.
      0. 0. 0. 0. 0. 0. 0. 0. 0. 0. 0. 0. 0. 0. 0. 0. 0. 0. 0. 0. 0.
      1.50829565e-003 0. 0. 0. 0. 0. 0. 6.03318261e-003 1.50829565e-003
      0. 0. 0. 0. 0. 0. 0. 0. 0. 0. 0. 0. 0. 0. 0. 0. 0. 0. 0. 0. 0. 0.
      0. 0. 1.50829565e-003 0. 0. 0. 0. 0. 0. 0. 0. 0. 0. 0. 0. 0. 0. 0.
      0. 0. 0. 0. 0. 0. 1.50829565e-003 0. 3.01659130e-003 0.
      3.01659130e-003 0. 0. 1.50829565e-003 0. 0. 0. 0. 0. 0. 0. 0. 0.
      0. 0. 0. 1.50829565e-003 0. 0. 0. 0. 0. 0. 0. 1.50829565e-003 0.
      0. 0. 0. 0. 0. 0. 0. 0. 0. 1.50829565e-003 0. 0. 1.50829565e-003
      0. 0. 0. 0. 4.52488707e-003 0. 3.01659130e-003 0. 0. 0. 0. 0. 0.
      0. 0. 0. 0. 0. 0. 1.50829565e-003 0. 0. 0. 0. 0. 1.50829565e-003
      1.50829565e-003 0. 0. 0. 1.50829565e-003 0. 0. 0. 0. 0. 0. 0.
      1.50829565e-003 0. 0. 0. 0. 0. 0. 0. 0. 0. 0. 0. 0.
      4.52488707e-003 0. 0. 1.50829565e-003 0. 0. 0. 0. 0. 0. 0. 0. 0.
      0. 0. 7.54147815e-003 0. 1.50829565e-003 0. 0. 0. 0. 0. 0. 0. 0.
      0. 0. 0. 0. 0. 0. 0. 0. 0. 0. 1.50829565e-003 0. 0. 0. 0.
      3.01659130e-003 0. 2.11161394e-002 0. 0. 1.50829565e-003 0. 0. 0.
      0. 0. 1.50829565e-003 0. 0. 0. 0. 0. 0. 3.01659130e-003 0. 0. 0.
      0. 0. 0. 1.50829565e-003 0. 0. 0. 0. 0. 0. 0. 0. 0. 0. 0. 0. 0. 0.
      0. 0. 0. 1.50829565e-003 1.50829565e-003 0. 0. 0. 0. 0. 0.
      1.50829565e-003 0. 0. 0. 0. 0. 0. 0. 0. 0. 0. 0. 0. 0. 0. 0.
      6.03318261e-003 0. 0. 0. 0. 0. 0. 0. 7.54147815e-003 0. 0.
      4.52488707e-003 3.01659130e-003 1.50829565e-003 0. 0. 0. 0.
      3.01659130e-003 0. 0. 3.01659130e-003 0. 1.50829565e-003
      1.50829565e-003 0. 0. 0. 0. 0. 0. 0. 0. 1.50829565e-003 0. 0. 0.
      0. 0. 0. 0. 1.50829565e-003 0. 0. 0. 0. 0. 0. 0. 0.
      3.01659130e-003 4.52488707e-003 0. 0. 1.50829565e-003 0. 0. 0. 0.
      0. 0. 0. 0. 0. 0. 0. 0. 0. 0. 0. 0. 0. 0. 0. 0. 0. 1.50829565e-003
      0. 0. 0. 0. 0. 0. 1.50829565e-003 0. 0. 0. 0. 0. 0. 0. 0. 0. 0. 0.
      0. 0. 0. 0. 0. 0. 1.50829565e-003 0. 0. 0. 0. 0. 0. 0. 0. 0.
      1.50829565e-003 0. 0. 0. 0. 0. 0. 0. 0. 0. 0. 0. 0. 0. 0. 0. 0. 0.
      0.</_>
    <_>
      0. 0. 0. 6.17283978e-004 0. 6.17283955e-003 0. 0. 0. 0. 0. 0. 0.
      0. 0. 0. 0. 0. 6.17283978e-004 0. 0. 0. 0. 1.23456796e-003 0. 0.
      0. 0. 0. 0. 0. 0. 6.17283978e-004 0. 6.17283978e-004
      6.17283978e-004 0. 0. 0. 0. 0. 0. 0. 0. 0. 0. 0. 0. 0. 0. 0. 0. 0.
      0. 0. 0. 0. 0. 0. 0. 0. 0. 0. 0. 0. 1.23456796e-003 0.
      1.85185194e-003 0. 0. 2.46913591e-003 0. 3.70370387e-003
      6.17283978e-004 0. 6.17283978e-004 0. 4.93827183e-003 0. 0. 0. 0.
      0. 0. 0. 3.08641978e-003 0. 0. 0. 6.17283978e-004 0. 0. 0. 0. 0.
      0. 0. 0. 6.17283978e-004 0. 0. 0. 0. 0. 0. 0. 0. 0. 0. 0. 0. 0. 0.
      1.85185194e-003 0. 6.17283978e-004 1.23456796e-003 0.
      1.23456796e-003 0. 0. 0. 0. 0. 0. 1.23456796e-003 0. 0. 0. 0. 0.
      0. 0. 0. 0. 0. 0. 0. 0. 6.17283978e-004 0. 0. 0. 6.17283978e-004
      0. 0. 0. 0. 0. 0. 0. 0. 0. 0. 0. 0. 0. 0. 0. 0. 0. 0. 0. 0. 0. 0.
      0. 0. 0. 0. 0. 0. 0. 0. 0. 0. 0. 0. 0. 0. 0. 0. 0. 0. 0. 0.
      1.85185194e-003 0. 0. 0. 0. 6.17283978e-004 0. 0. 6.17283978e-004
      0. 0. 0. 0. 0. 1.23456796e-003 0. 6.17283978e-004 0. 0. 0. 0. 0.
      0. 0. 0. 0. 0. 0. 1.85185194e-003 0. 0. 0. 0. 0. 0.
      2.46913591e-003 0. 0. 0. 0. 0. 1.23456796e-003 0. 0. 0. 0. 0. 0.
      0. 0. 0. 0. 0. 6.17283978e-004 3.70370387e-003 1.23456796e-003 0.
      0. 0. 7.40740774e-003 0. 0. 0. 0. 0. 0. 0. 0. 0. 0.
      8.64197593e-003 0. 0. 0. 0. 1.85185194e-003 0. 0. 6.17283978e-004
      0. 0. 0. 0. 0. 0. 0. 0. 0. 0. 0. 2.46913591e-003 0. 0. 0. 0. 0.
      6.17283978e-004 0. 0. 0. 0. 6.17283978e-004 0. 0. 0. 0.
      6.17283978e-004 0. 0. 0. 0. 0. 0. 0. 0. 0. 1.85185194e-003 0. 0.
      0. 0. 0. 0. 0. 1.23456796e-003 6.17283978e-004 0. 1.23456796e-003
      0. 0. 0. 0. 0. 1.23456796e-003 0. 0. 0. 0. 0. 6.17283978e-004 0.
      0. 0. 0. 0. 0. 0. 0. 0. 1.85185194e-003 0. 0. 0. 6.17283978e-004
      0. 0. 0. 6.17283978e-004 0. 0. 0. 0. 0. 0. 0. 0. 6.17283978e-004
      0. 0. 0. 0. 0. 6.17283978e-004 6.17283978e-004 0. 0. 0. 0. 0.
      1.23456796e-003 0. 6.17283978e-004 0. 0. 0. 0. 0. 0. 0. 0. 0. 0.
      0. 6.17283978e-004 0. 6.17283978e-004 0. 0. 0. 1.23456796e-003 0.
      0. 0. 0. 0. 0. 0. 6.17283978e-004 0. 0. 0. 6.79012388e-003
      6.17283978e-004 0. 0. 0. 0. 0. 0. 0. 0. 0. 0. 0. 0. 0. 0. 0. 0.
      2.46913591e-003 0. 0. 6.17283978e-004 0. 0. 0. 0. 0. 0. 0. 0. 0.
      0. 0. 0. 0. 0. 0. 0. 0. 0. 0. 0. 0. 0. 0. 0. 0. 0. 0. 0. 0. 0. 0.
      0. 0. 0. 0. 0. 0. 1.23456796e-003 0. 0. 0. 1.23456796e-003 0.
      1.23456796e-003 0. 0. 2.46913591e-003 0. 0. 0. 0. 0. 0.
      6.17283978e-004 0. 0. 0. 0. 0. 0. 0. 0. 0. 0. 0. 0. 0. 0. 0. 0. 0.
      0. 0. 0. 0. 1.23456796e-003 0. 6.17283978e-004 0. 0. 0. 0. 0.
      6.17283978e-004 0. 0. 0. 0. 0. 0. 0. 6.17283978e-004 0. 0. 0. 0.
      0. 3.08641978e-003 0. 0. 0. 0. 0. 0. 0. 0. 0. 0. 0. 0.
      1.29629634e-002 0. 0. 0. 1.23456796e-003 0. 0. 0. 0.
      1.23456796e-003 0. 0. 0. 0. 0. 0. 0. 0. 0. 0. 0. 0. 0. 0. 0. 0. 0.
      0. 0. 1.29629634e-002 0. 0. 0. 0. 2.46913591e-003 0. 0. 0.
      1.23456796e-003 0. 0. 0. 0. 1.85185194e-003 0. 0. 0. 0. 0. 0. 0.
      0. 0. 0. 0. 0. 0. 0. 3.08641978e-003 1.23456796e-003 0. 0.
      1.85185194e-003 0. 0. 6.17283978e-004 0. 0. 6.17283978e-004
      6.17283978e-004 0. 0. 0. 0. 1.23456796e-003 6.17283978e-004 0. 0.
      0. 0. 0. 0. 0. 0. 0. 0. 0. 0. 0. 0. 0. 1.23456796e-003 0. 0. 0.
      6.17283978e-004 0. 0. 0. 0. 6.17283978e-004 0. 0. 0. 0. 0. 0. 0.
      0. 0. 0. 0. 0. 0. 0. 0. 0. 0. 0. 0. 0. 0. 0. 6.17283978e-004 0. 0.
      0. 0. 0. 6.17283978e-004 0. 0. 0. 0. 0. 1.23456796e-003 0. 0.
      1.23456796e-003 0. 0. 0. 0. 0. 0. 6.17283978e-004 0. 0. 0. 0. 0.
      6.17283978e-004 0. 0. 0. 0. 0. 0. 0. 0. 0. 0. 1.23456796e-003 0.
      1.23456796e-003 0. 0. 0. 0. 0. 0. 0. 0. 0. 0. 0. 6.17283978e-004
      0. 0. 0. 0. 0. 0. 6.17283955e-003 0. 0. 6.17283978e-004 0.
      1.85185194e-003 0. 1.23456796e-003 0. 0. 0. 0. 0. 0. 0. 0.
      6.17283978e-004 6.17283978e-004 0. 0. 0. 0. 0. 0. 0. 0.
      6.17283978e-004 0. 0. 0. 0. 6.79012388e-003 1.23456796e-003 0. 0.
      3.08641978e-003 6.17283978e-004 0. 0. 0. 0. 0. 6.17283978e-004
      1.23456796e-003 0. 6.17283978e-004 0. 0. 0. 0. 0. 0. 0. 0. 0. 0.
      6.17283978e-004 0. 0. 0. 5.55555569e-003 0. 0. 0. 0. 0. 0.
      6.17283978e-004 0. 0. 0. 0. 0. 0. 0. 0. 0. 0. 0. 0. 0. 0. 0. 0. 0.
      0. 0. 0. 0. 0. 0. 0. 0. 0. 0. 6.17283978e-004 0. 0. 0.
      6.17283978e-004 6.17283978e-004 0. 0. 0. 0. 0. 0. 0. 0. 0. 0. 0.
      0. 0. 6.17283978e-004 0. 1.23456796e-003 0. 0. 0. 0. 0. 0. 0. 0.
      0. 0. 0. 1.23456796e-003 6.17283978e-004 2.46913591e-003
      7.40740774e-003 0. 0. 0. 0. 0. 2.46913591e-003 0. 0. 0. 0. 0. 0.
      0. 6.17283978e-004 0. 0. 0. 0. 0. 0. 0. 0. 0. 2.28395071e-002 0.
      0. 0. 0. 0. 0. 0. 0. 6.17283978e-004 0. 0. 0. 3.08641978e-003
      2.46913591e-003 1.23456796e-003 0. 6.17283978e-004 0. 0. 0. 0. 0.
      0. 0. 6.17283978e-004 0. 0. 0. 6.17283978e-004 0. 0. 0. 0. 0. 0.
      0. 6.17283978e-004 1.23456796e-003 0. 0. 0. 0. 0. 0. 0. 0. 0. 0.
      0. 0. 1.85185194e-003 4.93827183e-003 0. 0. 0. 0. 0. 0.
      1.23456796e-003 0. 0. 0. 0. 0. 0. 0. 4.32098797e-003 0. 0. 0. 0.
      0. 0. 0. 0. 0. 0. 0. 0. 0. 0. 0. 0. 0. 0. 0. 0. 0. 2.03703716e-002
      0. 0. 0. 0. 0. 0. 0. 0. 0. 0. 0. 0. 0. 0. 0. 0. 0. 0. 0. 0. 0.
      6.17283978e-004 0. 0. 0. 0. 6.17283978e-004 0. 0. 0.
      6.17283978e-004 0. 0. 0. 6.17283978e-004 5.55555569e-003
      3.70370387e-003 0. 0. 0. 0. 6.17283978e-004 0. 0. 0. 0. 0. 0. 0.
      0. 0. 0. 0. 0. 6.17283978e-004 6.17283978e-004 0. 0. 0. 0. 0. 0.
      0. 0. 0. 0. 6.17283978e-004 0. 6.17283978e-004 6.17283978e-004 0.
      0. 0. 0. 0. 0. 2.46913591e-003 0. 0. 0. 0. 0. 0. 0. 0. 0. 0. 0. 0.
      0. 0. 0. 0. 0. 0. 0. 0. 0. 0. 0. 0. 0. 0. 0. 3.08641978e-003 0. 0.
      0. 6.17283978e-004 0. 1.23456796e-003 0. 0. 0. 0. 2.46913591e-003
      6.17283978e-004 0. 0. 0. 0. 0. 0. 0. 1.23456796e-003 0. 0. 0. 0.
      0. 0. 0. 0. 0. 0. 0. 6.17283978e-004 0. 0. 6.17283978e-004 0. 0.
      0. 0. 1.23456796e-003 0. 6.17283978e-004 0. 0. 0. 0. 0. 0. 0. 0.
      0. 0. 0. 0. 0. 0. 1.23456796e-003 0. 0. 0. 0. 0. 0. 0. 0. 0. 0.
      6.17283978e-004 0. 6.17283978e-004 3.70370387e-003 0. 0. 0. 0. 0.
      0. 0. 1.23456796e-003 0. 0. 0. 0. 0. 0. 0. 0. 0. 0. 0. 0. 0.
      5.55555569e-003 0. 0. 0. 0. 0. 1.85185194e-003 0. 0.
      6.17283978e-004 0. 0. 0. 0. 0. 0. 0. 0. 0. 0. 0. 0. 0. 0. 0. 0. 0.
      0. 0. 1.85185194e-003 0. 0. 3.70370387e-003 0. 0. 0.
      6.17283978e-004 6.17283978e-004 0. 0. 0. 0. 0. 0. 6.17283978e-004
      0. 0. 0. 0. 0. 0. 0. 0. 0. 0. 0. 0. 0. 0. 0. 0. 0. 0. 0. 0. 0. 0.
      0. 0. 6.17283978e-004 0. 0. 0. 0. 0. 0. 0. 0. 6.17283978e-004 0.
      0. 0. 0. 0. 0. 0. 0. 0. 2.46913591e-003 0. 0. 0. 0. 0. 0.
      1.23456796e-003 0. 0. 0. 0. 0. 0. 1.23456796e-003 0. 0. 0. 0. 0.
      6.17283978e-004 0. 0. 0. 0. 0. 0. 0. 0. 0. 0. 0. 0.
      6.17283978e-004 0. 0. 0. 0. 0. 0. 0. 0. 0. 0. 0. 0.
      6.17283978e-004 0. 6.17283978e-004 0. 0. 0. 0. 0. 1.23456796e-003
      0. 0. 0. 0. 0. 0. 0. 0. 0. 6.17283978e-004 0. 0. 0.
      1.85185194e-003 0. 6.17283978e-004 0. 0. 6.17283978e-004 0.
      3.70370387e-003 0. 1.23456796e-003 0. 0. 0. 0. 0. 6.17283978e-004
      0. 0. 0. 0. 0. 0. 0. 0. 6.17283978e-004 0. 0. 0. 0. 0. 0. 0. 0. 0.
      6.17283978e-004 0. 0. 0. 0. 0. 0. 1.23456796e-003 0. 0. 0. 0. 0.
      0. 0. 1.85185194e-003 0. 0. 0. 1.23456796e-003 0. 0. 0. 0.
      6.17283978e-004 0. 0. 0. 6.17283978e-004 1.85185194e-003 0. 0. 0.
      0. 0. 0. 0. 0. 0. 0. 0. 0. 0. 0. 1.85185194e-003 0. 0. 0.
      6.17283978e-004 0. 0. 0. 0. 0. 2.46913591e-003 0. 1.23456796e-003
      0. 0. 1.35802478e-002 0. 0. 0. 0. 0. 0. 0. 6.17283978e-004 0. 0.
      0. 0. 0. 0. 0. 0. 0. 0. 0. 0. 0. 0. 0. 0. 0. 0. 6.17283978e-004 0.
      0. 6.17283978e-004 0. 0. 0. 9.25925933e-003 0. 0. 0.
      6.17283978e-004 0. 0. 0. 0. 4.93827183e-003 0. 0. 0. 0. 0. 0. 0.
      0. 0. 1.48148155e-002 0. 0. 0. 0. 0. 0. 0. 0. 0. 1.29629634e-002
      0. 0. 0. 1.23456796e-003 0. 0. 0. 4.32098797e-003 0. 0. 0. 0.
      6.17283978e-004 0. 0. 0. 0. 0. 0. 0. 0. 0. 0. 0. 0. 0. 0. 0. 0.
      1.23456796e-003 0. 0. 0. 6.17283978e-004 0. 0. 0. 0. 0. 0.
      6.17283978e-004 0. 0. 0. 0. 0. 0. 0. 0. 0. 0. 6.17283978e-004 0.
      0. 0. 0. 0. 0. 0. 0. 6.17283978e-004 0. 0. 0. 0. 0. 0.
      1.23456796e-003 0. 0. 6.17283978e-004 6.17283978e-004 0. 0. 0. 0.
      0. 0. 0. 0. 6.17283978e-004 0. 0. 0. 0. 6.17283978e-004 0. 0. 0.
      6.17283978e-004 0. 0. 0. 0. 0. 0. 0. 6.17283978e-004 0. 0.
      6.17283978e-004 0. 0. 0. 0. 6.17283978e-004 0. 0. 0. 0. 0. 0. 0.
      0. 0. 0. 6.17283978e-004 3.70370387e-003 0. 4.93827183e-003 0. 0.
      0. 0. 0. 0. 3.70370387e-003 0. 0. 0. 0. 0. 0. 0. 0. 0. 0. 0. 0. 0.
      0. 0. 0. 0. 0. 6.17283978e-004 0. 0. 0. 0. 0. 0. 0.
      1.85185194e-003 0. 0. 0. 0. 0. 0. 0. 0. 0. 0. 0. 0. 0. 0.
      2.46913591e-003 1.23456796e-003 0. 0. 0. 0. 6.17283978e-004 0. 0.
      0. 0. 0. 0. 0. 0. 1.85185194e-003 6.79012388e-003 6.17283978e-004
      0. 0. 0. 0. 0. 0. 0. 0. 0. 0. 0. 0. 0. 0. 5.55555569e-003 0. 0. 0.
      0. 0. 1.85185194e-003 0. 0. 1.72839519e-002 0. 0. 0. 0. 0. 0. 0.
      0. 0. 0. 0. 6.17283978e-004 0. 0. 6.17283978e-004 0. 0. 0. 0. 0.
      0. 0. 0. 4.32098797e-003 0. 6.17283978e-004 0. 0. 0. 0. 0. 0. 0.
      4.93827183e-003 0. 6.17283978e-004 0. 0. 6.17283978e-004 0. 0. 0.
      0. 6.17283978e-004 0. 0. 0. 0. 0. 0. 0. 0. 0. 0. 0. 0. 0. 0. 0. 0.
      0. 0. 6.17283978e-004 0. 0. 1.23456796e-003 0. 0. 0. 0. 0. 0.
      6.17283978e-004 6.17283978e-004 0. 6.17283978e-004 0.
      6.17283978e-004 0. 0. 0. 4.32098797e-003 0. 1.85185194e-003
      6.17283978e-004 0. 0. 0. 0. 6.17283978e-004 0. 0. 0. 0. 0. 0. 0.
      0. 6.17283978e-004 0. 1.85185194e-003 0. 0. 0. 0. 6.17283978e-004
      0. 0. 2.46913591e-003 0. 6.17283978e-004 0. 0. 0. 0. 0. 0.
      1.85185194e-003 0. 0. 0. 2.16049384e-002 0. 0. 0. 0. 0. 0. 0. 0.
      0. 0. 0. 0. 0. 0. 0. 0. 0. 0. 1.85185194e-003 0. 0. 0. 0. 0. 0. 0.
      0. 0. 0. 0. 0. 0. 0. 0. 0. 0. 0. 0. 0. 0. 1.23456796e-003 0. 0. 0.
      0. 0. 0. 0. 0. 0. 0. 0. 0. 0. 0. 1.23456796e-003 0. 0. 0. 0. 0.
      6.17283978e-004 0. 0. 6.17283978e-004 0. 0. 0. 0. 0.
      1.85185194e-003 0. 0. 4.32098797e-003 2.46913591e-003 0.
      1.23456796e-003 0. 0. 0. 0. 0. 0. 6.17283978e-004 6.17283978e-004
      0. 0. 0. 0. 0. 0. 0. 0. 0. 0. 0. 0. 6.17283978e-004 0. 0. 0.
      6.17283978e-004 0. 0. 6.17283978e-004 0. 0. 1.23456796e-003 0. 0.
      0. 6.17283978e-004 0. 1.97530873e-002 0. 0. 0. 0. 0. 0.
      6.17283955e-003 0. 0. 0. 0. 1.85185194e-003 0. 0. 1.85185194e-003
      0. 0. 0. 1.23456796e-003 0. 0. 0. 0. 0. 0. 0. 0. 0. 0. 0. 0. 0.
      6.17283978e-004 0. 0. 0. 1.23456796e-003 0. 0. 0. 1.23456796e-003
      0. 0. 0. 0. 0. 1.85185194e-003 0. 0. 0. 0. 0. 1.85185194e-003 0.
      0. 1.23456796e-003 0. 0. 0. 0. 0. 0. 6.17283978e-004 0. 0. 0. 0.
      0. 0. 0. 0. 0. 0. 0. 0. 0. 6.17283978e-004 0. 0. 0. 0.
      6.17283978e-004 0. 0. 0. 0. 0. 0. 1.85185194e-003 0. 0. 0. 0. 0.
      0. 0. 6.17283978e-004 0. 0. 6.17283978e-004 6.17283978e-004
      6.17283978e-004 0. 0. 0. 0. 0. 0. 1.85185194e-003 0. 0. 0. 0. 0.
      0. 0. 0. 0. 2.46913591e-003 2.46913591e-003 2.46913591e-003 0. 0.
      0. 0. 0. 0. 0. 0. 0. 0. 0. 0. 6.17283978e-004 0. 0. 0. 0. 0. 0.
      1.85185194e-003 0. 0. 0. 1.23456796e-003 0. 0. 0. 0. 0. 0. 0. 0.
      0. 0. 0. 0. 1.85185194e-003 0. 8.95061791e-002 0. 5.55555569e-003
      0. 0. 0. 6.17283978e-004 0. 1.85185194e-003 0. 0. 0. 0. 0. 0.
      1.23456796e-003 0. 0. 0. 0. 0. 0. 0. 0. 0. 6.17283978e-004 0. 0.
      0. 0. 0. 0. 0. 6.17283978e-004 0. 0. 1.23456796e-003 0. 0. 0. 0.
      0. 6.17283978e-004 0. 0. 0. 0. 6.17283978e-004 6.17283978e-004 0.
      6.17283978e-004 3.70370387e-003 0. 0. 0. 0. 0. 0. 0. 0. 0. 0. 0.
      0. 0. 0. 0. 0. 0. 0. 0. 0. 0. 0. 0. 0. 0. 0. 0. 0. 0. 0.
      6.17283978e-004 0. 0. 0. 0. 0. 0. 0. 6.17283978e-004 0. 0.
      6.17283978e-004 0. 6.17283978e-004 0. 2.46913591e-003
      1.23456796e-003 0. 6.17283978e-004 0. 1.85185194e-003 0. 0. 0. 0.
      6.17283978e-004 0. 0. 0. 0. 0. 0. 0. 0. 0. 0. 0. 0.
      6.17283978e-004 0. 0. 0. 2.46913591e-003 0. 0. 0. 1.85185194e-003
      0. 0. 0. 6.17283978e-004 0. 0. 6.17283978e-004 0. 1.23456796e-003
      0. 0. 0. 0. 0. 0. 0. 0. 0. 0. 2.46913591e-003 6.79012388e-003 0.
      0. 3.27160507e-002 0. 0. 0. 0. 0. 0. 6.17283978e-004 0. 0. 0. 0.
      0. 1.23456796e-003 0. 0. 0. 0. 0. 0. 0. 0. 0. 0. 0. 0.
      6.17283978e-004 0. 0. 0. 6.17283978e-004 0. 0. 0. 0. 0. 0. 0. 0.
      0. 0. 0. 0. 0. 0. 0. 0. 0. 3.08641978e-003 0. 0. 0. 0. 0. 0. 0. 0.
      0. 1.23456796e-003 0. 0. 0. 0. 0. 4.32098797e-003 0. 0. 0. 0. 0.
      0. 0. 0. 0. 0. 0. 0. 0. 0. 6.17283978e-004 0. 0. 0.
      3.08641978e-003 0. 0. 6.17283978e-004 6.17283978e-004 0. 0. 0. 0.
      0. 6.17283978e-004 0. 0. 0. 0. 0. 6.17283978e-004 6.17283978e-004
      1.23456796e-003 0. 0. 0. 0. 0. 0. 0. 0. 0. 0. 0. 0. 0. 0. 0. 0. 0.
      0. 0. 0. 0. 0. 0. 1.23456796e-003 6.17283978e-004 0. 0. 0. 0.
      6.17283978e-004 0. 6.17283978e-004 0. 0. 0. 0. 0. 0. 0. 0. 0.
      1.11111114e-002 0. 0. 0. 0. 0. 0. 0. 1.23456796e-003 0. 0.
      1.23456796e-003 0. 0. 0. 6.17283978e-004 0. 0. 0. 0. 0. 0. 0. 0.
      0. 0. 0. 0. 0. 0. 0. 0. 0. 0. 0. 6.17283978e-004 0. 0. 0. 0. 0. 0.
      0. 6.17283978e-004 0. 0. 0. 0. 0. 0. 6.17283978e-004
      6.17283978e-004 0. 0. 0. 0. 0. 0. 0. 0. 1.23456796e-003
      4.32098797e-003 0. 0. 0. 0. 0. 0. 0. 0. 0. 0. 0. 0. 0. 0. 0. 0. 0.
      0. 0. 0. 0. 0. 0. 0. 0. 1.23456796e-003 0. 0. 6.17283978e-004
      6.17283978e-004 0. 0. 0. 0. 0. 0. 1.23456796e-003 0.
      3.70370387e-003 0. 0. 0. 6.17283978e-004 0. 0. 0. 0. 0. 0. 0. 0.
      0. 6.17283978e-004 0. 0. 0. 6.17283978e-004 6.17283978e-004 0. 0.
      0. 0. 0. 0. 1.04938280e-002 0. 0. 0. 6.17283978e-004 0. 0. 0. 0.
      0. 0. 0. 0. 0. 0. 0. 0. 6.17283978e-004 0. 0. 6.17283978e-004 0.
      0. 0. 0. 0. 0. 6.17283978e-004 0. 3.08641978e-003 0. 0. 0. 0. 0.
      6.17283978e-004 6.17283978e-004 0. 0. 0. 0. 4.93827183e-003 0. 0.
      0. 0. 1.85185194e-003 2.46913591e-003 0. 0. 0. 0. 6.17283978e-004
      0. 0. 1.85185194e-003 0. 0. 0. 0. 0. 6.17283978e-004 0.
      6.17283978e-004 0. 6.17283978e-004 0. 6.17283978e-004 0. 0. 0. 0.
      0. 0. 0. 0. 0. 0. 0. 0. 0. 6.17283978e-004 0. 0. 1.23456796e-003
      0. 0. 0. 0. 0. 0. 0. 0. 0. 0. 0. 0. 6.17283978e-004 0. 0. 0. 0. 0.
      6.17283978e-004 0. 0. 0. 0. 0. 1.23456796e-003 0. 6.17283978e-004
      0. 0. 0. 0. 0. 0. 0. 0. 0. 0. 0. 6.17283978e-004 6.17283978e-004
      0. 6.17283978e-004 0. 6.17283978e-004 0. 0. 1.23456796e-003 0. 0.
      0. 0. 0. 1.23456796e-003 0. 0. 0. 0. 0. 0. 0. 0. 0. 0. 0. 0. 0. 0.
      0. 0. 2.59259269e-002 0. 0. 0. 0. 0. 0. 6.17283978e-004 0.
      6.17283978e-004 0. 0. 0. 0. 0. 0. 0. 0. 0. 0. 0. 6.17283978e-004
      0. 0. 0. 0. 0. 0. 0. 0. 6.17283978e-004 6.17283978e-004 0. 0. 0.
      0. 0. 0. 0. 0. 6.79012388e-003 0. 0. 0. 0. 0. 0. 0. 0. 0. 0. 0. 0.
      0. 0. 0. 0. 0. 0. 0. 0. 0. 0. 6.17283978e-004 0. 0. 0. 0.
      6.17283978e-004 0. 0. 0. 0. 0. 0. 0. 0. 0. 0. 0. 0. 0. 0. 0. 0. 0.
      0. 0. 0. 4.32098797e-003 0. 0. 0. 6.17283978e-004 0. 0. 0. 0. 0.
      6.17283978e-004 0. 0. 3.08641978e-003 0. 0. 0. 0. 2.46913591e-003
      0. 0. 0. 0. 0. 0. 0. 0. 0. 0. 0. 0. 0. 6.17283978e-004 0. 0.
      6.17283978e-004 0. 0. 0. 0. 0. 0. 0. 3.70370387e-003 0. 0. 0. 0.
      2.46913591e-003 0. 0. 0. 6.17283978e-004 0. 0. 0. 0. 0. 0. 0.
      6.17283978e-004 0. 0. 0. 0. 0. 0. 0. 0. 3.70370387e-003
      6.17283978e-004 0. 0. 0. 0. 0. 0. 0. 0. 1.85185194e-003 0. 0. 0.
      6.17283978e-004 0. 0. 0. 0. 0. 1.23456796e-003 0. 0. 0. 0.
      6.17283978e-004 0. 0. 0. 0. 6.17283978e-004 0. 0. 0. 0. 0. 0. 0.
      0. 0. 0. 0. 1.85185194e-003 0. 0. 0. 0. 0. 0. 0. 0. 0.
      6.17283978e-004 0. 0. 0. 0. 0. 0. 0. 0. 0. 0. 0. 0. 0. 0.
      6.17283978e-004 0. 0. 0. 0. 1.23456796e-003 0. 0. 0.
      1.23456796e-003 0. 0. 6.17283978e-004 0. 6.17283978e-004 0. 0. 0.
      0. 0. 6.17283978e-004 0. 0. 0. 0. 0. 0. 0. 1.23456796e-003 0. 0.
      0. 0. 0. 0. 0. 0. 0. 0. 6.17283978e-004 0. 0. 0. 0. 0. 0. 0. 0. 0.
      0. 0. 0. 1.04938280e-002 1.23456796e-003 6.17283978e-004 0. 0. 0.
      0. 0. 0. 4.32098797e-003 0. 0. 0. 0. 0. 1.23456796e-003 0. 0. 0.
      0. 0. 6.17283978e-004 0. 0. 0. 6.17283978e-004 0. 6.17283978e-004
      0. 0. 0. 0. 0. 0. 0. 0. 0. 0. 0. 0. 0. 0. 0. 0. 0. 0. 0. 0. 0. 0.
      0. 6.17283978e-004 0. 0. 0. 0. 0. 0. 6.17283978e-004
      1.23456796e-003 0. 0. 0. 1.85185194e-003 0. 0. 0. 0. 0. 0. 0. 0.
      0. 0. 0. 0.</_>
    <_>
      0. 0. 0. 0. 0. 0. 0. 0. 0. 0. 0. 0. 3.33333341e-003 0. 0. 0.
      9.99999978e-003 0. 0. 0. 0. 0. 0. 0. 0. 0. 0. 0. 0. 0. 0. 0. 0. 0.
      0. 0. 0. 0. 0. 0. 0. 0. 0. 0. 0. 0. 3.33333341e-003 0. 0. 0. 0. 0.
      0. 0. 0. 0. 0. 0. 0. 0. 0. 0. 0. 0. 0. 0. 0. 0. 0. 0. 0. 0. 0. 0.
      0. 0. 0. 0. 0. 0. 0. 0. 0. 0. 0. 0. 0. 0. 0. 0. 0. 0. 0. 0. 0. 0.
      0. 0. 0. 0. 0. 0. 0. 0. 0. 0. 0. 0. 0. 0. 0. 0. 0. 0. 0. 0. 0. 0.
      0. 0. 0. 0. 0. 0. 0. 6.66666683e-003 0. 0. 0. 0. 0. 0. 0. 0. 0. 0.
      0. 0. 0. 0. 0. 0. 0. 0. 0. 0. 0. 0. 0. 0. 0. 0. 0. 0. 0. 0. 0. 0.
      0. 0. 0. 0. 0. 9.99999978e-003 0. 0. 0. 0. 0. 0. 0. 0. 0. 0. 0. 0.
      0. 0. 0. 0. 0. 0. 0. 0. 0. 0. 0. 0. 0. 0. 0. 0. 0. 0. 0. 0. 0. 0.
      0. 0. 0. 0. 0. 0. 0. 0. 0. 0. 0. 0. 0. 0. 0. 0. 0. 0. 0. 0. 0. 0.
      0. 0. 0. 0. 0. 0. 0. 0. 3.33333341e-003 0. 0. 3.33333341e-003 0.
      0. 0. 0. 0. 0. 0. 0. 0. 0. 0. 0. 0. 0. 0. 0. 0. 0. 0. 0. 0. 0.
      6.66666683e-003 0. 0. 0. 0. 0. 6.66666683e-003 0. 0. 0. 0. 0. 0.
      3.33333341e-003 3.33333341e-003 0. 0. 0. 0. 0. 0. 0. 0. 0. 0. 0.
      0. 0. 0. 0. 0. 0. 0. 0. 0. 9.99999978e-003 0. 0. 0. 0. 0. 0.
      6.66666683e-003 0. 0. 0. 0. 0. 0. 0. 0. 0. 0. 0. 0. 0. 0. 0. 0. 0.
      0. 3.33333341e-003 0. 0. 0. 0. 0. 0. 0. 3.33333341e-003 0. 0. 0.
      0. 0. 0. 0. 0. 0. 0. 0. 9.99999978e-003 0. 0. 0. 0. 0. 0. 0. 0. 0.
      0. 0. 0. 0. 0. 0. 0. 0. 0. 0. 0. 0. 0. 3.33333341e-003 0. 0.
      3.33333341e-003 0. 0. 0. 0. 0. 0. 0. 0. 0. 0. 0. 0. 0. 0.
      3.33333341e-003 0. 0. 0. 0. 0. 0. 0. 0. 0. 0. 0. 0.
      1.33333337e-002 0. 0. 0. 0. 0. 0. 0. 0. 0. 0. 0. 0. 0. 0. 0. 0. 0.
      0. 0. 0. 0. 0. 0. 0. 0. 0. 0. 0. 0. 0. 0. 0. 0. 3.33333341e-003 0.
      0. 0. 0. 0. 0. 0. 0. 0. 0. 0. 0. 0. 0. 0. 6.66666683e-003 0. 0. 0.
      0. 0. 0. 0. 0. 0. 0. 0. 6.66666683e-003 0. 0. 0. 0. 0. 0. 0. 0. 0.
      0. 0. 0. 0. 0. 0. 0. 0. 0. 0. 0. 0. 0. 0. 0. 0. 0. 0. 0. 0. 0. 0.
      0. 0. 0. 0. 0. 0. 0. 0. 0. 0. 0. 0. 0. 0. 0. 0. 0. 0. 0. 0. 0. 0.
      0. 0. 0. 0. 0. 0. 0. 0. 0. 0. 0. 0. 0. 0. 0. 0. 0. 0. 0. 0. 0. 0.
      0. 0. 0. 0. 0. 0. 0. 0. 0. 0. 0. 0. 0. 0. 0. 0. 0. 0. 0. 0. 0. 0.
      0. 0. 0. 0. 0. 0. 0. 0. 0. 0. 0. 0. 0. 0. 0. 0. 0. 0. 0. 0. 0. 0.
      0. 3.33333341e-003 0. 3.33333341e-003 0. 0. 0. 0. 0. 0. 0. 0. 0.
      0. 0. 0. 0. 0. 0. 0. 0. 0. 0. 0. 0. 0. 0. 0. 0. 0. 0. 0. 0. 0. 0.
      0. 0. 0. 0. 0. 0. 0. 0. 0. 0. 0. 0. 0. 0. 0. 0. 0. 0. 0. 0. 0. 0.
      0. 0. 0. 0. 0. 0. 0. 0. 0. 0. 0. 0. 0. 0. 0. 0. 0. 0. 0. 0. 0. 0.
      0. 0. 0. 0. 0. 0. 0. 0. 0. 0. 0. 0. 0. 0. 0. 0. 1.99999996e-002 0.
      0. 0. 0. 0. 0. 0. 0. 0. 0. 0. 0. 0. 0. 0. 0. 0. 0. 0. 0. 0. 0. 0.
      0. 0. 0. 0. 0. 0. 0. 0. 0. 0. 0. 3.33333341e-003 0. 0. 0. 0. 0.
      6.66666683e-003 0. 0. 0. 0. 0. 0. 3.33333341e-003 0. 0. 0. 0. 0.
      0. 0. 0. 0. 0. 0. 0. 0. 0. 0. 0. 0. 0. 0. 0. 0. 0. 0. 0.
      9.99999978e-003 0. 0. 0. 0. 3.33333341e-003 0. 0. 0. 0. 0. 0.
      1.33333337e-002 0. 0. 0. 0. 0. 0. 0. 0. 0. 0. 0. 0. 0. 0. 0. 0. 0.
      0. 0. 0. 0. 0. 0. 0. 0. 0. 0. 0. 0. 0. 0. 0. 0. 0. 0. 0. 0. 0. 0.
      0. 0. 0. 0. 0. 0. 0. 0. 0. 0. 0. 0. 0. 0. 0. 0. 0. 0. 0. 0. 0. 0.
      0. 0. 0. 0. 0. 0. 0. 0. 1.33333337e-002 0. 0. 0. 0. 0. 0. 0. 0. 0.
      0. 0. 0. 0. 0. 0. 0. 0. 0. 0. 0. 0. 0. 0. 0. 0. 0. 0. 0. 0. 0. 0.
      0. 0. 0. 0. 0. 0. 0. 0. 3.33333341e-003 0. 0. 0. 0. 0. 0. 0. 0. 0.
      0. 0. 0. 0. 0. 0. 0. 0. 1.33333337e-002 0. 0. 0. 0. 0. 0. 0. 0. 0.
      3.33333341e-003 0. 0. 0. 0. 0. 0. 0. 0. 0. 0. 0. 0. 0. 0. 0. 0. 0.
      0. 0. 0. 0. 0. 0. 0. 0. 0. 0. 0. 0. 0. 0. 0. 0. 0. 0. 0. 0. 0. 0.
      0. 0. 0. 0. 0. 0. 0. 0. 0. 0. 0. 0. 0. 0. 0. 0. 0. 0. 0. 0. 0. 0.
      0. 0. 0. 0. 0. 0. 0. 0. 0. 0. 0. 3.33333341e-003 0. 0. 0. 0. 0. 0.
      9.99999978e-003 0. 0. 0. 0. 0. 0. 0. 0. 0. 0. 6.66666683e-003 0.
      0. 9.99999978e-003 0. 0. 0. 3.33333341e-003 0. 0. 0. 0. 0. 0. 0.
      0. 0. 0. 0. 0. 0. 0. 0. 0. 0. 0. 0. 0. 0. 0. 0. 0. 0. 0. 0. 0. 0.
      0. 0. 0. 0. 0. 0. 0. 0. 0. 0. 0. 3.33333341e-003 0. 0. 0. 0. 0. 0.
      0. 0. 0. 0. 0. 0. 0. 3.33333341e-003 0. 0. 0. 0. 0. 0. 0.
      3.33333341e-003 0. 0. 0. 0. 0. 0. 0. 0. 0. 0. 0. 0.
      3.33333341e-003 0. 0. 0. 0. 0. 0. 0. 0. 0. 0. 0. 0.
      3.33333341e-003 0. 0. 0. 0. 0. 0. 0. 0. 0. 0. 0. 0. 0. 0. 0. 0. 0.
      0. 0. 0. 0. 0. 0. 0. 0. 0. 0. 0. 0. 0. 0. 0. 0. 0. 0. 0. 0. 0. 0.
      0. 0. 0. 6.66666683e-003 0. 0. 0. 0. 0. 0. 0. 0. 0. 0. 0. 0. 0. 0.
      0. 0. 0. 0. 0. 0. 0. 0. 0. 0. 0. 0. 0. 0. 0. 0. 0. 0. 0. 0. 0. 0.
      0. 0. 0. 0. 0. 0. 0. 0. 0. 0. 0. 0. 0. 0. 6.66666683e-003 0. 0. 0.
      0. 0. 0. 0. 0. 0. 0. 0. 0. 0. 0. 0. 0. 0. 0. 0. 0. 0. 0. 0. 0. 0.
      0. 0. 0. 0. 0. 0. 0. 0. 0. 0. 0. 0. 0. 0. 0. 0. 0. 0. 0. 0. 0. 0.
      0. 0. 0. 0. 0. 0. 0. 0. 0. 0. 0. 0. 0. 0. 0. 0. 0. 0. 0. 0. 0. 0.
      0. 0. 0. 0. 0. 0. 0. 0. 0. 0. 0. 0. 0. 0. 0. 0. 0. 0. 0. 0. 0. 0.
      3.33333341e-003 0. 0. 0. 0. 0. 0. 0. 0. 0. 0. 0. 0. 0. 0. 0. 0.
      6.66666683e-003 0. 0. 0. 3.33333341e-003 0. 0. 0. 0. 0. 0. 0. 0.
      0. 0. 0. 0. 0. 0. 0. 0. 0. 0. 0. 0. 0. 0. 0. 0. 0. 0. 0. 0. 0. 0.
      0. 0. 0. 0. 6.66666683e-003 0. 0. 0. 0. 0. 0. 0. 0. 0. 0. 0. 0. 0.
      0. 0. 0. 0. 0. 0. 0. 0. 0. 0. 0. 0. 0. 0. 0. 0. 0. 0. 0. 0. 0. 0.
      0. 0. 0. 0. 0. 0. 0. 0. 0. 0. 0. 0. 0. 0. 0. 0. 0. 0. 0. 0. 0. 0.
      0. 0. 0. 0. 0. 0. 0. 0. 0. 0. 0. 0. 0. 0. 0. 0. 6.66666683e-003 0.
      0. 0. 0. 0. 0. 0. 0. 6.66666683e-003 0. 0. 0. 0. 0. 0. 0. 0. 0. 0.
      0. 0. 0. 0. 0. 0. 3.33333341e-003 0. 6.66666683e-003 0. 0. 0. 0.
      0. 0. 0. 0. 0. 0. 0. 0. 0. 0. 0. 0. 0. 0. 0. 0. 0. 0. 0. 0. 0. 0.
      0. 0. 0. 0. 0. 0. 0. 0. 0. 0. 6.66666683e-003 0. 3.33333341e-003
      0. 0. 0. 0. 0. 0. 0. 0. 0. 0. 0. 0. 0. 0. 0. 0. 0. 0. 0. 0. 0. 0.
      0. 0. 0. 0. 0. 9.99999978e-003 0. 0. 0. 0. 0. 1.66666675e-002 0.
      0. 0. 0. 0. 0. 0. 0. 0. 0. 0. 0. 0. 0. 0. 0. 0. 0. 0. 0. 0. 0. 0.
      0. 0. 0. 0. 0. 0. 0. 0. 0. 0. 0. 0. 0. 0. 0. 0. 0. 0. 0. 0. 0. 0.
      0. 0. 0. 0. 0. 0. 0. 0. 0. 0. 0. 0. 0. 0. 0. 0. 0. 0. 0. 0. 0. 0.
      0. 0. 0. 0. 0. 0. 3.33333341e-003 0. 0. 0. 0. 0. 3.33333341e-003
      0. 0. 0. 0. 0. 0. 0. 0. 0. 0. 0. 0. 0. 0. 0. 0. 0. 0. 0. 0. 0. 0.
      0. 0. 0. 0. 0. 0. 0. 0. 0. 0. 0. 0. 0. 0. 0. 0. 0. 0. 0. 0. 0. 0.
      0. 0. 0. 0. 0. 0. 0. 0. 0. 0. 0. 0. 0. 0. 0. 0. 0. 0. 0. 0. 0. 0.
      0. 0. 0. 0. 0. 0. 0. 0. 0. 0. 0. 3.33333341e-003 0. 0. 0. 0. 0. 0.
      0. 0. 0. 0. 0. 0. 0. 1.66666675e-002 0. 0. 0. 0. 0. 0. 0. 0. 0. 0.
      0. 0. 0. 3.33333341e-003 0. 0. 0. 0. 0. 0. 0. 0. 0. 0. 0. 0. 0. 0.
      0. 0. 0. 0. 0. 0. 0. 0. 0. 0. 0. 0. 0. 0. 0. 0. 0. 0. 0. 0. 0. 0.
      0. 0. 0. 0. 0. 0. 0. 0. 0. 0. 0. 0. 0. 0. 0. 0. 0. 0. 0. 0. 0. 0.
      0. 0. 3.33333341e-003 0. 0. 0. 0. 0. 6.66666683e-003 0. 0. 0. 0.
      0. 0. 0. 0. 0. 3.33333341e-003 0. 0. 0. 0. 0. 0. 0. 0. 0. 0. 0. 0.
      0. 0. 0. 0. 0. 0. 9.99999978e-003 0. 0. 0. 0. 0. 0. 0. 0. 0. 0. 0.
      0. 0. 0. 0. 0. 0. 0. 0. 0. 0. 0. 0. 0. 0. 0. 0. 0. 0. 0. 0. 0. 0.
      0. 0. 0. 0. 0. 0. 0. 0. 0. 1.33333337e-002 0. 0. 0. 0. 0. 0. 0. 0.
      0. 0. 0. 0. 0. 0. 0. 0. 0. 3.33333341e-003 0. 0. 0. 0. 0. 0. 0. 0.
      3.33333341e-003 0. 0. 0. 0. 0. 0. 0. 0. 0. 0. 0. 0. 0. 0. 0. 0. 0.
      0. 0. 0. 0. 0. 0. 0. 0. 6.66666683e-003 0. 0. 0. 0. 0. 0. 0. 0. 0.
      0. 0. 0. 0. 0. 0. 0. 0. 0. 3.33333341e-003 0. 0. 0. 0. 0. 0. 0. 0.
      0. 0. 0. 0. 0. 0. 0. 0. 0. 0. 0. 0. 0. 0. 0. 0. 0. 0. 0. 0. 0.
      2.33333334e-002 0. 0. 0. 0. 0. 0. 0. 0. 0. 0. 0. 0.
      3.33333341e-003 0. 0. 3.33333341e-003 0. 0. 0. 0. 0. 0. 0. 0. 0.
      0. 0. 0. 0. 0. 0. 0. 0. 0. 0. 0. 3.33333341e-003 0. 0. 0. 0. 0. 0.
      0. 0. 0. 0. 0. 0. 0. 0. 2.33333334e-002 0. 0. 0. 3.33333341e-003
      0. 6.66666683e-003 0. 0. 0. 0. 0. 0. 0. 0. 0. 0. 0. 0. 0. 0. 0. 0.
      0. 0. 3.33333341e-003 0. 0. 0. 0. 0. 0. 0. 0. 3.33333341e-003 0.
      0. 0. 0. 0. 0. 0. 0. 0. 0. 0. 0. 0. 0. 0. 0. 0. 0. 0. 0.
      3.33333341e-003 0. 0. 0. 0. 0. 0. 0. 0. 0. 0. 0. 0. 0. 0. 0. 0. 0.
      0. 0. 0. 0. 0. 0. 0. 0. 0. 0. 0. 0. 0. 0. 3.33333341e-003 0. 0. 0.
      0. 0. 0. 0. 0. 0. 0. 0. 0. 0. 0. 0. 0. 0. 0. 0. 0. 0. 0. 0. 0. 0.
      0. 0. 0. 0. 0. 0. 0. 0. 0. 0. 0. 0. 0. 0. 0. 5.66666685e-002 0. 0.
      0. 0. 0. 0. 6.66666683e-003 0. 0. 0. 0. 0. 0. 0. 0. 0. 0. 0. 0. 0.
      0. 0. 0. 0. 0. 0. 0. 0. 0. 0. 0. 0. 0. 0. 0. 3.33333341e-003 0. 0.
      0. 0. 0. 0. 1.99999996e-002 0. 0. 0. 0. 0. 0. 0. 0. 0. 0. 0. 0. 0.
      0. 0. 0. 0. 0. 0. 0. 0. 0. 0. 0. 0. 0. 0. 0. 0. 0. 0. 0. 0. 0. 0.
      0. 0. 0. 0. 0. 0. 0. 0. 0. 0. 0. 0. 0. 0. 0. 0. 0. 0. 0. 0. 0. 0.
      0. 0. 0. 0. 0. 0. 0. 0. 0. 3.33333341e-003 0. 0. 0. 0. 0. 0. 0. 0.
      0. 0. 0. 0. 0. 0. 0. 0. 0. 0. 0. 0. 0. 0. 0. 0. 0. 0.
      3.33333341e-003 0. 0. 0. 0. 0. 0. 0. 0. 0. 0. 0. 0. 0. 0. 0. 0.
      3.33333341e-003 0. 0. 0. 0. 6.66666683e-003 0. 0. 0. 0. 0. 0. 0.
      0. 0. 0. 0. 0. 0. 0. 0. 0. 0. 0. 0. 0. 0. 0. 0. 0. 0. 0. 0. 0. 0.
      0. 0. 0. 0. 0. 0. 0. 0. 0. 0. 0. 0. 0. 0. 0. 0. 0. 0. 0. 0. 0. 0.
      0. 0. 0. 0. 0. 0. 0. 0. 0. 0. 0. 0. 0. 0. 0. 0. 0. 0. 0.
      3.33333341e-003 0. 0. 0. 3.66666690e-002 0. 0. 0. 0. 0. 0. 0. 0.
      0. 9.99999978e-003 0. 0. 0. 0. 0. 0. 0. 0. 0. 0. 0. 0. 0. 0. 0. 0.
      0. 0. 0. 0. 0. 0. 0. 3.33333341e-003 0. 0. 0. 0. 0. 0. 0. 0. 0. 0.
      0. 0. 0. 0. 0. 0. 0. 0. 0. 0. 0. 0. 0. 0. 0. 0. 0. 0. 0. 0. 0. 0.
      0. 0. 0. 0. 0. 0. 0. 0. 0. 0. 0. 0. 0. 0. 0. 3.33333341e-003 0. 0.
      0. 0. 0. 0. 0. 0. 0. 0. 0. 0. 3.33333341e-003 0. 0. 0. 0. 0. 0. 0.
      0. 0. 0. 0. 0. 0. 0. 0. 0. 0. 0. 0. 0. 0. 0. 0. 0. 0. 0. 0. 0. 0.
      0. 0. 0. 0. 0. 0. 0. 0. 0. 0. 0. 0. 0. 0. 0. 0. 0. 0. 0. 0. 0. 0.
      0. 0. 0. 0. 0. 0. 9.99999978e-003 0. 0. 0. 0. 0. 9.99999978e-003
      0. 0. 0. 0. 0. 0. 0. 0. 0. 0. 0. 0. 0. 0. 0. 0. 0. 0. 0. 0. 0. 0.
      0. 0. 0. 0. 0. 0. 0. 0. 0. 0. 0. 0. 0. 0. 0. 0. 0. 0. 0. 0. 0. 0.
      0. 0. 0. 0. 0. 0. 0. 0. 0. 0. 0. 0. 0. 0. 0. 0. 0. 0.
      3.33333341e-003 0. 0. 0. 0. 0. 0. 0. 0. 0. 0. 0. 0. 0. 0. 0. 0. 0.
      0. 3.33333341e-003 0. 0. 0. 0. 0. 0. 0. 0. 0. 0. 0. 0. 0. 0. 0. 0.
      0. 0. 0. 0. 0. 0. 0. 0. 0. 0. 0. 0. 0. 0. 0. 0. 0. 0. 0. 0. 0. 0.
      3.33333341e-003 0. 0. 0. 0. 0. 0. 0. 0. 0. 0. 3.33333341e-003 0.
      0. 0. 0. 0. 0. 0. 0. 0. 0. 0. 0. 0. 0. 0. 0. 0. 0. 0. 0. 0. 0. 0.
      0. 0. 0. 0. 0. 0. 3.33333341e-003 0. 0. 0. 0. 0. 0. 0. 0. 0. 0. 0.
      0. 0. 0. 0. 0. 0. 0. 0. 0. 0. 0. 0. 0. 0. 0. 3.33333341e-003 0.
      6.66666683e-003 0. 0. 0. 0. 0. 0. 0. 0. 0. 0. 0. 0. 0. 0.
      3.33333341e-003 0. 0. 0. 0. 0. 0. 0. 3.33333341e-003 0. 0. 0. 0.
      0. 0. 6.66666683e-003 0. 0. 0. 0. 0. 0. 0. 0. 0. 0. 0. 0. 0. 0. 0.
      0. 0. 0. 0. 0. 0. 0. 0. 0. 0. 0. 0. 0. 0. 0. 0. 0. 0. 0. 0. 0. 0.
      0. 0. 0. 0. 0. 0. 0. 0. 0. 0. 0. 0. 0. 0. 0. 0. 0. 0. 0. 0. 0. 0.
      0. 0. 0. 0. 0. 0. 0. 0. 0. 3.33333341e-003 0. 0. 0. 0. 0. 0. 0. 0.
      0. 0. 0. 0. 0. 0. 0. 0. 0. 0. 0. 0. 0. 0. 0. 0. 0. 0. 0. 0. 0. 0.
      0. 0. 0. 0. 0. 0. 0. 3.33333341e-003 0. 0. 0. 0. 0. 0. 0. 0. 0. 0.
      0. 0. 0. 0. 0. 0. 0. 0. 0. 0. 0. 0. 0. 0. 0. 0. 0. 0. 0. 0. 0. 0.
      0. 0. 0. 0. 0. 0. 0. 0. 0. 0. 0. 0. 0. 0. 0. 0. 0. 0.
      3.33333341e-003 0. 0. 0. 0. 0. 0. 0. 0. 0. 0. 0. 0. 0. 0. 0. 0. 0.
      0. 0. 0. 0. 0. 0. 0. 0. 0. 9.99999978e-003 0. 0. 0. 0. 0.
      2.13333338e-001 0. 0. 0. 0. 0. 0. 0. 0. 0. 0. 0. 0. 0. 0. 0. 0. 0.
      0. 0. 0. 0. 0. 0. 0. 0. 0. 0. 0. 0. 0. 0. 0. 0. 0. 0. 0. 0. 0. 0.
      0. 0. 0. 0. 0. 0. 0. 0. 0. 0. 0. 0. 0. 0. 0. 0. 0. 3.33333341e-003
      0. 0. 0. 0. 0. 0. 0. 0. 0. 0. 0. 0. 0. 0. 0. 0. 0. 0. 0. 0. 0. 0.
      0. 0. 0. 0. 0. 0. 0. 0. 0. 0. 0. 0. 0. 0. 0.</_>
    <_>
      0. 0. 0. 0. 0. 1.50829565e-003 0. 0. 0. 0. 0. 0. 0. 0. 0. 0. 0. 0.
      0. 0. 0. 0. 0. 0. 0. 0. 0. 0. 0. 0. 0. 0. 1.50829565e-003
      1.80995483e-002 0. 0. 0. 0. 0. 0. 0. 0. 0. 0. 0. 0. 0. 0. 0. 0. 0.
      0. 0. 0. 0. 0. 0. 0. 0. 0. 0. 0. 0. 3.01659130e-003 0. 0. 0. 0. 0.
      0. 1.50829565e-003 0. 0. 0. 0. 0. 0. 0. 0. 0. 0. 0. 0. 0. 0. 0. 0.
      0. 0. 0. 0. 0. 0. 0. 0. 0. 0. 0. 1.50829565e-003 0. 0. 0. 0. 0. 0.
      0. 0. 0. 0. 0. 0. 0. 0. 0. 0. 0. 6.03318261e-003 0. 0. 0. 0. 0. 0.
      0. 0. 3.01659130e-003 0. 0. 0. 0. 1.50829565e-003 0. 0. 0. 0. 0.
      0. 0. 0. 0. 0. 0. 0. 0. 0. 0. 0. 0. 0. 0. 0. 0. 0. 0. 0. 0. 0.
      3.01659130e-003 0. 0. 0. 0. 0. 1.50829563e-002 0. 0. 0.
      1.50829565e-003 0. 0. 0. 0. 0. 0. 0. 0. 0. 1.50829565e-003 0.
      1.50829565e-003 0. 0. 0. 0. 0. 0. 0. 0. 0. 0. 0. 0. 0. 0. 0. 0. 0.
      0. 0. 0. 0. 0. 0. 0. 0. 0. 0. 0. 0. 0. 7.54147815e-003 0. 0. 0. 0.
      0. 0. 0. 0. 0. 0. 0. 0. 0. 0. 0. 0. 0. 0. 0. 0. 0. 0. 0. 0. 0. 0.
      0. 0. 0. 0. 0. 0. 0. 0. 0. 0. 0. 0. 0. 0. 0. 0. 0. 0. 0. 0. 0. 0.
      0. 0. 0. 0. 0. 0. 0. 0. 0. 0. 0. 0. 0. 0. 1.50829565e-003 0. 0. 0.
      0. 0. 0. 0. 0. 0. 0. 0. 4.52488707e-003 0. 0. 0. 0. 0. 0. 0. 0. 0.
      0. 0. 0. 0. 0. 0. 0. 0. 0. 0. 0. 0. 0. 0. 0. 0. 0. 0. 0. 0. 0. 0.
      0. 0. 0. 0. 0. 0. 0. 0. 0. 0. 0. 0. 0. 0. 0. 0. 0. 0. 0. 0. 0. 0.
      0. 0. 0. 0. 0. 0. 0. 0. 0. 0. 0. 0. 0. 0. 0. 0. 0. 0. 0. 0. 0.
      3.01659130e-003 0. 0. 0. 0. 0. 0. 0. 0. 0. 0. 0. 0. 0. 0. 0. 0. 0.
      0. 0. 0. 0. 0. 0. 0. 9.04977415e-003 0. 0. 0. 0. 0. 0. 0. 0. 0. 0.
      3.01659130e-003 0. 0. 0. 0. 0. 0. 0. 0. 0. 0. 0. 0. 0. 0.
      3.01659130e-003 0. 0. 0. 0. 0. 3.01659130e-003 0. 0. 0. 0. 0. 0.
      0. 1.50829565e-003 0. 0. 0. 0. 0. 0. 0. 0. 0. 0. 0. 0. 0. 0. 0. 0.
      0. 0. 0. 0. 0. 0. 0. 0. 0. 1.80995483e-002 0. 0. 0. 0. 0. 0. 0. 0.
      0. 0. 0. 0. 0. 0. 0. 0. 0. 0. 0. 0. 0. 1.50829565e-003 0. 0.
      5.88235296e-002 0. 0. 0. 0. 0. 0. 0. 0. 0. 0. 0. 1.50829565e-003
      0. 0. 0. 0. 0. 0. 0. 1.50829565e-003 0. 0. 0. 0. 0. 0. 0. 0. 0. 0.
      0. 3.01659130e-003 0. 0. 0. 0. 0. 0. 0. 0. 0. 0. 0. 0. 0. 0. 0. 0.
      0. 0. 0. 0. 3.01659130e-003 0. 0. 0. 3.01659130e-003 0. 0. 0. 0.
      0. 0. 0. 0. 1.50829565e-003 0. 0. 0. 0. 0. 0. 0. 0. 0. 0. 0. 0. 0.
      0. 0. 0. 0. 0. 0. 0. 0. 0. 0. 0. 0. 0. 0. 0. 0. 0. 0. 0. 0. 0. 0.
      0. 0. 0. 0. 0. 0. 0. 0. 0. 0. 0. 0. 0. 1.80995483e-002 0. 0. 0. 0.
      0. 0. 0. 0. 0. 0. 0. 0. 0. 0. 0. 0. 0. 0. 0. 0. 0. 8.74811485e-002
      0. 0. 0. 0. 0. 0. 0. 0. 0. 0. 0. 0. 0. 0. 0. 0. 0. 0. 0. 0. 0. 0.
      0. 0. 0. 0. 0. 0. 0. 0. 0. 0. 0. 0. 0. 0. 0. 0. 0. 0. 0. 0. 0. 0.
      0. 0. 1.50829565e-003 0. 0. 0. 0. 0. 0. 0. 0. 0. 0. 0. 0. 0. 0. 0.
      0. 0. 0. 0. 0. 0. 0. 0. 0. 0. 0. 0. 3.01659130e-003 0. 0. 0. 0. 0.
      0. 0. 0. 0. 0. 0. 0. 0. 0. 0. 0. 1.50829565e-003 0. 0. 0. 0. 0. 0.
      3.01659130e-003 0. 0. 0. 0. 0. 0. 1.50829565e-003 0. 0. 0. 0. 0.
      0. 0. 0. 0. 0. 0. 0. 0. 0. 0. 0. 0. 0. 0. 0. 0. 0. 0. 0. 0. 0. 0.
      0. 0. 0. 0. 0. 0. 0. 0. 0. 0. 1.50829565e-003 0. 0. 0. 0. 0. 0. 0.
      0. 1.50829565e-003 0. 0. 0. 0. 0. 3.01659130e-003 0. 0. 0. 0. 0.
      0. 0. 0. 0. 0. 0. 0. 0. 0. 0. 0. 0. 0. 0. 0. 0. 0. 0. 0. 0. 0. 0.
      0. 0. 0. 0. 0. 0. 0. 0. 0. 0. 0. 0. 0. 0. 0. 0. 0. 0. 0. 0. 0. 0.
      0. 0. 0. 0. 0. 0. 0. 0. 0. 0. 0. 0. 0. 0. 0. 0. 0. 0. 0. 0. 0.
      3.01659130e-003 0. 0. 0. 0. 0. 0. 0. 4.52488707e-003 0. 0. 0. 0.
      0. 0. 0. 0. 0. 1.50829565e-003 0. 0. 0. 0. 0. 9.04977415e-003 0.
      0. 0. 0. 0. 0. 0. 0. 0. 0. 0. 0. 0. 3.01659130e-003
      1.50829565e-003 0. 0. 0. 0. 0. 0. 0. 0. 0. 1.50829565e-003 0. 0.
      0. 0. 0. 0. 0. 0. 0. 0. 0. 0. 0. 0. 1.50829565e-003 0. 0. 0. 0. 0.
      0. 0. 0. 0. 0. 0. 0. 0. 0. 0. 0. 0. 0. 0. 0. 0. 0. 0. 0. 0. 0.
      1.50829565e-003 0. 0. 0. 0. 0. 0. 0. 0. 0. 0. 0. 0. 0. 0. 0. 0. 0.
      0. 0. 0. 0. 7.54147815e-003 0. 0. 0. 0. 0. 0. 0. 0. 0. 0. 0. 0. 0.
      0. 1.50829565e-003 1.50829565e-003 0. 0. 0. 0. 0. 0. 0. 0. 0. 0.
      0. 0. 0. 0. 0. 0. 0. 0. 1.50829565e-003 1.50829565e-003 0. 0. 0.
      1.50829565e-003 0. 0. 0. 0. 0. 0. 0. 0. 0. 0. 0. 0. 0. 0. 0. 0. 0.
      0. 0. 0. 0. 1.50829565e-003 0. 0. 0. 0. 0. 0. 0. 0. 0. 0. 0. 0.
      1.50829565e-003 0. 0. 0. 0. 0. 0. 0. 0. 0. 0. 0. 0. 0. 0. 0. 0. 0.
      0. 0. 0. 0. 0. 0. 0. 0. 0. 0. 0. 0. 0. 0. 0. 0. 0. 0. 0. 0. 0. 0.
      0. 1.50829565e-003 0. 0. 0. 0. 0. 0. 0. 0. 0. 0. 0.
      1.50829565e-003 0. 1.50829565e-003 0. 0. 0. 0. 0. 0.
      1.96078438e-002 0. 0. 0. 0. 0. 0. 1.50829565e-003 0. 0. 0. 0. 0.
      0. 0. 0. 0. 0. 0. 0. 0. 0. 0. 0. 0. 0. 0. 0. 0. 0. 0. 0. 0. 0. 0.
      0. 0. 0. 3.01659130e-003 2.86576170e-002 0. 0. 0. 0. 0. 0.
      1.50829565e-003 0. 0. 0. 0. 0. 0. 0. 0. 0. 0. 0. 0. 0. 0.
      9.04977415e-003 0. 0. 0. 0. 0. 0. 0. 0. 0. 0. 0. 0. 0. 0. 0. 0. 0.
      0. 0. 0. 0. 3.01659130e-003 0. 0. 0. 0. 0. 0. 0. 0. 0. 0. 0. 0. 0.
      0. 1.50829565e-003 0. 0. 0. 0. 0. 0. 4.52488707e-003 0. 0. 0. 0.
      0. 0. 0. 0. 0. 0. 0. 0. 0. 0. 0. 0. 0. 0. 0. 0. 0. 0. 0. 0. 0. 0.
      0. 0. 0. 0. 0. 0. 0. 0. 0. 0. 0. 0. 0. 0. 0. 0. 0. 1.50829565e-003
      0. 0. 0. 0. 0. 0. 0. 0. 0. 0. 0. 0. 0. 0. 0. 0. 0. 0. 0. 0. 0. 0.
      0. 0. 0. 0. 0. 0. 1.50829565e-003 0. 0. 0. 0. 0. 0. 0. 0.
      1.50829565e-003 0. 0. 1.50829565e-003 0. 0. 0. 0. 0. 0. 0. 0. 0.
      0. 0. 0. 0. 0. 0. 0. 0. 0. 0. 0. 0. 0. 0. 0. 0. 0. 0. 0. 0. 0. 0.
      0. 0. 0. 0. 4.52488707e-003 0. 0. 0. 0. 0. 0. 0. 0. 0. 0. 0. 0. 0.
      0. 0. 0. 0. 0. 0. 0. 0. 0. 0. 0. 0. 1.50829565e-003 0. 0. 0. 0. 0.
      0. 0. 0. 0. 0. 0. 0. 0. 0. 0. 0. 0. 0. 0. 0. 0. 0. 0. 0. 0. 0. 0.
      0. 0. 0. 0. 0. 0. 0. 0. 0. 0. 0. 0. 0. 0. 0. 0. 0. 0. 0. 0. 0. 0.
      0. 0. 0. 0. 0. 1.50829565e-003 0. 0. 6.03318261e-003 0. 0. 0. 0.
      0. 0. 0. 0. 0. 0. 0. 0. 0. 0. 0. 0. 0. 0. 0. 0. 0. 0. 0. 0. 0. 0.
      0. 0. 0. 0. 0. 0. 0. 0. 0. 0. 0. 0. 0. 0. 0. 0. 0. 0. 0. 0. 0. 0.
      0. 0. 0. 0. 6.03318261e-003 0. 0. 0. 0. 0. 0. 0. 0. 0.
      6.03318261e-003 3.01659130e-003 0. 0. 0. 0. 0. 0. 0. 0. 0. 0. 0.
      0. 0. 0. 0. 0. 0. 0. 0. 0. 0. 0. 0. 0. 0. 0. 0. 0. 0. 0. 0. 0. 0.
      0. 0. 0. 0. 0. 3.01659130e-003 0. 1.50829565e-003 0. 0. 0. 0. 0.
      0. 0. 0. 0. 0. 0. 0. 0. 0. 0. 0. 0. 0. 0. 0. 0. 0. 0. 0. 0.
      1.50829565e-003 0. 0. 0. 1.50829565e-003 0. 0. 0. 0. 0. 0.
      1.50829565e-003 0. 0. 0. 0. 0. 0. 0. 0. 0. 0. 0. 0. 0. 0. 0. 0. 0.
      0. 0. 0. 0. 0. 0. 0. 0. 0. 0. 0. 0. 0. 0. 4.52488707e-003 0. 0. 0.
      0. 0. 0. 3.01659130e-003 0. 1.80995483e-002 0. 0. 0. 0. 0. 0. 0.
      0. 0. 0. 0. 0. 0. 0. 0. 0. 0. 0. 0. 0. 0. 0. 0. 0. 0. 0. 0. 0. 0.
      0. 0. 0. 0. 1.50829565e-003 0. 0. 0. 0. 0. 0. 0. 0. 0. 0. 0. 0. 0.
      0. 0. 0. 0. 0. 4.52488707e-003 0. 0. 0. 0. 0. 0. 0. 0. 0. 0. 0.
      1.20663652e-002 0. 0. 0. 0. 0. 0. 0. 0. 0. 0. 0. 0. 0. 0. 0. 0. 0.
      0. 0. 0. 0. 1.50829565e-003 0. 0. 1.20663652e-002 0. 0. 0. 0. 0.
      0. 0. 0. 0. 0. 0. 0. 0. 0. 0. 0. 0. 0. 0. 0. 0. 0. 0.
      1.35746608e-002 0. 0. 0. 0. 0. 0. 0. 0. 0. 1.50829565e-003 0. 0.
      3.01659130e-003 0. 0. 0. 0. 0. 0. 0. 0. 0. 0. 0. 0. 0. 0. 0. 0. 0.
      0. 0. 0. 0. 0. 0. 1.50829565e-003 0. 0. 0. 0. 0. 0. 0. 0. 0. 0. 0.
      0. 0. 0. 0. 0. 0. 0. 0. 0. 0. 0. 3.01659130e-003 0. 0. 0. 0. 0. 0.
      0. 4.52488707e-003 0. 0. 0. 0. 0. 0. 0. 0. 0. 0. 0. 0. 0. 0. 0.
      3.01659130e-003 0. 0. 0. 0. 0. 0. 0. 0. 0. 0. 0. 0. 0.
      7.54147815e-003 0. 0. 0. 0. 0. 0. 0. 0. 0. 0. 0. 0. 0. 0. 0. 0. 0.
      0. 0. 0. 0. 0. 0. 0. 0. 0. 0. 0. 0. 0. 0. 0. 0. 0. 0. 0. 0. 0. 0.
      0. 0. 0. 0. 0. 0. 0. 0. 0. 0. 0. 0. 0. 0. 0. 0. 0. 0. 0. 0. 0. 0.
      0. 0. 0. 1.50829565e-003 0. 0. 0. 0. 0. 1.50829565e-003 0. 0.
      1.50829565e-003 0. 0. 0. 0. 0. 0. 0. 0. 0. 0. 0. 0. 0. 0. 0. 0. 0.
      0. 0. 0. 0. 0. 0. 0. 0. 0. 0. 6.03318261e-003 0. 0. 0. 0.
      4.22322787e-002 0. 0. 0. 0. 0. 0. 1.50829565e-003 0. 0. 0. 0. 0.
      0. 0. 0. 0. 0. 0. 0. 0. 0. 0. 0. 0. 0. 0. 0. 0. 0. 0. 0. 0. 0. 0.
      0. 0. 0. 0. 0. 0. 0. 0. 0. 0. 0. 0. 0. 0. 0. 0. 0. 0. 0. 0. 0. 0.
      0. 0. 0. 0. 0. 0. 0. 0. 0. 0. 1.50829565e-003 0. 0. 0. 0. 0. 0. 0.
      0. 0. 1.20663652e-002 0. 0. 0. 0. 0. 0. 4.52488707e-003 0. 0. 0.
      0. 0. 0. 0. 0. 0. 1.50829565e-003 0. 0. 0. 0. 0. 0. 0.
      3.01659130e-003 0. 0. 0. 0. 0. 3.01659130e-003 0. 0. 0. 0. 0. 0.
      0. 4.37405743e-002 0. 0. 0. 0. 0. 0. 0. 0. 0. 0. 1.38763204e-001
      0. 0. 0. 0. 0. 0. 0. 0. 0. 0. 0. 0. 0. 0. 0. 0. 0. 0. 0. 0.
      3.01659130e-003 0. 0. 0. 0. 0. 0. 0. 0. 0. 0. 0. 0. 0. 0. 0. 0. 0.
      0. 9.04977415e-003 0. 0. 0. 0. 0. 0. 0. 1.50829565e-003 0. 0. 0.
      0. 0. 0. 0. 0. 0. 0. 0. 0. 0. 0. 0. 0. 0. 0. 0. 0. 0.
      1.50829565e-003 0. 0. 0. 0. 0. 0. 0. 0. 0. 0. 0. 0. 0. 0. 0. 0.
      9.04977415e-003 0. 0. 0. 0. 0. 0. 0. 0. 0. 0. 0. 0. 0. 0. 0. 0. 0.
      0. 0. 0. 0. 0. 0. 0. 0. 0. 0. 0. 0. 0. 0. 0. 0. 0. 0. 0. 0. 0. 0.
      0. 0. 0. 0. 0. 1.50829565e-003 0. 0. 0. 0. 0. 0. 0. 0. 0. 0. 0. 0.
      0. 0. 1.50829565e-003 0. 0. 0. 0. 4.52488707e-003 0. 0. 0. 0. 0.
      0. 0. 0. 0. 0. 0. 0. 0. 0. 0. 0. 0. 0. 0. 0. 0. 0. 0. 0. 0. 0. 0.
      0. 0. 1.50829565e-003 0. 0. 0. 0. 0. 0. 1.50829565e-003 0. 0.
      3.01659130e-003 0. 0. 0. 0. 0. 0. 0. 0. 0. 0. 0. 0. 0. 0. 0. 0. 0.
      0. 0. 0. 0. 0. 0. 0. 0. 0. 0. 0. 0. 0. 0. 0. 1.50829565e-003 0.
      1.50829565e-003 0. 0. 0. 0. 0. 0. 0. 0. 0. 0. 0. 0.
      3.01659130e-003 0. 0. 0. 0. 0. 0. 0. 0. 0. 0. 0. 0. 0. 0. 0. 0. 0.
      0. 0. 0. 0. 0. 0. 0. 0. 0. 0. 0. 0. 0. 0. 0. 0. 0. 0. 0. 0. 0. 0.
      0. 0. 0. 0. 0. 0. 0. 0. 0. 0. 0. 0. 0. 0. 0. 0. 0. 0. 0. 0. 0. 0.
      3.01659130e-003 0. 0. 0. 0. 0. 0. 0. 0. 0. 0. 0. 0. 0. 0. 0. 0. 0.
      0. 0. 0. 0. 0. 0. 0. 0. 0. 0. 0. 1.50829565e-003 0. 0. 0. 0. 0. 0.
      0. 0. 0. 0. 0. 0. 0. 0. 0. 0. 0. 0. 0. 0. 0. 0. 0. 0. 0. 0. 0. 0.
      0. 0. 0. 0. 0. 0. 0. 0. 0. 0. 0. 0. 0. 0. 0. 0. 0. 3.01659130e-003
      0. 1.50829565e-003 0. 0. 0. 0. 0. 0. 0. 0. 0. 0. 0. 0. 0. 0. 0. 0.
      0. 0. 0. 3.01659130e-003 0. 0. 0. 0. 0. 0. 0. 0. 0. 0. 0. 0. 0. 0.
      0. 0. 0. 0. 0. 0. 0. 0. 0. 0. 0. 0. 0. 0. 0. 0. 0. 0.
      1.50829565e-003 0. 0. 0. 0. 0. 0. 0. 0. 0. 0. 0. 0. 0. 0. 0. 0.
      1.50829565e-003 0. 0. 0. 0. 0. 0. 0. 0. 0. 0. 0. 4.52488707e-003
      0. 0. 0. 0. 0. 1.50829565e-003 0. 0. 0. 0. 0. 0. 0. 0. 0. 0. 0. 0.
      0. 0. 0. 0. 0. 0. 0. 0. 0. 0. 0. 0. 1.50829565e-003 0. 0. 0. 0. 0.
      0. 0. 0. 0. 0. 0. 0. 0. 0. 3.01659130e-003 1.50829565e-003 0. 0.
      0. 0. 0. 0. 0. 0. 0. 0. 0. 0. 0. 1.50829565e-003 0. 0. 0. 0. 0. 0.
      0. 0. 0. 0. 0. 7.54147815e-003 0. 0. 0. 0. 0. 0. 0. 0. 0. 0. 0. 0.
      0. 0. 0. 0. 0. 0. 0. 0. 0. 0. 0. 0. 0. 0. 0. 0. 0. 0. 0. 0. 0. 0.
      0. 0. 0. 0. 0. 0. 0. 0. 0. 0. 0. 0. 0. 0. 0. 0. 0. 0. 0. 0. 0. 0.
      0. 0. 0. 0. 0. 0. 0. 0. 0. 0. 0. 0. 0. 0. 0. 0. 0. 0. 0. 0. 0. 0.
      0. 0. 3.01659130e-003 0. 0. 0. 0. 0. 0. 0. 0. 0. 0. 0. 0. 0. 0. 0.
      0. 0. 0. 0. 0. 0. 0. 0. 0. 0. 0. 0. 1.50829565e-003 0.
      1.50829565e-003 0. 0. 0. 0. 0. 0. 0. 0. 0. 0. 0. 0. 0. 0. 0. 0. 0.
      0. 0. 0. 0. 0. 0. 0. 0. 0. 0. 0. 0. 0. 0. 0. 0. 0. 0. 0. 0. 0. 0.
      1.50829565e-003 4.52488707e-003 0. 0. 0. 1.50829565e-003 0. 0. 0.
      0. 0. 0. 0. 0. 0. 0. 0. 0. 0. 3.01659130e-003 0. 0. 0. 0. 0. 0. 0.
      0. 0. 0. 0. 0. 0. 0. 0. 0. 0. 0. 0. 0. 0. 0. 0. 0. 0. 0. 0. 0. 0.
      0. 0. 0. 0. 0. 0. 0. 0. 0. 0. 0. 0. 0. 0. 0. 1.50829565e-003 0. 0.
      0. 3.01659126e-002 0. 0. 0. 0. 0. 0. 0. 0. 0. 0. 0. 0. 0. 0. 0. 0.
      0. 0. 0. 3.01659130e-003 0. 0. 0. 0. 0. 0. 3.01659130e-003 0. 0.
      0. 0. 0. 0. 0. 0. 3.01659130e-003 0. 0. 0. 0. 0. 1.50829565e-003
      0. 0. 0. 0. 0. 0. 0. 0. 0. 0. 0. 0. 0. 0. 0. 0. 0. 0. 0. 0. 0. 0.
      0. 0. 0. 0. 0. 0. 0. 0. 0. 0. 0. 0. 0. 0. 0. 0. 0. 0. 0. 0. 0. 0.
      0. 0. 6.03318261e-003 0. 0. 0. 0. 0. 0. 1.50829565e-003 0. 0. 0.
      0. 0. 0. 0. 0. 0. 0. 0. 0. 0. 0. 0. 0. 0. 0. 0. 0. 0. 0. 0. 0.
      1.50829565e-003 0. 0. 0. 0. 0. 0. 0. 0. 0. 0. 0. 0. 0. 0. 0. 0. 0.
      1.50829565e-003 0. 0. 0. 0. 0. 0. 0. 0. 0. 0. 0. 0. 0. 0.
      1.50829565e-003 0. 0. 0. 0. 0. 1.20663652e-002 0. 0. 0. 0. 0. 0.
      0. 0. 0. 0. 0. 0. 0. 0. 0. 0. 0. 0. 0. 0. 0. 1.50829565e-003 0. 0.
      0. 0. 0. 0. 0. 0. 0. 0. 0. 0. 0. 1.50829565e-003 0. 0. 0. 0. 0. 0.
      0. 0. 0. 0. 0. 0. 0. 0. 0. 0. 0. 0.</_>
    <_>
      0. 0. 0. 0. 0. 0. 0. 0. 0. 0. 0. 4.61360998e-003 0. 0. 0. 0. 0. 0.
      0. 0. 0. 0. 0. 3.46020749e-003 0. 0. 0. 0. 0. 0. 0. 0. 0. 0. 0. 0.
      0. 0. 0. 0. 0. 0. 0. 0. 0. 0. 0. 0. 0. 2.30680499e-003 0. 0. 0.
      1.15340250e-003 0. 0. 0. 0. 0. 1.15340250e-003 0. 0. 0. 0.
      2.30680499e-003 0. 3.46020749e-003 0. 0. 0. 0. 0. 0. 0. 0. 0. 0.
      1.15340250e-003 0. 1.15340250e-003 0. 0. 0. 0. 0. 0. 0.
      1.15340250e-003 0. 1.15340250e-003 1.15340250e-003 0. 0.
      1.15340250e-003 0. 2.30680499e-003 1.15340250e-003 0. 0. 0. 0. 0.
      0. 1.15340250e-003 0. 0. 0. 0. 0. 0. 0. 0. 0. 0. 0. 0. 0. 0. 0. 0.
      0. 0. 0. 0. 0. 0. 0. 0. 0. 0. 0. 0. 0. 0. 0. 0. 0. 0.
      1.15340250e-003 0. 0. 0. 0. 0. 0. 0. 0. 0. 0. 0. 0. 0. 0. 0. 0. 0.
      0. 0. 0. 2.30680499e-003 0. 0. 1.15340250e-003 0. 0. 0. 0. 0.
      4.61360998e-003 0. 0. 0. 2.30680499e-003 2.30680499e-003 0. 0. 0.
      0. 0. 0. 0. 0. 0. 0. 0. 0. 0. 0. 2.30680499e-003 0. 0. 0. 0.
      1.15340250e-003 0. 0. 0. 2.30680499e-003 0. 0. 0. 0. 0. 0. 0. 0.
      0. 0. 0. 0. 0. 0. 1.15340250e-003 0. 0. 0. 0. 0. 0. 0. 0. 0. 0. 0.
      0. 0. 0. 0. 0. 0. 0. 0. 0. 0. 0. 0. 1.15340250e-003 0. 0. 0. 0. 0.
      0. 0. 1.15340250e-003 0. 0. 0. 0. 0. 0. 0. 0. 0. 1.15340250e-003
      0. 0. 0. 0. 0. 0. 0. 0. 0. 0. 0. 0. 0. 0. 0. 0. 0. 0.
      1.15340250e-003 0. 1.15340250e-003 0. 0. 0. 0. 0. 0. 0. 0. 0.
      1.15340250e-003 0. 0. 0. 0. 0. 0. 0. 0. 0. 0. 0. 0. 0. 0. 0.
      1.15340250e-003 0. 0. 0. 5.76701248e-003 1.15340250e-003 0. 0. 0.
      2.30680499e-003 0. 0. 0. 0. 0. 0. 0. 0. 0. 0. 2.30680499e-003 0.
      0. 0. 0. 0. 0. 0. 0. 1.15340250e-003 0. 0. 0. 0. 0.
      3.46020749e-003 0. 0. 0. 0. 0. 0. 0. 0. 0. 0. 0. 0. 0.
      4.61360998e-003 0. 0. 1.15340250e-003 0. 3.46020749e-003 0. 0. 0.
      0. 0. 0. 0. 0. 0. 0. 0. 0. 0. 0. 0. 0. 1.15340250e-003 0. 0. 0. 0.
      0. 1.15340250e-003 0. 0. 0. 0. 2.30680499e-003 0. 0.
      2.30680499e-003 0. 0. 0. 0. 0. 0. 0. 0. 0. 0. 0. 2.30680499e-003
      0. 0. 0. 0. 0. 2.30680499e-003 0. 0. 0. 0. 4.61360998e-003 0. 0.
      0. 0. 0. 0. 0. 0. 0. 0. 1.15340250e-003 3.46020749e-003 0. 0. 0.
      4.61360998e-003 0. 0. 0. 1.15340250e-003 5.76701248e-003
      2.30680499e-003 0. 0. 0. 0. 1.15340250e-003 0. 1.15340250e-003 0.
      0. 0. 0. 0. 0. 0. 2.30680499e-003 0. 0. 0. 0. 2.30680499e-003 0.
      0. 0. 0. 2.30680499e-003 0. 0. 0. 1.15340250e-003 0. 0.
      1.15340250e-003 1.15340250e-003 1.15340250e-003 0. 0. 0.
      2.30680499e-003 0. 1.15340250e-003 0. 1.15340250e-003 0. 0. 0. 0.
      0. 0. 1.15340250e-003 0. 0. 0. 0. 0. 0. 0. 0. 0. 0. 0. 0. 0. 0. 0.
      0. 0. 0. 0. 0. 0. 0. 0. 0. 0. 0. 0. 0. 0. 0. 0. 0. 0. 0. 0. 0. 0.
      0. 0. 2.30680499e-003 0. 0. 0. 0. 1.15340250e-003 0. 0. 0. 0. 0.
      0. 0. 0. 1.15340250e-003 0. 0. 0. 0. 4.61360998e-003
      4.61360998e-003 0. 0. 0. 0. 0. 0. 0. 0. 0. 0. 0. 0. 0.
      2.30680499e-003 0. 4.61360998e-003 0. 2.19146479e-002 0. 0. 0. 0.
      0. 1.15340250e-003 0. 0. 0. 1.15340250e-003 0. 0. 0. 0.
      3.46020749e-003 0. 0. 0. 0. 0. 0. 0. 0. 0. 0. 0. 0. 0. 0.
      1.15340250e-003 0. 2.30680499e-003 1.15340250e-003 0. 0. 0. 0. 0.
      0. 0. 0. 0. 0. 0. 0. 0. 0. 0. 0. 0. 0. 0. 0. 0. 0. 0.
      1.15340250e-003 0. 0. 0. 0. 0. 0. 0. 0. 0. 4.61360998e-003 0. 0.
      0. 0. 0. 0. 0. 0. 0. 0. 0. 0. 0. 0. 0. 4.61360998e-003 0. 0.
      8.07381794e-003 0. 0. 0. 0. 0. 0. 0. 0. 0. 0. 0. 0. 0. 0. 0. 0.
      2.30680499e-003 0. 2.30680499e-003 0. 0. 0. 0. 0. 0. 0. 0. 0. 0.
      0. 0. 0. 0. 0. 0. 0. 0. 0. 0. 0. 2.30680499e-003 0. 0. 0. 0.
      3.46020749e-003 0. 0. 2.30680499e-003 0. 0. 0. 0. 1.15340250e-003
      0. 0. 0. 1.15340250e-003 0. 0. 0. 0. 2.30680499e-003 0. 0. 0. 0.
      0. 0. 0. 0. 3.46020749e-003 1.15340250e-003 0. 0. 0. 0. 0. 0. 0.
      0. 0. 0. 0. 0. 0. 0. 3.46020749e-003 0. 2.30680499e-003 0. 0.
      1.15340250e-003 0. 0. 0. 2.30680499e-003 0. 0. 0. 0. 0. 0. 0. 0.
      0. 0. 0. 0. 0. 0. 1.15340250e-003 0. 1.15340250e-003
      6.92041498e-003 0. 0. 6.92041498e-003 0. 2.30680499e-003 0. 0. 0.
      1.38408300e-002 1.15340250e-003 2.30680499e-003 0. 0.
      1.15340250e-003 0. 1.15340250e-003 0. 0. 0. 0. 0. 0.
      1.15340250e-003 0. 0. 1.15340250e-003 0. 0. 0. 0. 0. 0.
      1.15340250e-003 0. 0. 1.15340250e-003 0. 0. 0. 0. 2.30680499e-003
      0. 0. 1.15340250e-003 0. 2.30680499e-003 0. 0. 0. 0. 0. 0. 0. 0.
      0. 0. 0. 0. 0. 0. 0. 0. 0. 1.15340250e-003 0. 0. 0. 0. 0. 0. 0.
      3.46020749e-003 0. 0. 0. 0. 0. 0. 0. 0. 0. 0. 0. 1.15340250e-003
      0. 0. 2.30680499e-003 0. 0. 0. 0. 1.15340250e-003 3.46020749e-003
      0. 0. 0. 0. 0. 1.15340250e-003 0. 0. 0. 0. 2.30680499e-003 0. 0.
      0. 0. 0. 0. 0. 0. 0. 3.46020749e-003 0. 0. 0. 0. 0. 0. 0. 0. 0. 0.
      0. 0. 2.30680499e-003 0. 0. 0. 0. 2.30680499e-003 0. 0. 0. 0. 0.
      0. 0. 0. 0. 0. 0. 0. 0. 0. 0. 0. 0. 2.30680499e-003 0.
      4.61360998e-003 0. 0. 0. 1.15340250e-003 0. 0. 0. 0. 0. 0. 0. 0.
      0. 0. 0. 0. 2.30680499e-003 0. 0. 0. 0. 0. 2.30680499e-003
      3.46020749e-003 0. 0. 0. 0. 0. 0. 0. 1.15340250e-003 0. 0. 0. 0.
      0. 0. 0. 0. 2.30680499e-003 0. 0. 0. 2.30680499e-003 0.
      1.15340250e-003 0. 0. 0. 0. 1.15340250e-003 0. 0. 1.15340250e-003
      0. 0. 0. 0. 0. 0. 2.30680499e-003 0. 2.30680499e-003 0. 0. 0. 0.
      0. 0. 0. 0. 0. 0. 1.15340250e-003 0. 0. 1.15340250e-003 0. 0. 0.
      0. 0. 0. 0. 0. 0. 0. 0. 0. 0. 0. 0. 1.15340250e-003 0. 0. 0. 0. 0.
      0. 0. 0. 0. 0. 0. 0. 0. 0. 0. 0. 0. 0. 0. 0. 0. 0. 0. 0. 0. 0. 0.
      0. 0. 0. 3.46020749e-003 0. 0. 0. 0. 0. 0. 0. 0. 0. 0. 0. 0. 0. 0.
      0. 0. 0. 0. 0. 0. 0. 0. 0. 0. 0. 0. 0. 0. 0. 0. 0. 0.
      1.15340250e-003 0. 0. 3.46020749e-003 0. 0. 0. 0. 0. 0. 0. 0. 0.
      0. 0. 0. 0. 0. 0. 0. 0. 0. 0. 0. 0. 0. 0. 0. 3.46020749e-003 0. 0.
      0. 0. 0. 0. 0. 0. 0. 0. 0. 0. 0. 0. 0. 0. 1.15340250e-003 0. 0.
      1.15340250e-003 0. 0. 0. 0. 0. 0. 3.46020749e-003 0. 0.
      1.15340250e-003 0. 0. 0. 0. 0. 0. 0. 0. 0. 0. 0. 0. 0. 0. 0. 0.
      3.46020749e-003 0. 0. 0. 0. 0. 0. 0. 0. 0. 0. 0. 0. 0. 0. 0. 0. 0.
      0. 0. 0. 0. 0. 0. 0. 0. 0. 0. 0. 1.15340250e-003 0. 0. 0. 0. 0.
      3.46020749e-003 1.15340250e-003 1.15340250e-003 0. 0. 0. 0. 0. 0.
      0. 0. 0. 0. 0. 0. 3.46020749e-003 0. 0. 0. 1.15340250e-003 0. 0.
      1.15340250e-003 0. 0. 1.15340250e-003 0. 0. 0. 0. 0. 0.
      1.15340250e-003 0. 0. 0. 0. 0. 0. 0. 0. 0. 0. 0. 0. 0. 0. 0. 0. 0.
      0. 0. 0. 0. 0. 0. 0. 0. 0. 5.76701248e-003 0. 0. 0. 0. 0.
      1.15340250e-003 0. 0. 0. 0. 0. 0. 0. 0. 0. 0. 1.15340250e-003 0.
      0. 0. 0. 0. 0. 0. 0. 0. 0. 0. 0. 0. 0. 1.15340250e-003 0.
      2.30680499e-003 0. 0. 0. 1.15340250e-003 0. 0. 0. 1.15340250e-003
      0. 0. 0. 0. 0. 0. 0. 0. 0. 0. 0. 0. 0. 0. 0. 0. 0. 0.
      1.15340250e-003 0. 0. 0. 0. 1.15340250e-003 2.30680499e-003 0. 0.
      0. 4.61360998e-003 2.30680499e-003 0. 0. 0. 0. 0. 0. 0. 0.
      2.30680499e-003 0. 0. 5.76701248e-003 0. 0. 0. 0. 3.46020749e-003
      0. 0. 0. 0. 0. 0. 0. 0. 0. 0. 0. 0. 2.30680499e-003 0. 0. 0.
      4.61360998e-003 0. 0. 0. 0. 2.30680499e-003 1.15340250e-003 0. 0.
      1.15340250e-003 0. 0. 0. 0. 0. 0. 0. 0. 0. 0. 0. 0. 0. 0. 0. 0. 0.
      3.46020749e-003 1.15340250e-003 0. 2.30680499e-003 0. 0. 0. 0. 0.
      0. 3.46020749e-003 0. 0. 1.15340250e-003 0. 0. 0. 0. 0. 0. 0. 0.
      0. 0. 0. 0. 0. 0. 0. 3.46020749e-003 0. 0. 4.61360998e-003
      2.30680499e-003 0. 0. 0. 0. 0. 0. 0. 0. 0. 0. 0. 0. 0.
      2.30680499e-003 0. 0. 4.61360998e-003 0. 0. 0. 0. 3.46020749e-003
      0. 0. 0. 0. 0. 0. 0. 0. 0. 1.15340250e-003 0. 1.15340250e-003 0.
      3.46020749e-003 0. 0. 0. 1.15340250e-003 0. 3.46020749e-003 0. 0.
      0. 0. 0. 0. 0. 0. 0. 1.15340250e-003 0. 0. 0. 0. 0.
      5.76701248e-003 0. 0. 0. 0. 0. 0. 0. 0. 0. 0. 0. 0. 0.
      2.30680499e-003 3.46020749e-003 0. 0. 0. 0. 0. 1.49942320e-002 0.
      0. 0. 0. 2.30680499e-003 0. 0. 0. 0. 0. 0. 0. 2.30680499e-003 0.
      0. 0. 0. 0. 0. 0. 1.15340250e-003 0. 0. 0. 0. 0. 0. 0. 0. 0. 0. 0.
      0. 2.30680499e-003 1.15340250e-003 2.30680499e-003 0. 0. 0. 0. 0.
      0. 2.30680499e-003 0. 0. 0. 0. 0. 2.30680499e-003 0. 0. 0. 0. 0.
      0. 0. 0. 1.15340250e-003 0. 4.61360998e-003 0. 0. 0. 0. 0. 0. 0.
      0. 0. 0. 0. 0. 0. 0. 0. 0. 0. 0. 3.46020749e-003 0. 0.
      1.15340250e-003 0. 0. 0. 0. 1.15340250e-003 0. 0. 0. 0. 0. 0. 0.
      0. 0. 1.15340250e-003 1.15340250e-003 0. 0. 0. 0. 0.
      2.30680499e-003 0. 0. 0. 0. 0. 0. 0. 0. 0. 1.15340250e-003 0.
      2.30680499e-003 0. 0. 0. 0. 3.46020749e-003 0. 0. 0. 0. 0. 0. 0.
      0. 0. 0. 0. 0. 0. 0. 0. 0. 0. 1.15340250e-003 0. 5.76701248e-003
      0. 3.46020749e-003 0. 0. 1.15340250e-003 0. 0. 0. 0. 0. 0. 0. 0.
      0. 0. 0. 0. 2.30680499e-003 0. 0. 0. 0. 0. 0. 0. 9.22721997e-003
      3.46020749e-003 0. 0. 0. 1.15340250e-003 0. 0. 0. 0. 0. 0. 0. 0.
      0. 0. 0. 0. 0. 0. 0. 1.15340250e-003 2.30680499e-003 0.
      3.46020749e-003 0. 0. 0. 1.15340250e-003 0. 0. 0. 0. 0.
      3.46020749e-003 0. 0. 4.61360998e-003 0. 2.30680499e-003 0. 0. 0.
      1.15340250e-003 0. 0. 0. 0. 0. 0. 0. 0. 0. 0. 0. 0. 0. 0. 0.
      1.15340250e-003 0. 0. 0. 0. 0. 0. 0. 0. 0. 0. 0. 0. 0. 0. 0.
      2.30680499e-003 0. 0. 0. 1.15340250e-003 0. 1.15340250e-003 0. 0.
      0. 1.15340250e-003 2.30680499e-003 0. 0. 0. 0. 1.15340250e-003 0.
      0. 0. 0. 0. 0. 0. 0. 2.30680499e-003 0. 0. 0. 0. 1.15340250e-003
      0. 0. 0. 0. 0. 0. 0. 0. 0. 0. 0. 0. 0. 0. 0. 1.15340250e-003 0. 0.
      0. 0. 0. 0. 0. 0. 0. 0. 0. 0. 2.30680499e-003 0. 0. 0. 0. 0. 0. 0.
      0. 0. 0. 0. 0. 0. 0. 0. 0. 0. 0. 0. 0. 0. 0. 0. 0. 0. 0. 0. 0. 0.
      0. 1.15340250e-003 0. 8.07381794e-003 0. 0. 0. 0. 0. 0. 0. 0.
      1.15340250e-003 0. 0. 0. 0. 0. 5.76701248e-003 0. 0. 0. 0.
      4.61360998e-003 0. 0. 0. 0. 0. 0. 0. 0. 0. 0. 0. 0. 0. 0. 0. 0. 0.
      0. 2.30680499e-003 0. 0. 0. 0. 0. 0. 0. 0. 0. 0. 0. 0. 0. 0. 0.
      1.15340250e-003 1.15340250e-003 0. 0. 0. 0. 0. 0. 0. 0. 0. 0. 0.
      1.15340250e-003 0. 0. 0. 0. 1.15340250e-003 0. 0. 0. 0. 0. 0. 0.
      0. 1.15340250e-003 1.15340250e-003 0. 0. 0. 0. 0. 1.15340250e-003
      0. 0. 0. 1.15340250e-003 0. 0. 0. 0. 0. 0. 0. 0. 1.15340250e-003
      3.46020749e-003 0. 0. 0. 1.15340250e-003 0. 0. 4.61360998e-003 0.
      0. 1.15340250e-003 0. 3.46020749e-003 1.15340250e-003 0. 0. 0. 0.
      0. 0. 2.30680499e-003 0. 0. 0. 0. 0. 0. 0. 0. 0. 0. 0. 0. 0. 0. 0.
      0. 0. 0. 0. 2.30680499e-003 0. 0. 0. 3.46020749e-003 0. 0. 0.
      2.30680499e-003 0. 0. 0. 0. 0. 0. 0. 0. 0. 0. 0. 0. 0. 0. 0. 0.
      2.30680499e-003 0. 0. 0. 1.15340250e-003 1.15340250e-003 0. 0. 0.
      0. 0. 0. 0. 0. 0. 0. 0. 0. 1.15340250e-003 0. 1.15340250e-003
      3.46020749e-003 0. 0. 0. 0. 0. 0. 0. 0. 0. 0. 0. 0. 0. 0.
      1.15340250e-003 0. 0. 0. 2.30680499e-003 3.46020749e-003 0. 0. 0.
      0. 2.30680499e-003 1.15340250e-003 0. 0. 0. 0. 0. 0. 0. 0.
      3.46020749e-003 0. 0. 0. 0. 2.30680499e-003 0. 0. 0.
      1.15340250e-003 1.15340250e-003 0. 1.15340250e-003 1.15340250e-003
      0. 0. 0. 0. 0. 0. 0. 0. 0. 1.15340250e-003 0. 3.46020749e-003 0.
      0. 0. 0. 0. 9.22721997e-003 0. 0. 0. 0. 0. 0. 0. 0. 0.
      1.15340250e-003 1.15340250e-003 0. 0. 0. 0. 0. 0. 0. 0. 0. 0. 0.
      0. 0. 0. 0. 2.30680499e-003 0. 0. 4.61360998e-003 0. 0. 0. 0.
      4.61360998e-003 1.15340250e-003 0. 0. 0. 0. 5.76701248e-003 0.
      1.15340250e-003 0. 0. 0. 1.15340250e-003 0. 0. 0. 0.
      1.15340250e-003 0. 0. 0. 1.15340250e-003 0. 2.30680499e-003 0. 0.
      0. 0. 0. 0. 0. 0. 0. 0. 1.15340250e-003 0. 0. 0. 0. 0. 0. 0. 0. 0.
      0. 0. 0. 0. 0. 0. 0. 0. 0. 1.15340250e-003 0. 3.46020749e-003 0.
      0. 0. 0. 0. 0. 1.15340250e-003 0. 0. 0. 0. 0. 0. 3.46020749e-003
      0. 0. 0. 0. 0. 0. 0. 0. 0. 0. 0. 0. 0. 0. 0. 1.15340250e-003 0. 0.
      0. 0. 2.30680499e-003 0. 0. 0. 1.15340250e-003 0. 0. 0. 0. 0. 0.
      0. 0. 0. 0. 0. 0. 0. 0. 3.46020749e-003 0. 0. 0. 0.
      4.61360998e-003 0. 0. 2.30680499e-003 0. 0. 0. 2.30680499e-003 0.
      0. 0. 0. 0. 2.30680499e-003 0. 0. 0. 0. 0. 0. 0. 0. 0. 0. 0. 0.
      1.15340250e-003 0. 0. 0. 0. 0. 0. 0. 0. 0. 0. 0. 0. 0. 0. 0. 0. 0.
      0. 0. 0. 0. 2.30680499e-003 1.15340250e-003 0. 1.15340250e-003 0.
      0. 0. 0. 0. 1.15340250e-003 0. 0. 0. 0. 1.15340250e-003 0. 0. 0.
      0. 0. 0. 0. 0. 0. 0. 0. 0. 0. 0. 0. 0. 0. 0. 0. 1.15340250e-003 0.
      0. 0. 0. 0. 1.15340250e-003 0. 0. 0. 0. 0. 0. 0. 0.
      2.30680499e-003 0. 0. 0. 0. 0. 0. 0. 0. 0. 4.61360998e-003 0. 0.
      0. 0. 0. 0. 0. 0. 0. 1.15340250e-003 0. 0. 0. 0. 0. 0. 0. 0. 0. 0.
      0. 8.07381794e-003 0. 0. 0. 0. 0. 0. 0. 0. 2.30680499e-003
      3.46020749e-003 0. 0. 1.15340250e-003 0. 0. 0. 6.92041498e-003 0.
      0. 0. 0. 0. 0. 0. 0. 0. 0. 0. 0. 0. 0. 0. 0. 0. 2.30680499e-003 0.
      1.15340250e-003 0. 0. 0. 0. 0. 0. 0. 0. 0. 0. 0. 0. 0. 0. 0.
      3.46020749e-003 0. 0. 0. 0. 1.15340250e-003 0. 0. 0. 0.
      4.61360998e-003 0. 0. 0. 0. 0. 0. 2.30680499e-003 0. 0. 0. 0.
      1.15340250e-003 0. 0. 0. 2.30680499e-003 0. 0. 0. 0. 0. 0. 0.
      2.30680499e-003 0. 0. 5.76701248e-003 0. 0. 0. 0. 1.15340250e-003
      0. 0. 0. 0. 0. 0. 0. 0. 0. 2.30680499e-003 0. 0. 0. 0. 0. 0. 0. 0.
      0. 0. 0. 0. 0. 0. 0. 0. 0. 1.15340250e-003 0. 0. 0. 0.
      1.15340250e-003 0. 0. 0. 4.61360998e-003 0. 0. 1.15340250e-003 0.
      0. 0. 0. 0. 0. 0. 3.46020749e-003 1.15340250e-003 1.15340250e-003
      0. 0. 0. 1.15340250e-003 0. 1.15340250e-003 0. 0. 0.
      2.30680499e-003 1.15340250e-003 0. 0. 1.15340250e-003 0. 0. 0. 0.
      1.38408300e-002 0. 0. 1.15340250e-003 0. 0. 0. 0. 0.
      1.15340250e-003 0. 0. 0. 1.15340250e-003 0. 0. 1.15340250e-003 0.
      0. 0. 0. 0. 0. 0. 0. 0. 0. 0. 0. 0. 0. 0. 0. 0. 0. 0. 0. 0. 0. 0.
      0. 0. 0. 0. 0. 0. 0. 0. 0. 0. 2.30680499e-003 1.15340250e-003
      2.30680499e-003 0. 0. 4.61360998e-003 0. 0. 0. 0. 0. 0. 0. 0. 0.
      0. 0. 0. 1.15340250e-003 0. 0. 0. 0. 1.15340250e-003 0. 0. 0. 0.
      0. 3.46020749e-003 0. 0. 0. 0. 0. 0. 0. 0. 0. 1.15340250e-003 0.
      0. 0. 0. 0. 0. 0. 0. 0. 0. 0. 0. 0. 0. 0. 0. 0. 0. 0. 0. 0. 0. 0.
      1.15340250e-003 0. 0. 0. 0. 0. 4.61360998e-003 0. 0. 0. 0. 0. 0.
      0. 0. 0. 0. 0. 0. 1.15340250e-003 0. 0. 0. 0. 0. 0. 0. 0. 0. 0.
      2.30680499e-003 0. 1.15340250e-003 0. 0. 2.30680499e-003
      1.15340250e-003 0. 0. 0. 0. 1.15340250e-003 0. 1.15340250e-003 0.
      0. 0. 0. 0. 0. 0. 0. 0. 0. 0. 0. 0. 0. 0. 0. 0. 0. 1.15340250e-003
      0. 0. 1.15340250e-003 0. 0. 0. 1.15340250e-003 0. 0. 0. 0. 0. 0.
      0. 0. 0. 0. 0. 1.15340250e-003 0. 0. 0. 0. 0. 0. 0. 0. 0. 0. 0. 0.
      0. 0. 0. 0. 0. 0. 2.30680499e-003 0. 1.15340250e-003
      1.15340250e-003 2.30680499e-003 0. 0. 0. 0. 0. 0. 0. 0. 0.
      2.30680499e-003 3.46020749e-003 0. 0. 0. 0. 0. 0. 0.
      2.30680499e-003 1.15340250e-003 0. 0. 1.15340250e-003 0. 0.
      1.15340250e-003 0. 0. 1.15340250e-003 0. 0. 0. 0. 0. 0. 0. 0. 0.
      0. 4.61360998e-003 0. 0. 2.30680499e-003 0. 0. 0. 0.
      1.15340250e-003 0. 0. 2.30680499e-003 0. 0. 0. 0. 0. 0.
      4.61360998e-003 0. 0. 0. 0. 1.15340250e-003 0. 0. 0. 0. 0. 0. 0.
      1.15340250e-003 0. 0. 1.15340250e-003 0. 0. 0. 0. 0. 0. 0. 0.
      1.15340250e-003 0. 0. 2.30680499e-003 0. 0. 0. 0. 0. 0. 0. 0. 0.
      0. 0. 0. 0. 0. 0. 0. 0. 0. 0. 0. 0. 0. 0. 2.30680499e-003 0.
      1.15340250e-003 0. 0. 0. 0. 0. 0. 0. 0. 0. 0. 2.30680499e-003 0.
      0. 0. 0. 0. 0. 0. 0. 0. 0. 0. 0. 1.15340250e-003 5.76701248e-003
      0. 3.46020749e-003 0. 1.15340250e-003 0. 0. 0. 0. 0. 0. 0. 0. 0.
      0. 0. 0. 0. 0. 0. 0. 1.15340250e-003 0. 0. 0. 0. 0.
      2.30680499e-003 0. 0. 0. 0. 1.15340250e-003 0. 0. 0. 0. 0. 0. 0.
      0. 0. 0. 0. 0. 0. 0. 1.15340250e-003 0. 0. 0. 0. 3.46020749e-003
      0. 0. 0. 0. 0. 0. 0. 0. 0. 0. 0. 0. 0. 0. 0. 0. 0. 0. 0.
      1.15340250e-003 0. 0. 0. 0. 0. 0. 0. 1.15340250e-003 0. 0. 0. 0.
      0. 0. 0. 1.15340250e-003 0. 0. 0. 1.15340250e-003 1.15340250e-003
      0. 0. 0. 0. 0. 0. 1.15340250e-003 1.15340250e-003 0. 0. 0. 0. 0.
      0. 0. 0. 0. 0. 1.15340250e-003 0. 1.15340250e-003 0. 0. 0. 0.
      3.46020749e-003 0. 0. 2.30680499e-003 0. 0. 0. 0. 0. 0. 0. 0. 0.</_>
    <_>
      0. 0. 0. 0. 0. 1.66666675e-002 0. 0. 0. 0. 2.08333344e-003 0. 0.
      0. 0. 0. 0. 0. 0. 0. 0. 0. 1.04166672e-003 0. 0. 0. 0.
      9.37500037e-003 0. 0. 0. 0. 2.08333344e-003 0. 0. 3.12500028e-003
      0. 0. 0. 0. 0. 0. 0. 0. 0. 0. 0. 0. 0. 0. 0. 0. 0. 0. 0. 0. 0. 0.
      0. 0. 0. 0. 0. 0. 0. 0. 0. 0. 0. 0. 0. 0. 0. 0. 0. 0. 0.
      4.27083373e-002 0. 0. 0. 0. 0. 0. 0. 0. 0. 0. 0. 0. 0. 0.
      2.08333344e-003 0. 0. 0. 0. 0. 0. 0. 0. 0. 0. 0. 0. 0. 0. 0. 0. 0.
      0. 0. 0. 3.12500028e-003 0. 0. 0. 0. 0. 0. 0. 0. 0. 0. 0.
      1.04166672e-003 0. 0. 0. 0. 0. 0. 0. 0. 0. 0. 0. 0. 0. 0. 0. 0. 0.
      0. 0. 0. 0. 0. 0. 0. 0. 0. 0. 0. 0. 0. 0. 0. 0. 0. 0. 0. 0. 0. 0.
      0. 0. 0. 0. 0. 0. 0. 0. 0. 0. 0. 0. 0. 0. 1.04166672e-003 0. 0. 0.
      0. 0. 0. 3.12500028e-003 0. 0. 0. 0. 0. 0. 0. 1.04166672e-003 0.
      0. 0. 0. 0. 2.08333344e-003 0. 0. 0. 0. 0. 0. 0. 0. 0. 0. 0. 0. 0.
      0. 0. 0. 0. 0. 0. 0. 0. 0. 0. 0. 0. 0. 1.25000011e-002 0. 0. 0.
      1.04166672e-003 0. 0. 1.04166672e-003 0. 0. 0. 0. 0. 0. 0.
      1.04166672e-003 0. 0. 0. 0. 0. 0. 0. 0. 0. 0. 0. 0. 0.
      1.14583336e-002 0. 0. 0. 0. 0. 0. 0. 0. 0. 2.08333344e-003 0. 0.
      0. 0. 0. 0. 0. 0. 0. 0. 1.04166672e-003 0. 0. 0. 0.
      1.04166672e-003 0. 0. 0. 0. 0. 0. 0. 0. 0. 1.04166672e-003 0. 0.
      0. 0. 0. 1.04166672e-003 0. 0. 0. 0. 0. 0. 0. 0. 0. 0. 0. 0. 0. 0.
      0. 0. 0. 0. 0. 0. 0. 0. 0. 0. 0. 0. 0. 0. 0. 0. 0. 0. 0. 0. 0. 0.
      0. 0. 0. 0. 0. 0. 0. 0. 0. 0. 0. 0. 0. 0. 0. 0. 0. 1.04166672e-003
      0. 0. 0. 0. 0. 0. 0. 0. 0. 0. 0. 0. 0. 0. 2.08333344e-003 0. 0. 0.
      0. 0. 0. 0. 0. 0. 0. 0. 0. 0. 0. 0. 0. 0. 0. 0. 0. 0. 0. 0. 0. 0.
      0. 0. 0. 0. 0. 0. 0. 0. 0. 0. 0. 0. 0. 0. 0. 0. 0. 0. 0. 0. 0. 0.
      0. 0. 0. 0. 0. 0. 0. 0. 0. 0. 0. 0. 1.04166672e-003 0. 0. 0. 0. 0.
      0. 0. 0. 0. 0. 0. 0. 0. 0. 0. 0. 0. 0. 0. 0. 0. 0. 0. 0. 0. 0. 0.
      0. 0. 0. 0. 0. 0. 0. 0. 0. 0. 1.04166672e-003 0. 0. 0. 0. 0. 0.
      1.04166670e-002 0. 0. 0. 0. 0. 0. 0. 0. 0. 0. 0. 0. 0. 0.
      1.04166672e-003 1.04166672e-003 0. 0. 0. 0. 0. 0. 0. 0. 0. 0. 0.
      0. 0. 0. 0. 0. 0. 0. 0. 0. 0. 0. 0. 0. 0. 0. 0. 0. 0. 0. 0. 0. 0.
      0. 1.04166672e-003 0. 0. 0. 0. 0. 1.04166672e-003 0. 0. 0. 0. 0.
      0. 0. 0. 0. 0. 0. 0. 0. 0. 0. 0. 0. 0. 0. 0. 0. 0. 0. 0. 0. 0. 0.
      0. 8.33333377e-003 0. 0. 0. 0. 1.04166672e-003 0. 0. 0. 0. 0. 0.
      0. 0. 0. 0. 0. 0. 0. 0. 0. 0. 0. 0. 0. 0. 0. 0. 0. 4.16666688e-003
      1.04166672e-003 0. 0. 3.12500028e-003 0. 1.04166672e-003 0. 0. 0.
      0. 0. 0. 4.16666688e-003 0. 0. 0. 0. 0. 0. 0. 0. 0. 0. 0. 0. 0. 0.
      0. 0. 0. 0. 0. 0. 0. 0. 0. 0. 0. 0. 3.12500028e-003 0. 0. 0. 0. 0.
      0. 0. 2.08333344e-003 0. 0. 0. 0. 0. 0. 0. 0. 0. 0. 0. 0. 0. 0. 0.
      0. 1.04166672e-003 0. 0. 0. 0. 0. 0. 0. 0. 0. 0. 0. 0. 0. 0. 0. 0.
      0. 0. 0. 0. 0. 0. 0. 0. 0. 0. 0. 0. 0. 1.04166672e-003 0. 0. 0. 0.
      0. 0. 0. 0. 0. 0. 2.08333344e-003 0. 0. 0. 1.14583336e-002 0.
      2.08333344e-003 0. 0. 0. 0. 0. 0. 0. 0. 0. 0. 0. 0.
      1.04166672e-003 0. 0. 0. 0. 0. 0. 0. 0. 0. 0. 0. 1.04166672e-003
      0. 0. 0. 0. 0. 0. 0. 0. 0. 0. 0. 0. 0. 0. 0. 0. 0. 0.
      9.37500037e-003 3.12500028e-003 0. 0. 0. 0. 0. 0. 0. 0. 0. 0.
      2.08333344e-003 0. 0. 0. 0. 0. 0. 0. 0. 0. 0. 0. 0. 0. 0. 0. 0.
      1.56250000e-002 0. 0. 0. 0. 0. 0. 0. 0. 0. 0. 0. 0. 0. 0. 0. 0. 0.
      0. 0. 0. 0. 0. 0. 0. 0. 0. 0. 0. 0. 0. 0. 0. 0. 0. 0. 0. 0. 0. 0.
      0. 0. 0. 0. 0. 0. 0. 0. 0. 0. 0. 2.08333344e-003 5.20833349e-003
      0. 0. 0. 0. 0. 0. 0. 0. 0. 0. 0. 0. 0. 0. 0. 0. 0. 0.
      2.08333344e-003 0. 0. 0. 0. 0. 0. 0. 2.08333344e-003 0. 0. 0. 0.
      0. 0. 0. 0. 0. 0. 0. 0. 0. 0. 0. 0. 0. 0. 0. 0. 0. 0. 0. 0. 0. 0.
      0. 0. 0. 2.08333344e-003 0. 0. 0. 0. 0. 0. 0. 0. 0. 0. 0. 0.
      1.04166672e-003 0. 0. 0. 0. 0. 0. 0. 0. 0. 0. 0. 0.
      3.12500028e-003 0. 0. 0. 0. 0. 1.04166672e-003 0. 0. 0. 0. 0.
      6.25000056e-003 0. 0. 0. 0. 0. 0. 1.04166672e-003 0. 0. 0. 0. 0.
      0. 0. 3.12500028e-003 0. 2.08333344e-003 0. 0. 0. 0. 0. 0. 0. 0.
      0. 0. 0. 0. 0. 0. 0. 0. 0. 0. 0. 6.25000056e-003 0. 0.
      8.33333377e-003 0. 0. 0. 0. 0. 0. 0. 0. 0. 0. 0. 0. 0. 0. 0. 0. 0.
      0. 0. 0. 0. 0. 0. 0. 0. 0. 0. 0. 0. 0. 0. 3.12500028e-003
      3.12500028e-003 8.33333377e-003 0. 0. 2.08333344e-003 0. 0. 0. 0.
      0. 0. 0. 0. 0. 0. 3.12500028e-003 0. 0. 0. 0. 0. 0. 0. 0. 0. 0. 0.
      0. 0. 0. 0. 0. 0. 1.14583336e-002 0. 0. 0. 0. 0. 0. 0. 0. 0. 0. 0.
      0. 0. 0. 0. 0. 0. 0. 0. 0. 0. 0. 0. 0. 0. 0. 0. 0. 0.
      1.04166672e-003 0. 0. 0. 0. 0. 0. 0. 0. 0. 0. 0. 0. 0. 0. 0. 0. 0.
      0. 0. 0. 0. 0. 0. 0. 0. 1.04166672e-003 0. 0. 0. 0. 0. 0. 0. 0. 0.
      0. 0. 0. 0. 0. 0. 0. 0. 0. 0. 1.04166672e-003 0. 0. 0. 0. 0. 0. 0.
      0. 0. 0. 0. 0. 0. 0. 0. 0. 0. 0. 0. 0. 0. 0. 0. 0. 0. 0. 0.
      1.04166672e-003 0. 0. 1.04166672e-003 0. 0. 0. 0. 0. 0.
      3.12500028e-003 0. 0. 0. 0. 0. 0. 0. 0. 0. 0. 0. 0. 0. 0. 0. 0. 0.
      0. 0. 0. 0. 0. 0. 0. 0. 0. 0. 0. 0. 0. 0. 0. 0. 0. 0. 0. 0. 0. 0.
      0. 0. 0. 0. 0. 0. 0. 0. 0. 1.04166672e-003 0. 1.04166672e-003
      2.08333344e-003 0. 0. 0. 0. 0. 0. 2.08333344e-003 0. 0.
      2.08333344e-003 0. 0. 0. 0. 0. 0. 0. 0. 0. 0. 0. 0. 0. 0. 0. 0. 0.
      0. 0. 0. 0. 0. 0. 0. 0. 0. 0. 0. 0. 0. 0. 0. 0. 0. 0. 0. 0.
      1.04166672e-003 0. 0. 1.04166672e-003 0. 0. 0. 0. 0. 0. 0. 0. 0.
      0. 0. 0. 0. 2.08333344e-003 0. 0. 3.12500028e-003 0. 0. 0. 0. 0.
      0. 0. 0. 0. 0. 0. 0. 0. 0. 0. 0. 0. 0. 0. 0. 0. 0. 0. 0. 0. 0. 0.
      0. 1.04166672e-003 0. 0. 0. 0. 0. 0. 0. 0. 0. 0. 0. 0. 0. 0. 0. 0.
      0. 0. 0. 0. 0. 7.29166716e-003 0. 0. 0. 0. 0. 0. 0. 0. 0. 0. 0. 0.
      0. 0. 1.04166672e-003 0. 0. 0. 2.08333344e-003 0. 0. 0. 0. 0. 0.
      0. 0. 0. 0. 0. 0. 0. 0. 0. 0. 1.04166672e-003 0. 0. 0. 0. 0. 0. 0.
      0. 0. 0. 0. 0. 1.04166672e-003 0. 0. 0. 0. 0. 0. 0.
      1.04166672e-003 0. 0. 0. 0. 0. 2.08333344e-003 0. 1.04166672e-003
      0. 0. 0. 0. 0. 0. 1.04166672e-003 0. 0. 0. 0. 0. 0. 0. 0. 0. 0. 0.
      0. 0. 0. 0. 4.16666688e-003 1.04166672e-003 2.08333340e-002 0. 0.
      1.77083351e-002 0. 0. 0. 0. 0. 0. 0. 0. 0. 0. 0. 0. 0. 0. 0. 0. 0.
      0. 0. 0. 0. 0. 0. 0. 0. 0. 0. 0. 0. 0. 0. 0. 0. 0. 0. 0. 0. 0. 0.
      0. 0. 0. 1.35416677e-002 0. 0. 0. 0. 0. 0. 0. 0. 0.
      5.20833349e-003 0. 0. 0. 0. 0. 0. 0. 0. 0. 0. 0. 0. 0. 0. 0. 0. 0.
      2.08333344e-003 0. 0. 0. 0. 0. 0. 0. 0. 0. 0. 0. 0. 0. 0. 0. 0. 0.
      0. 0. 0. 0. 0. 0. 0. 0. 0. 0. 1.04166672e-003 0. 0. 0. 0. 0. 0. 0.
      0. 0. 0. 0. 0. 0. 0. 0. 0. 0. 0. 0. 0. 0. 0. 0. 0. 1.04166672e-003
      0. 0. 0. 0. 0. 0. 0. 0. 0. 0. 0. 0. 0. 0. 0. 0. 0. 0. 0. 0. 0. 0.
      0. 0. 0. 0. 0. 0. 0. 0. 0. 0. 0. 0. 0. 0. 0. 0. 0. 1.04166672e-003
      0. 0. 0. 0. 0. 0. 0. 0. 0. 0. 3.12500028e-003 0. 0. 0. 0.
      6.25000056e-003 0. 0. 0. 1.04166672e-003 0. 0. 0. 0. 0.
      4.16666688e-003 0. 0. 0. 0. 0. 0. 0. 0. 0. 0. 0. 0. 0. 0. 0. 0. 0.
      0. 0. 0. 0. 0. 0. 0. 0. 0. 1.66666675e-002 0. 0. 0. 0. 0. 0. 0. 0.
      0. 0. 0. 0. 0. 0. 0. 0. 0. 0. 1.04166672e-003 0. 0. 0. 0. 0. 0. 0.
      0. 0. 0. 0. 4.16666688e-003 0. 0. 0. 0. 0. 0. 0. 0. 0. 0. 0. 0.
      2.08333344e-003 0. 0. 0. 0. 0. 0. 0. 0. 5.20833349e-003 0. 0.
      1.04166672e-003 0. 0. 0. 0. 0. 0. 0. 0. 0. 0. 0. 0. 0. 0. 0. 0. 0.
      0. 0. 0. 0. 0. 0. 1.04166672e-003 0. 0. 0. 0. 0. 0. 0. 0. 0.
      1.87500007e-002 0. 0. 0. 0. 0. 0. 0. 0. 0. 0. 0. 0. 0. 0. 0. 0. 0.
      0. 0. 0. 0. 0. 0. 0. 0. 0. 0. 0. 0. 0. 0. 0. 0. 0. 0. 0. 0. 0. 0.
      0. 0. 0. 0. 0. 0. 0. 0. 0. 0. 1.04166672e-003 0. 0. 0. 0. 0.
      4.16666688e-003 0. 0. 0. 0. 0. 0. 1.04166672e-003 0. 0. 0. 0. 0.
      0. 0. 0. 0. 0. 0. 9.37500037e-003 0. 0. 0. 0. 0. 0. 0. 0. 0. 0. 0.
      0. 2.08333344e-003 0. 0. 0. 0. 0. 0. 0. 0. 0. 2.08333344e-003 0.
      0. 0. 0. 0. 1.04166672e-003 0. 0. 0. 0. 0. 0. 0. 0. 0. 0. 0. 0. 0.
      0. 0. 0. 0. 0. 0. 0. 0. 0. 0. 0. 0. 0. 0. 0. 0. 0. 0. 0. 0. 0. 0.
      0. 0. 0. 0. 0. 0. 0. 0. 0. 0. 0. 0. 0. 0. 0. 0. 0. 0. 0.
      9.37500037e-003 0. 0. 2.08333344e-003 0. 0. 0. 0. 0. 0. 0. 0. 0.
      0. 0. 0. 0. 0. 0. 0. 0. 0. 0. 0. 0. 0. 0. 0. 0. 0. 0. 0. 0. 0. 0.
      0. 0. 0. 0. 0. 0. 0. 0. 1.17708340e-001 0. 0. 0. 0. 0. 0.
      2.08333344e-003 0. 0. 0. 0. 1.04166672e-003 0. 0. 0. 0. 0. 0. 0.
      0. 0. 0. 1.04166672e-003 0. 0. 0. 0. 0. 0. 0. 0. 0. 0. 0. 0. 0. 0.
      0. 0. 0. 0. 0. 0. 0. 0. 0. 0. 0. 0. 0. 0. 0. 0. 0. 0.
      1.35416677e-002 0. 0. 0. 0. 0. 0. 0. 0. 0. 0. 0. 0. 0. 0. 0. 0. 0.
      0. 0. 0. 0. 0. 0. 0. 0. 4.16666688e-003 0. 0. 0. 0. 0. 0. 0. 0. 0.
      1.04166672e-003 0. 0. 0. 0. 0. 0. 0. 0. 0. 0. 0. 0. 0. 0. 0. 0.
      1.04166672e-003 0. 0. 0. 0. 0. 0. 0. 0. 0. 0. 0. 2.08333344e-003
      0. 0. 0. 0. 0. 0. 0. 0. 0. 0. 0. 0. 0. 0. 0. 0. 0. 0. 0.
      1.04166672e-003 0. 0. 0. 0. 0. 0. 0. 0. 0. 0. 0. 0. 0. 0. 0. 0. 0.
      0. 1.00000009e-001 0. 1.77083351e-002 0. 0. 0. 0. 0.
      2.08333344e-003 0. 1.04166672e-003 0. 0. 0. 0. 0. 0. 0. 0. 0. 0.
      0. 0. 0. 0. 0. 0. 0. 0. 0. 0. 0. 0. 1.04166672e-003 0. 0. 0. 0. 0.
      0. 0. 0. 0. 0. 0. 0. 0. 0. 0. 0. 0. 0. 0. 0. 0. 0. 0. 0. 0. 0. 0.
      0. 0. 0. 0. 0. 1.04166672e-003 0. 5.20833349e-003 0. 0. 0. 0. 0.
      0. 0. 0. 0. 0. 0. 0. 0. 0. 0. 0. 0. 0. 1.04166672e-003 0. 0.
      1.04166672e-003 0. 0. 0. 0. 0. 0. 0. 1.04166672e-003 0.
      2.08333344e-003 0. 0. 0. 0. 0. 0. 1.66666675e-002 0. 0. 0. 0. 0.
      0. 0. 0. 0. 0. 0. 0. 0. 0. 1.04166672e-003 0. 0. 0. 0. 0. 0. 0. 0.
      0. 2.08333344e-003 0. 0. 3.12500028e-003 0. 0. 0. 0. 0. 0. 0. 0.
      0. 0. 0. 0. 0. 1.14583336e-002 0. 0. 1.04166672e-003 0. 0. 0. 0.
      0. 0. 0. 0. 0. 0. 0. 0. 0. 0. 0. 0. 0. 0. 0. 0. 0. 0. 0. 0. 0. 0.
      0. 0. 0. 0. 0. 0. 0. 0. 0. 0. 0. 0. 1.04166672e-003 0. 0. 0. 0. 0.
      0. 0. 0. 0. 1.04166672e-003 0. 0. 0. 0. 0. 0. 0. 0.
      3.12500028e-003 0. 0. 0. 0. 0. 0. 0. 0. 0. 0. 0. 0. 0. 0. 0. 0. 0.
      0. 1.04166672e-003 0. 0. 0. 0. 0. 4.16666688e-003 0. 0. 0. 0. 0.
      0. 0. 0. 0. 1.04166672e-003 0. 0. 0. 0. 0. 0. 0. 0. 0. 0. 0. 0. 0.
      1.04166672e-003 0. 0. 0. 0. 0. 0. 0. 0. 0. 0. 0. 0. 0. 0. 0. 0. 0.
      0. 0. 0. 0. 0. 0. 0. 0. 0. 0. 0. 0. 0. 0. 0. 0. 0. 0.
      2.39583347e-002 0. 0. 0. 0. 0. 0. 0. 0. 0. 0. 0. 0.
      5.20833349e-003 0. 0. 0. 2.08333344e-003 1.04166672e-003 0. 0. 0.
      0. 0. 0. 0. 0. 0. 0. 0. 0. 0. 0. 0. 0. 0. 0. 0. 0. 0. 0. 0. 0. 0.
      0. 0. 0. 0. 0. 0. 0. 0. 0. 0. 0. 0. 0. 0. 0. 0. 2.08333344e-003 0.
      0. 0. 5.20833349e-003 0. 0. 1.04166672e-003 0. 0. 0. 0. 0. 0. 0.
      0. 4.16666688e-003 0. 0. 0. 0. 0. 0. 0. 0. 0. 0. 0.
      1.04166672e-003 0. 0. 0. 0. 0. 0. 0. 0. 1.04166672e-003 0. 0.
      1.04166672e-003 0. 0. 0. 0. 0. 1.04166672e-003 0. 0. 0. 0. 0. 0.
      0. 3.12500028e-003 0. 0. 0. 0. 0. 0. 0. 0. 0. 0. 0.
      3.12500028e-003 0. 0. 0. 3.12500028e-003 0. 0. 0. 0. 0. 0. 0. 0.
      0. 0. 0. 0. 0. 0. 0. 0. 0. 0. 0. 0. 0. 0. 0. 0. 0. 0. 0. 0. 0. 0.
      0. 0. 0. 0. 0. 0. 4.16666688e-003 0. 0. 0. 0. 1.04166672e-003
      2.08333344e-003 0. 0. 1.04166672e-003 0. 0. 0. 0. 0. 0. 0. 0. 0.
      0. 0. 0. 0. 0. 0. 0. 0. 0. 0. 0. 0. 0. 0. 0. 0. 0. 0. 0. 0. 0. 0.
      0. 0. 0. 0. 0. 0. 0. 0. 0. 0. 0. 0. 0. 0. 0. 0. 0. 0. 0. 0. 0. 0.
      0. 0. 0. 0. 0. 0. 0. 0. 0. 0. 0. 0. 0. 0. 0. 0. 0. 0. 0. 0. 0. 0.
      0. 0. 0. 0. 0. 0. 0. 0. 0. 0. 0. 0. 0. 0. 0. 0. 0. 0. 0. 0. 0. 0.
      0. 0. 0. 0. 2.08333344e-003 0. 1.87500007e-002 0. 1.04166672e-003
      0. 0. 0. 0. 0. 0. 0. 0. 0. 1.04166672e-003 0. 0. 0. 0. 0. 0. 0. 0.
      0. 0. 0. 0. 0. 0. 0. 0. 0. 0. 0. 0. 0. 0. 0. 0. 0. 0. 0.
      3.54166701e-002 0. 0. 0. 0. 0. 0. 0. 0. 0. 0. 0. 0. 0. 0. 0. 0. 0.
      0. 1.04166672e-003 0. 0. 0. 0. 0. 0. 0. 0. 0. 0. 0. 0. 0.
      1.04166672e-003 0. 0. 0. 0. 0. 0. 0. 0. 0. 0. 0. 0. 0. 0. 0.
      3.12500028e-003 0. 0. 0. 0. 0. 0. 0. 0. 0. 0. 0. 0.
      3.12500028e-003 0. 0. 0. 0. 0. 0. 0. 1.04166672e-003 0. 0. 0. 0.
      0. 0. 0. 0. 0. 0. 0. 0. 0. 0. 0. 0. 0. 0. 0. 0. 0. 4.16666688e-003
      0. 0. 0. 0. 0. 0. 0. 0. 0. 0. 0. 0. 0. 0. 0. 0. 0. 0. 0. 0. 0. 0.
      0. 0. 0. 8.33333377e-003 1.04166672e-003 0. 0. 0. 0. 0. 0. 0. 0.
      0. 0. 0. 0. 0. 0. 0. 0. 0. 0. 0. 0. 0. 0. 0. 0. 0. 0. 0. 0. 0. 0.
      0. 0. 0. 0. 0. 0. 0. 0. 0. 0. 6.25000056e-003 0. 0. 0. 0. 0. 0. 0.
      0. 0. 0. 1.04166672e-003 0. 0. 0. 0. 0. 0. 0. 0. 0. 0. 0. 0. 0. 0.
      0. 0. 0. 0. 0. 0. 0. 0. 0. 0. 0. 0. 0. 0. 0. 0. 0. 0. 0. 0. 0. 0.
      0. 0. 0. 0. 0. 0. 0. 1.04166672e-003 0. 0. 0. 0. 0. 0. 0. 0. 0. 0.
      0. 0. 0. 0. 0. 0. 0. 0. 0. 0. 0. 7.29166716e-003 1.04166672e-003
      0. 0. 0. 0. 0. 0. 0. 0. 0. 0. 0. 0. 0. 0. 0. 0. 0. 0. 0. 0. 0. 0.
      0. 0. 0. 0. 0. 0. 0. 0. 0. 0. 0. 0. 0. 0. 0. 1.04166672e-003 0. 0.
      0. 0. 0. 0. 0. 0. 0. 0. 0. 0. 0. 0. 0. 0. 0. 1.04166672e-003 0. 0.
      0. 0. 0. 1.04166672e-003 0. 0. 0. 0. 0. 0. 0. 0. 0. 0. 0. 0.</_>
    <_>
      0. 0. 0. 0. 0. 1.63398695e-003 0. 0. 0. 0. 0. 0. 0. 0. 0.
      3.26797389e-003 0. 0. 0. 0. 0. 0. 0. 0. 0. 0. 0. 1.63398695e-003
      0. 0. 0. 0. 3.26797389e-003 0. 0. 0. 0. 0. 0. 0. 0. 0. 0. 0. 0. 0.
      0. 0. 0. 0. 0. 0. 0. 0. 0. 0. 0. 0. 0. 0. 0. 0. 0. 0. 0. 0. 0. 0.
      0. 0. 0. 0. 0. 0. 0. 0. 0. 1.63398695e-003 0. 0. 0. 0. 0. 0. 0. 0.
      0. 0. 0. 0. 0. 1.63398695e-003 0. 0. 0. 0. 0. 0. 0. 0. 0. 0. 0. 0.
      0. 0. 0. 0. 0. 0. 0. 0. 0. 6.53594779e-003 0. 0. 0. 0. 0. 0. 0. 0.
      0. 0. 0. 3.26797389e-003 0. 0. 0. 0. 0. 0. 0. 0. 0. 0. 0. 0. 0.
      1.63398695e-003 0. 0. 0. 0. 0. 0. 0. 0. 0. 0. 0. 0. 0. 0. 0. 0. 0.
      0. 0. 0. 0. 0. 0. 0. 0. 0. 0. 0. 0. 0. 0. 0. 0. 0. 0. 0. 0. 0. 0.
      0. 0. 0. 0. 0. 0. 0. 6.53594779e-003 0. 0. 0. 0. 0. 0. 0.
      1.63398695e-003 0. 0. 0. 0. 0. 0. 0. 0. 0. 0. 0. 0. 0. 0. 0. 0. 0.
      0. 0. 0. 0. 0. 0. 0. 0. 0. 0. 0. 0. 0. 0. 0. 2.61437912e-002 0. 0.
      0. 0. 0. 0. 2.12418307e-002 0. 0. 0. 0. 0. 0. 0. 0. 0. 0. 0. 0. 0.
      0. 0. 0. 0. 0. 0. 0. 0. 3.26797389e-003 0. 0. 0. 0.
      1.63398695e-003 0. 0. 3.26797389e-003 0. 0. 0. 0. 0. 0. 0. 0. 0.
      0. 0. 0. 0. 0. 0. 0. 0. 0. 0. 0. 0. 0. 0. 0. 0. 0. 0. 0. 0. 0. 0.
      0. 1.63398695e-003 0. 0. 0. 0. 0. 0. 0. 0. 0. 0. 0. 0. 0. 0. 0. 0.
      0. 0. 0. 0. 0. 0. 0. 0. 0. 0. 0. 0. 0. 0. 0. 0. 0. 0. 0. 0. 0. 0.
      1.63398695e-003 0. 0. 0. 0. 0. 0. 0. 0. 0. 0. 0. 0. 0. 0. 0.
      2.12418307e-002 0. 0. 0. 0. 0. 0. 0. 1.63398695e-003 0. 0. 0. 0.
      0. 0. 1.63398695e-003 0. 0. 0. 0. 0. 0. 0. 0. 0. 0. 0. 0. 0. 0. 0.
      0. 0. 0. 0. 0. 0. 0. 0. 0. 0. 0. 0. 0. 0. 0. 0. 0. 0.
      1.63398695e-003 0. 0. 0. 0. 0. 0. 0. 0. 0. 0. 0. 0. 0.
      1.63398695e-003 0. 0. 0. 0. 0. 0. 0. 0. 0. 0. 0. 0. 0. 0. 0. 0. 0.
      0. 0. 0. 0. 0. 0. 0. 0. 0. 0. 0. 0. 0. 0. 0. 0. 0. 0. 0. 0. 0. 0.
      0. 0. 0. 0. 0. 0. 0. 0. 0. 0. 1.63398695e-003 0. 0. 0. 0.
      1.63398695e-003 0. 0. 0. 0. 0. 0. 0. 0. 0. 0. 0. 0. 0. 0. 0. 0. 0.
      3.26797389e-003 0. 0. 0. 0. 0. 0. 0. 0. 0. 0. 0. 0. 0. 0. 0. 0. 0.
      0. 0. 0. 0. 1.63398695e-003 0. 0. 0. 0. 0. 0. 0. 0. 0. 0. 0. 0. 0.
      0. 0. 0. 0. 0. 1.63398695e-003 0. 0. 0. 0. 0. 0. 0. 0. 0. 0. 0. 0.
      0. 0. 0. 0. 0. 0. 0. 0. 0. 0. 0. 0. 0. 0. 0. 0. 0. 0. 0. 0. 0. 0.
      0. 0. 0. 0. 0. 0. 0. 0. 0. 0. 0. 0. 0. 0. 0. 3.26797389e-003
      1.63398695e-003 0. 0. 0. 0. 0. 0. 3.26797389e-003 6.53594779e-003
      0. 0. 4.90196096e-003 0. 0. 0. 0. 0. 0. 0. 0. 0. 0. 0. 0. 0. 0. 0.
