<?xml version="1.0"?>
<opencv_storage>
<my_svm type_id="opencv-ml-svm">
  <svm_type>C_SVC</svm_type>
  <kernel><type>RBF</type>
    <gamma>10.</gamma></kernel>
  <C>15.</C>
  <term_criteria><epsilon>2.2204460492503131e-016</epsilon>
    <iterations>100</iterations></term_criteria>
  <var_all>3000</var_all>
  <var_count>3000</var_count>
  <class_count>2</class_count>
  <class_labels type_id="opencv-matrix">
    <rows>1</rows>
    <cols>2</cols>
    <dt>i</dt>
    <data>
      -1 1</data></class_labels>
  <sv_total>130</sv_total>
  <support_vectors>
    <_>
      1.50829565e-003 0. 0. 0. 0. 1.50829565e-003 0. 0. 0. 0. 0.
      1.50829565e-003 0. 0. 0. 0. 0. 0. 0. 1.50829565e-003 0. 0. 0. 0.
      0. 0. 0. 0. 0. 0. 0. 0. 0. 3.01659130e-003 0. 0. 0. 0. 0. 0. 0. 0.
      0. 0. 1.50829565e-003 0. 3.01659130e-003 0. 0. 0. 0.
      1.50829565e-003 0. 0. 0. 1.50829565e-003 0. 0. 0. 0. 0. 0. 0. 0.
      1.50829565e-003 0. 0. 0. 0. 0. 0. 0. 0. 0. 0. 0. 0. 0. 0.
      1.50829565e-003 0. 0. 0. 0. 0. 1.50829565e-003 0. 0. 0. 0. 0. 0.
      0. 0. 0. 0. 0. 0. 0. 0. 0. 0. 0. 0. 0. 0. 0. 0. 0. 0. 0.
      4.52488707e-003 0. 1.50829565e-003 0. 0. 0. 0. 0. 0. 0. 0. 0. 0.
      0. 0. 0. 0. 0. 0. 0. 0. 0. 0. 0. 0. 0. 0. 0. 1.50829565e-003 0. 0.
      0. 1.50829565e-003 0. 0. 0. 1.50829565e-003 0. 0. 1.50829565e-003
      4.52488707e-003 0. 0. 0. 0. 1.50829565e-003 0. 1.50829565e-003 0.
      0. 0. 3.01659130e-003 4.52488707e-003 0. 0. 0. 0. 0. 0. 0. 0.
      1.50829565e-003 0. 0. 0. 0. 0. 0. 0. 0. 0. 0. 0. 0. 0. 0. 0. 0. 0.
      0. 0. 3.01659130e-003 0. 0. 1.50829565e-003 0. 1.50829565e-003 0.
      0. 0. 0. 0. 1.50829565e-003 0. 0. 0. 0. 0. 0. 0. 0. 0. 0. 0. 0. 0.
      0. 0. 0. 3.01659130e-003 0. 0. 0. 0. 0. 0. 0. 0. 0. 0. 0.
      1.50829565e-003 0. 0. 0. 0. 0. 0. 0. 0. 0. 1.50829565e-003 0.
      3.01659130e-003 0. 0. 4.52488707e-003 0. 0. 0. 0. 0. 0. 0. 0.
      1.50829565e-003 0. 0. 0. 0. 0. 1.50829565e-003 0. 0. 0. 0. 0. 0.
      0. 0. 0. 0. 0. 0. 0. 0. 0. 0. 1.50829565e-003 0. 0. 0. 0. 0.
      1.50829565e-003 0. 0. 4.52488707e-003 0. 0. 0. 0. 1.50829565e-003
      4.52488707e-003 0. 0. 0. 0. 0. 0. 0. 0. 0. 0. 0. 0. 0. 0. 0.
      4.52488707e-003 0. 0. 0. 0. 0. 0. 1.50829565e-003 0. 0. 0. 0. 0.
      3.01659130e-003 0. 1.50829565e-003 0. 0. 0. 0. 0. 0. 0. 0. 0.
      1.50829565e-003 0. 0. 0. 0. 0. 0. 0. 0. 3.01659130e-003
      4.52488707e-003 0. 0. 0. 4.52488707e-003 0. 0. 0. 0. 0. 0. 0. 0.
      3.01659130e-003 0. 0. 0. 0. 6.03318261e-003 0. 0. 1.50829565e-003
      0. 0. 0. 0. 1.50829565e-003 0. 0. 0. 0. 0. 0. 0. 3.01659130e-003
      0. 0. 0. 0. 0. 0. 0. 0. 0. 0. 4.52488707e-003 0. 0. 0. 0. 0. 0. 0.
      0. 0. 0. 0. 0. 0. 0. 0. 0. 0. 1.50829565e-003 0. 0. 0. 0.
      1.50829565e-003 1.50829565e-003 0. 0. 0. 0. 0. 0. 0. 0. 0. 0. 0.
      0. 0. 0. 0. 0. 0. 0. 1.50829565e-003 0. 0. 0. 0. 0. 0. 0. 0. 0. 0.
      0. 0. 0. 1.50829565e-003 0. 0. 0. 0. 0. 0. 0. 0. 0. 0. 0. 0. 0. 0.
      0. 0. 0. 0. 1.50829565e-003 0. 0. 1.50829565e-003 0. 0. 0. 0.
      1.50829565e-003 1.50829565e-003 0. 0. 0. 1.50829565e-003 0. 0. 0.
      0. 0. 0. 1.50829565e-003 0. 0. 1.50829565e-003 0. 0. 0. 0. 0. 0.
      0. 4.52488707e-003 0. 1.50829565e-003 0. 0. 0. 0. 7.54147815e-003
      0. 0. 0. 6.03318261e-003 3.01659130e-003 0. 0. 6.03318261e-003 0.
      0. 0. 0. 1.50829565e-003 0. 0. 0. 0. 0. 0. 0. 0. 0. 0. 0. 0. 0. 0.
      0. 0. 1.50829565e-003 0. 0. 0. 1.50829565e-003 0. 0. 0.
      3.01659130e-003 0. 0. 3.01659130e-003 0. 0. 0. 0. 0. 0. 0. 0. 0.
      0. 0. 0. 0. 0. 0. 0. 0. 0. 0. 0. 0. 0. 0. 0. 0. 0. 0. 0. 0.
      1.50829565e-003 0. 0. 3.01659130e-003 0. 0. 0. 0. 1.50829565e-003
      0. 1.50829565e-003 3.01659130e-003 0. 0. 0. 1.50829565e-003 0. 0.
      0. 0. 0. 0. 0. 0. 0. 1.50829565e-003 0. 0. 1.50829565e-003 0.
      3.01659130e-003 0. 0. 0. 0. 0. 0. 0. 0. 0. 0. 0. 1.50829565e-003
      1.50829565e-003 0. 0. 0. 0. 0. 3.01659130e-003 0. 0. 0. 0. 0. 0.
      0. 0. 0. 0. 0. 0. 0. 0. 4.52488707e-003 0. 0. 0. 0. 0.
      6.03318261e-003 0. 0. 0. 0. 1.50829565e-003 0. 0. 0. 0. 0. 0. 0.
      0. 0. 0. 1.50829565e-003 0. 1.50829565e-003 0. 0. 0. 0. 0. 0. 0.
      0. 0. 0. 0. 0. 0. 0. 0. 1.50829565e-003 0. 0. 0. 0. 0. 0. 0. 0. 0.
      0. 0. 0. 0. 0. 0. 0. 0. 0. 0. 0. 0. 0. 0. 0. 0. 0. 0. 0. 0.
      1.50829565e-003 0. 0. 3.01659130e-003 0. 0. 0. 0. 3.01659130e-003
      0. 0. 0. 0. 0. 0. 0. 0. 3.01659130e-003 0. 0. 0. 1.50829565e-003
      0. 0. 0. 0. 0. 0. 1.50829565e-003 0. 0. 0. 0. 0. 1.50829565e-003
      0. 0. 0. 0. 1.50829565e-003 0. 0. 0. 0. 0. 4.52488707e-003 0. 0.
      0. 0. 0. 0. 0. 1.50829565e-003 0. 0. 0. 0. 0. 0. 1.50829565e-003
      0. 1.50829565e-003 0. 0. 0. 0. 0. 0. 0. 1.50829565e-003 0. 0. 0.
      1.50829565e-003 0. 0. 0. 0. 0. 3.01659130e-003 0. 0. 0. 0.
      1.50829565e-003 3.01659130e-003 1.50829565e-003 0. 0.
      1.50829565e-003 0. 0. 0. 0. 0. 0. 0. 4.52488707e-003 0. 0. 0. 0.
      0. 1.50829565e-003 0. 3.01659130e-003 0. 0. 0. 1.50829565e-003 0.
      0. 0. 0. 0. 0. 0. 0. 0. 0. 0. 0. 0. 0. 0. 1.50829565e-003 0. 0.
      1.50829565e-003 0. 0. 1.50829565e-003 1.50829565e-003 0. 0. 0. 0.
      0. 0. 0. 3.01659130e-003 0. 0. 0. 0. 0. 0. 0. 0. 0. 0. 0. 0. 0. 0.
      0. 0. 4.52488707e-003 0. 0. 0. 0. 0. 6.03318261e-003 0. 0. 0. 0.
      0. 0. 0. 1.50829565e-003 0. 0. 0. 0. 9.04977415e-003
      1.50829565e-003 0. 1.50829565e-003 1.50829565e-003 0. 0. 0. 0. 0.
      1.50829565e-003 0. 0. 0. 0. 0. 0. 0. 0. 0. 0. 1.50829565e-003 0.
      0. 0. 0. 1.50829565e-003 0. 0. 0. 0. 0. 3.01659130e-003
      1.50829565e-003 0. 0. 0. 0. 0. 0. 1.50829565e-003 0.
      6.03318261e-003 0. 0. 0. 0. 1.50829565e-003 1.50829565e-003 0. 0.
      0. 0. 0. 1.50829565e-003 0. 0. 0. 0. 0. 0. 1.50829565e-003 0. 0.
      0. 0. 0. 0. 0. 0. 1.50829565e-003 0. 0. 0. 0. 0. 1.50829565e-003
      0. 0. 0. 0. 1.50829565e-003 0. 0. 0. 0. 0. 1.50829565e-003 0. 0.
      0. 0. 0. 0. 0. 6.03318261e-003 0. 0. 0. 0. 0. 0. 0. 0. 0. 0.
      3.01659130e-003 0. 0. 0. 0. 0. 0. 0. 0. 0. 0. 0. 0. 0. 0. 0. 0.
      1.50829565e-003 0. 0. 0. 0. 0. 0. 0. 0. 0. 1.50829565e-003 0. 0.
      0. 0. 0. 0. 0. 0. 0. 0. 0. 0. 0. 0. 1.50829565e-003 0. 0. 0.
      1.50829565e-003 1.50829565e-003 1.50829565e-003 0. 0. 0. 0. 0.
      1.50829565e-003 0. 0. 0. 1.50829565e-003 0. 0. 0. 0. 0. 0. 0. 0.
      0. 0. 1.50829565e-003 0. 0. 0. 4.52488707e-003 0. 1.50829565e-003
      0. 1.50829565e-003 0. 1.50829565e-003 4.52488707e-003
      1.50829565e-003 0. 0. 0. 0. 1.50829565e-003 0. 1.50829565e-003 0.
      0. 0. 0. 0. 1.50829565e-003 0. 0. 0. 0. 0. 0. 0. 0. 0. 0. 0. 0. 0.
      0. 0. 1.50829565e-003 0. 0. 0. 0. 0. 0. 0. 0. 1.50829565e-003 0.
      0. 0. 4.52488707e-003 0. 0. 1.50829565e-003 0. 4.52488707e-003 0.
      0. 0. 1.50829565e-003 0. 0. 0. 0. 0. 0. 0. 0. 0. 4.52488707e-003
      0. 0. 0. 0. 0. 0. 0. 0. 1.50829565e-003 1.50829565e-003 0. 0. 0.
      1.50829565e-003 0. 0. 0. 0. 0. 0. 1.50829565e-003 0. 0. 0. 0. 0.
      0. 0. 0. 0. 0. 0. 0. 0. 0. 0. 0. 0. 0. 1.50829565e-003 0. 0. 0. 0.
      1.50829565e-003 3.01659130e-003 0. 0. 0. 0. 0. 3.01659130e-003 0.
      0. 0. 1.50829565e-003 0. 0. 0. 0. 1.50829565e-003 0.
      1.50829565e-003 0. 0. 0. 3.01659130e-003 0. 0. 0. 0. 0. 0. 0. 0.
      0. 0. 0. 0. 0. 0. 0. 0. 0. 0. 0. 0. 0. 0. 0. 0. 0. 0.
      1.50829565e-003 0. 0. 0. 0. 0. 0. 0. 0. 0. 0. 0. 0.
      3.01659130e-003 1.50829565e-003 0. 0. 0. 0. 0. 3.01659130e-003
      3.01659130e-003 0. 0. 0. 0. 0. 0. 1.50829565e-003 0. 0. 0. 0.
      1.50829565e-003 0. 0. 0. 1.50829565e-003 0. 0. 0. 0. 0. 0.
      1.50829565e-003 0. 1.50829565e-003 0. 0. 0. 0. 0. 0. 0. 0. 0. 0.
      1.50829565e-003 0. 1.50829565e-003 0. 0. 0. 0. 0. 0. 0. 0. 0. 0.
      0. 0. 1.50829565e-003 0. 0. 0. 0. 0. 0. 0. 0. 0. 7.54147815e-003
      0. 1.50829565e-003 0. 0. 0. 0. 0. 0. 0. 1.50829565e-003
      3.01659130e-003 0. 0. 0. 0. 0. 3.01659130e-003 0. 0. 0. 0. 0. 0.
      1.50829565e-003 0. 0. 0. 0. 0. 0. 0. 0. 0. 0. 0. 0. 0. 0. 0. 0. 0.
      0. 0. 0. 0. 0. 0. 0. 0. 0. 0. 1.50829565e-003 3.01659130e-003
      1.50829565e-003 3.01659130e-003 0. 0. 3.01659130e-003 0. 0. 0. 0.
      0. 0. 0. 0. 0. 0. 0. 0. 0. 0. 0. 0. 0. 1.50829565e-003
      1.50829565e-003 0. 3.01659130e-003 0. 0. 3.01659130e-003
      3.01659130e-003 0. 0. 0. 0. 0. 0. 0. 0. 1.50829565e-003 0. 0. 0.
      0. 0. 0. 0. 0. 0. 0. 1.50829565e-003 0. 0. 0. 0. 0. 0. 0. 0. 0. 0.
      0. 0. 0. 0. 0. 0. 0. 0. 0. 0. 0. 0. 0. 0. 0. 0. 0. 0. 0. 0. 0. 0.
      0. 0. 0. 0. 0. 0. 0. 0. 0. 1.50829565e-003 1.50829565e-003 0.
      1.50829565e-003 0. 0. 0. 0. 0. 0. 0. 1.50829565e-003 0.
      1.50829565e-003 0. 0. 0. 0. 0. 1.50829565e-003 0. 0. 0. 0. 0. 0.
      0. 0. 0. 0. 0. 0. 0. 0. 0. 0. 0. 0. 0. 0. 0. 0. 0. 0. 0. 0. 0. 0.
      0. 0. 0. 0. 0. 0. 0. 0. 0. 0. 0. 0. 0. 0. 0. 4.52488707e-003 0. 0.
      0. 0. 1.50829565e-003 0. 0. 0. 0. 0. 1.50829565e-003 0. 0. 0. 0.
      0. 1.50829565e-003 0. 0. 0. 0. 0. 0. 0. 0. 0. 0. 0. 0. 0. 0.
      1.50829565e-003 0. 0. 0. 0. 0. 0. 0. 0. 0. 0. 0. 0. 0. 0. 0. 0. 0.
      0. 0. 0. 0. 0. 0. 0. 0. 0. 0. 0. 0. 0. 0. 0. 0. 0. 0.
      3.01659130e-003 0. 0. 0. 0. 1.50829565e-003 0. 0. 0. 0. 0. 0. 0.
      0. 0. 0. 0. 0. 1.50829565e-003 0. 0. 0. 1.50829565e-003
      3.01659130e-003 0. 1.50829565e-003 0. 0. 0. 0. 0. 0. 0.
      7.54147815e-003 0. 0. 1.50829565e-003 0. 0. 0. 0. 0. 0. 0. 0.
      3.01659130e-003 0. 0. 1.50829565e-003 1.50829565e-003 0.
      1.50829565e-003 1.50829565e-003 0. 0. 0. 0. 0. 0. 0. 0.
      1.50829565e-003 0. 0. 0. 4.52488707e-003 3.01659130e-003 0.
      4.52488707e-003 0. 0. 0. 0. 0. 0. 0. 0. 0. 0. 0. 0.
      3.01659130e-003 0. 0. 0. 0. 0. 0. 0. 0. 0. 0. 0. 3.01659130e-003
      0. 0. 0. 0. 0. 0. 0. 0. 0. 0. 0. 0. 0. 0. 0. 0. 0. 0.
      1.50829565e-003 0. 0. 0. 0. 3.01659130e-003 0. 0. 0. 0. 0.
      1.05580697e-002 1.50829565e-003 0. 0. 0. 0. 0. 1.50829565e-003
      7.54147815e-003 0. 0. 0. 0. 0. 0. 1.50829565e-003 0. 0. 0. 0. 0.
      0. 0. 1.50829565e-003 3.01659130e-003 0. 0. 0. 0. 1.50829565e-003
      0. 0. 0. 0. 0. 0. 0. 0. 0. 0. 0. 1.50829565e-003 1.50829565e-003
      3.01659130e-003 1.50829565e-003 0. 0. 0. 0. 9.04977415e-003 0.
      1.50829565e-003 1.50829565e-003 1.50829565e-003 0. 1.50829565e-003
      0. 0. 0. 0. 0. 0. 0. 0. 0. 0. 0. 0. 0. 0. 0. 0. 0. 0. 0. 0. 0. 0.
      1.50829565e-003 0. 0. 1.50829565e-003 1.50829565e-003 0. 0.
      1.50829565e-003 0. 0. 0. 1.50829565e-003 0. 0. 0. 0. 0. 0.
      1.50829565e-003 1.50829565e-003 0. 0. 0. 0. 0. 0. 0. 0. 0. 0.
      1.50829565e-003 0. 0. 0. 1.50829565e-003 0. 0. 7.54147815e-003 0.
      0. 0. 3.01659130e-003 0. 0. 0. 0. 0. 0. 1.50829565e-003 0. 0. 0.
      0. 0. 0. 0. 0. 0. 0. 0. 0. 0. 0. 0. 0. 0. 0. 0. 1.50829565e-003
      3.01659130e-003 0. 0. 1.50829565e-003 0. 0. 0. 0. 0. 0. 0. 0. 0.
      1.50829565e-003 0. 0. 0. 0. 0. 0. 1.50829565e-003 0. 0. 0. 0. 0.
      0. 0. 0. 0. 0. 1.50829565e-003 1.50829565e-003 0. 0.
      1.50829565e-003 0. 0. 0. 0. 0. 0. 0. 0. 0. 1.50829565e-003 0. 0.
      0. 1.50829565e-003 0. 1.50829565e-003 0. 0. 0. 0. 0. 0. 0. 0.
      1.50829565e-003 0. 0. 0. 0. 4.52488707e-003 0. 0. 0. 0. 0.
      1.50829565e-003 0. 0. 0. 1.50829565e-003 0. 0. 0. 0. 0. 0. 0. 0.
      0. 0. 0. 0. 0. 0. 0. 0. 0. 4.52488707e-003 0. 0. 0. 0. 0. 0. 0. 0.
      0. 0. 0. 0. 0. 0. 0. 0. 0. 0. 0. 0. 0. 0. 0. 0. 0. 0.
      1.50829565e-003 0. 0. 0. 0. 0. 4.52488707e-003 0. 0. 0. 0. 0. 0.
      0. 0. 1.50829565e-003 0. 0. 3.01659130e-003 0. 0. 0. 0. 0. 0. 0.
      0. 0. 0. 0. 0. 0. 0. 0. 0. 0. 0. 0. 0. 0. 0. 0. 0. 1.50829565e-003
      0. 0. 0. 7.54147815e-003 1.50829565e-003 0. 0. 0. 0.
      1.50829565e-003 3.01659130e-003 0. 0. 0. 0. 0. 0. 0. 0.
      1.50829565e-003 1.50829565e-003 0. 0. 0. 0. 0. 0. 0. 0. 0. 0. 0.
      0. 3.01659130e-003 0. 0. 0. 0. 0. 0. 0. 0. 0. 0. 0. 0. 0. 0.
      1.50829565e-003 0. 0. 0. 1.50829565e-003 1.50829565e-003 0. 0. 0.
      0. 0. 0. 0. 0. 0. 1.50829565e-003 0. 0. 0. 0. 0. 0.
      3.01659130e-003 0. 0. 0. 1.50829565e-003 0. 0. 1.50829565e-003 0.
      0. 0. 0. 0. 1.50829565e-003 0. 0. 0. 0. 0. 0. 0. 1.50829565e-003
      0. 0. 0. 0. 1.50829565e-003 3.01659130e-003 3.01659130e-003 0. 0.
      0. 0. 3.01659130e-003 0. 1.50829565e-003 0. 0. 0. 0. 0. 0. 0.
      1.50829565e-003 0. 0. 0. 0. 1.50829565e-003 1.50829565e-003 0. 0.
      0. 0. 0. 0. 0. 0. 0. 0. 0. 0. 0. 0. 0. 0. 3.01659130e-003 0. 0. 0.
      3.01659130e-003 0. 0. 0. 0. 0. 0. 0. 0. 0. 0. 0. 0. 0. 0. 0. 0. 0.
      0. 0. 0. 1.50829565e-003 0. 0. 0. 0. 0. 0. 0. 0. 0. 0. 0. 0.
      1.50829565e-003 0. 1.50829565e-003 0. 0. 0. 0. 1.50829565e-003 0.
      0. 1.50829565e-003 0. 1.50829565e-003 3.01659130e-003
      1.50829565e-003 0. 0. 0. 0. 0. 0. 1.50829565e-003 0. 0. 0. 0. 0.
      0. 0. 0. 1.50829565e-003 0. 1.50829565e-003 0. 0. 0. 0. 0. 0.
      1.50829565e-003 0. 0. 0. 0. 0. 0. 0. 0. 0. 0. 0. 0. 0. 0. 0. 0.
      1.50829565e-003 0. 0. 0. 0. 0. 0. 0. 1.50829565e-003 0. 0. 0. 0.
      1.50829565e-003 0. 0. 0. 0. 0. 3.01659130e-003 1.50829565e-003 0.
      0. 0. 0. 0. 0. 0. 0. 0. 0. 0. 0. 0. 0. 0. 0. 0. 0. 0. 0. 0. 0. 0.
      0. 0. 0. 0. 0. 0. 0. 0. 0. 0. 0. 0. 1.50829565e-003 0. 0. 0. 0. 0.
      0. 0. 0. 0. 0. 0. 0. 0. 0. 0. 0. 0. 0. 4.52488707e-003 0. 0. 0.
      1.50829565e-003 0. 0. 0. 0. 0. 0. 0. 0. 0. 0. 0. 0. 0. 0. 0. 0. 0.
      0. 0. 0. 0. 0. 0. 1.50829565e-003 0. 0. 0. 0. 0. 0. 0. 0. 0. 0. 0.
      0. 0. 0. 0. 0. 0. 0. 1.50829565e-003 0. 0. 0. 0. 0. 0. 0. 0. 0. 0.
      0. 0. 0. 0. 0. 0. 0. 0. 0. 0. 0. 0. 0. 0. 0. 0. 0. 0. 0. 0. 0. 0.
      0. 0. 0. 0. 0. 3.01659130e-003 1.50829565e-003 0. 0. 0. 0. 0. 0.
      1.50829565e-003 0. 0. 0. 1.50829565e-003 0. 0. 0. 0. 0.
      3.01659130e-003 0. 0. 0. 0. 0. 0. 0. 0. 0. 0. 0. 0. 0. 0. 0. 0. 0.
      0. 3.01659130e-003 0. 0. 0. 0. 0. 0. 0. 0. 0. 0. 0. 0. 0. 0. 0. 0.
      4.52488707e-003 0. 0. 3.01659130e-003 0. 0. 0. 0. 0. 0.
      4.52488707e-003 0. 0. 0. 0. 0. 1.50829565e-003 0. 4.52488707e-003
      0. 0. 0. 3.01659130e-003 0. 0. 0. 0. 0. 0. 7.54147815e-003 0. 0.
      0. 1.50829565e-003 4.52488707e-003 0. 0. 0. 0. 0. 0. 0. 0. 0. 0.
      0. 0. 0. 1.50829565e-003 0. 1.50829565e-003 0. 0. 0. 0. 0. 0. 0.
      0. 0. 0. 1.50829565e-003 3.01659130e-003 0. 0. 0. 0.
      3.01659130e-003 0. 0. 0. 0. 1.50829565e-003 0. 0. 7.54147815e-003
      0. 0. 0. 0. 0. 0. 0. 0. 0. 0. 0. 0. 0. 0. 0. 0. 0. 1.50829565e-003
      0. 0. 0. 0. 0. 0. 0. 0. 0. 0. 0. 0. 0. 0. 0. 0. 0. 1.50829565e-003
      0. 0. 1.50829565e-003 0. 0. 0. 0. 0. 0. 0. 0. 0. 0. 0. 0. 0. 0. 0.
      0. 0. 0. 0. 0. 0. 0. 0. 0. 0. 3.01659130e-003 3.01659130e-003 0.
      0. 0. 1.50829565e-003 0. 0. 0. 0. 0. 0. 0. 0. 0. 0. 0. 0. 0. 0. 0.
      0. 0. 0. 0. 0. 0. 0. 0. 0. 0. 0. 4.52488707e-003 0. 0.
      3.01659130e-003 0. 0. 0. 0. 0. 0. 0. 0. 0. 0. 0. 0. 0. 0. 0. 0. 0.
      0. 0. 1.50829565e-003 0. 0. 0. 1.50829565e-003 0. 0.
      1.50829565e-003 0. 0. 0. 1.50829565e-003 0. 0. 0. 0. 0. 0. 0. 0.
      0. 0. 1.50829565e-003 0. 0. 1.50829565e-003 0. 0. 7.54147815e-003
      0. 0. 0. 1.50829565e-003 1.50829565e-003 0. 0. 0. 0. 0. 0. 0.
      1.50829565e-003 0. 0. 0. 0. 0. 0. 1.50829565e-003 0. 0. 0. 0. 0.
      0. 0. 0. 0. 1.50829565e-003 0. 0. 0. 0. 0. 0. 0. 0. 0. 0.
      6.03318261e-003 0. 0. 0. 0. 1.50829565e-003 0. 0. 3.01659130e-003
      0. 0. 0. 1.50829565e-003 0. 0. 0. 0. 0. 0. 1.50829565e-003 0. 0.
      0. 0. 0. 0. 0. 0. 0. 0. 1.50829565e-003 0. 0. 0. 3.01659130e-003
      0. 0. 0. 0. 4.52488707e-003 0. 1.50829565e-003 0. 0. 0.
      3.01659130e-003 0. 0. 3.01659130e-003 1.50829565e-003 0. 0. 0.
      1.50829565e-003 0. 0. 0. 1.50829565e-003 0. 0. 1.50829565e-003 0.
      0. 0. 0. 0. 0. 0. 0. 0. 0. 0. 0. 0. 1.50829565e-003 0. 0. 0. 0.
      6.03318261e-003 0. 1.50829565e-003 0. 0. 0. 0. 0. 0. 0. 0. 0.
      1.50829565e-003 1.50829565e-003 1.50829565e-003 0. 0. 0. 0. 0. 0.
      0. 0. 1.50829565e-003 1.50829565e-003 0. 0. 0. 4.52488707e-003 0.
      0. 0. 0. 1.50829565e-003 0. 1.50829565e-003 0. 0. 0.
      1.50829565e-003 0. 0. 0. 0. 0. 0. 0. 0. 0. 0. 0. 0. 0. 0. 0. 0. 0.
      0. 0. 1.50829565e-003 0. 0. 0. 0. 3.01659130e-003 0.
      4.52488707e-003 0. 0. 0. 1.50829565e-003 0. 0. 0. 1.50829565e-003
      0. 0. 0. 0. 0. 3.01659130e-003 0. 0. 0. 0. 0. 0. 0. 0. 0. 0.
      1.50829565e-003 0. 0. 0. 0. 0. 0. 0. 0. 0. 0. 0. 0. 0. 0. 0. 0. 0.
      0. 0. 0. 0. 0. 0. 0. 0. 0. 0. 0. 0. 0. 0. 0. 1.50829565e-003 0. 0.
      0. 0. 0. 0. 0. 0. 0. 0. 0. 9.04977415e-003 0. 0. 0. 0. 0.
      1.50829565e-003 0. 1.50829565e-003 0. 0. 0. 0. 0. 0. 0. 0.
      1.50829565e-003 0. 0. 0. 0. 1.50829565e-003 0. 0. 0. 0. 0. 0. 0.
      0. 0. 0. 0. 1.50829565e-003 1.50829565e-003 0. 0. 0. 0.
      1.50829565e-003 0. 0. 0. 0. 0. 1.50829565e-003 0. 0. 0. 0. 0. 0.
      0. 0. 0. 0.</_>
    <_>
      0. 0. 3.54166687e-001 0. 0. 0. 0. 0. 2.57352944e-002 0. 0. 0. 0.
      0. 0. 0. 0. 1.83823537e-002 0. 0. 0. 0. 0. 0. 0. 0. 0. 0. 0. 0. 0.
      0. 0. 0. 0. 0. 0. 0. 0. 1.22549024e-003 0. 0. 0. 0. 0. 0. 0. 0. 0.
      0. 0. 0. 0. 0. 0. 0. 0. 0. 0. 2.45098048e-003 0. 0. 0. 0. 0. 0. 0.
      0. 0. 0. 0. 0. 0. 0. 0. 0. 0. 0. 0. 0. 0. 1.22549024e-003
      1.22549024e-003 0. 0. 0. 0. 0. 0. 0. 0. 0. 0. 0. 0. 0. 0. 0. 0. 0.
      0. 0. 0. 0. 0. 0. 0. 0. 0. 0. 0. 0. 0. 0. 0. 4.90196096e-003 0. 0.
      0. 0. 0. 0. 0. 0. 0. 1.22549024e-003 0. 0. 0. 6.12745108e-003 0.
      0. 0. 0. 0. 0. 0. 0. 0. 0. 0. 0. 0. 0. 0. 0. 0. 0. 0. 0. 0. 0. 0.
      0. 0. 0. 0. 0. 0. 0. 0. 0. 0. 0. 0. 0. 0. 0. 0. 0. 0. 0. 0. 0. 0.
      0. 0. 0. 0. 0. 0. 0. 0. 0. 0. 0. 0. 0. 0. 1.22549024e-003 0. 0. 0.
      0. 0. 0. 0. 0. 0. 0. 0. 0. 0. 0. 0. 0. 0. 0. 0. 0. 0. 0. 0. 0. 0.
      1.22549024e-003 0. 0. 0. 0. 0. 0. 0. 0. 0. 0. 0. 0. 0. 0. 0.
      1.22549024e-003 0. 0. 0. 0. 0. 0. 0. 0. 0. 0. 0. 0. 0. 0. 0. 0. 0.
      0. 0. 0. 0. 0. 0. 0. 0. 0. 0. 0. 0. 0. 0. 0. 1.22549024e-003 0. 0.
      0. 0. 0. 0. 0. 0. 0. 0. 0. 1.22549024e-003 0. 0. 0. 0. 0. 0. 0. 0.
      0. 0. 0. 0. 0. 0. 0. 1.22549024e-003 0. 0. 0. 0. 0. 0.
      1.22549024e-003 0. 0. 1.22549024e-003 2.45098048e-003 0. 0. 0. 0.
      0. 0. 0. 0. 0. 0. 0. 0. 0. 0. 0. 0. 0. 0. 0. 0. 0. 0. 0. 0. 0. 0.
      0. 0. 0. 0. 0. 0. 0. 0. 0. 0. 0. 0. 0. 0. 0. 0. 0. 2.45098048e-003
      0. 0. 0. 0. 0. 0. 0. 0. 0. 0. 0. 0. 0. 0. 0. 0. 0. 0. 0. 0. 0. 0.
      0. 0. 0. 0. 0. 0. 0. 0. 0. 0. 0. 0. 0. 0. 0. 0. 0. 0. 0. 0. 0. 0.
      4.90196096e-003 0. 0. 0. 0. 0. 0. 0. 0. 0. 0. 0. 0. 0. 0. 0. 0. 0.
      0. 0. 0. 0. 0. 0. 0. 0. 0. 0. 0. 0. 0. 0. 0. 0. 0. 0. 0. 0. 0. 0.
      0. 0. 0. 0. 0. 0. 0. 0. 0. 0. 0. 0. 0. 0. 0. 0. 0. 0. 0. 0. 0. 0.
      0. 0. 0. 0. 0. 0. 0. 0. 2.45098048e-003 0. 0. 0. 0. 0.
      7.35294167e-003 0. 0. 0. 0. 0. 0. 0. 0. 0. 0. 0. 0. 0. 0. 0. 0. 0.
      0. 0. 0. 0. 0. 0. 0. 0. 0. 0. 0. 0. 0. 0. 0. 0. 0. 0. 0. 0. 0. 0.
      0. 0. 0. 0. 0. 0. 0. 0. 0. 0. 0. 0. 0. 0. 0. 0. 0. 4.90196096e-003
      0. 0. 0. 0. 0. 0. 0. 0. 0. 0. 0. 0. 0. 0. 0. 0. 0. 0. 0. 0. 0. 0.
      0. 0. 0. 0. 0. 0. 0. 0. 0. 0. 0. 0. 0. 1.71568636e-002 0. 0. 0. 0.
      0. 0. 0. 0. 0. 0. 0. 0. 0. 0. 0. 0. 0. 0. 0. 0. 0. 0. 0. 0. 0. 0.
      0. 0. 0. 0. 0. 2.45098048e-003 0. 0. 0. 0. 0. 0. 0. 0. 0. 0. 0. 0.
      0. 0. 2.45098048e-003 0. 0. 0. 0. 0. 0. 0. 1.22549024e-003 0. 0.
      0. 0. 0. 0. 0. 0. 0. 0. 0. 0. 0. 0. 0. 0. 0. 0. 0. 0. 0. 0. 0. 0.
      2.45098048e-003 0. 0. 0. 0. 0. 0. 0. 0. 0. 0. 0. 0. 0. 0. 0. 0. 0.
      0. 0. 0. 0. 0. 0. 0. 0. 0. 0. 0. 1.22549024e-003 0. 0. 0. 0. 0. 0.
      0. 0. 0. 0. 0. 0. 0. 0. 0. 0. 0. 0. 0. 0. 0. 0. 0. 0. 0. 0. 0. 0.
      0. 0. 0. 0. 0. 0. 0. 0. 0. 0. 0. 0. 0. 0. 0. 0. 1.22549024e-003 0.
      0. 0. 0. 0. 0. 0. 0. 0. 0. 0. 0. 0. 0. 0. 0. 0. 0. 0. 0. 0. 0. 0.
      0. 0. 0. 0. 0. 4.90196096e-003 0. 0. 0. 0. 0. 0. 0. 0. 0. 0. 0. 0.
      1.22549024e-003 0. 0. 0. 0. 0. 0. 0. 0. 0. 0. 0. 0. 0. 0. 0. 0. 0.
      0. 0. 0. 0. 0. 0. 0. 0. 0. 0. 0. 0. 0. 0. 0. 0. 0. 0. 0. 0. 0. 0.
      0. 0. 0. 0. 0. 0. 0. 0. 0. 0. 0. 0. 0. 0. 0. 0. 0. 0. 0. 0. 0. 0.
      0. 0. 2.45098048e-003 0. 0. 0. 0. 0. 0. 0. 0. 0. 0. 0. 0.
      1.83823537e-002 0. 0. 0. 0. 0. 0. 0. 0. 0. 0. 3.92156877e-002 0.
      0. 0. 0. 0. 0. 0. 0. 0. 0. 0. 0. 0. 0. 0. 0. 0. 0. 0. 0. 0. 0. 0.
      0. 0. 0. 0. 0. 0. 0. 0. 0. 0. 0. 0. 0. 0. 0. 0. 0. 0. 0. 0. 0. 0.
      0. 0. 0. 0. 0. 0. 0. 0. 0. 0. 0. 0. 0. 0. 0. 0. 0. 0. 0. 0. 0. 0.
      0. 0. 0. 0. 0. 0. 0. 0. 0. 0. 0. 0. 0. 0. 0. 0. 0. 0. 0. 0. 0. 0.
      0. 0. 0. 0. 0. 0. 0. 0. 0. 0. 0. 0. 0. 0. 0. 0. 0. 1.22549024e-003
      0. 0. 0. 0. 0. 0. 0. 0. 0. 0. 0. 0. 0. 0. 0. 0. 2.45098048e-003 0.
      0. 0. 0. 0. 0. 0. 0. 0. 0. 0. 0. 2.45098048e-003 0. 0. 0. 0. 0. 0.
      0. 0. 0. 0. 1.22549024e-003 0. 0. 0. 0. 0. 0. 0. 0. 0. 0. 0.
      1.22549024e-003 0. 3.67647083e-003 0. 0. 0. 0. 3.67647083e-003 0.
      0. 0. 0. 0. 0. 0. 0. 0. 0. 0. 0. 1.22549024e-003 0. 0. 0. 0. 0. 0.
      0. 0. 0. 0. 0. 0. 0. 0. 0. 0. 3.67647083e-003 0. 0. 0. 0.
      1.22549024e-003 0. 0. 0. 0. 0. 6.12745108e-003 1.22549024e-003 0.
      0. 0. 0. 0. 0. 0. 0. 0. 0. 1.22549024e-003 0. 0. 0. 0. 0. 0. 0. 0.
      0. 0. 0. 0. 1.22549024e-003 0. 0. 0. 0. 0. 0. 0. 0. 0. 0. 0. 0. 0.
      0. 0. 1.22549024e-003 0. 0. 0. 0. 2.45098048e-003 0. 0. 0. 0. 0.
      0. 0. 0. 0. 0. 0. 0. 0. 0. 0. 0. 0. 0. 0. 0. 0. 1.22549024e-003 0.
      0. 0. 0. 0. 0. 0. 0. 0. 0. 0. 0. 0. 0. 0. 0. 0. 0. 0. 0. 0. 0. 0.
      0. 0. 3.67647083e-003 0. 0. 0. 0. 0. 0. 0. 0. 0. 0. 0. 0. 0. 0. 0.
      0. 0. 0. 0. 0. 0. 0. 0. 0. 0. 0. 0. 0. 0. 0. 0. 0. 0. 0. 0.
      2.45098048e-003 0. 0. 0. 0. 0. 0. 0. 0. 0. 0. 0. 0. 0. 0. 0. 0. 0.
      0. 0. 0. 0. 0. 0. 0. 0. 0. 0. 0. 0. 0. 1.22549024e-003 0. 0. 0. 0.
      0. 0. 0. 0. 0. 0. 0. 0. 0. 0. 0. 2.45098048e-003 3.67647083e-003
      0. 0. 0. 0. 0. 0. 0. 0. 0. 0. 0. 0. 0. 0. 0. 0. 0. 0. 0. 0. 0. 0.
      0. 0. 0. 0. 0. 0. 0. 0. 0. 0. 0. 0. 0. 0. 2.45098048e-003 0. 0. 0.
      0. 0. 0. 0. 0. 0. 0. 0. 0. 0. 0. 0. 0. 0. 0. 0. 0. 0. 0. 0. 0. 0.
      0. 0. 0. 0. 0. 0. 0. 0. 0. 0. 0. 0. 0. 0. 0. 0. 0. 0. 0. 0. 0. 0.
      0. 0. 0. 0. 1.22549024e-003 0. 2.45098048e-003 0. 0. 0. 0. 0. 0.
      0. 1.22549024e-003 0. 0. 0. 0. 0. 0. 2.45098048e-003 0. 0. 0. 0.
      2.45098048e-003 0. 0. 0. 0. 0. 0. 0. 0. 0. 0. 0. 0. 0. 0. 0.
      1.22549024e-003 0. 0. 0. 0. 0. 0. 0. 0. 0. 0. 0. 0. 0. 0. 0. 0. 0.
      0. 0. 0. 0. 0. 0. 0. 0. 0. 0. 0. 0. 0. 0. 0. 0. 0. 0. 0. 0. 0. 0.
      0. 0. 0. 0. 0. 0. 0. 0. 0. 0. 0. 0. 0. 0. 0. 0. 0. 0. 0. 0. 0. 0.
      0. 0. 0. 0. 0. 0. 0. 0. 0. 0. 0. 0. 1.22549024e-003 0. 0. 0. 0. 0.
      0. 0. 0. 0. 0. 0. 3.67647083e-003 0. 0. 0. 0. 0. 0. 0. 0. 0.
      7.35294167e-003 0. 0. 0. 0. 0. 0. 0. 0. 0. 0. 0. 0. 0. 0. 0. 0. 0.
      0. 2.45098048e-003 0. 0. 0. 0. 0. 0. 0. 0. 0. 0. 0. 0. 0. 0. 0. 0.
      0. 0. 1.22549024e-003 0. 0. 0. 0. 0. 0. 0. 0. 0. 0. 0. 0. 0. 0. 0.
      0. 0. 0. 0. 0. 0. 0. 0. 0. 0. 0. 0. 0. 0. 0. 0. 0. 0. 0. 0. 0. 0.
      0. 0. 0. 0. 0. 0. 0. 0. 0. 0. 0. 0. 0. 0. 0. 1.22549024e-003 0. 0.
      0. 0. 0. 0. 0. 0. 0. 0. 0. 0. 0. 0. 0. 0. 0. 0. 0. 0. 0. 0. 0.
      1.22549024e-003 0. 0. 0. 2.45098048e-003 0. 0. 0. 1.10294120e-002
      0. 0. 0. 0. 0. 0. 0. 0. 0. 0. 0. 0. 0. 0. 0. 0. 0. 0. 0. 0. 0. 0.
      0. 0. 0. 0. 0. 0. 0. 0. 0. 0. 0. 0. 0. 0. 0. 0. 0. 0. 0. 0. 0. 0.
      0. 0. 0. 0. 0. 0. 0. 1.22549024e-003 0. 0. 0. 0. 0. 0. 0. 0. 0. 0.
      0. 0. 0. 0. 0. 0. 0. 0. 3.67647083e-003 0. 0. 0. 0. 0. 0. 0. 0. 0.
      0. 0. 0. 0. 0. 0. 0. 0. 0. 0. 0. 0. 0. 0. 0. 0. 0. 0. 0. 0. 0. 0.
      0. 0. 0. 0. 0. 0. 0. 0. 0. 0. 0. 0. 0. 0. 0. 0. 0. 0. 0. 0. 0. 0.
      0. 0. 0. 0. 0. 0. 0. 0. 1.22549024e-003 0. 0. 0. 0. 0. 0. 0. 0. 0.
      0. 0. 0. 0. 0. 0. 0. 0. 0. 0. 0. 0. 0. 0. 0. 0. 0. 0. 0. 0. 0.
      1.22549024e-003 0. 0. 0. 0. 0. 0. 1.96078438e-002 0. 0. 0. 0. 0.
      0. 0. 0. 0. 0. 0. 0. 0. 0. 0. 0. 0. 0. 3.67647083e-003 0. 0. 0. 0.
      0. 0. 0. 0. 0. 0. 0. 0. 0. 0. 0. 0. 0. 0. 0. 0. 0. 0. 0. 0. 0. 0.
      0. 0. 0. 0. 0. 0. 0. 0. 0. 0. 0. 0. 1.22549024e-003 0. 0. 0. 0. 0.
      0. 0. 0. 0. 0. 0. 0. 0. 0. 0. 0. 0. 0. 0. 0. 0. 0. 0. 0. 0. 0. 0.
      0. 0. 0. 0. 0. 0. 0. 0. 0. 0. 0. 0. 0. 0. 0. 0. 0. 0. 0. 0. 0. 0.
      0. 0. 0. 2.45098048e-003 0. 0. 0. 0. 0. 0. 0. 0. 1.22549024e-003
      0. 0. 0. 0. 0. 0. 0. 0. 0. 0. 0. 0. 0. 0. 0. 0. 0. 0. 0. 0. 0. 0.
      0. 0. 0. 0. 0. 0. 0. 0. 0. 0. 0. 0. 0. 0. 0. 0. 0. 0. 0. 0. 0. 0.
      0. 0. 0. 0. 0. 0. 0. 0. 0. 0. 0. 0. 0. 0. 0. 0. 0. 0. 0. 0. 0. 0.
      0. 0. 0. 0. 0. 0. 0. 1.22549024e-003 7.35294167e-003 0. 0. 0. 0.
      0. 0. 0. 0. 0. 0. 0. 0. 0. 0. 0. 0. 0. 0. 0. 0. 0. 0. 0. 0. 0. 0.
      0. 0. 0. 0. 0. 0. 0. 0. 0. 0. 0. 0. 0. 0. 0. 6.74019605e-002 0. 0.
      0. 0. 0. 0. 0. 0. 0. 0. 0. 0. 0. 0. 0. 0. 0. 0. 0. 0. 0. 0. 0. 0.
      0. 0. 0. 0. 0. 0. 0. 0. 4.90196096e-003 0. 0. 0. 0. 0. 0. 0. 0. 0.
      0. 0. 0. 0. 0. 0. 0. 0. 0. 0. 0. 0. 0. 0. 0. 0. 0. 0. 0. 0.
      2.45098048e-003 0. 0. 0. 0. 0. 0. 0. 0. 0. 0. 0. 0. 0. 0. 0. 0. 0.
      0. 0. 0. 0. 0. 0. 0. 0. 0. 0. 0. 0. 0. 0. 0. 0. 0. 0.
      1.34803923e-002 0. 0. 0. 0. 0. 0. 0. 0. 0. 0. 0. 0. 0. 0. 0. 0.
      1.96078438e-002 1.22549024e-003 0. 0. 0. 0. 0. 0. 0. 0. 0. 0. 0.
      0. 0. 0. 0. 0. 0. 2.45098048e-003 0. 0. 0. 0. 0. 0. 0.
      3.67647083e-003 0. 0. 0. 0. 0. 0. 0. 0. 0. 0. 0. 1.22549024e-003
      0. 0. 0. 0. 0. 0. 0. 0. 1.22549024e-003 0. 0. 0. 6.12745108e-003
      0. 1.22549024e-003 0. 0. 0. 0. 0. 0. 0. 0. 0. 0. 0. 0. 0. 0. 0. 0.
      0. 0. 0. 0. 0. 0. 0. 2.45098048e-003 0. 0. 0. 0. 0. 0.
      1.22549024e-003 0. 0. 0. 0. 0. 0. 0. 0. 0. 0. 0. 0. 0. 0. 0. 0.
      2.45098048e-003 0. 0. 0. 0. 0. 0. 2.45098048e-003 0. 0. 0. 0. 0.
      0. 0. 0. 0. 0. 0. 0. 0. 0. 0. 0. 0. 0. 0. 0. 0. 0. 0. 0. 0. 0. 0.
      0. 0. 0. 0. 0. 0. 0. 0. 0. 0. 0. 0. 0. 0. 0. 0. 0. 0. 0. 0. 0.
      1.22549024e-003 0. 0. 0. 0. 0. 0. 0. 0. 0. 0. 0. 0. 0. 0. 0. 0. 0.
      0. 0. 0. 0. 0. 0. 0. 1.22549022e-002 0. 0. 0. 0. 0. 0. 0. 0. 0. 0.
      0. 0. 0. 0. 0. 0. 0. 0. 0. 0. 0. 0. 0. 0. 0. 0. 0. 0. 0. 0. 0. 0.
      0. 0. 0. 0. 0. 0. 0. 0. 0. 0. 0. 0. 0. 0. 0. 0. 0. 0. 0. 0. 0. 0.
      0. 0. 0. 0. 0. 0. 0. 0. 0. 0. 0. 0. 0. 0. 0. 0. 0. 0. 0. 0. 0. 0.
      0. 0. 0. 0. 0. 0. 0. 1.22549024e-003 0. 0. 0. 0. 0.
      1.47058833e-002 0. 0. 0. 0. 0. 1.22549024e-003 4.90196096e-003 0.
      0. 0. 0. 0. 0. 0. 0. 0. 0. 0. 0. 0. 0. 0. 0. 0. 0. 0. 0. 0. 0. 0.
      0. 0. 0. 0. 0. 0. 0. 0. 0. 0. 0. 0. 0. 0. 0. 0. 0. 0. 0. 0. 0. 0.
      0. 0. 0. 0. 0. 0. 0. 0. 0. 0. 0. 0. 0. 0. 0. 0. 0. 0. 0. 0. 0. 0.
      0. 0. 0. 0. 0. 0. 0. 0. 0. 0. 0. 0. 0. 0. 0. 0. 0. 0. 0. 0. 0. 0.
      0. 0. 0. 0. 0. 0. 0. 0. 0. 0. 0. 0. 0. 0. 0. 0. 0. 0. 0. 0. 0. 0.
      0. 0. 0. 0. 0. 0. 0. 0. 0. 0. 0. 0. 0. 0. 0. 0. 0. 0. 0. 0. 0. 0.
      0. 0. 0. 0. 0. 0. 0. 0. 0. 0. 0. 0. 0. 0. 0. 0. 0. 0. 0. 0. 0. 0.
      0. 0. 0. 0. 0. 0. 0. 0. 0. 0. 0. 0. 0. 0. 0. 0. 0. 0. 0. 0. 0. 0.
      0. 0. 0. 0. 0. 0. 0. 0. 0. 0. 0. 0. 0. 0. 0. 0. 0. 0. 0. 0. 0. 0.
      1.71568636e-002 0. 0. 0. 1.22549024e-003 0. 0. 0. 0. 0. 0. 0. 0.
      0. 0. 0. 0. 0. 2.45098048e-003 0. 0. 0. 0. 0. 0. 0. 0. 0. 0. 0. 0.
      0. 0. 0. 0. 0. 1.59313735e-002 1.10294120e-002 0. 0. 0. 0. 0. 0.
      0. 0. 0. 0. 0. 0. 0. 0. 0. 0. 0. 0. 0. 0. 0. 0. 0. 0. 0. 0. 0. 0.
      0. 0. 0. 0. 0. 0. 0. 0. 1.22549024e-003 0. 0. 0. 0. 0. 0. 0. 0. 0.
      0. 0. 0. 0. 0. 0. 0. 0. 0. 0. 0. 0. 0. 0. 0. 0. 0. 0. 0. 0. 0. 0.
      0. 0. 0. 0. 0. 0. 0. 0. 0. 0. 0. 0. 0. 0. 0. 0. 0. 0. 0. 0. 0. 0.
      0. 0. 0. 0. 0. 0. 0. 0. 0. 1.22549024e-003 0. 0. 0. 0. 0. 0. 0. 0.
      0. 0. 0. 0. 0. 0. 0. 0. 0. 0. 0. 0. 0. 0. 0. 0. 0. 0. 0. 0.
      2.45098048e-003 0. 1.22549024e-003 3.92156877e-002 0. 0. 0. 0. 0.
      0. 0. 0. 0. 0. 0. 0. 0. 0. 0. 0. 0. 0. 0. 0. 0. 0. 0. 0. 0. 0. 0.
      0. 0. 0. 0. 0. 0. 0. 0. 0. 0. 0. 0. 0. 0. 0. 0. 0. 1.22549024e-003
      0. 0. 0. 0. 0. 0. 0. 0. 0. 0. 0. 0. 0. 0. 0. 0. 0. 0. 0. 0. 0. 0.
      0. 3.06372568e-002 0. 2.45098048e-003 0. 0. 0. 0. 0. 0. 0. 0.
      2.45098048e-003 0. 0. 0. 0. 0. 0. 0. 0. 0. 0. 0. 0. 0. 0. 0. 0. 0.
      0. 0. 0. 0. 0. 0. 0. 0. 0. 0. 0. 0. 0. 0. 0. 0. 0. 0. 0. 0. 0. 0.
      0. 0. 1.22549024e-003 0. 0. 0. 0. 0. 0. 0. 0. 0. 0. 0. 0. 0. 0. 0.
      0. 0. 0. 0. 0. 0. 0. 0. 0. 0. 0. 0. 0. 0. 0. 0. 0. 0. 0. 0. 0. 0.
      0. 0. 0. 0. 0. 0. 0. 1.22549024e-003 0. 0. 0. 8.57843179e-003 0.
      0. 0. 0. 0. 0. 0. 0. 0. 0. 0. 0. 0. 2.45098048e-003 0. 0. 0. 0. 0.
      0. 0. 0. 0. 0. 0. 0. 0. 0. 0. 0. 0. 0. 0. 0. 0. 2.45098048e-003 0.
      0. 0. 0. 0. 0. 0. 0. 0. 0. 0. 0. 0. 0. 0. 0. 0. 0. 0. 0. 0. 0. 0.
      0. 0. 0. 0. 0. 0. 0. 0. 0. 0. 0. 0. 0. 0. 0. 0. 0. 0. 0.</_>
    <_>
      0. 0. 2.77777761e-001 0. 0. 0. 0. 0. 0. 0. 0. 0. 0. 0. 0. 0. 0. 0.
      0. 0. 0. 0. 0. 0. 0. 1.68350164e-003 0. 0. 0. 1.68350164e-003 0.
      0. 0. 0. 0. 0. 0. 0. 0. 0. 0. 0. 0. 1.68350164e-003 0. 0. 0. 0. 0.
      0. 0. 0. 0. 0. 0. 0. 0. 0. 5.05050505e-003 0. 0. 0. 0. 0. 0. 0. 0.
      0. 0. 0. 0. 0. 0. 0. 0. 0. 0. 0. 0. 0. 0. 0. 0. 0. 1.68350164e-003
      0. 0. 0. 0. 0. 0. 0. 0. 0. 0. 0. 0. 0. 0. 0. 0. 0. 0. 0. 0. 0. 0.
      0. 0. 0. 0. 0. 0. 0. 0. 0. 0. 0. 0. 0. 0. 0. 0. 0. 0. 0. 0. 0. 0.
      0. 0. 0. 0. 0. 0. 0. 0. 0. 0. 0. 0. 1.68350164e-003 0. 0. 0. 0. 0.
      0. 0. 0. 0. 0. 0. 0. 0. 0. 0. 0. 0. 0. 0. 0. 0. 0. 0. 0. 0. 0.
      1.68350164e-003 0. 0. 0. 0. 3.36700329e-003 0. 0. 0. 0. 0. 0. 0.
      0. 0. 0. 0. 0. 0. 0. 5.05050505e-003 0. 0. 0. 0. 0. 0. 0.
      1.68350164e-003 0. 0. 0. 0. 0. 0. 0. 0. 5.05050505e-003 0. 0. 0.
      0. 0. 0. 0. 1.68350164e-003 0. 0. 0. 0. 0. 0. 0. 0. 0. 0. 0. 0. 0.
      0. 0. 0. 0. 0. 0. 0. 0. 0. 0. 0. 0. 0. 0. 0. 0. 0. 0. 0. 0. 0. 0.
      0. 0. 0. 0. 0. 0. 0. 0. 0. 0. 0. 0. 0. 0. 0. 0. 0. 0. 0. 0. 0.
      3.36700329e-003 0. 0. 0. 0. 1.68350164e-003 1.68350164e-003 0. 0.
      0. 0. 0. 0. 0. 0. 0. 0. 0. 0. 0. 0. 1.68350164e-003 0. 0. 0. 0. 0.
      0. 0. 0. 0. 0. 0. 0. 0. 1.68350164e-003 0. 0. 0. 0.
      1.68350164e-003 0. 0. 0. 0. 0. 0. 0. 0. 0. 0. 1.68350164e-003 0.
      0. 0. 0. 1.68350164e-003 0. 0. 0. 0. 0. 0. 0. 0. 3.36700329e-003
      0. 0. 0. 0. 0. 0. 0. 0. 0. 0. 0. 0. 0. 0. 0. 0. 0. 0. 0. 0. 0.
      1.68350164e-003 0. 1.68350164e-003 0. 0. 0. 0. 0. 0. 0. 0. 0. 0.
      3.36700329e-003 0. 0. 0. 0. 0. 0. 0. 0. 0. 0. 0. 6.73400657e-003
      0. 0. 0. 0. 0. 0. 0. 0. 0. 0. 0. 0. 0. 0. 0. 0. 1.68350164e-003 0.
      0. 0. 0. 0. 0. 1.68350164e-003 0. 1.68350164e-003 3.36700329e-003
      0. 0. 0. 0. 0. 0. 3.36700329e-003 0. 0. 0. 0. 0. 0. 0. 0. 0. 0. 0.
      0. 0. 0. 3.36700329e-003 0. 0. 0. 0. 0. 0. 0. 0. 0. 0. 0. 0. 0. 0.
      0. 0. 3.36700329e-003 0. 0. 0. 0. 0. 0. 0. 0. 0. 1.68350164e-003
      0. 0. 0. 0. 0. 0. 0. 0. 0. 0. 0. 0. 0. 0. 0. 0. 0. 0. 0. 0. 0. 0.
      0. 0. 0. 0. 0. 0. 0. 0. 0. 0. 0. 0. 0. 0. 0. 0. 0. 0. 0. 0. 0. 0.
      0. 0. 0. 0. 0. 0. 0. 0. 0. 0. 0. 0. 0. 0. 1.68350164e-003 0. 0. 0.
      0. 6.73400657e-003 0. 0. 5.05050505e-003 0. 0. 0. 0. 0. 0. 0. 0.
      0. 0. 0. 0. 0. 5.05050505e-003 0. 0. 0. 0. 0. 0. 0. 0. 0. 0. 0. 0.
      1.68350164e-003 0. 8.41750856e-003 0. 0. 0. 0. 0. 1.68350164e-003
      3.36700329e-003 0. 0. 0. 0. 0. 0. 0. 0. 0. 0. 0. 5.05050505e-003
      0. 0. 0. 3.36700329e-003 0. 0. 0. 1.68350164e-003 0. 0. 0. 0. 0.
      0. 0. 0. 0. 0. 0. 1.68350164e-003 0. 0. 0. 0. 0. 0. 0.
      1.68350164e-003 0. 0. 0. 0. 0. 0. 3.36700329e-003 0. 0. 0. 0. 0.
      0. 0. 0. 0. 0. 0. 0. 0. 0. 0. 1.68350164e-003 2.02020202e-002
      1.68350164e-003 0. 0. 0. 0. 5.05050505e-003 0. 0. 0. 0. 0. 0. 0.
      0. 0. 1.68350164e-003 0. 0. 0. 0. 0. 0. 0. 0. 0. 0. 0. 0. 0. 0. 0.
      1.68350164e-003 0. 0. 0. 0. 0. 0. 0. 0. 0. 0. 5.05050505e-003 0.
      0. 0. 0. 0. 0. 0. 0. 0. 0. 0. 1.68350164e-003 0. 0. 0. 0. 0. 0. 0.
      0. 0. 0. 0. 0. 0. 0. 0. 0. 0. 0. 0. 3.36700329e-003 0.
      3.36700329e-003 0. 0. 0. 5.05050505e-003 0. 0. 0. 0. 0. 0. 0. 0.
      5.05050505e-003 0. 0. 0. 0. 0. 0. 0. 0. 0. 0. 0. 0. 0. 0. 0. 0.
      3.36700329e-003 0. 0. 0. 0. 0. 0. 0. 0. 0. 0. 0. 3.36700329e-003
      0. 0. 6.73400657e-003 0. 3.36700329e-003 1.68350164e-003 0. 0. 0.
      0. 0. 0. 0. 0. 6.73400657e-003 0. 0. 0. 0. 0. 0. 0. 0. 0. 0. 0.
      1.68350164e-003 0. 0. 0. 0. 0. 0. 0. 1.68350164e-003 0. 0. 0. 0.
      0. 0. 0. 0. 0. 0. 0. 0. 0. 0. 0. 0. 0. 0. 0. 0. 0. 0.
      1.68350164e-003 0. 0. 0. 0. 0. 0. 0. 0. 0. 1.01010101e-002 0. 0.
      0. 0. 0. 1.68350164e-003 0. 0. 1.68350164e-003 0. 0. 0. 0. 0. 0.
      0. 0. 0. 0. 0. 0. 0. 0. 0. 0. 0. 0. 0. 0. 0. 0. 0. 0. 0. 0. 0. 0.
      0. 3.36700329e-003 0. 0. 0. 0. 5.05050505e-003 0. 0. 0. 0. 0. 0.
      0. 3.36700329e-003 0. 0. 0. 0. 0. 0. 0. 0. 0. 0. 0. 0. 0. 0. 0.
      1.01010101e-002 0. 0. 0. 0. 0. 0. 0. 0. 0. 0. 0. 0. 0. 0. 0. 0. 0.
      0. 0. 0. 0. 0. 0. 0. 1.68350164e-003 0. 0. 0. 0. 0.
      1.68350164e-003 0. 0. 0. 0. 0. 0. 0. 0. 0. 0. 0. 0. 0. 0. 0. 0. 0.
      0. 0. 0. 0. 0. 0. 0. 0. 0. 0. 0. 0. 0. 0. 0. 0. 0. 1.68350164e-003
      0. 0. 0. 0. 0. 1.68350164e-003 0. 0. 0. 0. 0. 0. 0. 0. 0. 0. 0. 0.
      0. 0. 0. 0. 0. 0. 0. 0. 0. 0. 0. 0. 0. 0. 0. 0. 0. 0. 0. 0. 0. 0.
      0. 0. 0. 0. 0. 0. 0. 0. 0. 0. 0. 0. 0. 0. 1.68350164e-003 0. 0. 0.
      0. 0. 0. 0. 0. 0. 0. 0. 0. 0. 0. 0. 0. 0. 0. 0. 0. 0. 0. 0. 0. 0.
      0. 0. 0. 0. 0. 0. 0. 0. 0. 0. 0. 0. 1.68350164e-003 0. 0. 0. 0. 0.
      0. 0. 0. 0. 0. 0. 0. 0. 6.73400657e-003 0. 0. 0. 0. 0. 0. 0. 0. 0.
      0. 0. 0. 0. 0. 0. 0. 0. 0. 0. 0. 0. 0. 0. 0. 3.36700329e-003 0. 0.
      0. 0. 0. 0. 0. 0. 0. 0. 0. 0. 0. 0. 0. 1.68350164e-003 0. 0. 0. 0.
      0. 5.05050505e-003 0. 0. 0. 0. 0. 0. 0. 0. 0. 0. 0. 0. 0. 0. 0. 0.
      0. 0. 0. 0. 0. 0. 0. 0. 0. 0. 0. 0. 0. 0. 0. 0. 0. 0. 0.
      6.73400657e-003 0. 0. 0. 0. 0. 0. 0. 0. 0. 0. 0. 0. 0. 0. 0. 0. 0.
      0. 0. 0. 0. 0. 0. 0. 0. 0. 0. 0. 0. 0. 0. 1.68350164e-003 0. 0. 0.
      0. 0. 0. 0. 0. 0. 0. 0. 0. 0. 0. 0. 0. 0. 0. 0. 0. 0. 0. 0. 0.
      3.36700329e-003 0. 0. 0. 0. 0. 0. 0. 0. 0. 0. 0. 0. 0. 0. 0. 0. 0.
      0. 0. 0. 0. 0. 0. 0. 0. 0. 0. 0. 0. 0. 0. 0. 0. 0. 0. 0.
      3.36700329e-003 1.68350164e-003 0. 0. 0. 0. 0. 0. 5.05050505e-003
      0. 0. 0. 0. 0. 0. 0. 0. 0. 0. 0. 0. 0. 0. 0. 0. 0. 0. 0. 0. 0. 0.
      0. 0. 0. 0. 0. 0. 0. 0. 0. 0. 0. 0. 0. 0. 0. 0. 0. 1.68350164e-003
      0. 0. 0. 0. 0. 0. 0. 0. 0. 0. 0. 0. 0. 0. 0. 0. 0. 0. 0. 0. 0. 0.
      1.68350164e-003 0. 0. 0. 0. 0. 0. 0. 1.68350164e-003 0. 0. 0. 0.
      0. 0. 0. 0. 0. 0. 0. 0. 0. 0. 0. 0. 0. 3.36700329e-003 0. 0. 0.
      3.36700329e-003 0. 0. 0. 0. 0. 0. 0. 0. 0. 0. 0. 1.68350164e-003
      0. 0. 0. 0. 0. 0. 0. 0. 0. 0. 0. 0. 0. 0. 1.68350164e-003 0. 0. 0.
      0. 0. 0. 0. 0. 0. 0. 0. 0. 0. 6.73400657e-003 0. 5.05050505e-003
      0. 0. 0. 0. 0. 0. 0. 0. 0. 0. 0. 0. 0. 0. 0. 0. 0. 0. 0. 0. 0. 0.
      0. 0. 0. 0. 0. 0. 0. 0. 0. 0. 0. 1.68350164e-003 0. 0. 0. 0. 0.
      1.68350164e-003 0. 0. 0. 1.68350164e-003 1.68350164e-003 0.
      1.34680131e-002 0. 0. 0. 0. 0. 0. 0. 0. 0. 0. 3.36700329e-003 0.
      0. 0. 0. 0. 0. 0. 0. 0. 0. 0. 5.05050505e-003 0. 0. 0. 0. 0. 0. 0.
      0. 0. 0. 0. 0. 0. 0. 5.05050505e-003 0. 0. 0. 0. 0. 0. 0. 0. 0. 0.
      0. 0. 0. 0. 0. 3.36700329e-003 0. 0. 0. 0. 0. 0. 0. 0. 0.
      1.68350164e-003 0. 0. 5.05050505e-003 0. 0. 0. 0. 0. 0. 0. 0. 0.
      0. 0. 0. 0. 0. 0. 0. 0. 0. 0. 0. 0. 0. 0. 0. 0. 0. 1.68350164e-003
      0. 0. 0. 0. 0. 0. 0. 0. 0. 0. 0. 0. 0. 0. 0. 0. 0. 0. 0. 0. 0.
      1.68350164e-003 0. 0. 0. 3.36700329e-003 0. 0. 0. 0. 0. 0. 0.
      1.68350164e-003 0. 1.68350164e-003 8.41750856e-003 0. 0. 0. 0. 0.
      0. 0. 0. 0. 0. 0. 0. 0. 0. 0. 0. 1.68350164e-003 0. 0. 0. 0. 0. 0.
      0. 0. 0. 0. 0. 0. 0. 0. 0. 0. 0. 0. 0. 0. 0. 0. 0. 0. 0. 0. 0. 0.
      0. 1.68350164e-003 0. 0. 0. 0. 0. 0. 0. 0. 0. 0. 0. 0. 0. 0. 0. 0.
      0. 0. 0. 0. 0. 0. 0. 0. 0. 0. 0. 0. 0. 0. 0. 0. 0. 0. 0. 0. 0. 0.
      0. 0. 0. 0. 0. 0. 0. 0. 0. 0. 0. 0. 0. 0. 0. 0. 0. 0. 0. 0. 0. 0.
      0. 0. 0. 1.68350164e-003 1.68350164e-003 0. 0. 0. 0. 0. 0. 0. 0.
      0. 0. 0. 0. 0. 0. 0. 0. 0. 0. 0. 0. 0. 0. 0. 0. 0. 5.05050505e-003
      0. 0. 0. 0. 0. 0. 0. 0. 0. 0. 0. 0. 0. 0. 0. 0. 0. 0. 0. 0. 0. 0.
      1.68350164e-003 0. 0. 0. 0. 0. 0. 0. 0. 0. 1.68350164e-003 0. 0.
      0. 0. 0. 0. 1.68350164e-003 0. 0. 0. 0. 0. 0. 0. 0. 0. 0.
      1.68350164e-003 0. 0. 0. 0. 0. 0. 1.68350164e-003 0. 0. 0. 0. 0.
      0. 0. 0. 0. 0. 0. 0. 0. 0. 0. 0. 0. 0. 3.36700329e-003 0.
      1.68350164e-003 0. 0. 0. 0. 0. 0. 0. 0. 0. 0. 0. 0. 0. 0. 0. 0. 0.
      0. 0. 0. 0. 0. 0. 0. 0. 0. 5.05050505e-003 0. 0. 0. 0. 0. 0. 0. 0.
      0. 0. 0. 0. 0. 3.36700329e-003 0. 0. 0. 0. 0. 0. 5.05050505e-003
      0. 0. 0. 0. 0. 0. 0. 2.35690232e-002 0. 0. 0. 0. 0. 0. 0.
      1.68350164e-003 0. 0. 0. 0. 0. 0. 1.68350164e-003 0. 0. 0. 0. 0.
      0. 0. 0. 0. 0. 1.68350164e-003 0. 0. 0. 0. 0. 0. 0.
      1.68350164e-003 0. 0. 0. 0. 0. 0. 0. 0. 0. 0. 0. 0. 0. 0.
      1.68350164e-003 0. 0. 0. 0. 0. 1.68350164e-003 0. 0. 0. 0. 0. 0.
      0. 0. 0. 0. 0. 0. 0. 0. 0. 0. 0. 0. 0. 0. 0. 0. 0. 0. 0. 0.
      1.68350164e-003 0. 0. 0. 5.05050505e-003 1.68350164e-003 0. 0. 0.
      0. 0. 0. 0. 0. 0. 0. 0. 0. 0. 0. 0. 0. 0. 0. 0. 0. 0. 0. 0. 0. 0.
      0. 0. 0. 0. 0. 0. 0. 0. 0. 0. 0. 0. 0. 0. 0. 0. 0. 0. 0. 0.
      1.68350164e-003 0. 0. 0. 0. 0. 0. 0. 0. 0. 0. 0. 0. 0. 0. 0. 0. 0.
      0. 0. 0. 0. 0. 0. 0. 0. 0. 0. 0. 0. 0. 0. 0. 0. 0. 0. 0. 0. 0. 0.
      0. 0. 0. 3.36700329e-003 0. 6.73400657e-003 0. 0. 8.41750856e-003
      0. 0. 0. 1.68350164e-003 0. 0. 0. 0. 1.68350164e-003 0. 0. 0. 0.
      0. 0. 0. 0. 0. 0. 0. 0. 0. 0. 0. 0. 0. 0. 0. 0. 0. 0. 0. 0. 0. 0.
      0. 0. 0. 0. 0. 0. 3.36700329e-003 0. 0. 0. 0. 0. 0. 0. 0. 0. 0. 0.
      0. 0. 0. 0. 0. 0. 0. 0. 0. 1.68350164e-003 0. 0. 0. 0. 0. 0. 0. 0.
      0. 0. 0. 0. 0. 0. 0. 0. 0. 0. 0. 1.68350164e-003 0. 0. 0. 0. 0. 0.
      0. 0. 0. 0. 0. 5.05050505e-003 0. 0. 0. 0. 0. 0. 0. 0.
      3.36700329e-003 0. 0. 0. 0. 0. 0. 0. 0. 0. 0. 0. 0. 0. 0. 0. 0. 0.
      0. 0. 0. 0. 0. 0. 0. 0. 0. 0. 0. 0. 0. 0. 0. 0. 0. 0. 0. 0. 0. 0.
      0. 0. 0. 0. 0. 0. 0. 0. 0. 0. 0. 0. 0. 0. 0. 0. 1.68350164e-003 0.
      0. 0. 0. 0. 0. 0. 0. 0. 0. 0. 0. 0. 0. 0. 0. 0. 0. 0. 0. 0. 0. 0.
      3.36700329e-003 0. 0. 0. 0. 0. 0. 0. 0. 1.68350164e-003 0. 0. 0.
      3.36700329e-003 0. 0. 0. 0. 0. 0. 0. 0. 0. 0. 0. 0. 0. 0. 0. 0. 0.
      0. 0. 0. 0. 0. 0. 0. 0. 0. 0. 0. 0. 1.68350164e-003 0. 0. 0. 0. 0.
      0. 0. 0. 0. 0. 0. 0. 0. 0. 0. 0. 0. 0. 0. 0. 0. 0. 0. 0. 0. 0. 0.
      0. 0. 0. 0. 0. 0. 0. 0. 0. 0. 0. 0. 0. 0. 0. 0. 0. 0. 0.
      5.05050505e-003 0. 0. 0. 0. 0. 0. 0. 0. 0. 0. 0. 0.
      1.68350164e-003 0. 0. 0. 0. 0. 0. 0. 0. 0. 0. 0. 0. 0. 0. 0.
      1.68350164e-003 0. 0. 0. 0. 0. 0. 0. 0. 0. 0. 0. 0. 0. 0. 0. 0. 0.
      0. 0. 0. 0. 0. 0. 0. 0. 1.68350164e-003 0. 0. 0. 0. 0. 0. 0. 0. 0.
      0. 0. 0. 0. 0. 0. 0. 0. 0. 0. 0. 0. 1.68350164e-003 0. 0. 0. 0. 0.
      0. 0. 0. 0. 0. 0. 0. 0. 0. 0. 0. 0. 0. 0. 0. 0. 0. 0. 0. 0. 0. 0.
      1.68350164e-003 0. 3.36700329e-003 0. 1.68350164e-003
      3.36700329e-003 0. 0. 0. 0. 6.73400657e-003 0. 0. 0. 0. 0. 0. 0.
      1.68350164e-003 0. 0. 0. 0. 0. 0. 0. 0. 0. 0. 0. 0. 0. 0. 0. 0. 0.
      0. 0. 0. 0. 0. 0. 0. 0. 0. 0. 0. 0. 0. 0. 0. 3.36700329e-003 0.
      5.05050505e-003 0. 3.36700329e-003 0. 0. 0. 0. 0. 0. 0. 0. 0. 0.
      0. 0. 0. 0. 0. 0. 0. 0. 0. 0. 0. 0. 0. 0. 0. 0. 0. 0. 0. 0. 0. 0.
      0. 0. 0. 0. 0. 0. 1.68350164e-003 0. 0. 0. 0. 1.68350164e-003 0.
      0. 0. 0. 0. 0. 0. 0. 0. 0. 0. 0. 0. 0. 0. 0. 1.68350164e-003 0. 0.
      0. 0. 0. 0. 0. 1.68350164e-003 0. 0. 0. 0. 0. 0. 0. 0. 0. 0. 0. 0.
      0. 1.68350164e-003 0. 0. 0. 0. 0. 0. 0. 0. 0. 0. 0.
      1.68350164e-003 0. 0. 0. 0. 0. 0. 0. 1.68350164e-003 0. 0. 0. 0.
      0. 0. 0. 0. 0. 0. 0. 0. 0. 0. 0. 0. 0. 0. 0. 0. 1.68350164e-003 0.
      0. 0. 3.36700329e-003 0. 0. 3.36700329e-003 0. 0. 0. 0. 0. 0. 0.
      0. 0. 0. 0. 0. 0. 0. 0. 0. 0. 0. 0. 0. 0. 0. 0. 0. 0.
      5.05050505e-003 0. 0. 0. 0. 0. 0. 0. 0. 0. 0. 0. 0. 0. 0. 0. 0. 0.
      0. 0. 0. 0. 0. 5.05050505e-003 0. 0. 0. 0. 0. 0. 0. 0. 0. 0. 0. 0.
      0. 0. 0. 0. 0. 0. 0. 0. 0. 0. 0. 1.85185187e-002 0. 0. 0. 0. 0. 0.
      0. 0. 3.36700329e-003 0. 0. 0. 1.68350164e-003 0. 0. 0. 0. 0.
      1.68350164e-003 0. 0. 0. 0. 1.68350164e-003 0. 5.05050505e-003 0.
      0. 0. 1.68350164e-003 0. 0. 0. 0. 0. 0. 0. 0. 0. 0. 0. 0. 0. 0. 0.
      0. 0. 0. 0. 0. 0. 6.73400657e-003 0. 0. 0. 0. 0. 0. 0. 0. 0. 0. 0.
      0. 0. 0. 0. 0. 0. 0. 0. 0. 0. 0. 0. 0. 0. 0. 0. 0. 0. 0.
      1.68350164e-003 0. 0. 0. 0. 0. 3.36700329e-003 0. 0. 0. 0. 0.
      5.05050505e-003 0. 0. 0. 0. 0. 0. 0. 0. 0. 0. 5.05050505e-003 0.
      0. 0. 0. 0. 0. 0. 0. 0. 0. 0. 0. 0. 0. 0. 1.68350164e-003 0. 0. 0.
      0. 0. 0. 0. 0. 1.68350164e-003 0. 0. 0. 0. 0. 0. 0. 0. 0. 0. 0. 0.
      0. 0. 0. 0. 0. 0. 0. 6.73400657e-003 0. 0. 0. 0. 0. 0. 0. 0. 0. 0.
      0. 0. 0. 0. 0. 0. 0. 1.68350164e-003 0. 0. 0. 1.68350164e-003 0.
      1.68350164e-003 0. 1.68350164e-003 0. 1.68350164e-003 0. 0.
      1.68350164e-003 0. 0. 0. 0. 0. 0. 0. 0. 0. 0. 0. 0. 0. 0. 0. 0. 0.
      0. 0. 1.68350164e-003 0. 0. 0. 0. 0. 0. 0. 0. 0. 5.05050505e-003
      0. 0. 0. 0. 0. 0. 0. 1.85185187e-002 0. 0. 0. 0. 0. 0. 0. 0. 0. 0.
      0. 0. 0. 5.05050505e-003 0. 0. 0. 0. 0. 0. 0. 0. 0. 0. 0. 0. 0. 0.
      0. 0. 0. 0. 1.68350164e-003 1.68350164e-003 0. 0. 0. 0. 0. 0. 0.
      0. 0. 0. 0. 0. 0. 0. 0. 0. 0. 0. 0. 0. 0. 0. 1.68350164e-003 0. 0.
      0. 0. 0. 0. 0. 0. 1.68350164e-003 0. 0. 0. 0. 0. 0. 0. 0. 0. 0. 0.
      0. 0. 0. 0. 0. 1.68350164e-003 0. 0. 0. 0. 0. 3.36700329e-003
      1.68350164e-003 0. 0. 0. 0. 0. 0. 0. 0. 0. 0. 0. 0. 0. 0. 0. 0. 0.
      0. 0. 0. 0. 0. 0. 0. 0. 3.36700329e-003 0. 0. 0. 0. 0. 0. 0. 0. 0.
      0. 0. 0. 1.68350164e-003 0. 0. 0. 0. 0. 0.</_>
    <_>
      0. 0. 0. 0. 0. 1.20663652e-002 0. 0. 0. 0. 0. 0. 0. 0. 0. 0. 0. 0.
      0. 0. 0. 0. 0. 0. 0. 0. 0. 3.01659130e-003 0. 0. 0. 0.
      6.03318261e-003 0. 0. 7.54147815e-003 0. 0. 0. 0. 0. 0. 0. 0. 0.
      0. 0. 0. 0. 0. 0. 0. 0. 0. 0. 0. 0. 0. 0. 0. 0. 0. 0. 0. 0. 0. 0.
      0. 1.50829565e-003 0. 6.03318261e-003 0. 0. 0. 0. 0. 0.
      7.54147815e-003 0. 0. 0. 0. 0. 0. 0. 3.01659130e-003 0. 0. 0. 0.
      0. 0. 0. 0. 0. 0. 0. 0. 0. 0. 0. 0. 0. 0. 0. 0. 0. 0. 0. 0. 0. 0.
      0. 3.01659130e-003 0. 0. 0. 0. 0. 0. 0. 0. 0. 0. 0. 0. 0. 0. 0. 0.
      0. 0. 0. 0. 0. 0. 0. 0. 0. 0. 0. 0. 0. 0. 0. 0. 0. 0. 0. 0. 0. 0.
      0. 0. 0. 0. 0. 0. 0. 0. 0. 0. 0. 0. 0. 0. 0. 0. 0. 0. 0. 0. 0. 0.
      0. 0. 0. 0. 0. 0. 0. 0. 0. 0. 0. 0. 3.01659130e-003 0. 0. 0. 0. 0.
      0. 0. 0. 0. 0. 0. 0. 0. 0. 0. 0. 0. 0. 0. 0. 0. 0. 0. 0. 0. 0. 0.
      0. 0. 0. 0. 0. 0. 0. 0. 0. 0. 0. 0. 0. 4.52488707e-003 0. 0. 0. 0.
      0. 0. 0. 0. 0. 0. 0. 0. 0. 0. 0. 0. 0. 1.35746608e-002 0. 0. 0. 0.
      0. 0. 0. 0. 0. 0. 1.50829563e-002 0. 0. 0. 0. 0. 0. 0. 0. 0. 0. 0.
      0. 0. 0. 0. 0. 1.50829565e-003 0. 0. 0. 0. 0. 0. 0. 0. 0. 0. 0. 0.
      0. 0. 0. 0. 0. 0. 0. 0. 0. 0. 0. 0. 0. 0. 0. 0. 0. 0. 0. 0. 0. 0.
      0. 0. 0. 0. 0. 0. 0. 0. 0. 0. 0. 0. 0. 0. 0. 0. 0. 0. 0. 0. 0. 0.
      0. 0. 0. 0. 0. 0. 1.50829565e-003 0. 0. 0. 0. 0. 0. 0. 0. 0. 0. 0.
      0. 0. 0. 0. 0. 0. 0. 0. 0. 0. 0. 0. 0. 0. 0. 0. 0. 0. 0. 0. 0. 0.
      0. 0. 0. 0. 0. 0. 0. 0. 0. 0. 0. 0. 0. 0. 0. 0. 0. 0. 0. 0. 0. 0.
      0. 0. 0. 0. 0. 0. 0. 0. 0. 0. 0. 0. 0. 0. 0. 0. 0. 0. 0. 0. 0. 0.
      0. 0. 0. 0. 0. 0. 0. 0. 0. 0. 0. 0. 0. 0. 0. 0. 0. 0. 0. 0. 0. 0.
      0. 0. 0. 0. 0. 0. 0. 0. 0. 0. 0. 0. 0. 0. 0. 0. 0. 0. 0. 0. 0. 0.
      0. 0. 1.50829565e-003 0. 0. 0. 0. 0. 0. 0. 0. 0. 0. 0.
      1.50829565e-003 0. 0. 0. 0. 0. 0. 1.50829565e-003 0. 0. 0. 0. 0.
      0. 0. 0. 0. 0. 0. 0. 0. 0. 1.50829565e-003 0. 0. 0. 0. 0. 0. 0. 0.
      0. 0. 0. 0. 0. 0. 0. 0. 0. 0. 0. 0. 0. 0. 0. 0. 0. 0. 0. 0. 0. 0.
      0. 0. 0. 0. 1.65912528e-002 0. 0. 0. 0. 0. 0. 0. 0. 0. 0. 0. 0. 0.
      0. 0. 0. 0. 0. 0. 0. 0. 0. 0. 0. 0. 0. 0. 0. 3.77073921e-002 0. 0.
      0. 0. 1.50829565e-003 0. 0. 0. 0. 0. 0. 0. 0. 0. 0. 0. 0. 0. 0. 0.
      0. 0. 1.50829565e-003 0. 0. 0. 0. 0. 0. 0. 0. 0. 4.52488707e-003
      0. 0. 0. 0. 0. 0. 0. 0. 0. 0. 0. 0. 0. 0. 0. 0. 0. 0. 0. 0. 0. 0.
      0. 0. 0. 0. 0. 0. 0. 0. 0. 0. 0. 0. 0. 4.52488707e-003 0. 0. 0. 0.
      0. 0. 0. 0. 0. 0. 0. 0. 0. 0. 0. 0. 0. 0. 0. 0. 0. 0. 0. 0.
      1.50829565e-003 0. 0. 0. 0. 0. 0. 0. 0. 0. 0. 0. 0. 0. 0. 0. 0. 0.
      0. 0. 0. 0. 0. 0. 0. 0. 0. 0. 0. 0. 0. 0. 0. 0. 0. 0. 0. 0. 0. 0.
      0. 0. 0. 0. 0. 0. 0. 0. 0. 0. 0. 0. 0. 0. 0. 0. 0. 0. 0. 0. 0. 0.
      0. 0. 0. 0. 0. 4.52488707e-003 0. 0. 0. 0. 0. 0. 0. 0. 0. 0. 0. 0.
      0. 0. 0. 0. 0. 0. 0. 0. 0. 0. 0. 7.54147815e-003 0. 0. 0. 0. 0. 0.
      0. 0. 0. 0. 0. 0. 0. 0. 0. 0. 0. 0. 0. 0. 0. 0. 4.52488707e-003 0.
      0. 0. 0. 0. 1.35746608e-002 0. 0. 0. 0. 0. 0. 0. 0. 0. 0. 0. 0. 0.
      0. 0. 1.50829565e-003 0. 0. 0. 0. 0. 0. 0. 0. 0. 0. 0. 0. 0. 0. 0.
      0. 0. 0. 0. 0. 0. 0. 0. 0. 0. 0. 0. 0. 0. 0. 0. 0. 0. 0.
      1.50829565e-003 1.50829565e-003 0. 0. 0. 0. 0. 0. 0. 0. 0. 0. 0.
      0. 0. 0. 0. 0. 0. 0. 1.50829563e-002 0. 0. 0. 0. 0. 0. 0.
      1.50829565e-003 0. 0. 0. 0. 0. 0. 0. 0. 0. 0. 0. 0. 0. 0. 0. 0. 0.
      0. 0. 0. 0. 0. 0. 0. 0. 0. 0. 0. 0. 3.01659130e-003 0. 0. 0. 0. 0.
      0. 0. 0. 0. 0. 0. 0. 0. 0. 0. 0. 0. 0. 0. 0. 0. 0. 0. 0. 0. 0. 0.
      0. 0. 0. 0. 0. 0. 0. 0. 0. 0. 1.65912528e-002 0. 0. 0. 0. 0. 0. 0.
      0. 0. 0. 0. 0. 0. 0. 3.01659130e-003 0. 0. 0. 0. 0. 0. 0. 0. 0. 0.
      0. 0. 0. 0. 0. 0. 0. 0. 0. 0. 0. 4.67571653e-002 0. 0.
      1.50829565e-003 0. 0. 0. 0. 0. 0. 0. 0. 0. 0. 0. 0. 0. 0. 0. 0. 0.
      0. 0. 0. 0. 0. 0. 0. 0. 0. 0. 0. 0. 0. 0. 0. 0. 1.05580697e-002 0.
      0. 0. 0. 0. 0. 0. 0. 0. 0. 0. 0. 0. 0. 0. 0. 0. 3.01659130e-003 0.
      0. 0. 0. 0. 0. 1.50829565e-003 0. 0. 0. 0. 0. 0. 0. 0. 0. 0. 0.
      1.50829565e-003 0. 0. 0. 0. 0. 0. 0. 0. 0. 0. 0. 0. 0. 0. 0. 0. 0.
      0. 0. 0. 0. 0. 0. 0. 0. 1.50829565e-003 0. 0. 0. 0. 0. 0. 0. 0. 0.
      0. 0. 0. 0. 0. 0. 0. 0. 0. 0. 0. 0. 0. 0. 0. 0. 0. 0. 0. 0.
      1.50829565e-003 0. 0. 0. 0. 0. 0. 0. 0. 0. 0. 0. 0. 0. 0. 0. 0. 0.
      0. 0. 0. 0. 0. 0. 1.50829565e-003 0. 0. 0. 0. 0. 0. 0. 0. 0. 0. 0.
      0. 0. 0. 0. 0. 0. 0. 1.50829565e-003 0. 0. 0. 0. 0. 0. 0. 0. 0. 0.
      0. 0. 0. 0. 0. 0. 0. 0. 0. 0. 0. 0. 0. 0. 1.50829565e-003 0. 0. 0.
      0. 0. 0. 0. 0. 0. 0. 0. 0. 0. 0. 0. 0. 0. 0. 0. 0. 0. 0. 0. 0.
      1.50829565e-003 0. 0. 0. 0. 0. 0. 0. 0. 0. 0. 0. 0. 0. 0. 0. 0. 0.
      0. 9.04977415e-003 0. 0. 0. 0. 0. 0. 0. 0. 0. 0. 0. 0. 0. 0. 0. 0.
      0. 0. 0. 0. 0. 0. 0. 0. 0. 0. 0. 0. 0. 0. 0. 0. 0. 0. 0. 0. 0. 0.
      0. 0. 0. 0. 0. 4.52488707e-003 0. 0. 0. 0. 0. 0. 0. 0. 0. 0. 0. 0.
      0. 6.03318261e-003 0. 0. 0. 0. 0. 0. 0. 0. 0. 0. 0. 0. 0. 0. 0. 0.
      0. 1.50829565e-003 0. 0. 0. 0. 0. 0. 0. 0. 0. 0. 0. 0. 0. 0.
      1.50829565e-003 0. 0. 0. 0. 0. 0. 0. 0. 0. 0. 0. 0. 0. 0. 0. 0. 0.
      0. 0. 0. 0. 0. 0. 0. 0. 0. 0. 0. 0. 6.03318261e-003 0. 0. 0. 0. 0.
      0. 0. 0. 0. 3.01659130e-003 0. 0. 0. 0. 0. 0. 0. 0. 0. 0. 0. 0. 0.
      0. 0. 0. 1.50829565e-003 0. 0. 0. 0. 0. 0. 0. 0. 0. 0. 0. 0.
      4.52488707e-003 0. 0. 0. 0. 0. 0. 0. 0. 0. 0. 0. 0. 0.
      4.52488707e-003 0. 0. 0. 0. 0. 0. 0. 0. 1.50829565e-003 0. 0. 0.
      0. 0. 0. 0. 0. 0. 0. 0. 0. 0. 0. 0. 1.50829565e-003 0.
      2.41327304e-002 0. 0. 3.16742100e-002 0. 0. 0. 0. 0. 0. 0.
      1.50829565e-003 0. 0. 0. 0. 0. 0. 0. 0. 0. 0. 0. 0. 0. 0. 0. 0. 0.
      0. 0. 0. 0. 0. 0. 0. 0. 0. 0. 0. 0. 0. 0. 0. 0. 0. 1.80995483e-002
      0. 0. 0. 0. 0. 0. 0. 0. 0. 2.86576170e-002 0. 0. 0. 0. 0. 0. 0. 0.
      0. 3.01659130e-003 0. 0. 0. 0. 0. 0. 0. 3.01659130e-003 0. 0. 0.
      0. 0. 0. 0. 0. 0. 0. 0. 0. 0. 0. 0. 0. 0. 0. 0. 0. 0. 0. 0. 0. 0.
      0. 0. 0. 0. 0. 1.50829565e-003 0. 0. 0. 0. 0. 0. 0. 0. 0. 0. 0. 0.
      0. 0. 0. 0. 0. 0. 0. 0. 0. 1.50829565e-003 0. 0. 0. 0. 0. 0. 0. 0.
      0. 0. 0. 0. 0. 0. 0. 0. 0. 0. 0. 0. 0. 0. 0. 0. 0. 0. 0. 0. 0. 0.
      0. 0. 0. 0. 0. 0. 0. 0. 0. 0. 0. 0. 0. 0. 0. 0. 0. 0. 0. 0.
      1.50829565e-003 0. 0. 0. 0. 0. 0. 0. 0. 0. 0. 0. 0. 0. 0.
      1.50829565e-003 0. 0. 0. 0. 0. 0. 0. 0. 0. 0. 0. 0. 0. 0.
      1.50829565e-003 0. 0. 0. 0. 0. 0. 0. 0. 0. 0. 0. 9.04977415e-003
      0. 0. 0. 0. 0. 0. 0. 0. 0. 0. 0. 0. 0. 0. 1.50829565e-003 0. 0. 0.
      0. 0. 0. 0. 0. 0. 0. 0. 0. 0. 0. 0. 4.52488707e-003 0. 0. 0. 0. 0.
      0. 0. 0. 0. 0. 0. 0. 3.01659130e-003 0. 0. 0. 0. 0. 0. 0. 0.
      1.50829565e-003 0. 0. 3.01659130e-003 0. 0. 0. 0. 0. 0. 0. 0. 0.
      0. 0. 0. 0. 0. 0. 0. 0. 0. 0. 0. 0. 0. 0. 1.50829565e-003 0. 0. 0.
      0. 0. 0. 0. 0. 0. 7.54147815e-003 0. 0. 1.50829565e-003 0. 0. 0.
      0. 0. 0. 0. 0. 0. 0. 0. 0. 0. 0. 0. 0. 0. 0. 0. 0. 0. 0. 0. 0. 0.
      0. 0. 0. 0. 0. 0. 0. 0. 0. 0. 0. 0. 0. 0. 0. 0. 0. 0. 0. 0. 0.
      1.50829565e-003 1.50829565e-003 0. 0. 0. 0. 0. 0. 0. 0. 0. 0. 0.
      0. 0. 0. 0. 0. 0. 0. 0. 0. 0. 0. 1.50829565e-003 1.05580697e-002
      0. 0. 0. 0. 0. 0. 0. 0. 0. 0. 0. 0. 2.11161394e-002 0. 0. 0. 0. 0.
      0. 0. 0. 0. 0. 0. 0. 0. 0. 0. 1.50829565e-003 0. 0. 0. 0. 0. 0. 0.
      0. 0. 0. 0. 0. 0. 0. 0. 0. 0. 0. 0. 0. 0. 0. 0. 0. 0. 0. 0. 0. 0.
      0. 0. 0. 0. 0. 0. 0. 0. 0. 0. 0. 0. 0. 0. 0. 0. 0. 0. 0. 0. 0. 0.
      0. 0. 0. 0. 0. 0. 1.05580697e-002 0. 0. 0. 0. 0. 0. 0. 0. 0. 0. 0.
      0. 0. 0. 0. 0. 0. 0. 0. 0. 0. 0. 0. 0. 0. 0. 0. 0. 0. 0.
      1.50829565e-003 0. 0. 0. 0. 0. 0. 1.50829565e-003 0.
      4.07239832e-002 0. 0. 0. 0. 0. 0. 1.50829565e-003 0. 0. 0. 0. 0.
      0. 0. 0. 0. 0. 0. 1.50829565e-003 0. 0. 0. 0. 0. 0. 0. 0. 0. 0. 0.
      0. 0. 0. 0. 0. 0. 0. 0. 0. 0. 0. 0. 0. 0. 0. 0. 1.50829565e-003 0.
      0. 0. 0. 0. 0. 0. 0. 1.05580697e-002 0. 0. 0. 0. 0. 0. 0. 0. 0. 0.
      0. 0. 0. 0. 0. 0. 0. 0. 0. 0. 0. 0. 1.50829565e-003 0. 0.
      1.50829563e-002 0. 0. 0. 0. 0. 0. 0. 0. 0. 0. 0. 0. 0. 0. 0. 0. 0.
      0. 0. 0. 0. 0. 0. 0. 0. 0. 0. 0. 0. 0. 0. 0. 0. 0. 0. 0.
      3.01659130e-003 1.50829565e-003 4.52488707e-003 0. 0. 0. 0. 0. 0.
      0. 0. 0. 0. 0. 0. 0. 0. 0. 0. 0. 0. 0. 0. 0. 0. 0. 0. 0. 0. 0. 0.
      0. 0. 0. 0. 0. 0. 0. 0. 0. 0. 1.37254909e-001 0. 1.05580697e-002
      0. 0. 0. 0. 0. 9.04977415e-003 0. 0. 0. 0. 0. 0. 0. 0. 0. 0. 0. 0.
      0. 0. 0. 0. 0. 0. 0. 0. 0. 0. 0. 0. 0. 0. 0. 0. 0. 0. 0. 0. 0. 0.
      0. 0. 0. 0. 0. 0. 0. 0. 0. 0. 0. 0. 0. 0. 0. 0. 0. 0. 0. 0. 0. 0.
      0. 0. 0. 1.50829565e-003 0. 0. 0. 0. 0. 0. 0. 0. 0. 0. 0. 0. 0. 0.
      0. 0. 0. 0. 0. 0. 0. 0. 0. 0. 0. 0. 0. 0. 0. 1.50829565e-003 0.
      3.01659130e-003 0. 0. 0. 0. 0. 0. 0. 0. 0. 0. 0. 0. 0. 0. 0. 0. 0.
      0. 0. 0. 0. 0. 0. 0. 0. 0. 0. 0. 0. 0. 0. 1.50829565e-003 0. 0.
      4.52488707e-003 0. 0. 0. 0. 0. 0. 0. 0. 0. 0. 0. 0. 0.
      3.31825055e-002 0. 0. 4.52488707e-003 0. 0. 0. 0. 0. 0.
      1.50829565e-003 0. 0. 0. 0. 0. 1.50829565e-003 0. 0. 0. 0. 0. 0.
      0. 0. 0. 0. 0. 0. 0. 0. 0. 0. 0. 0. 0. 0. 0. 0. 0. 0. 0. 0. 0. 0.
      0. 0. 0. 0. 0. 0. 4.52488707e-003 0. 0. 0. 0. 0. 0. 0. 0. 0. 0. 0.
      0. 0. 0. 0. 0. 0. 0. 0. 0. 0. 0. 0. 0. 0. 0. 0. 0. 0. 0. 0. 0. 0.
      0. 0. 0. 0. 0. 0. 0. 0. 0. 0. 0. 0. 0. 0. 0. 0. 0. 0. 0. 0. 0. 0.
      0. 0. 0. 0. 0. 0. 0. 0. 0. 0. 0. 0. 0. 0. 0. 0. 0. 0. 0. 0. 0. 0.
      0. 0. 0. 0. 0. 0. 0. 0. 0. 0. 0. 0. 0. 0. 0. 0. 0. 2.56410260e-002
      0. 0. 0. 0. 0. 0. 0. 1.50829565e-003 0. 0. 0. 0. 0. 0. 0. 0. 0. 0.
      0. 0. 0. 0. 0. 0. 0. 0. 0. 0. 0. 0. 0. 0. 0. 0. 0. 0. 0. 0. 0. 0.
      0. 0. 0. 0. 0. 0. 0. 0. 0. 0. 0. 0. 0. 0. 0. 0. 0. 0. 0.
      3.01659130e-003 0. 0. 0. 1.50829565e-003 0. 0. 0. 0. 0. 0. 0. 0.
      0. 0. 0. 0. 0. 0. 0. 0. 0. 0. 0. 0. 0. 0. 1.50829565e-003 0. 0. 0.
      0. 0. 0. 1.50829565e-003 0. 0. 0. 0. 0. 3.01659130e-003 0. 0. 0.
      0. 0. 0. 0. 0. 0. 0. 0. 0. 0. 0. 0. 0. 0. 0. 0. 0. 0. 0. 0. 0. 0.
      4.52488707e-003 0. 0. 0. 0. 0. 0. 0. 0. 0. 0. 0. 0. 0. 0. 0. 0. 0.
      0. 0. 0. 0. 0. 0. 0. 0. 0. 0. 0. 0. 0. 0. 0. 0. 0. 0.
      1.50829565e-003 0. 0. 0. 0. 2.41327304e-002 0. 0. 0. 0.
      6.03318261e-003 4.52488707e-003 0. 0. 0. 0. 0. 0. 0. 0. 0. 0. 0.
      0. 0. 0. 0. 3.01659130e-003 0. 0. 0. 0. 0. 0. 0. 0. 0. 0. 0. 0. 0.
      0. 0. 0. 0. 0. 0. 0. 0. 0. 0. 0. 0. 0. 0. 0. 0. 0. 0. 0. 0. 0. 0.
      0. 0. 0. 0. 0. 0. 0. 0. 0. 0. 0. 0. 0. 0. 0. 0. 0. 0. 0. 0. 0. 0.
      0. 0. 0. 0. 0. 0. 0. 0. 0. 0. 0. 0. 0. 0. 0. 0. 0. 0. 0. 0. 0. 0.
      0. 0. 0. 0. 0. 0. 0. 0. 0. 0. 0. 2.26244349e-002 0. 0. 0. 0. 0. 0.
      0. 0. 0. 0. 0. 0. 0. 0. 0. 0. 0. 0. 0. 0. 0. 0. 0. 0. 0. 0. 0. 0.
      0. 0. 0. 0. 0. 0. 0. 0. 0. 0. 0. 9.04977415e-003 0. 0. 0. 0. 0. 0.
      0. 0. 0. 0. 0. 0. 0. 1.50829565e-003 0. 0. 0. 0. 0. 0. 0. 0. 0. 0.
      0. 0. 0. 0. 0. 0. 0. 0. 0. 0. 3.01659130e-003 0. 0. 0. 0. 0. 0. 0.
      0. 0. 0. 0. 0. 0. 0. 0. 0. 0. 0. 0. 0. 0. 0. 0. 0. 0. 0.
      1.50829565e-003 0. 0. 0. 0. 0. 0. 0. 0. 0. 0. 0. 0. 0. 0. 0. 0. 0.
      0. 0. 0. 0. 0. 0. 0. 0. 0. 0. 0. 0. 4.52488707e-003 0.
      1.50829565e-003 0. 0. 0. 0. 0. 0. 0. 0. 0. 0. 0. 0. 0. 0. 0. 0. 0.
      0. 0. 0. 0. 0. 0. 4.52488707e-003 0. 0. 0. 0. 0. 0. 0. 0. 0. 0. 0.
      0. 0. 0. 0. 0. 0. 0. 0. 0. 0. 0. 0. 0. 1.50829565e-003 0. 0. 0. 0.
      0. 0. 0. 0. 0. 0. 0. 0. 0. 0. 0. 0. 6.03318261e-003 0. 0. 0. 0. 0.
      0. 0. 0. 0. 0. 0. 0. 0. 0. 0. 0. 0. 0. 0. 0. 0. 0. 0. 0. 0. 0. 0.
      0. 0. 0. 0. 0. 0. 0. 0. 0. 0. 0. 0. 0. 0. 0. 0. 0. 0. 0. 0. 0. 0.
      0. 0. 0. 0. 0. 0. 0. 0. 0. 1.50829565e-003 0. 0. 0. 0. 0. 0. 0. 0.
      0. 0. 0. 0. 0. 0. 0. 0. 0. 4.52488707e-003 3.01659130e-003 0. 0.
      0. 0. 0. 0. 0. 0. 0. 0. 0. 0. 0. 0. 0. 0. 0. 0. 0. 0. 0. 0. 0. 0.
      0. 0. 0. 0. 0. 0. 0. 0. 0. 0. 0. 0. 0. 0. 0. 0. 0. 0. 0. 0. 0. 0.
      0. 0. 0. 0. 0. 0. 0. 0. 0. 0. 0. 0. 0. 0. 0. 0. 0. 0. 0. 0. 0. 0.
      0. 0. 0. 0. 0. 0.</_>
    <_>
      0. 0. 0. 0. 0. 1.63398695e-003 1.63398695e-003 0. 0. 0.
      1.63398695e-003 0. 0. 0. 0. 0. 0. 0. 0. 0. 3.26797389e-003
      6.53594779e-003 0. 0. 0. 0. 0. 0. 1.63398695e-003 0. 0. 0. 0. 0.
      3.26797389e-003 0. 0. 0. 0. 0. 0. 0. 1.63398695e-003 0. 0. 0. 0.
      3.26797389e-003 0. 0. 3.26797389e-003 1.63398695e-003 0. 0. 0. 0.
      1.63398695e-003 0. 0. 0. 0. 0. 0. 0. 0. 0. 3.26797389e-003 0. 0.
      0. 0. 0. 0. 0. 0. 0. 0. 1.63398695e-003 0. 0. 0. 0. 0. 0. 0. 0.
      3.26797389e-003 1.63398695e-003 4.90196096e-003 0. 8.16993508e-003
      0. 0. 0. 0. 0. 1.63398695e-003 0. 0. 0. 0. 0. 0. 4.90196096e-003
      0. 0. 0. 0. 0. 0. 0. 0. 0. 0. 0. 0. 0. 0. 0. 0. 0. 0. 0. 0. 0. 0.
      0. 0. 0. 0. 1.63398695e-003 0. 0. 0. 0. 0. 0. 0. 0. 0. 0. 0. 0. 0.
      0. 0. 0. 0. 0. 0. 0. 0. 0. 0. 0. 0. 0. 0. 0. 4.90196096e-003 0. 0.
      0. 0. 0. 0. 0. 0. 0. 0. 0. 0. 0. 0. 0. 0. 0. 0. 0. 0. 0. 0. 0. 0.
      0. 4.90196096e-003 0. 0. 0. 0. 3.26797389e-003 0. 0.
      1.63398695e-003 0. 0. 0. 0. 0. 0. 0. 0. 0. 0. 0. 0.
      1.63398695e-003 0. 0. 0. 0. 0. 0. 0. 0. 0. 0. 0. 0. 0. 0.
      1.63398695e-003 0. 0. 0. 0. 0. 0. 0. 0. 0. 0. 0. 0. 0.
      8.16993508e-003 0. 1.63398695e-003 0. 0. 0. 0. 0. 0.
      1.63398695e-003 0. 3.26797389e-003 0. 0. 0. 0. 0. 1.63398695e-003
      0. 0. 0. 0. 3.26797389e-003 0. 0. 0. 0. 0. 0. 1.63398695e-003 0.
      0. 0. 0. 0. 0. 0. 0. 0. 0. 0. 0. 0. 0. 0. 0. 0. 0. 0. 0. 0. 0. 0.
      3.26797389e-003 0. 0. 0. 0. 1.63398695e-003 8.16993508e-003 0. 0.
      0. 0. 0. 0. 0. 0. 0. 0. 0. 0. 1.63398695e-003 0. 0. 0. 0. 0.
      1.63398695e-003 1.63398695e-003 0. 0. 0. 0. 0. 0. 0.
      3.26797389e-003 0. 0. 0. 0. 0. 0. 0. 0. 0. 0. 0. 0. 0.
      4.90196096e-003 0. 0. 0. 1.63398695e-003 0. 0. 0. 0. 0. 0. 0. 0.
      0. 0. 0. 8.16993508e-003 0. 0. 0. 0. 0. 0. 0. 0. 0. 0. 0.
      1.63398695e-003 0. 1.63398695e-003 0. 0. 0. 0. 0. 0. 0. 0. 0. 0.
      0. 0. 0. 0. 0. 0. 0. 0. 0. 0. 0. 0. 0. 0. 0. 0. 1.63398695e-003 0.
      0. 0. 0. 0. 3.26797389e-003 0. 0. 0. 0. 0. 0. 0. 0. 0. 0. 0. 0. 0.
      0. 0. 0. 0. 0. 0. 0. 0. 0. 0. 3.26797389e-003 0. 0. 0. 0. 0. 0. 0.
      0. 0. 0. 0. 0. 0. 0. 0. 3.26797389e-003 1.63398695e-003 0. 0. 0.
      0. 0. 0. 3.26797389e-003 0. 0. 0. 0. 0. 3.26797389e-003 0. 0. 0.
      0. 0. 0. 0. 0. 0. 1.63398695e-003 0. 4.90196096e-003 0. 0. 0. 0.
      0. 0. 1.63398695e-003 1.63398695e-003 0. 0. 0. 0. 0. 0. 0. 0. 0.
      0. 0. 0. 0. 0. 3.26797389e-003 0. 0. 0. 1.63398695e-003 0. 0.
      1.63398695e-003 0. 0. 0. 0. 0. 1.63398695e-003 0. 0. 0. 0. 0. 0.
      0. 0. 0. 0. 0. 0. 0. 0. 0. 0. 1.63398695e-003 0. 0. 0. 0. 0. 0. 0.
      0. 0. 0. 0. 0. 0. 0. 0. 0. 0. 0. 0. 0. 0. 0. 0. 0. 0. 0. 0. 0. 0.
      0. 0. 1.63398695e-003 0. 0. 0. 0. 0. 0. 0. 0. 0. 0. 0. 0. 0. 0. 0.
      0. 0. 0. 0. 0. 0. 0. 1.63398695e-003 0. 0. 0. 0. 0. 0. 0. 0. 0. 0.
      0. 0. 0. 0. 3.26797389e-003 0. 0. 0. 0. 0. 0. 0. 0. 0.
      3.26797389e-003 0. 0. 0. 0. 0. 0. 1.63398695e-003 0. 0. 0. 0. 0.
      0. 0. 0. 0. 0. 0. 0. 0. 0. 0. 0. 1.63398695e-003 0.
      1.63398695e-003 0. 0. 0. 0. 0. 0. 0. 0. 0. 0. 0. 0. 0.
      1.63398695e-003 0. 0. 0. 0. 0. 0. 0. 0. 0. 0. 0. 0. 0. 0. 0. 0.
      1.63398695e-003 0. 0. 0. 1.63398695e-003 0. 0. 0. 0. 0. 0. 0. 0.
      0. 0. 0. 0. 0. 0. 0. 1.63398695e-003 1.63398695e-003 0. 0. 0. 0.
      0. 1.63398695e-003 0. 0. 0. 0. 0. 0. 0. 0. 0. 0. 0. 0. 0. 0. 0. 0.
      0. 0. 0. 1.63398695e-003 0. 0. 0. 0. 0. 0. 0. 0. 0. 0.
      6.53594779e-003 0. 0. 1.63398695e-003 0. 0. 0. 0. 0. 0. 0.
      1.63398695e-003 0. 0. 1.63398695e-003 0. 0. 0. 0. 0.
      1.63398695e-003 0. 0. 0. 0. 0. 0. 0. 0. 0. 3.26797389e-003 0. 0.
      0. 0. 1.63398695e-003 0. 0. 0. 1.63398695e-003 0. 0. 0. 0.
      4.90196096e-003 0. 0. 0. 0. 0. 0. 0. 0. 0. 0. 3.26797389e-003 0.
      0. 0. 1.14379087e-002 0. 0. 0. 0. 0. 0. 0. 0. 0. 0. 0. 0. 0. 0.
      4.90196096e-003 0. 0. 0. 3.26797389e-003 0. 0. 0. 0. 0. 0. 0. 0.
      0. 0. 3.26797389e-003 0. 0. 0. 0. 0. 0. 0. 1.63398695e-003 0. 0.
      3.26797389e-003 0. 0. 0. 0. 0. 0. 0. 0. 0. 1.63398695e-003 0. 0.
      0. 0. 0. 0. 0. 0. 0. 0. 0. 0. 0. 0. 0. 0. 0. 0. 0. 1.63398695e-003
      0. 0. 0. 0. 0. 0. 0. 0. 0. 0. 0. 0. 1.63398695e-003 0. 0. 0. 0. 0.
      0. 0. 0. 0. 1.63398695e-003 0. 0. 0. 0. 0. 0. 0. 1.63398695e-003
      0. 0. 0. 0. 0. 0. 1.63398695e-003 3.26797389e-003 0. 0. 0.
      3.26797389e-003 0. 0. 0. 0. 0. 0. 0. 1.63398695e-003 0. 0. 0. 0.
      0. 6.53594779e-003 0. 0. 0. 0. 0. 0. 0. 3.26797389e-003 0. 0. 0.
      0. 0. 0. 1.63398695e-003 0. 0. 0. 0. 0. 0. 0. 0. 0. 0. 0. 0. 0.
      1.63398695e-003 0. 0. 1.63398695e-003 0. 0. 0. 0. 0. 0. 0. 0. 0.
      6.53594779e-003 0. 1.63398695e-003 0. 0. 1.63398695e-003 0. 0. 0.
      0. 0. 1.63398695e-003 0. 0. 2.77777780e-002 0. 0. 0.
      3.26797389e-003 0. 0. 0. 0. 0. 0. 0. 0. 0. 0. 0. 0. 0. 0. 0. 0. 0.
      0. 0. 0. 0. 0. 0. 0. 0. 0. 0. 0. 0. 0. 0. 0. 0. 0. 0. 0. 0. 0. 0.
      0. 0. 0. 0. 0. 0. 0. 0. 0. 0. 0. 0. 0. 0. 0. 0. 0. 0. 0. 0. 0. 0.
      1.63398695e-003 0. 0. 0. 0. 1.63398695e-003 0. 0. 0. 0. 0. 0. 0.
      0. 0. 0. 0. 0. 0. 1.63398695e-003 0. 0. 0. 0. 0. 0. 0. 0. 0. 0.
      1.63398695e-003 0. 0. 1.63398695e-003 0. 0. 0. 3.26797389e-003 0.
      0. 0. 0. 0. 0. 0. 0. 0. 0. 0. 0. 0. 0. 0. 0. 0. 0. 0. 0. 0. 0. 0.
      0. 0. 0. 0. 4.90196096e-003 0. 3.26797389e-003 0. 0. 0. 0. 0. 0.
      0. 0. 0. 0. 0. 0. 0. 0. 0. 0. 0. 0. 0. 4.90196096e-003 0. 0. 0.
      4.90196096e-003 3.26797389e-003 0. 0. 0. 0. 0. 0. 1.63398695e-003
      0. 0. 0. 0. 1.63398695e-003 0. 0. 0. 0. 0. 0. 0. 0. 0. 0. 0. 0.
      1.63398695e-003 0. 0. 0. 0. 0. 0. 0. 0. 0. 0. 0. 0. 0. 0. 0.
      1.63398695e-003 0. 0. 3.26797389e-003 0. 0. 0. 0. 0. 0.
      3.26797389e-003 0. 0. 0. 0. 0. 0. 0. 0. 0. 0. 0. 0. 0. 0. 0. 0. 0.
      0. 0. 1.63398695e-003 0. 0. 0. 0. 0. 0. 1.63398695e-003
      1.63398695e-003 0. 0. 0. 0. 3.26797389e-003 0. 0. 0. 0. 0. 0. 0.
      0. 0. 0. 0. 0. 0. 0. 0. 0. 0. 3.26797389e-003 0. 0. 0. 0. 0. 0. 0.
      0. 4.90196096e-003 0. 0. 4.90196096e-003 0. 0. 0. 0.
      1.63398695e-003 0. 0. 0. 0. 0. 3.26797389e-003 8.16993508e-003 0.
      3.26797389e-003 0. 0. 0. 1.63398695e-003 0. 1.63398695e-003 0. 0.
      0. 0. 0. 0. 0. 0. 0. 0. 0. 0. 0. 0. 0. 0. 0. 0. 0. 0. 0.
      3.26797389e-003 1.63398695e-003 0. 0. 0. 3.26797389e-003
      1.63398695e-003 0. 0. 3.26797389e-003 0. 0. 0. 0. 0. 0. 0. 0. 0.
      0. 0. 0. 0. 0. 0. 1.63398695e-003 0. 0. 0. 0. 0. 0. 0. 0.
      1.63398695e-003 0. 1.63398695e-003 0. 0. 6.53594779e-003 0. 0. 0.
      0. 0. 0. 0. 0. 0. 0. 0. 0. 0. 0. 0. 0. 0. 0. 0. 1.30718956e-002 0.
      0. 0. 0. 0. 0. 0. 0. 0. 0. 0. 0. 0. 0. 0. 0. 0. 0. 0. 0. 0. 0. 0.
      0. 0. 0. 0. 0. 0. 0. 0. 0. 3.26797389e-003 0. 0. 0. 0. 0. 0.
      1.63398695e-003 4.90196096e-003 0. 0. 0. 0. 0. 0. 0. 0. 0. 0. 0.
      0. 0. 0. 0. 0. 0. 0. 3.26797389e-003 0. 3.26797389e-003 0. 0. 0.
      0. 0. 0. 0. 0. 6.53594779e-003 0. 1.63398695e-003 0. 0. 0. 0. 0.
      1.63398695e-003 0. 0. 0. 1.63398695e-003 0. 0. 0. 0. 0. 0. 0. 0.
      0. 0. 0. 0. 0. 0. 0. 0. 4.90196096e-003 0. 0. 0. 0. 0. 0.
      1.63398695e-003 0. 0. 0. 6.53594779e-003 0. 0. 0. 0. 0. 0. 0. 0.
      0. 0. 0. 0. 0. 0. 0. 4.90196096e-003 0. 0. 0. 0. 0. 0. 0.
      1.63398695e-003 0. 1.63398695e-003 0. 1.63398695e-003 0. 0. 0. 0.
      0. 3.26797389e-003 0. 0. 0. 0. 0. 0. 0. 0. 0. 0. 0. 0. 0. 0. 0. 0.
      0. 0. 0. 0. 0. 0. 0. 0. 0. 0. 0. 0. 0. 3.26797389e-003
      1.63398695e-003 0. 0. 0. 0. 0. 0. 0. 0. 0. 0. 0. 4.90196096e-003
      0. 0. 1.63398695e-003 0. 0. 0. 0. 0. 0. 0. 0. 1.63398695e-003
      4.90196096e-003 0. 0. 0. 0. 0. 0. 0. 0. 0. 0. 1.63398695e-003 0.
      1.63398695e-003 0. 0. 0. 1.63398695e-003 0. 0. 0. 0. 0. 0. 0. 0.
      0. 0. 0. 0. 0. 0. 0. 0. 0. 0. 0. 0. 0. 0. 0. 0. 0. 0. 0. 0. 0.
      4.90196096e-003 1.63398695e-003 0. 0. 1.63398695e-003 0. 0. 0. 0.
      1.63398695e-003 0. 0. 0. 0. 0. 0. 1.63398695e-003 0. 0. 0.
      1.63398695e-003 0. 6.53594779e-003 0. 0. 0. 0. 0. 0. 0. 0. 0. 0.
      0. 0. 0. 0. 0. 0. 0. 1.63398695e-003 0. 0. 0. 0. 0.
      1.63398695e-003 0. 0. 0. 0. 0. 0. 0. 0. 0. 0. 0. 0. 0. 0. 0. 0. 0.
      0. 0. 0. 0. 0. 0. 0. 0. 0. 4.90196096e-003 0. 0. 0. 0. 0. 0. 0. 0.
      0. 0. 0. 0. 3.26797389e-003 3.26797389e-003 0. 0. 0. 0. 0. 0. 0.
      0. 0. 0. 0. 0. 0. 0. 0. 0. 0. 0. 0. 0. 0. 0. 0. 0. 0. 0. 0.
      3.26797389e-003 0. 0. 0. 0. 0. 0. 0. 0. 0. 0. 0. 0. 0. 0. 0. 0. 0.
      3.26797389e-003 0. 1.63398695e-003 0. 0. 0. 1.63398695e-003 0. 0.
      0. 0. 0. 0. 1.63398695e-003 0. 0. 3.26797389e-003 3.26797389e-003
      0. 0. 0. 0. 0. 0. 0. 0. 0. 0. 0. 0. 0. 0. 0. 0. 0. 0. 0. 0. 0. 0.
      0. 4.90196096e-003 0. 3.26797389e-003 1.63398695e-003 0. 0. 0. 0.
      0. 0. 0. 0. 0. 1.63398695e-003 0. 0. 0. 0. 0. 0. 1.63398695e-003
      0. 0. 0. 0. 0. 0. 0. 0. 0. 0. 0. 0. 0. 1.63398695e-003 0. 0. 0. 0.
      0. 0. 0. 0. 0. 0. 0. 0. 0. 0. 0. 0. 1.63398695e-003 0. 0. 0. 0. 0.
      0. 0. 0. 0. 0. 0. 0. 0. 0. 0. 0. 0. 0. 0. 0. 0. 0. 0. 0. 0. 0. 0.
      0. 0. 0. 3.26797389e-003 0. 0. 0. 0. 0. 0. 0. 1.63398695e-003 0.
      0. 0. 0. 0. 0. 0. 0. 0. 0. 0. 0. 0. 0. 0. 0. 0. 0. 0. 0. 0. 0. 0.
      0. 0. 0. 0. 0. 0. 0. 1.63398695e-003 1.63398695e-003 0. 0. 0. 0.
      0. 0. 0. 0. 0. 0. 0. 0. 0. 1.63398695e-003 0. 0. 4.90196096e-003
      0. 0. 0. 0. 0. 0. 0. 0. 1.63398695e-003 0. 1.30718956e-002 0. 0.
      0. 0. 0. 0. 0. 0. 0. 3.26797389e-003 0. 0. 0. 0. 0. 0.
      1.63398695e-003 0. 0. 0. 0. 0. 0. 0. 0. 0. 0. 0. 0. 0. 0. 0. 0. 0.
      0. 0. 0. 0. 0. 0. 1.63398695e-003 0. 0. 0. 0. 0. 0. 0.
      1.63398695e-003 0. 0. 0. 0. 0. 0. 0. 0. 0. 0. 0. 0. 0. 0. 0. 0. 0.
      1.63398695e-003 0. 0. 0. 0. 0. 0. 0. 0. 0. 0. 0. 0. 0. 0. 0. 0. 0.
      0. 0. 0. 0. 0. 1.63398695e-003 0. 0. 0. 0. 0. 0. 0. 0. 0. 0. 0. 0.
      0. 0. 0. 0. 0. 0. 0. 0. 0. 0. 0. 0. 0. 0. 0. 0. 0. 0. 0. 0. 0. 0.
      0. 1.63398695e-003 0. 0. 1.63398695e-003 0. 0. 0. 0. 0. 0. 0. 0.
      0. 4.90196096e-003 0. 0. 0. 0. 0. 0. 4.90196096e-003 0. 0. 0. 0.
      0. 0. 0. 0. 0. 0. 0. 0. 0. 9.80392192e-003 0. 0. 0.
      1.63398695e-003 0. 0. 0. 0. 0. 0. 6.04575165e-002 0.
      3.26797389e-003 0. 0. 0. 0. 0. 0. 0. 0. 0. 0. 0. 0. 0.
      1.63398695e-003 0. 0. 0. 0. 0. 0. 0. 0. 0. 0. 1.63398695e-003 0.
      0. 0. 0. 0. 0. 0. 0. 0. 1.63398695e-003 0. 0. 0. 0. 0.
      1.63398695e-003 0. 0. 0. 0. 0. 0. 0. 0. 1.63398695e-003 0. 0. 0.
      0. 0. 0. 0. 0. 0. 0. 0. 0. 1.63398695e-003 0. 0. 0. 0. 0. 0. 0. 0.
      0. 0. 0. 0. 0. 0. 0. 0. 0. 1.63398695e-003 4.90196096e-003 0. 0.
      0. 0. 0. 0. 0. 0. 0. 0. 0. 4.90196096e-003 0. 0. 0.
      3.26797389e-003 0. 0. 0. 3.26797389e-003 0. 0. 1.63398695e-003 0.
      0. 3.26797389e-003 1.63398695e-003 0. 0. 0. 0. 0. 0. 0. 0. 0. 0.
      0. 0. 0. 0. 1.63398695e-003 0. 0. 0. 1.30718956e-002 0. 0. 0. 0.
      0. 0. 0. 0. 0. 0. 0. 0. 0. 0. 0. 3.26797389e-003 0. 0.
      1.63398695e-003 1.63398695e-003 0. 1.63398695e-003 0. 0. 0. 0. 0.
      0. 0. 0. 0. 1.63398695e-003 0. 0. 0. 0. 0. 0. 0. 0.
      1.63398695e-003 0. 0. 0. 0. 0. 0. 0. 0. 0. 0. 0. 0. 0. 0. 0. 0. 0.
      0. 0. 0. 0. 0. 0. 0. 0. 0. 0. 0. 0. 0. 0. 0. 1.63398695e-003 0. 0.
      0. 0. 0. 0. 0. 0. 0. 1.63398695e-003 0. 0. 0. 0. 0. 0. 0. 0. 0. 0.
      0. 0. 3.26797389e-003 0. 0. 0. 0. 0. 0. 0. 0. 0. 0. 0. 0. 0. 0. 0.
      1.63398695e-003 0. 0. 1.63398695e-003 1.63398695e-003 0. 0. 0. 0.
      0. 0. 0. 3.26797389e-003 0. 0. 0. 0. 0. 0. 0. 0. 0. 0. 0. 0. 0. 0.
      0. 0. 0. 0. 0. 0. 0. 0. 0. 0. 0. 0. 0. 0. 0. 0. 0. 0. 0. 0. 0. 0.
      0. 0. 0. 3.26797389e-003 0. 0. 0. 0. 3.26797389e-003
      1.63398695e-003 0. 0. 0. 0. 0. 0. 0. 0. 0. 0. 0. 1.63398695e-003
      0. 0. 0. 0. 0. 0. 0. 0. 0. 0. 0. 1.63398695e-003 0. 0.
      1.63398695e-003 3.26797389e-003 0. 3.26797389e-003 1.63398695e-003
      0. 0. 0. 0. 0. 0. 0. 0. 0. 0. 0. 0. 0. 0. 0. 0. 0. 0. 0. 0. 0. 0.
      0. 0. 0. 0. 0. 0. 0. 0. 0. 0. 0. 0. 0. 0. 0. 0. 0. 0. 0.
      1.63398695e-003 0. 3.26797389e-003 0. 1.63398695e-003 0. 0. 0. 0.
      3.26797389e-003 0. 0. 0. 0. 0. 0. 0. 0. 1.63398695e-003 0. 0. 0.
      0. 1.63398695e-003 0. 0. 0. 0. 0. 1.63398695e-003 1.63398695e-003
      0. 0. 0. 0. 0. 0. 0. 0. 0. 0. 1.63398695e-003 0. 0. 0. 0. 0. 0. 0.
      0. 0. 0. 0. 0. 1.63398695e-003 0. 0. 0. 0. 0. 0. 0. 0. 0. 0. 0.
      3.26797389e-003 0. 0. 0. 0. 0. 0. 0. 0. 0. 0. 0. 0. 0. 0. 0. 0. 0.
      0. 0. 0. 0. 3.26797389e-003 0. 0. 0. 0. 0. 0. 0. 1.63398695e-003
      0. 0. 0. 0. 0. 0. 0. 0. 0. 3.26797389e-003 1.63398695e-003 0. 0.
      0. 0. 0. 0. 0. 0. 0. 0. 0. 0. 0. 0. 0. 0. 0. 0. 0. 0. 0. 0. 0. 0.
      0. 0. 0. 0. 0. 0. 0. 0. 1.63398695e-003 0. 0. 0. 0. 0. 0. 0. 0. 0.
      0. 0. 0. 0. 0. 0. 1.63398695e-003 0. 0. 0. 6.53594779e-003
      1.63398695e-003 0. 0. 0. 1.63398695e-003 0. 0. 0. 0. 0. 0. 0. 0.
      0. 0. 0. 0. 0. 0. 0. 0. 0. 0. 0. 0. 1.63398695e-003 0. 0. 0. 0. 0.
      0. 0. 0. 0. 0. 0. 0. 1.63398695e-003 0. 0. 0. 0. 0. 0. 0. 0. 0. 0.
      0. 0. 0. 0. 0. 0. 0. 3.26797389e-003 1.63398695e-003 0. 0. 0. 0.
      0. 1.63398695e-003 0. 0. 0. 0. 0. 0. 0. 0. 1.63398695e-003 0. 0.
      0. 0. 0. 0. 0. 1.63398695e-003 0. 0. 0. 0. 0. 0. 0. 0. 0. 0. 0. 0.
      0. 0. 0. 0. 0. 0. 1.63398695e-003 0. 0. 0. 4.90196096e-003 0. 0.
      0. 0. 0. 0. 0. 0. 1.63398695e-003 0. 0. 0. 0. 0. 0. 0. 0. 0. 0. 0.
      0. 0. 3.26797389e-003 0. 0. 0. 0. 0. 0. 1.63398695e-003 0.
      1.63398695e-003 0. 4.90196096e-003 1.63398695e-003 0. 0. 0. 0. 0.
      0. 0. 0. 1.63398695e-003 0. 0. 1.63398695e-003 3.26797389e-003
      1.63398695e-003 0. 0. 0. 0. 0. 0. 0. 0. 0. 0. 0. 0. 0. 0. 0. 0. 0.
      0. 0. 0. 0. 0. 0. 0. 0. 6.53594779e-003 0. 0. 0. 0. 0. 0. 0.
      1.63398695e-003 0. 0. 0. 0. 0. 0. 0. 0. 0. 0. 0. 0. 0. 0. 0. 0. 0.
      0. 0. 0. 0. 0. 0. 0. 0. 0. 0. 0. 0. 0. 0. 0. 0. 0. 0. 0. 0. 0. 0.
      0. 0. 0. 0. 0. 0. 0. 1.63398695e-003 1.63398695e-003
      1.63398695e-003 0. 0. 0. 0. 0. 0. 0. 0. 1.63398702e-002 0. 0. 0.
      0. 0. 0. 0. 0. 1.63398695e-003 4.90196096e-003 3.26797389e-003 0.
      0. 0. 0. 0. 0. 0. 0. 0. 0. 0. 0. 0. 0. 0. 0. 6.53594779e-003 0.
      1.63398695e-003 0. 0. 0. 0. 0. 0. 0. 0. 0. 0. 0. 0. 0. 0. 0. 0.
      3.26797389e-003 0. 0. 0. 0. 0. 0. 0. 0. 0. 0. 0. 0. 0. 0. 0. 0.
      1.63398695e-003 0. 0. 1.63398695e-003 0. 1.63398695e-003 0. 0. 0.
      0. 0. 0. 0. 0. 0. 0. 0. 0. 0. 0. 0. 0. 0. 0. 1.63398695e-003 0. 0.
      0. 0. 0. 0. 0. 0. 8.16993508e-003 0. 0. 0. 0. 0. 0. 0. 0. 0. 0. 0.
      0. 0. 0. 0. 0. 0. 0. 0. 0. 0. 0. 0. 1.63398695e-003 0. 0.
      1.63398695e-003 0. 0. 0. 0. 4.90196096e-003 1.63398695e-003
      3.26797389e-003 0. 0. 1.63398695e-003 0. 0. 0. 0. 0. 0. 0. 0. 0.
      0. 0. 0. 0. 0.</_>
    <_>
      0. 0. 0. 0. 0. 3.01659130e-003 0. 3.01659130e-003 0. 0. 0. 0. 0.
      0. 0. 0. 0. 0. 0. 3.01659130e-003 0. 0. 0. 0. 0. 0. 0. 0. 0. 0. 0.
      0. 6.03318261e-003 0. 3.01659130e-003 0. 0. 1.50829565e-003 0. 0.
      0. 7.54147815e-003 0. 0. 1.50829565e-003 0. 1.50829565e-003 0.
      1.50829565e-003 0. 0. 0. 1.50829565e-003 0. 0. 0. 0.
      1.50829565e-003 0. 0. 0. 0. 0. 0. 0. 0. 0. 0. 1.50829565e-003 0.
      0. 0. 0. 0. 0. 1.50829565e-003 0. 0. 0. 0. 0. 0. 0.
      1.50829565e-003 0. 0. 0. 0. 0. 0. 0. 0. 0. 0. 0. 0. 0. 0. 0. 0. 0.
      0. 0. 0. 3.01659130e-003 0. 0. 0. 0. 0. 0. 3.01659130e-003 0.
      3.01659130e-003 1.50829565e-003 0. 0. 0. 4.52488707e-003 0. 0. 0.
      0. 0. 0. 1.50829565e-003 0. 0. 0. 0. 3.01659130e-003 0. 0. 0. 0.
      0. 0. 0. 0. 1.50829565e-003 0. 0. 0. 0. 0. 0. 0. 0. 0. 0. 0. 0. 0.
      0. 0. 0. 0. 0. 1.50829565e-003 0. 0. 0. 0. 0. 0. 0. 0. 0. 0. 0. 0.
      0. 0. 0. 0. 0. 3.01659130e-003 0. 0. 3.01659130e-003 0. 0. 0.
      1.50829565e-003 0. 0. 0. 0. 0. 0. 0. 0. 1.50829565e-003 0.
      1.50829565e-003 0. 0. 0. 0. 0. 0. 0. 1.50829565e-003 0. 0. 0. 0.
      0. 0. 0. 0. 0. 0. 0. 0. 0. 0. 0. 0. 0. 0. 0. 0. 0. 0. 0. 0. 0. 0.
      0. 0. 0. 0. 0. 0. 0. 0. 0. 1.50829565e-003 0. 0. 0. 0. 0. 0.
      1.50829565e-003 0. 0. 0. 3.01659130e-003 0. 0. 0. 0. 0. 0.
      1.50829565e-003 0. 0. 1.50829565e-003 0. 3.01659130e-003
      1.50829565e-003 4.52488707e-003 0. 0. 0. 0. 0. 0. 0. 0. 0. 0. 0.
      0. 0. 3.01659130e-003 0. 0. 0. 0. 0. 0. 0. 1.50829565e-003 0. 0.
      0. 0. 0. 0. 0. 0. 0. 0. 0. 0. 0. 0. 0. 0. 0. 0. 0. 0. 0. 0. 0. 0.
      0. 0. 0. 0. 0. 1.50829565e-003 0. 1.50829565e-003 0. 0. 0. 0. 0.
      0. 0. 0. 0. 0. 0. 0. 0. 0. 0. 0. 0. 0. 0. 0. 0. 0. 1.50829565e-003
      0. 0. 0. 0. 0. 0. 0. 0. 1.50829565e-003 0. 0. 0. 0. 0. 0. 0. 0.
      4.52488707e-003 1.50829565e-003 1.50829565e-003 3.01659130e-003 0.
      0. 0. 1.50829565e-003 0. 0. 0. 0. 0. 1.50829565e-003 0.
      4.52488707e-003 1.50829565e-003 0. 0. 0. 0. 0. 0. 0. 0. 0.
      1.50829565e-003 0. 0. 0. 0. 0. 0. 0. 0. 0. 0. 0. 0. 0. 0. 0. 0. 0.
      0. 0. 0. 0. 0. 0. 0. 0. 0. 0. 0. 0. 0. 4.52488707e-003 0. 0.
      1.50829565e-003 0. 0. 0. 0. 0. 0. 0. 0. 3.01659130e-003 0. 0. 0.
      0. 0. 0. 0. 0. 0. 0. 0. 0. 0. 1.50829565e-003 0. 0. 0. 0. 0. 0. 0.
      0. 0. 0. 0. 0. 0. 1.50829565e-003 0. 1.50829565e-003 0. 0. 0. 0.
      0. 0. 0. 0. 0. 0. 0. 0. 3.01659130e-003 1.50829565e-003
      1.50829565e-003 0. 0. 0. 0. 0. 0. 0. 0. 0. 0. 0. 3.01659130e-003
      0. 0. 1.50829565e-003 0. 0. 0. 0. 0. 0. 0. 0. 1.50829565e-003 0.
      0. 0. 0. 0. 3.01659130e-003 0. 0. 0. 0. 0. 0. 0. 0. 0. 0. 0. 0. 0.
      0. 0. 0. 0. 0. 0. 0. 0. 0. 0. 0. 0. 0. 0. 0. 0. 0. 3.01659130e-003
      0. 0. 0. 0. 0. 0. 0. 1.50829565e-003 0. 0. 0. 0. 0. 0. 0. 0. 0. 0.
      0. 0. 0. 0. 0. 0. 3.01659130e-003 0. 0. 0. 0. 1.50829565e-003 0.
      0. 0. 0. 0. 1.50829565e-003 0. 0. 0. 0. 0. 0. 0. 0. 0. 0.
      1.50829565e-003 0. 1.50829565e-003 0. 0. 0. 0. 1.50829565e-003 0.
      0. 3.01659130e-003 1.50829565e-003 0. 0. 0. 0. 0. 0. 0.
      4.52488707e-003 1.50829565e-003 0. 0. 0. 0. 0. 0. 0. 0. 0. 0. 0.
      0. 0. 0. 0. 0. 0. 0. 0. 0. 0. 0. 0. 0. 0. 0. 0. 0. 1.50829565e-003
      0. 0. 0. 3.01659130e-003 0. 0. 0. 0. 0. 0. 0. 0. 0. 0. 0. 0. 0. 0.
      0. 0. 3.01659130e-003 0. 0. 0. 7.54147815e-003 1.50829565e-003
      6.03318261e-003 0. 0. 0. 3.01659130e-003 0. 0. 0. 0. 0. 0. 0. 0.
      0. 0. 0. 0. 0. 1.50829565e-003 1.50829565e-003 0. 0. 0. 0. 0. 0.
      0. 0. 0. 0. 0. 0. 0. 0. 0. 0. 0. 1.50829565e-003 0. 0. 0. 0. 0.
      1.50829565e-003 0. 0. 0. 0. 0. 4.52488707e-003 0. 0. 0. 0. 0. 0.
      3.01659130e-003 0. 0. 0. 0. 0. 0. 0. 0. 0. 0. 1.50829565e-003 0.
      0. 0. 1.50829565e-003 0. 0. 1.50829565e-003 0. 0. 0. 0. 0. 0. 0.
      0. 0. 0. 0. 0. 1.50829565e-003 0. 0. 0. 0. 6.03318261e-003 0. 0.
      0. 0. 0. 0. 1.50829565e-003 0. 0. 0. 0. 0. 0. 7.54147815e-003 0.
      0. 0. 3.01659130e-003 0. 0. 0. 0. 0. 3.01659130e-003 0. 0. 0. 0.
      0. 0. 0. 0. 1.50829565e-003 0. 0. 0. 0. 0. 0. 0. 0. 0. 0. 0. 0. 0.
      0. 0. 0. 3.01659130e-003 0. 0. 0. 0. 0. 0. 0. 0. 0. 0. 0. 0. 0. 0.
      0. 0. 0. 0. 0. 0. 0. 0. 0. 3.01659130e-003 0. 0. 3.01659130e-003
      0. 0. 0. 0. 0. 0. 0. 0. 0. 0. 0. 0. 0. 1.50829565e-003 0. 0. 0. 0.
      0. 0. 0. 0. 0. 0. 0. 0. 0. 0. 0. 0. 0. 0. 0. 0. 0. 0. 0. 0. 0. 0.
      0. 4.52488707e-003 1.50829565e-003 0. 0. 0. 0. 0. 0. 0.
      3.01659130e-003 0. 0. 0. 0. 0. 0. 0. 0. 0. 0. 0. 0. 0. 0. 0. 0. 0.
      0. 0. 0. 0. 1.50829565e-003 1.50829565e-003 1.50829565e-003 0.
      1.50829565e-003 0. 7.54147815e-003 0. 0. 4.52488707e-003 0. 0. 0.
      0. 0. 0. 0. 0. 0. 0. 4.52488707e-003 0. 3.01659130e-003 0.
      4.52488707e-003 0. 3.01659130e-003 0. 0. 1.50829565e-003 0. 0. 0.
      0. 0. 0. 1.50829565e-003 0. 1.05580697e-002 0. 0. 0. 0.
      1.50829565e-003 0. 0. 0. 0. 0. 1.50829565e-003 0. 0. 0. 0. 0. 0.
      0. 0. 1.50829565e-003 0. 1.50829565e-003 0. 0. 1.50829565e-003 0.
      0. 0. 0. 1.50829565e-003 0. 0. 0. 0. 1.50829565e-003 0. 0. 0. 0.
      0. 0. 0. 0. 0. 1.50829565e-003 0. 3.01659130e-003 0.
      3.01659130e-003 0. 0. 1.50829565e-003 0. 0. 0. 1.50829565e-003 0.
      0. 1.50829565e-003 1.50829565e-003 0. 0. 0. 0. 0. 0. 0. 0. 0. 0.
      0. 0. 0. 0. 0. 1.50829565e-003 0. 0. 0. 0. 0. 0. 0. 0. 0.
      3.01659130e-003 0. 0. 0. 0. 0. 0. 0. 1.50829565e-003 0. 0.
      1.50829565e-003 0. 0. 0. 0. 0. 3.01659130e-003 0. 0. 0. 0. 0.
      1.50829565e-003 1.50829565e-003 0. 0. 0. 0. 0. 0. 0. 0.
      1.50829565e-003 0. 0. 0. 0. 1.50829565e-003 0. 1.50829565e-003 0.
      3.01659130e-003 0. 0. 4.52488707e-003 0. 0. 0. 0. 0.
      1.50829565e-003 0. 0. 0. 0. 0. 0. 0. 4.52488707e-003 0. 0. 0. 0.
      1.50829565e-003 1.50829565e-003 0. 0. 0. 0. 1.50829565e-003 0. 0.
      1.50829565e-003 3.01659130e-003 0. 0. 0. 0. 0. 0. 0. 0. 0.
      6.03318261e-003 0. 0. 0. 1.50829565e-003 1.50829565e-003 0.
      1.50829565e-003 3.01659130e-003 0. 0. 0. 0. 0. 0. 0. 0. 0. 0. 0.
      0. 0. 0. 0. 0. 4.52488707e-003 0. 0. 0. 0. 0. 0. 0.
      1.50829565e-003 0. 0. 0. 0. 0. 0. 0. 0. 0. 0. 0. 0. 0. 0. 0.
      1.50829565e-003 0. 0. 0. 0. 0. 0. 0. 0. 0. 0. 0. 0. 0. 0. 0. 0. 0.
      0. 0. 0. 0. 0. 0. 0. 0. 0. 0. 0. 0. 0. 0. 0. 0. 0. 3.01659130e-003
      0. 0. 0. 0. 0. 0. 0. 1.50829565e-003 0. 0. 1.50829565e-003 0. 0.
      0. 0. 0. 0. 0. 0. 0. 0. 0. 0. 0. 1.50829565e-003 0. 0. 0. 0. 0.
      6.03318261e-003 0. 0. 0. 0. 0. 1.50829565e-003 0. 0. 0. 0.
      4.52488707e-003 0. 0. 0. 0. 0. 0. 0. 0. 0. 1.50829565e-003 0. 0.
      1.50829565e-003 0. 0. 0. 0. 0. 0. 0. 0. 0. 0. 0. 0. 0. 0.
      1.50829565e-003 0. 0. 0. 0. 0. 0. 0. 0. 0. 0. 0. 3.01659130e-003
      1.50829565e-003 1.50829565e-003 1.50829565e-003 0. 0. 0. 0.
      1.50829565e-003 0. 0. 6.03318261e-003 1.50829565e-003 0. 0. 0. 0.
      0. 0. 0. 0. 0. 0. 0. 1.50829565e-003 0. 3.01659130e-003 0. 0.
      1.50829565e-003 0. 0. 0. 0. 4.52488707e-003 0. 0. 0.
      1.50829565e-003 0. 3.01659130e-003 0. 0. 0. 0. 6.03318261e-003 0.
      0. 0. 0. 0. 0. 0. 0. 0. 0. 0. 0. 0. 0. 0. 0. 0. 0. 0. 0. 0. 0. 0.
      0. 0. 0. 0. 0. 0. 0. 0. 0. 0. 0. 0. 0. 0. 1.50829565e-003 0. 0. 0.
      3.01659130e-003 0. 0. 0. 1.50829565e-003 3.01659130e-003 0. 0. 0.
      0. 0. 0. 0. 0. 3.01659130e-003 0. 0. 0. 0. 0. 0. 1.50829565e-003
      0. 0. 0. 0. 0. 3.01659130e-003 6.03318261e-003 0. 0. 0. 0. 0. 0.
      0. 0. 0. 0. 0. 0. 0. 0. 0. 1.50829565e-003 0. 0. 0. 0. 0. 0. 0.
      3.01659130e-003 0. 0. 0. 0. 0. 0. 0. 0. 0. 0. 0. 0. 0.
      3.01659130e-003 0. 0. 0. 0. 0. 0. 0. 0. 0. 0. 0. 0. 0. 0. 0. 0. 0.
      0. 0. 0. 3.01659130e-003 0. 0. 0. 0. 0. 0. 0. 0. 0. 0. 0. 0. 0. 0.
      0. 0. 0. 0. 0. 1.50829565e-003 0. 0. 0. 0. 0. 0. 0. 0. 0. 0. 0. 0.
      0. 1.50829565e-003 1.50829565e-003 0. 3.01659130e-003 0. 0. 0. 0.
      0. 0. 0. 0. 0. 0. 0. 0. 0. 0. 0. 0. 0. 1.50829565e-003
      1.50829565e-003 0. 0. 0. 0. 0. 0. 0. 6.03318261e-003 0. 0. 0. 0.
      0. 3.01659130e-003 0. 0. 0. 0. 0. 0. 0. 0. 1.50829565e-003 0.
      1.50829565e-003 0. 0. 0. 0. 0. 0. 3.01659130e-003 0.
      6.03318261e-003 0. 0. 0. 0. 0. 0. 0. 0. 0. 0. 0. 0. 0. 0. 0. 0. 0.
      0. 0. 0. 0. 0. 0. 0. 0. 0. 0. 0. 0. 0. 0. 0. 0. 0. 0.
      1.50829565e-003 0. 1.50829565e-003 0. 0. 0. 0. 0. 0. 0. 0. 0.
      1.50829565e-003 0. 1.50829565e-003 0. 0. 0. 0. 0. 0.
      1.50829565e-003 0. 0. 0. 0. 0. 0. 0. 0. 0. 0. 0. 0. 0. 0.
      1.50829565e-003 0. 0. 0. 9.04977415e-003 0. 0. 0. 0. 0. 0. 0.
      1.50829565e-003 0. 0. 0. 1.50829565e-003 0. 0. 0. 0. 0. 0. 0. 0.
      0. 0. 0. 1.50829565e-003 0. 0. 0. 0. 0. 0. 0. 0. 0. 0.
      1.50829565e-003 0. 0. 1.50829565e-003 0. 0. 0. 0. 0. 0. 0. 0. 0.
      0. 0. 0. 0. 0. 0. 0. 0. 1.50829565e-003 0. 0. 0. 0.
      1.50829565e-003 0. 0. 4.52488707e-003 1.50829565e-003 0. 0.
      3.01659130e-003 0. 0. 0. 0. 0. 0. 0. 0. 0. 0. 0. 0. 0. 0. 0. 0. 0.
      0. 0. 0. 0. 0. 1.50829565e-003 0. 0. 0. 0. 3.01659130e-003 0. 0.
      0. 0. 0. 3.01659130e-003 0. 1.50829565e-003 1.50829565e-003 0. 0.
      6.03318261e-003 0. 0. 0. 0. 0. 0. 0. 1.50829565e-003 0. 0. 0.
      3.01659130e-003 0. 0. 1.50829565e-003 0. 0. 0. 0. 1.50829565e-003
      0. 0. 0. 0. 0. 0. 0. 0. 3.01659130e-003 0. 0. 1.50829565e-003 0.
      0. 0. 0. 0. 0. 0. 4.52488707e-003 0. 0. 0. 0. 0. 0. 0.
      3.01659130e-003 0. 0. 0. 0. 0. 0. 0. 0. 0. 0. 0. 0. 0.
      1.50829565e-003 0. 0. 7.54147815e-003 0. 0. 0. 0. 0.
      1.50829565e-003 1.50829565e-003 3.01659130e-003 0. 0. 0. 0.
      4.52488707e-003 0. 4.52488707e-003 0. 0. 0. 0. 3.01659130e-003 0.
      0. 0. 0. 0. 0. 0. 0. 3.01659130e-003 0. 0. 0. 0. 0. 0. 0. 0. 0. 0.
      0. 0. 0. 0. 0. 0. 0. 0. 0. 0. 0. 0. 0. 0. 0. 0. 0. 0. 0. 0. 0. 0.
      0. 0. 0. 1.50829565e-003 0. 1.50829565e-003 0. 0. 0. 0. 0. 0. 0.
      3.01659130e-003 0. 0. 3.01659130e-003 0. 0. 0. 1.50829565e-003 0.
      0. 0. 1.50829565e-003 0. 0. 0. 0. 0. 0. 7.54147815e-003 0. 0. 0.
      0. 0. 6.03318261e-003 0. 0. 0. 0. 0. 1.50829565e-003 0. 0. 0. 0.
      0. 0. 0. 0. 0. 3.01659130e-003 3.01659130e-003 0. 1.50829565e-003
      0. 0. 3.01659130e-003 0. 0. 0. 1.50829565e-003 0. 0. 0. 0. 0. 0.
      0. 0. 3.01659130e-003 0. 0. 0. 0. 3.01659130e-003 3.01659130e-003
      0. 0. 0. 0. 0. 0. 0. 0. 0. 0. 0. 0. 0. 0. 0. 0. 0. 0. 0. 0. 0. 0.
      0. 0. 0. 0. 0. 0. 0. 0. 0. 0. 0. 1.50829565e-003 0. 0. 0. 0. 0.
      1.50829565e-003 0. 0. 0. 1.50829565e-003 0. 0. 0. 0. 0.
      4.52488707e-003 0. 0. 0. 0. 0. 1.50829565e-003 0. 0. 0. 0. 0. 0.
      0. 0. 0. 1.50829565e-003 0. 0. 0. 0. 0. 0. 0. 0. 0. 0. 0. 0. 0. 0.
      0. 0. 0. 0. 1.50829565e-003 0. 0. 0. 0. 0. 0. 0. 0. 0.
      1.50829565e-003 0. 0. 0. 3.01659130e-003 0. 0. 0. 3.01659130e-003
      0. 3.01659130e-003 0. 0. 0. 0. 0. 0. 0. 1.50829565e-003 0. 0. 0.
      0. 0. 0. 0. 0. 0. 0. 0. 0. 0. 0. 0. 0. 0. 0. 0. 0. 0. 0. 0. 0.
      3.01659130e-003 0. 0. 0. 0. 0. 0. 0. 0. 0. 0. 6.03318261e-003 0.
      0. 0. 0. 0. 1.50829565e-003 1.50829565e-003 0. 0. 0. 0. 0. 0. 0.
      0. 0. 0. 0. 0. 0. 0. 0. 0. 0. 0. 0. 0. 0. 0. 0. 1.50829565e-003 0.
      0. 0. 0. 0. 3.01659130e-003 0. 1.50829565e-003 0. 0. 0. 0. 0. 0.
      0. 0. 0. 0. 0. 0. 0. 0. 0. 0. 0. 0. 0. 0. 0. 0. 0. 0. 0.
      1.50829565e-003 1.50829565e-003 0. 0. 0. 0. 0. 0. 0. 0. 0. 0. 0.
      0. 0. 1.50829565e-003 0. 0. 0. 0. 0. 0. 0. 0. 0. 0. 0. 0. 0. 0. 0.
      1.50829565e-003 0. 0. 0. 4.52488707e-003 0. 0. 0. 3.01659130e-003
      0. 0. 0. 0. 0. 0. 0. 0. 0. 3.01659130e-003 1.50829565e-003 0. 0.
      0. 0. 0. 0. 1.50829565e-003 0. 1.50829565e-003 0. 0. 0. 0. 0. 0.
      1.50829565e-003 0. 0. 0. 3.01659130e-003 0. 0. 3.01659130e-003 0.
      0. 0. 0. 1.50829565e-003 0. 0. 0. 1.50829565e-003 0. 0.
      1.50829565e-003 0. 0. 0. 0. 0. 0. 0. 0. 0. 0. 0. 0. 0. 0. 0. 0. 0.
      0. 0. 3.01659130e-003 0. 0. 0. 1.50829565e-003 0. 3.01659130e-003
      0. 0. 0. 3.01659130e-003 0. 0. 1.50829565e-003 0. 0. 0. 0.
      1.50829565e-003 3.01659130e-003 0. 0. 3.01659130e-003 0. 0. 0. 0.
      3.01659130e-003 0. 0. 0. 0. 1.50829565e-003 0. 0. 0. 0.
      1.50829565e-003 0. 0. 0. 0. 1.50829565e-003 0. 0. 0.
      1.50829565e-003 0. 1.50829565e-003 0. 0. 0. 0. 1.50829565e-003 0.
      0. 0. 0. 1.50829565e-003 1.50829565e-003 0. 0. 0. 0. 0. 0. 0.
      3.01659130e-003 0. 0. 1.50829565e-003 0. 0. 0. 0. 0. 0.
      1.50829565e-003 0. 0. 0. 1.50829565e-003 0. 0. 0. 0. 0.
      1.50829565e-003 0. 0. 0. 0. 1.50829565e-003 0. 0. 0. 0. 0. 0.
      1.50829565e-003 0. 4.52488707e-003 1.50829565e-003 0. 0.
      1.50829565e-003 0. 0. 0. 0. 0. 0. 0. 0. 0. 0. 0. 0. 0. 0. 0. 0. 0.
      0. 0. 0. 0. 0. 1.50829565e-003 0. 0. 1.50829565e-003 0.
      1.50829565e-003 0. 1.50829565e-003 0. 0. 0. 0. 0. 0. 0. 0.
      1.50829565e-003 0. 0. 0. 0. 0. 0. 0. 0. 0. 1.50829565e-003 0. 0.
      0. 0. 0. 1.50829565e-003 0. 0. 0. 0. 1.50829565e-003
      3.01659130e-003 0. 0. 0. 0. 1.50829565e-003 0. 0. 0. 0.
      1.50829565e-003 0. 0. 0. 0. 0. 0. 0. 0. 0. 0. 0. 0. 0.
      1.50829565e-003 0. 0. 0. 0. 0. 0. 0. 0. 0. 0. 0. 0. 0.
      1.50829565e-003 0. 0. 0. 0. 0. 0. 0. 0. 0. 0. 0. 0.
      1.50829565e-003 0. 0. 0. 0. 0. 6.03318261e-003 0. 1.50829565e-003
      0. 0. 0. 0. 0. 0. 0. 0. 0. 0. 1.50829565e-003 0. 0. 0. 0. 0. 0. 0.
      0. 0. 0. 0. 0. 0. 0. 0. 0. 0. 0. 0. 0. 0. 0. 1.50829565e-003 0. 0.
      0. 0. 0. 0. 1.50829565e-003 0. 0. 1.50829565e-003 0. 0.
      1.50829565e-003 0. 0. 3.01659130e-003 0. 0. 0. 0. 0. 0. 0.
      1.50829565e-003 0. 0. 0. 0. 1.50829565e-003 0. 0. 0.
      6.03318261e-003 0. 0. 0. 6.03318261e-003 0. 0. 0. 0.
      1.50829565e-003 0. 0. 1.50829565e-003 0. 0. 0. 0. 0. 0.
      1.50829565e-003 0. 0. 0. 0. 0. 0. 0. 0. 0. 1.50829565e-003
      4.52488707e-003 0. 0. 0. 0. 0. 0. 0. 0. 0. 0. 1.50829565e-003 0.
      0. 0. 0. 0. 0. 0. 0. 0. 0. 0. 3.01659130e-003 0. 0. 0. 0. 0. 0.
      4.52488707e-003 0. 1.50829565e-003 0. 0. 0. 0. 0. 0. 0. 0. 0. 0.
      1.50829565e-003 0. 0. 0. 0. 0. 0. 0. 0. 0. 0. 0. 1.50829565e-003
      0. 0. 0. 0. 0. 0. 0. 0. 0. 0. 3.01659130e-003 0. 0. 0.
      1.50829565e-003 0. 0. 0. 0. 0. 0. 0. 0. 1.50829565e-003 0. 0. 0.
      0. 0. 0. 0. 0. 0. 0. 0. 0. 0. 3.01659130e-003 0. 0. 0. 0. 0. 0. 0.
      0. 0. 0. 1.50829565e-003 0. 0. 0. 0. 0. 0. 0. 0. 4.52488707e-003
      0. 0. 0. 0. 0. 0. 0. 0. 0. 0. 0. 0. 0. 3.01659130e-003 0. 0. 0. 0.
      0. 0. 0. 0. 0. 0. 0. 0. 0. 1.50829565e-003 0. 0. 0. 0.
      1.50829565e-003 0. 1.50829565e-003 0. 1.50829565e-003 0. 0. 0. 0.
      0. 0. 0. 0. 1.50829565e-003 0. 0. 3.01659130e-003 0. 0. 0. 0. 0.
      4.52488707e-003 0. 0. 0. 0. 0. 0. 0. 0. 0. 0. 1.50829565e-003 0.
      0. 3.01659130e-003 1.50829565e-003 0. 0. 0. 0. 0. 0. 0. 0. 0. 0.
      0. 0. 1.50829565e-003 0. 0. 0. 0. 0. 1.50829565e-003 0. 0. 0. 0.
      0. 0. 0. 0. 0. 0. 0. 1.50829565e-003 1.50829565e-003 0. 0. 0. 0.
      0. 0. 0. 0. 0. 0. 0. 0. 0. 0. 0. 0. 0. 0. 4.52488707e-003 0. 0. 0.
      0. 0. 1.50829565e-003 0. 0. 0. 0. 0. 0. 0. 0. 0. 0. 0. 0. 0.
      6.03318261e-003 0. 0. 0. 0. 4.52488707e-003 3.01659130e-003 0. 0.
      0. 0. 0. 0. 0. 0. 0. 0. 0. 0. 0. 0. 0. 0. 0. 0. 0. 0. 0. 0. 0. 0.
      0. 0. 0. 0. 0. 0. 0. 0. 0. 0. 0. 0. 0. 0. 0. 0. 0. 0. 0. 0. 0. 0.
      1.50829565e-003 4.52488707e-003 0. 0. 0. 0. 0. 0. 3.01659130e-003
      0. 0. 1.50829565e-003 1.50829565e-003 0. 0. 0. 0. 0. 0. 0. 0. 0.
      0. 0. 0. 0. 0. 0. 0. 0. 0. 0. 0. 0. 0. 1.50829565e-003 0. 0. 0. 0.
      0. 0. 0. 0. 0. 0. 0. 0. 0. 0. 0. 1.50829565e-003 0.
      1.50829565e-003 0. 0. 0. 0. 0. 1.50829565e-003 0. 0. 0. 0. 0. 0.
      1.50829565e-003 0. 0. 0. 0. 0. 0. 0. 0. 0. 0. 0. 0. 0. 0. 0. 0. 0.
      0. 0. 0. 3.01659130e-003 0. 0. 0. 0. 0. 0. 0. 0. 0. 0. 0. 0.
      9.04977415e-003 0. 0. 1.50829565e-003 0. 0. 3.01659130e-003 0. 0.
      0. 3.01659130e-003 0. 0. 0. 3.01659130e-003 1.50829565e-003 0. 0.
      0. 0. 0. 0. 0. 0. 1.50829565e-003 1.50829565e-003 0.</_>
    <_>
      0. 0. 0. 0. 0. 1.63398695e-003 0. 0. 0. 0. 0. 0. 0. 0. 0. 0. 0. 0.
      0. 0. 0. 0. 1.63398695e-003 0. 0. 0. 3.26797389e-003 0. 0. 0. 0.
      0. 0. 1.63398695e-003 0. 0. 0. 0. 0. 0. 0. 0. 0. 0. 0. 0. 0. 0. 0.
      0. 0. 0. 0. 0. 0. 0. 0. 0. 0. 0. 0. 0. 0. 0. 0. 0. 0. 0. 0. 0. 0.
      0. 0. 0. 0. 0. 0. 1.63398702e-002 0. 0. 0. 0. 0. 0. 0.
      1.63398695e-003 1.63398695e-003 0. 0. 0. 0. 0. 1.63398695e-003 0.
      0. 0. 0. 0. 0. 0. 0. 0. 0. 0. 0. 0. 0. 0. 0. 0. 0. 0. 0. 0. 0. 0.
      1.63398695e-003 0. 1.63398695e-003 1.63398695e-003 0. 0. 0. 0. 0.
      0. 0. 0. 0. 0. 0. 0. 0. 0. 0. 0. 0. 0. 0. 1.63398695e-003 0. 0. 0.
      0. 0. 0. 0. 0. 0. 1.63398695e-003 0. 0. 0. 0. 0. 0. 0. 0. 0. 0. 0.
      0. 0. 0. 0. 0. 0. 0. 0. 0. 0. 0. 0. 0. 0. 0. 0. 1.63398695e-003 0.
      0. 0. 0. 0. 0. 0. 0. 0. 0. 0. 0. 0. 0. 0. 0. 0. 0. 0. 0. 0.
      4.90196096e-003 0. 0. 0. 0. 0. 0. 0. 0. 0. 0. 0. 0. 0. 0. 0. 0. 0.
      0. 0. 0. 0. 1.63398695e-003 0. 0. 0. 0. 0. 1.63398695e-003
      3.26797389e-003 0. 0. 0. 0. 0. 0. 0. 0. 0. 0. 0. 0. 0.
      3.26797389e-003 0. 0. 1.63398695e-003 0. 0. 0. 1.63398695e-003 0.
      0. 0. 0. 0. 0. 4.90196096e-003 0. 0. 0. 0. 0. 0. 0. 0. 0. 0. 0. 0.
      0. 0. 0. 0. 0. 0. 0. 0. 0. 0. 0. 0. 0. 0. 0. 0. 0. 0. 0. 0. 0. 0.
      0. 0. 0. 0. 0. 0. 0. 0. 0. 0. 1.63398695e-003 0. 0. 0. 0. 0. 0. 0.
      0. 0. 0. 0. 0. 0. 0. 0. 0. 0. 0. 0. 0. 0. 0. 0. 0. 0. 0. 0. 0. 0.
      0. 0. 0. 0. 0. 0. 0. 0. 0. 0. 0. 0. 0. 0. 4.90196096e-003 0. 0. 0.
      0. 0. 0. 0. 0. 0. 0. 0. 0. 1.63398695e-003 1.63398695e-003 0. 0.
      0. 0. 0. 0. 0. 0. 0. 0. 0. 0. 0. 4.90196096e-003 0. 0. 0. 0. 0. 0.
      0. 0. 0. 0. 0. 4.90196096e-003 0. 0. 0. 0. 0. 0. 0. 0. 0. 0. 0. 0.
      0. 0. 0. 0. 0. 0. 0. 0. 0. 0. 0. 0. 0. 0. 0. 0. 0. 0. 0. 0. 0. 0.
      0. 0. 0. 0. 0. 0. 0. 0. 3.26797389e-003 0. 0. 0. 0.
      1.63398695e-003 0. 0. 1.63398695e-003 0. 0. 3.26797389e-003 0. 0.
      0. 0. 0. 0. 0. 1.63398695e-003 0. 0. 0. 0. 0. 0. 0. 0. 0.
      1.63398695e-003 0. 0. 0. 0. 0. 0. 0. 3.26797389e-003 0. 0. 0. 0.
      0. 0. 6.53594779e-003 0. 0. 0. 0. 0. 0. 0. 0. 0. 0. 0. 0. 0.
      1.63398695e-003 0. 0. 0. 0. 0. 0. 0. 0. 0. 0. 0. 0. 0. 0. 0. 0. 0.
      0. 0. 0. 0. 0. 0. 0. 0. 0. 0. 0. 0. 0. 0. 0. 0. 0. 0. 0. 0. 0. 0.
      0. 1.63398695e-003 0. 0. 0. 0. 0. 0. 0. 0. 0. 1.63398695e-003 0.
      0. 0. 0. 0. 0. 3.26797389e-003 0. 0. 0. 0. 0. 0. 0. 0. 0. 0. 0. 0.
      0. 2.28758175e-002 0. 0. 0. 0. 0. 0. 0. 0. 0. 0. 0. 0. 0. 0. 0. 0.
      0. 0. 0. 0. 0. 0. 0. 0. 0. 0. 0. 0. 3.26797389e-003 0. 0. 0.
      9.80392192e-003 0. 0. 0. 0. 0. 0. 3.26797389e-003 0.
      3.26797389e-003 0. 0. 0. 0. 0. 0. 0. 0. 0. 0. 0. 0. 0. 0. 0. 0. 0.
      0. 0. 0. 0. 0. 0. 0. 0. 0. 1.63398695e-003 0. 0. 0. 0. 0. 0. 0. 0.
      0. 0. 0. 6.53594779e-003 0. 0. 0. 0. 0. 0. 0. 0. 0. 0. 0. 0. 0. 0.
      0. 0. 0. 0. 0. 0. 0. 0. 0. 0. 0. 0. 0. 0. 0. 0. 0. 0. 0. 0.
      1.63398695e-003 0. 0. 0. 0. 0. 0. 0. 0. 0. 0. 0. 0. 0. 0. 0. 0. 0.
      0. 1.63398695e-003 0. 0. 0. 3.26797389e-003 0. 1.63398695e-003 0.
      0. 0. 0. 0. 0. 0. 0. 0. 1.63398695e-003 0. 0. 0. 0. 0. 0. 0.
      1.63398695e-003 0. 0. 0. 0. 0. 0. 3.26797389e-003 0. 0. 0. 0. 0.
      0. 0. 0. 0. 0. 0. 0. 0. 0. 0. 0. 0. 0. 3.26797389e-003 0. 0. 0. 0.
      0. 0. 0. 3.26797389e-003 0. 0. 0. 0. 0. 0. 0. 0. 0.
      1.63398695e-003 0. 0. 0. 1.63398695e-003 0. 0. 0. 0. 0. 0.
      8.16993508e-003 0. 0. 0. 0. 0. 0. 0. 0. 0. 0. 0. 0. 0. 0. 0. 0. 0.
      0. 0. 0. 0. 0. 0. 0. 0. 0. 0. 0. 0. 0. 0. 0. 0. 0. 0. 0. 0. 0. 0.
      0. 0. 0. 0. 0. 0. 0. 0. 0. 0. 0. 0. 0. 0. 0. 0. 0. 0. 0. 0. 0. 0.
      0. 0. 0. 0. 0. 0. 0. 3.26797389e-003 0. 3.26797389e-003 0. 0. 0.
      0. 0. 0. 0. 0. 0. 0. 0. 0. 0. 0. 0. 0. 0. 0. 0. 0. 0. 0. 0.
      1.63398695e-003 0. 0. 0. 0. 0. 0. 0. 0. 1.63398695e-003 0. 0. 0.
      0. 0. 0. 0. 0. 0. 0. 0. 0. 0. 0. 0. 0. 0. 0. 0. 0. 0. 0. 0.
      1.63398695e-003 0. 0. 0. 0. 0. 0. 0. 0. 0. 0. 0. 0. 0. 0. 0. 0. 0.
      0. 4.24836613e-002 0. 0. 0. 0. 0. 0. 0. 0. 0. 0. 0. 0. 0. 0. 0. 0.
      0. 0. 0. 0. 0. 0. 0. 0. 0. 0. 0. 0. 0. 0. 0. 0. 0. 0. 0. 0.
      9.80392192e-003 0. 0. 4.90196096e-003 0. 0. 0. 0. 0. 0. 0. 0. 0.
      0. 0. 0. 0. 0. 0. 0. 0. 0. 0. 0. 0. 0. 0. 0. 0. 0. 0. 0. 0. 0. 0.
      1.63398695e-003 1.63398695e-003 3.26797389e-003 0. 1.63398695e-003
      0. 3.26797389e-003 0. 0. 0. 0. 0. 0. 0. 0. 0. 4.90196096e-003
      1.63398695e-003 0. 0. 0. 0. 0. 0. 0. 0. 0. 0. 0. 0. 0. 0.
      1.63398695e-003 0. 9.80392192e-003 0. 0. 0. 0. 0. 0. 0. 0. 0. 0.
      0. 0. 0. 0. 0. 0. 0. 0. 0. 0. 0. 0. 0. 0. 0. 0. 1.63398695e-003 0.
      0. 0. 0. 0. 0. 0. 3.26797389e-003 0. 0. 0. 0. 0. 0. 0. 0. 0. 0. 0.
      0. 0. 0. 0. 0. 0. 0. 0. 0. 0. 0. 0. 0. 0. 0. 0. 0. 0. 0. 0. 0. 0.
      0. 1.63398695e-003 4.90196096e-003 0. 0. 0. 0. 0. 0. 0. 0. 0. 0.
      0. 0. 0. 1.63398695e-003 0. 1.63398695e-003 0. 0. 0. 0. 0. 0. 0.
      0. 0. 0. 0. 0. 0. 0. 0. 1.63398695e-003 0. 0. 0. 1.63398695e-003
      0. 1.63398695e-003 3.26797389e-003 0. 0. 0. 3.26797389e-003 0.
      6.53594779e-003 0. 0. 0. 0. 0. 0. 0. 0. 0. 0. 0. 0. 0. 0. 0. 0. 0.
      0. 8.16993508e-003 0. 0. 0. 0. 0. 0. 0. 0. 0. 0. 0. 0. 0. 0. 0. 0.
      0. 0. 0. 0. 0. 0. 0. 0. 0. 0. 0. 0. 0. 1.63398695e-003 0. 0. 0. 0.
      0. 0. 0. 8.16993508e-003 0. 0. 0. 0. 0. 0. 0. 0. 0. 0. 0. 0. 0. 0.
      0. 0. 0. 0. 0. 0. 0. 0. 0. 0. 0. 0. 0. 0. 0. 0. 0. 0. 0. 0. 0. 0.
      0. 0. 0. 0. 3.26797389e-003 0. 0. 0. 0. 0. 0. 0. 0. 0. 0. 0. 0.
      1.63398695e-003 0. 0. 0. 4.90196096e-003 0. 0. 0. 0. 0. 0. 0. 0.
      0. 0. 0. 0. 0. 0. 0. 0. 0. 3.26797389e-003 0. 0. 0. 0. 0. 0. 0. 0.
      0. 0. 0. 0. 0. 0. 0. 0. 0. 0. 0. 0. 0. 0. 0. 0. 0. 0. 0. 0. 0. 0.
      0. 0. 0. 0. 0. 0. 0. 0. 0. 0. 0. 0. 1.63398695e-003 0.
      1.63398695e-003 0. 0. 0. 0. 0. 1.63398695e-003 0. 0. 0. 0. 0. 0.
      0. 1.63398695e-003 1.63398695e-003 0. 0. 0. 0. 0. 0. 0. 0. 0. 0.
      1.63398695e-003 1.63398695e-003 0. 0. 0. 0. 0. 0. 0. 0. 0. 0. 0.
      0. 1.63398695e-003 0. 0. 0. 0. 0. 0. 0. 0. 0. 0. 0. 0. 0. 0. 0.
      1.63398695e-003 0. 0. 0. 0. 0. 0. 0. 0. 0. 0. 0. 0. 0. 0. 0. 0. 0.
      0. 0. 0. 0. 0. 1.63398695e-003 0. 1.63398702e-002 0. 0.
      2.94117648e-002 0. 0. 0. 0. 0. 0. 0. 0. 0. 0. 0. 0. 0. 0. 0. 0. 0.
      0. 0. 0. 0. 0. 0. 0. 1.63398695e-003 0. 0. 0. 0. 0. 0. 0. 0. 0. 0.
      0. 0. 0. 0. 0. 0. 0. 0. 0. 0. 0. 0. 0. 1.63398695e-003 0. 0. 0.
      8.16993508e-003 0. 8.16993508e-003 0. 0. 0. 0. 0. 0. 0. 0. 0. 0.
      0. 0. 0. 0. 0. 1.14379087e-002 0. 0. 0. 0. 0. 0. 0. 0.
      1.63398695e-003 0. 0. 0. 0. 0. 0. 0. 0. 0. 0. 0. 0. 0. 0. 0. 0. 0.
      0. 0. 0. 0. 3.26797389e-003 0. 0. 0. 0. 0. 0. 0. 0. 0. 0. 0. 0. 0.
      0. 0. 0. 0. 0. 0. 1.63398695e-003 0. 0. 0. 0. 0. 0. 0. 0. 0. 0. 0.
      1.63398695e-003 0. 0. 0. 0. 0. 0. 0. 0. 0. 0. 0. 0. 0. 0. 0. 0. 0.
      0. 0. 0. 0. 0. 0. 0. 0. 0. 0. 0. 0. 1.63398695e-003 0. 0. 0. 0. 0.
      0. 0. 0. 0. 3.26797389e-003 1.63398695e-003 0. 0. 0. 0.
      1.63398695e-003 0. 0. 0. 0. 0. 0. 0. 0. 0. 1.63398695e-003 0.
      1.63398695e-003 0. 0. 0. 0. 1.63398695e-003 0. 0. 0. 0. 0. 0. 0.
      0. 0. 0. 0. 1.63398695e-003 0. 0. 0. 0. 0. 0. 0. 1.63398695e-003
      0. 0. 0. 1.63398695e-003 0. 0. 0. 0. 0. 0. 0. 0. 1.63398695e-003
      0. 1.63398695e-003 0. 0. 0. 1.63398695e-003 0. 0. 0. 0. 0. 0. 0.
      0. 0. 0. 1.63398695e-003 3.26797389e-003 0. 3.26797389e-003 0. 0.
      0. 0. 0. 1.63398695e-003 0. 0. 0. 0. 0. 0. 0. 0. 0. 0. 0. 0. 0. 0.
      0. 0. 6.53594779e-003 0. 0. 0. 0. 0. 0. 0. 0. 0. 0. 0. 0. 0. 0. 0.
      0. 0. 0. 0. 0. 0. 0. 0. 1.63398695e-003 0. 0. 0. 4.90196096e-003
      0. 0. 0. 0. 0. 9.80392192e-003 0. 0. 0. 0. 0. 1.63398695e-003 0.
      0. 0. 0. 0. 0. 0. 0. 0. 0. 0. 0. 0. 0. 0. 0. 0. 0. 0. 0. 0. 0. 0.
      0. 0. 0. 0. 0. 0. 0. 0. 0. 0. 0. 0. 0. 0. 0. 0. 0. 0. 0. 0. 0.
      1.63398695e-003 0. 0. 0. 0. 0. 0. 0. 0. 0. 0. 0. 0. 0. 0. 0. 0. 0.
      1.63398695e-003 0. 0. 0. 0. 1.63398695e-003 3.26797389e-003 0. 0.
      0. 0. 0. 0. 0. 0. 0. 0. 0. 0. 3.26797389e-003 0. 1.63398695e-003
      0. 0. 0. 0. 0. 0. 0. 0. 0. 0. 0. 0. 1.63398695e-003 0. 0. 0. 0. 0.
      1.63398695e-003 0. 0. 0. 0. 0. 0. 0. 0. 0. 0. 0. 0. 0. 0. 0. 0. 0.
      0. 0. 1.63398695e-003 0. 0. 1.63398695e-003 0. 0. 0. 0. 0. 0. 0.
      0. 0. 0. 0. 0. 0. 0. 0. 0. 0. 0. 0. 0. 0. 0. 0. 0. 0. 0.
      1.63398695e-003 0. 0. 0. 1.63398695e-003 0. 0. 0. 0. 0. 0. 0. 0.
      0. 0. 0. 0. 0. 0. 0. 0. 0. 0. 0. 0. 0. 0. 0. 0. 0. 0.
      4.90196096e-003 1.63398695e-003 3.26797389e-003 0. 0.
      6.53594779e-003 0. 0. 0. 0. 0. 0. 1.20915033e-001 0. 0. 0. 0. 0.
      0. 0. 0. 0. 0. 0. 1.63398695e-003 0. 0. 0. 0. 0. 0. 0. 0.
      1.63398695e-003 0. 0. 0. 0. 0. 0. 0. 0. 0. 0. 0. 0. 0. 0. 0. 0. 0.
      0. 0. 0. 0. 0. 0. 0. 0. 0. 0. 0. 0. 0. 0. 0. 0. 0. 1.14379087e-002
      0. 0. 0. 0. 0. 0. 0. 0. 0. 0. 0. 0. 0. 4.90196096e-003 0. 0. 0. 0.
      0. 0. 0. 0. 1.63398695e-003 1.63398695e-003 0. 1.96078438e-002 0.
      0. 0. 0. 0. 0. 0. 0. 0. 0. 0. 0. 0. 0. 0. 0. 0. 0. 0. 0. 0. 0. 0.
      0. 0. 0. 1.63398695e-003 0. 1.63398695e-003 0. 0. 0. 0. 0. 0. 0.
      1.63398695e-003 0. 3.26797389e-003 0. 0. 0. 0. 1.63398695e-003 0.
      0. 0. 0. 0. 0. 0. 0. 0. 0. 0. 0. 0. 0. 0. 0. 0. 0. 0. 0. 0. 0. 0.
      0. 1.63398695e-003 0. 0. 0. 0. 0. 0. 0. 0. 5.71895428e-002 0.
      8.16993508e-003 0. 0. 0. 0. 0. 1.63398695e-003 0. 0. 0. 0. 0. 0.
      0. 0. 1.63398695e-003 0. 0. 0. 0. 0. 0. 0. 0. 0. 0. 0. 0. 0. 0.
      1.63398695e-003 1.63398695e-003 0. 0. 0. 3.26797389e-003 0. 0. 0.
      0. 0. 0. 0. 0. 0. 0. 0. 0. 0. 0. 0. 0. 0. 0. 0. 0. 0. 0. 0. 0. 0.
      0. 0. 0. 0. 0. 0. 0. 0. 0. 0. 0. 0. 0. 0. 0. 0. 0. 0. 0. 0. 0. 0.
      0. 0. 0. 0. 0. 0. 0. 0. 0. 0. 0. 0. 0. 0. 0. 1.63398695e-003 0.
      4.90196096e-003 0. 0. 0. 0. 1.79738570e-002 0. 0. 0. 0. 0. 0. 0.
      0. 0. 0. 0. 0. 0. 0. 0. 0. 0. 0. 0. 0. 0. 0. 0. 1.63398695e-003 0.
      0. 0. 1.63398695e-003 0. 0. 0. 0. 0. 1.63398695e-003
      1.63398695e-003 0. 0. 0. 0. 0. 0. 9.80392192e-003 0. 0.
      1.63398695e-003 0. 0. 0. 0. 0. 0. 0. 0. 0. 0. 0. 0. 0. 0. 0. 0. 0.
      0. 0. 0. 0. 0. 0. 0. 0. 0. 0. 0. 1.63398695e-003 0. 0. 0. 0. 0. 0.
      0. 0. 0. 3.26797389e-003 0. 0. 1.63398695e-003 0. 0. 0. 0. 0.
      3.26797389e-003 0. 0. 0. 0. 0. 0. 0. 0. 0. 0. 0. 0. 0. 0. 0.
      6.53594779e-003 0. 0. 0. 0. 0. 0. 0. 0. 0. 0. 0. 0. 0. 0. 0. 0. 0.
      0. 0. 0. 0. 0. 0. 0. 0. 0. 0. 0. 4.90196096e-003 0. 0. 0. 0. 0. 0.
      0. 0. 0. 0. 0. 0. 0. 0. 0. 0. 0. 0. 0. 0. 0. 0. 0. 0. 0. 0. 0. 0.
      0. 0. 0. 0. 0. 0. 0. 0. 0. 0. 0. 0. 0. 1.63398695e-003 0. 0. 0. 0.
      0. 0. 0. 1.14379087e-002 0. 0. 0. 0. 0. 0. 0. 1.63398695e-003 0.
      0. 0. 0. 4.90196096e-003 0. 0. 0. 0. 0. 0. 0. 0. 0. 0. 0. 0. 0. 0.
      0. 0. 0. 0. 0. 0. 0. 0. 0. 0. 0. 0. 1.63398695e-003 0.
      1.63398695e-003 0. 0. 0. 0. 0. 0. 0. 0. 0. 0. 0. 0. 0. 0. 0. 0. 0.
      1.63398695e-003 0. 0. 0. 0. 0. 0. 0. 0. 0. 0. 0. 0. 0. 0. 0. 0. 0.
      0. 0. 0. 0. 0. 0. 0. 0. 0. 0. 3.26797389e-003 0. 0. 0. 0. 0. 0. 0.
      0. 1.63398695e-003 0. 0. 0. 0. 0. 0. 0. 0. 0. 0. 0. 0. 0. 0. 0. 0.
      0. 0. 0. 0. 0. 0. 0. 0. 0. 0. 0. 0. 6.53594779e-003 0. 0. 0. 0. 0.
      0. 0. 0. 0. 0. 0. 0. 0. 0. 0. 0. 0. 0. 0. 1.63398695e-003 0. 0. 0.
      0. 0. 0. 0. 0. 1.63398695e-003 0. 0. 0. 0. 0. 0. 0. 0. 0. 0. 0.
      1.63398695e-003 0. 0. 0. 0. 0. 0. 0. 0. 0. 0. 0. 0. 0. 0. 0. 0. 0.
      0. 0. 0. 0. 0. 0. 0. 0. 0. 0. 0. 0. 0. 0. 0. 0. 0. 0. 0. 0. 0. 0.
      0. 0. 0. 0. 0. 0. 0. 0. 0. 0. 0. 0. 0. 0. 0. 1.63398695e-003 0. 0.
      0. 0. 0. 0. 0. 0. 0. 0. 0. 0. 0. 0. 0. 0. 0. 0. 0. 0. 0. 0. 0. 0.
      0. 0. 0. 0. 0. 0. 0. 0. 0. 0. 0. 0. 0. 1.63398695e-003 0. 0. 0. 0.
      0. 0. 0. 0. 0. 0. 0. 0. 0. 0. 0. 0. 0. 0. 0. 1.63398695e-003 0. 0.
      0. 0. 0. 0. 0. 0. 0. 0. 0. 0. 0. 0. 0. 0. 0. 0. 0. 0. 0. 0. 0. 0.
      0. 0. 0. 0. 0. 0. 0. 0. 0. 0. 0. 0. 0. 0. 0. 3.26797389e-003 0. 0.
      0. 0. 0. 0. 0. 0. 0. 0. 0. 0. 0. 3.26797389e-003 0. 0. 0. 0. 0. 0.
      0. 0. 1.63398695e-003 0. 0. 0. 0. 0. 0. 0. 0. 0. 0. 0. 0. 0. 0. 0.
      0. 0. 0. 0. 0. 0. 0. 0. 0. 0. 1.63398695e-003 0. 0. 0.
      1.63398695e-003 0. 0. 0. 0. 0. 0. 0. 0. 4.90196096e-003 0. 0. 0.
      0. 0. 0. 0. 0. 0. 0. 0. 0. 0. 0. 0. 0. 0. 0. 0. 0. 0. 0. 0. 0. 0.
      0. 0. 0. 0. 1.63398695e-003 0. 0. 0. 0. 0. 0. 0. 0. 0. 0. 0. 0. 0.
      0. 0. 0. 0. 0. 0. 0. 0. 0. 0. 0. 0. 3.92156877e-002 0. 0. 0. 0. 0.
      0. 0. 0. 0. 0. 3.26797389e-003 0. 0. 0. 3.26797389e-003 0. 0. 0.
      0. 1.63398695e-003 0. 0. 0. 0. 0. 0. 0. 0. 0. 1.63398695e-003 0.
      0. 0. 0. 0. 0. 0. 0. 0. 0. 0. 4.90196096e-003 0. 0. 0. 0. 0. 0. 0.
      0. 0. 0. 0. 0. 0. 0. 0. 0. 0. 0. 0. 0. 0. 3.26797389e-003
      1.63398695e-003 0. 0. 0. 0. 0. 0. 0. 0. 0. 0. 0. 0. 0. 0. 0. 0. 0.
      0. 0. 0. 0. 0. 0. 0. 0. 0. 0. 0. 0. 0. 0. 0. 0. 0. 0. 0. 0. 0. 0.
      0. 0. 0. 0. 0. 0. 0. 0. 0. 0. 0. 0. 0. 0. 1.63398695e-003 0. 0. 0.
      0. 0. 0. 0. 0. 0. 0. 0. 0. 0. 0. 0. 0. 0. 0. 0. 0. 0. 0. 0. 0. 0.
      0. 1.63398695e-003 0. 0. 0. 0. 0. 0. 0. 0. 0. 1.63398695e-003 0.
      0. 0. 0. 0. 0. 0. 0. 0. 1.63398695e-003 0. 0. 0. 0. 0. 0. 0. 0. 0.
      0. 0. 0. 0. 0. 0. 0. 0. 0. 1.63398695e-003 0. 0. 0. 0. 0. 0. 0. 0.
      0.</_>
    <_>
      1.63398695e-003 0. 0. 0. 0. 1.63398695e-003 0. 0. 0. 0. 0. 0. 0.
      0. 0. 0. 0. 0. 0. 0. 0. 0. 0. 0. 0. 1.63398695e-003 0. 0. 0. 0. 0.
      0. 0. 0. 0. 0. 0. 0. 0. 0. 0. 0. 0. 0. 0. 0. 1.63398695e-003 0. 0.
      0. 0. 0. 0. 0. 0. 0. 0. 0. 0. 0. 0. 0. 0. 0. 1.63398695e-003 0. 0.
      0. 0. 0. 0. 0. 0. 0. 0. 0. 0. 1.14379087e-002 0. 0. 0. 0. 0. 0. 0.
      1.63398695e-003 0. 0. 0. 0. 0. 0. 0. 0. 0. 0. 1.63398695e-003 0.
      0. 0. 0. 0. 0. 0. 0. 0. 0. 0. 0. 0. 0. 0. 0. 0. 0. 0. 0. 0. 0. 0.
      0. 0. 0. 0. 0. 0. 0. 0. 0. 0. 0. 0. 0. 0. 0. 0. 0. 0. 0. 0. 0. 0.
      0. 0. 0. 0. 0. 0. 0. 0. 0. 0. 0. 0. 0. 0. 0. 0. 0. 0. 0. 0. 0. 0.
      0. 0. 0. 0. 0. 0. 0. 0. 0. 0. 0. 0. 0. 0. 0. 6.53594779e-003 0. 0.
      0. 0. 0. 1.63398695e-003 1.63398695e-003 0. 0. 0. 0.
      3.26797389e-003 0. 0. 0. 0. 0. 0. 0. 0. 3.26797389e-003 0. 0. 0.
      0. 0. 0. 0. 0. 0. 0. 0. 0. 0. 0. 0. 0. 0. 0. 0. 0. 0. 0. 0. 0. 0.
      0. 1.63398695e-003 0. 0. 0. 0. 0. 0. 0. 0. 0. 0. 0. 0. 0. 0. 0. 0.
      1.63398695e-003 0. 0. 0. 0. 0. 0. 4.90196096e-003 0. 0. 0. 0. 0.
      0. 0. 0. 0. 0. 0. 0. 0. 0. 0. 0. 0. 1.63398695e-003 0. 0. 0. 0. 0.
      0. 0. 0. 0. 0. 0. 0. 0. 0. 0. 0. 0. 0. 0. 0. 0. 0. 0. 0. 0. 0. 0.
      0. 0. 0. 0. 0. 0. 0. 0. 0. 0. 0. 0. 0. 0. 3.26797389e-003 0.
      1.63398695e-003 0. 0. 0. 0. 0. 0. 0. 0. 0. 0. 0. 0. 0. 0. 0. 0. 0.
      0. 0. 0. 0. 0. 0. 0. 0. 0. 0. 1.63398695e-003 0. 0. 0.
      1.63398695e-003 0. 0. 0. 0. 0. 0. 0. 0. 0. 0. 1.63398695e-003 0.
      0. 0. 0. 0. 0. 0. 0. 4.90196096e-003 0. 0. 0. 0. 0. 0. 0. 0. 0. 0.
      0. 0. 0. 0. 0. 0. 0. 0. 0. 0. 0. 0. 0. 0. 0. 0. 0. 0. 0. 0.
      6.53594779e-003 0. 0. 0. 0. 0. 0. 0. 0. 0. 0. 1.63398695e-003 0.
      0. 0. 0. 0. 0. 0. 0. 0. 0. 0. 0. 0. 0. 0. 0. 0. 0. 0. 0. 0. 0. 0.
      0. 0. 1.63398695e-003 0. 0. 0. 0. 0. 0. 0. 0. 0. 0. 0. 0. 0. 0. 0.
      0. 0. 0. 0. 0. 0. 0. 0. 0. 0. 0. 0. 0. 0. 0. 0. 0. 0. 0. 0.
      1.63398695e-003 0. 0. 0. 0. 4.90196096e-003 0. 0. 0. 0. 0. 0. 0.
      0. 0. 0. 0. 0. 0. 0. 0. 1.63398695e-003 0. 0. 0. 8.16993508e-003
      0. 0. 0. 0. 0. 0. 0. 0. 0. 0. 0. 0. 0. 0. 0. 0. 1.63398695e-003 0.
      0. 0. 0. 0. 1.63398695e-003 0. 0. 0. 0. 0. 0. 0. 0. 0. 0. 0. 0.
      1.63398695e-003 0. 0. 0. 0. 0. 1.63398695e-003 0. 0. 0. 0. 0. 0.
      0. 0. 0. 0. 0. 0. 0. 0. 0. 0. 1.63398695e-003 0. 0. 0. 0.
      4.24836613e-002 3.26797389e-003 0. 0. 0. 0. 0. 0. 0. 0. 0. 0. 0.
      0. 0. 0. 0. 0. 0. 0. 0. 0. 0. 0. 0. 0. 0. 0. 0. 0. 0.
      1.63398695e-003 0. 0. 0. 0. 0. 0. 0. 6.53594779e-003 0. 0. 0. 0.
      0. 1.63398695e-003 0. 0. 0. 0. 0. 0. 0. 0. 0. 0. 0. 0. 0. 0. 0. 0.
      0. 0. 0. 0. 0. 0. 0. 0. 0. 0. 0. 0. 0. 0. 0. 0. 0. 0.
      3.26797389e-003 0. 0. 0. 0. 0. 0. 0. 0. 0. 0. 0. 0. 0. 0. 0. 0.
      1.63398695e-003 0. 0. 0. 0. 0. 1.63398695e-003 0. 0. 0. 0. 0. 0.
      0. 0. 0. 0. 0. 0. 0. 0. 1.63398695e-003 0. 0. 0. 0. 0. 0. 0. 0. 0.
      0. 0. 0. 0. 0. 0. 0. 0. 0. 0. 0. 0. 0. 0. 0. 0. 0. 0. 0. 0. 0. 0.
      0. 0. 0. 0. 0. 0. 0. 0. 0. 0. 0. 0. 0. 0. 0. 0. 0. 0. 0. 0.
      1.63398695e-003 0. 0. 0. 0. 0. 0. 0. 0. 0. 0. 0. 0. 0. 0. 0. 0. 0.
      0. 0. 0. 0. 0. 0. 0. 0. 0. 0. 0. 0. 0. 0. 0. 0. 0. 0. 0. 0. 0. 0.
      0. 0. 0. 0. 3.26797389e-003 0. 0. 0. 0. 0. 0. 0. 0. 0. 0. 0. 0. 0.
      0. 0. 0. 1.63398695e-003 0. 0. 0. 0. 0. 0. 0. 0. 0. 0. 0. 0. 0. 0.
      0. 0. 0. 0. 0. 0. 0. 0. 0. 0. 0. 0. 0. 0. 0. 0. 0. 0. 0. 0. 0. 0.
      1.63398695e-003 0. 0. 0. 0. 0. 0. 0. 0. 0. 0. 0. 0. 0. 0. 0. 0. 0.
      0. 0. 0. 0. 0. 0. 0. 0. 0. 0. 0. 0. 0. 0. 0. 0. 3.26797389e-003 0.
      0. 0. 0. 0. 0. 0. 0. 0. 0. 0. 0. 0. 0. 0. 0. 0. 0. 0. 0. 0. 0. 0.
      0. 0. 0. 0. 0. 0. 0. 0. 0. 0. 0. 0. 0. 0. 0. 0. 0. 0.
