<?xml version="1.0"?>
<opencv_storage>
<my_svm type_id="opencv-ml-svm">
  <svm_type>C_SVC</svm_type>
  <kernel><type>RBF</type>
    <gamma>10.</gamma></kernel>
  <C>15.</C>
  <term_criteria><epsilon>2.2204460492503131e-016</epsilon>
    <iterations>100</iterations></term_criteria>
  <var_all>3000</var_all>
  <var_count>3000</var_count>
  <class_count>2</class_count>
  <class_labels type_id="opencv-matrix">
    <rows>1</rows>
    <cols>2</cols>
    <dt>i</dt>
    <data>
      -1 1</data></class_labels>
  <sv_total>148</sv_total>
  <support_vectors>
    <_>
      0. 0. 0. 0. 0. 0. 0. 0. 0. 1.50829565e-003 0. 1.50829565e-003 0.
      3.01659130e-003 0. 0. 0. 0. 0. 0. 0. 0. 0. 0. 0. 0.
      3.01659130e-003 0. 0. 0. 0. 0. 0. 0. 0. 0. 0. 0. 0. 0. 0. 0. 0. 0.
      0. 0. 1.50829565e-003 0. 0. 0. 0. 0. 1.50829565e-003 0. 0. 0. 0.
      3.01659130e-003 0. 0. 0. 1.50829565e-003 0. 0. 0. 0. 0. 0. 0. 0.
      0. 0. 0. 0. 0. 1.50829565e-003 0. 6.03318261e-003 0. 0. 0. 0.
      1.50829565e-003 0. 0. 6.03318261e-003 1.50829565e-003 0. 0. 0. 0.
      0. 0. 0. 1.50829565e-003 0. 0. 0. 0. 0. 0. 0. 0. 0. 0. 0. 0. 0.
      1.20663652e-002 0. 0. 0. 0. 0. 0. 0. 1.50829565e-003 0. 0. 0. 0.
      0. 0. 0. 0. 3.01659130e-003 1.50829565e-003 0. 0. 0. 0. 0. 0. 0.
      0. 0. 0. 0. 0. 0. 0. 0. 0. 0. 3.01659130e-003 0. 0. 0. 0.
      1.50829565e-003 0. 0. 0. 0. 0. 1.50829565e-003 0. 0. 0. 0. 0. 0.
      0. 0. 0. 3.01659130e-003 0. 1.50829565e-003 0. 0. 0. 0. 0. 0. 0.
      0. 0. 1.50829565e-003 1.50829565e-003 0. 0. 1.50829565e-003 0. 0.
      0. 0. 3.01659130e-003 0. 0. 0. 0. 0. 0. 0. 0. 0. 0. 0.
      1.50829565e-003 0. 1.50829565e-003 0. 0. 0. 0. 0. 0.
      1.50829565e-003 0. 0. 1.50829565e-003 0. 0. 0. 0. 0.
      1.50829565e-003 0. 0. 0. 0. 0. 0. 0. 1.50829565e-003
      3.01659130e-003 0. 1.35746608e-002 0. 0. 0. 1.50829565e-003 0. 0.
      0. 0. 0. 3.01659130e-003 0. 0. 0. 0. 0. 0. 0. 0. 0. 0. 0.
      1.50829565e-003 0. 0. 0. 0. 0. 0. 1.50829565e-003 0. 0. 0. 0. 0.
      1.50829565e-003 0. 0. 0. 0. 0. 0. 0. 0. 0. 0. 0. 0. 0. 0. 0. 0.
      1.50829565e-003 0. 0. 0. 1.50829565e-003 0. 0. 0. 1.50829565e-003
      0. 0. 3.01659130e-003 0. 0. 0. 1.50829565e-003 0. 4.52488707e-003
      0. 0. 0. 0. 0. 0. 0. 0. 0. 0. 0. 0. 0. 0. 0. 0. 0. 0. 0. 0. 0. 0.
      0. 0. 0. 0. 3.01659130e-003 0. 0. 0. 0. 0. 0. 0. 0. 0. 0. 0.
      1.50829565e-003 0. 0. 0. 0. 0. 0. 0. 0. 0. 1.50829565e-003 0. 0.
      0. 0. 0. 0. 0. 0. 0. 3.01659130e-003 0. 1.50829565e-003
      1.50829565e-003 0. 0. 0. 0. 0. 0. 0. 1.50829565e-003
      1.50829565e-003 0. 0. 0. 0. 0. 0. 0. 0. 0. 0. 0. 0. 0. 0. 0. 0. 0.
      1.50829565e-003 0. 0. 0. 1.50829565e-003 0. 0. 0. 0. 0. 0. 0. 0.
      0. 0. 0. 1.50829565e-003 0. 0. 0. 0. 0. 0. 0. 0. 0. 0. 0. 0. 0. 0.
      0. 0. 0. 0. 0. 0. 0. 0. 0. 0. 0. 0. 1.50829565e-003 0. 0. 0. 0.
      1.50829565e-003 0. 0. 0. 0. 1.50829565e-003 0. 0. 0. 0.
      1.50829565e-003 0. 0. 0. 0. 0. 3.01659130e-003 0. 0. 0. 0. 0. 0.
      0. 0. 0. 0. 0. 0. 4.52488707e-003 0. 0. 0. 0. 0. 1.50829565e-003
      0. 0. 1.50829565e-003 0. 0. 0. 0. 0. 0. 0. 0. 0. 0.
      1.50829565e-003 0. 1.50829565e-003 1.50829565e-003 0.
      3.01659130e-003 0. 0. 0. 0. 0. 0. 7.54147815e-003 0. 0.
      1.50829565e-003 0. 0. 0. 0. 0. 0. 0. 0. 0. 0. 0. 0. 0. 0. 0.
      1.50829565e-003 0. 0. 0. 0. 1.50829565e-003 0. 0. 0. 0. 0. 0.
      1.50829565e-003 0. 0. 0. 0. 0. 0. 0. 1.50829565e-003 0. 0.
      1.50829565e-003 0. 0. 0. 0. 0. 0. 0. 1.50829565e-003 0. 0. 0. 0.
      0. 0. 0. 0. 0. 0. 0. 0. 0. 3.01659130e-003 0. 0. 1.50829565e-003
      0. 0. 0. 0. 0. 0. 0. 1.50829565e-003 0. 0. 0. 0. 0. 0. 0. 0. 0. 0.
      1.50829565e-003 0. 0. 0. 0. 0. 4.52488707e-003 0. 0. 0.
      1.50829565e-003 0. 0. 0. 3.01659130e-003 0. 0. 0. 0. 0. 0. 0. 0.
      0. 0. 0. 0. 0. 0. 0. 0. 0. 0. 0. 0. 0. 0. 0. 0. 0. 1.50829565e-003
      0. 0. 0. 1.50829565e-003 0. 0. 0. 1.50829565e-003 0. 0. 0. 0. 0.
      0. 0. 1.50829565e-003 0. 0. 0. 0. 0. 0. 0. 0. 0. 0. 0. 0. 0. 0. 0.
      0. 1.50829565e-003 1.50829565e-003 0. 1.50829565e-003 0. 0. 0. 0.
      0. 0. 0. 0. 0. 0. 0. 0. 0. 0. 0. 0. 0. 0. 3.01659130e-003 0. 0. 0.
      0. 0. 0. 1.50829565e-003 0. 0. 3.01659130e-003 1.50829565e-003
      1.50829565e-003 0. 0. 0. 0. 0. 0. 0. 1.50829565e-003
      1.50829565e-003 1.50829565e-003 1.50829565e-003 0. 0.
      3.01659130e-003 0. 0. 0. 0. 0. 1.50829565e-003 0. 0. 0. 0. 0. 0.
      0. 0. 0. 0. 0. 3.01659130e-003 0. 0. 1.50829565e-003 0. 0. 0. 0.
      0. 6.03318261e-003 0. 0. 0. 0. 0. 0. 0. 0. 0. 0. 0. 0. 0. 0. 0. 0.
      0. 0. 0. 0. 0. 0. 1.50829565e-003 0. 1.50829565e-003 0.
      1.50829565e-003 0. 0. 0. 0. 0. 1.50829565e-003 0. 0. 0. 0. 0. 0.
      0. 0. 0. 3.01659130e-003 1.50829565e-003 0. 0. 0. 0. 0. 0.
      1.50829565e-003 0. 0. 0. 0. 0. 0. 0. 0. 0. 1.05580697e-002 0. 0.
      0. 0. 0. 0. 0. 0. 4.52488707e-003 0. 0. 0. 0. 0. 0. 0. 0. 0.
      3.01659130e-003 0. 0. 0. 0. 0. 1.50829565e-003 0. 0. 0. 0. 0. 0.
      1.50829565e-003 4.52488707e-003 0. 0. 0. 0. 0. 0. 0. 0. 0. 0. 0.
      0. 1.50829565e-003 0. 0. 0. 0. 0. 0. 0. 0. 0. 3.01659130e-003 0.
      0. 1.50829565e-003 0. 0. 0. 0. 0. 0. 0. 3.01659130e-003 0. 0. 0.
      0. 0. 0. 0. 0. 1.50829565e-003 0. 0. 0. 0. 0. 1.50829565e-003
      1.50829565e-003 0. 0. 1.50829565e-003 3.01659130e-003 0. 0. 0.
      1.50829565e-003 0. 0. 0. 0. 4.52488707e-003 0. 0. 0. 0. 0. 0. 0.
      0. 0. 0. 0. 1.50829565e-003 0. 0. 4.52488707e-003 0.
      3.01659130e-003 0. 0. 0. 1.50829565e-003 0. 0. 0. 0. 0. 0. 0. 0.
      1.50829565e-003 0. 0. 0. 1.50829565e-003 0. 0. 0. 0. 0. 0. 0. 0.
      0. 0. 0. 0. 0. 0. 0. 0. 0. 3.01659130e-003 1.50829565e-003
      3.01659130e-003 0. 0. 0. 0. 0. 0. 0. 1.50829565e-003 0. 0. 0. 0.
      0. 0. 0. 0. 1.50829565e-003 0. 0. 0. 0. 0. 0. 0. 1.50829565e-003
      0. 0. 0. 1.50829565e-003 0. 0. 0. 0. 0. 0. 0. 0. 1.50829565e-003
      0. 0. 0. 0. 4.52488707e-003 0. 1.50829565e-003 0. 6.03318261e-003
      0. 0. 0. 0. 1.50829565e-003 0. 0. 0. 0. 1.50829565e-003 0. 0. 0.
      0. 0. 0. 0. 0. 0. 0. 7.54147815e-003 0. 0. 0. 0. 0. 0. 0. 0. 0. 0.
      0. 0. 1.50829565e-003 0. 0. 0. 0. 0. 1.50829565e-003 0. 0. 0. 0.
      0. 0. 1.50829565e-003 0. 0. 0. 0. 0. 0. 0. 7.54147815e-003 0. 0.
      0. 0. 0. 0. 0. 0. 3.01659130e-003 0. 0. 0. 0. 0. 0. 0. 0. 0. 0. 0.
      1.50829565e-003 0. 0. 0. 0. 0. 0. 0. 0. 0. 0. 1.50829565e-003
      1.50829565e-003 1.50829565e-003 0. 0. 1.50829565e-003 0. 0. 0. 0.
      0. 0. 0. 0. 1.50829565e-003 0. 0. 0. 0. 0. 0. 0. 0. 0.
      1.50829565e-003 0. 0. 0. 1.50829565e-003 0. 0. 0. 0. 0. 0. 0. 0.
      1.50829565e-003 1.50829565e-003 0. 0. 0. 0. 0. 0. 0. 0.
      3.01659130e-003 1.50829565e-003 0. 0. 0. 0. 0. 0. 0. 0. 0. 0.
      4.52488707e-003 3.01659130e-003 0. 0. 0. 0. 0. 0. 0. 0. 0. 0. 0.
      0. 0. 0. 0. 0. 0. 0. 0. 0. 0. 0. 0. 0. 0. 0. 0. 0. 1.50829565e-003
      1.50829565e-003 0. 0. 3.01659130e-003 0. 0. 0. 0. 0. 0. 0. 0. 0.
      0. 0. 1.50829565e-003 0. 0. 0. 0. 3.01659130e-003 0. 0. 0.
      1.50829565e-003 0. 0. 3.01659130e-003 0. 0. 0. 0. 0. 0. 0. 0.
      1.50829565e-003 0. 0. 0. 0. 0. 0. 0. 0. 0. 1.50829565e-003 0. 0.
      0. 0. 0. 1.50829565e-003 0. 0. 0. 1.50829565e-003 0.
      1.50829565e-003 0. 0. 0. 0. 0. 0. 0. 1.50829565e-003 0. 0. 0. 0.
      0. 0. 0. 0. 0. 0. 0. 0. 0. 0. 0. 0. 0. 0. 0. 0. 0. 0. 0. 0. 0. 0.
      0. 0. 0. 1.50829565e-003 0. 0. 1.50829565e-003 0. 0. 0. 0. 0. 0.
      0. 0. 0. 0. 0. 0. 0. 0. 0. 0. 4.52488707e-003 0. 0. 0. 0.
      1.50829565e-003 0. 0. 0. 1.50829565e-003 0. 0. 0. 0. 0. 0. 0. 0.
      0. 0. 0. 0. 1.50829565e-003 0. 0. 0. 0. 0. 0. 0. 0.
      3.01659130e-003 0. 0. 0. 0. 0. 0. 3.01659130e-003 1.50829565e-003
      0. 0. 0. 0. 0. 0. 0. 0. 0. 0. 0. 0. 0. 0. 0. 0. 0. 0. 0. 0. 0. 0.
      0. 1.50829565e-003 0. 0. 1.50829565e-003 0. 0. 0. 0. 0. 0. 0. 0.
      0. 0. 0. 0. 0. 0. 1.50829565e-003 0. 0. 0. 0. 0. 0. 0. 0. 0. 0. 0.
      0. 6.03318261e-003 0. 0. 0. 0. 0. 0. 0. 1.50829565e-003 0. 0. 0.
      0. 0. 0. 0. 1.50829565e-003 0. 0. 1.50829565e-003 0.
      4.52488707e-003 4.52488707e-003 0. 0. 0. 0. 0. 0. 0. 0. 0. 0. 0.
      0. 0. 1.50829565e-003 0. 0. 0. 0. 1.50829565e-003 3.01659130e-003
      0. 0. 0. 0. 0. 0. 3.01659130e-003 0. 0. 0. 0. 0. 0.
      3.01659130e-003 0. 0. 0. 0. 0. 0. 0. 0. 0. 0. 0. 0. 0. 0. 0. 0. 0.
      0. 0. 1.50829565e-003 0. 0. 0. 0. 0. 0. 0. 0. 0. 0. 0. 0. 0. 0. 0.
      0. 0. 0. 0. 0. 1.50829565e-003 0. 0. 0. 0. 0. 0. 0.
      6.03318261e-003 1.50829565e-003 0. 0. 0. 0. 0. 0. 0. 0. 0.
      4.52488707e-003 1.50829565e-003 0. 0. 0. 0. 0. 0. 0. 0. 0. 0. 0.
      0. 0. 0. 0. 0. 0. 0. 0. 0. 1.50829565e-003 0. 0. 0.
      3.01659130e-003 0. 0. 0. 0. 0. 0. 0. 0. 0. 0. 0. 0. 0. 0. 0. 0. 0.
      0. 0. 0. 0. 0. 0. 0. 0. 0. 0. 0. 0. 3.01659130e-003 0.
      1.50829565e-003 0. 0. 0. 0. 0. 0. 0. 0. 0. 0. 0. 0. 0. 0. 0. 0. 0.
      0. 0. 3.16742100e-002 0. 1.50829565e-003 0. 3.01659130e-003 0. 0.
      0. 0. 0. 4.52488707e-003 0. 0. 0. 0. 0. 0. 0. 0. 0. 0. 0. 0. 0.
      1.50829565e-003 0. 0. 0. 1.50829565e-003 0. 0. 0. 0. 0. 0. 0.
      1.50829565e-003 0. 0. 0. 0. 0. 0. 0. 1.50829565e-003 0. 0. 0. 0.
      0. 0. 0. 0. 3.01659130e-003 0. 0. 0. 0. 0. 0. 0. 3.01659130e-003
      0. 0. 1.50829565e-003 0. 0. 1.50829565e-003 1.50829565e-003 0. 0.
      0. 4.52488707e-003 0. 0. 0. 1.50829565e-003 0. 0. 0. 0. 0. 0.
      1.50829565e-003 4.52488707e-003 1.50829565e-003 3.01659130e-003 0.
      1.50829565e-003 0. 0. 0. 0. 0. 1.50829565e-003 0. 0. 0. 0. 0. 0.
      0. 0. 0. 0. 0. 0. 0. 0. 0. 0. 0. 0. 0. 0. 0. 3.01659130e-003 0. 0.
      0. 0. 0. 0. 0. 0. 0. 0. 0. 0. 0. 0. 0. 0. 0. 0. 0. 0. 0.
      1.50829565e-003 0. 0. 0. 0. 0. 0. 0. 0. 0. 0. 0. 0. 0. 0. 0. 0. 0.
      0. 1.50829565e-003 0. 0. 0. 0. 3.01659130e-003 0. 0. 0. 0. 0. 0.
      0. 0. 0. 0. 0. 0. 0. 0. 0. 0. 0. 0. 0. 0. 0. 0. 0. 0. 0. 0. 0. 0.
      0. 0. 0. 3.01659130e-003 0. 0. 0. 0. 0. 0. 1.50829565e-003 0. 0.
      0. 0. 0. 0. 0. 1.50829565e-003 0. 0. 0. 3.01659130e-003 0. 0. 0.
      0. 1.50829565e-003 0. 0. 0. 0. 0. 0. 0. 0. 3.01659130e-003 0. 0.
      0. 9.04977415e-003 1.50829565e-003 0. 0. 0. 0. 0. 0.
      4.52488707e-003 0. 6.03318261e-003 0. 0. 0. 0. 0. 0. 0. 0. 0. 0.
      0. 0. 0. 0. 0. 0. 0. 0. 0. 0. 0. 0. 0. 1.50829565e-003 0. 0. 0. 0.
      0. 0. 0. 0. 0. 0. 0. 7.54147815e-003 0. 0. 0. 1.50829565e-003 0.
      0. 0. 0. 0. 0. 0. 0. 0. 0. 0. 0. 0. 0. 0. 0. 0. 0. 0. 0.
      9.04977415e-003 0. 1.50829565e-003 1.50829565e-003 1.50829565e-003
      0. 0. 0. 0. 0. 0. 0. 0. 0. 0. 0. 0. 0. 1.50829565e-003 0. 0. 0. 0.
      0. 0. 0. 0. 0. 0. 0. 0. 0. 0. 1.50829565e-003 0. 0. 0. 0. 0. 0. 0.
      0. 0. 0. 0. 0. 0. 0. 4.52488707e-003 0. 0. 0. 0. 0. 0.
      3.01659130e-003 0. 0. 0. 3.01659130e-003 0. 0. 0. 0.
      1.50829565e-003 1.50829565e-003 0. 0. 0. 0. 0. 0. 0. 0.
      3.01659130e-003 0. 0. 0. 0. 0. 0. 0. 0. 0. 1.50829565e-003 0.
      1.50829565e-003 0. 0. 0. 0. 0. 0. 3.01659130e-003 0. 0. 0.
      1.50829565e-003 0. 1.05580697e-002 0. 0. 0. 0. 0. 0. 0. 0. 0. 0.
      0. 0. 0. 0. 1.50829565e-003 0. 0. 0. 0. 0. 0. 0. 0. 0. 0. 0. 0.
      3.01659130e-003 0. 0. 0. 0. 0. 0. 0. 0. 0. 0. 0. 0. 0. 0. 0.
      1.50829565e-003 0. 0. 0. 0. 1.50829565e-003 0. 0. 0.
      3.01659130e-003 0. 1.50829565e-003 0. 0. 0. 0. 0. 0. 0. 0.
      1.50829565e-003 0. 0. 0. 0. 0. 0. 0. 0. 0. 3.01659130e-003 0. 0.
      3.01659130e-003 1.50829565e-003 0. 3.01659130e-003 0.
      4.52488707e-003 0. 0. 1.50829565e-003 0. 0. 0. 0. 0. 0. 0. 0. 0.
      0. 0. 0. 0. 0. 0. 0. 0. 0. 1.50829563e-002 0. 1.50829565e-003 0.
      0. 0. 0. 0. 0. 0. 0. 0. 0. 0. 0. 0. 0. 0. 0. 1.50829565e-003 0. 0.
      0. 3.01659130e-003 1.50829565e-003 0. 0. 0. 0. 0. 0. 0. 0.
      1.50829565e-003 0. 1.50829565e-003 0. 0. 0. 0. 0. 0. 0. 0. 0. 0.
      0. 0. 3.01659130e-003 0. 0. 0. 0. 0. 0. 0. 0. 0. 0. 0. 0.
      3.01659130e-003 0. 3.01659130e-003 0. 0. 0. 0. 1.50829565e-003
      1.50829565e-003 0. 0. 0. 0. 0. 1.50829565e-003 0. 0. 0.
      1.50829565e-003 0. 0. 0. 0. 0. 0. 0. 0. 0. 0. 0. 0. 0. 0. 0. 0. 0.
      0. 0. 0. 0. 1.50829565e-003 0. 0. 0. 0. 0. 0. 0. 0. 0. 0. 0. 0. 0.
      0. 0. 0. 0. 0. 1.50829565e-003 0. 0. 0. 0. 0. 0. 0. 0. 0. 0.
      3.01659130e-003 0. 1.50829565e-003 1.50829565e-003 0. 0.
      1.50829565e-003 0. 0. 0. 0. 0. 0. 0. 0. 0. 0. 0. 0. 0. 0. 0. 0. 0.
      1.50829565e-003 0. 0. 0. 0. 0. 0. 0. 0. 0. 3.01659130e-003 0. 0.
      0. 0. 0. 0. 0. 0. 0. 0. 0. 0. 0. 0. 0. 0. 0. 0. 0. 0.
      1.50829565e-003 0. 0. 0. 0. 0. 0. 3.01659130e-003 0.
      3.01659130e-003 1.50829565e-003 0. 0. 0. 0. 0. 0. 0. 0. 0. 0. 0.
      0. 0. 0. 0. 0. 0. 0. 0. 0. 0. 0. 0. 1.50829565e-003 0. 0.
      3.01659130e-003 0. 1.50829565e-003 1.50829565e-003 0. 0. 0. 0. 0.
      0. 0. 0. 0. 0. 0. 0. 0. 0. 0. 0. 0. 0. 0. 0. 0. 0. 0. 0.
      1.50829565e-003 0. 0. 0. 0. 0. 0. 0. 0. 0. 0. 0. 0. 0. 0. 0. 0. 0.
      0. 0. 0. 0. 0. 0. 0. 0. 0. 0. 0. 0. 0. 0. 0. 0. 0. 0. 0. 0. 0. 0.
      1.50829565e-003 0. 1.50829565e-003 0. 0. 0. 0. 0. 1.50829565e-003
      0. 0. 0. 1.50829565e-003 0. 0. 0. 3.01659130e-003 1.50829565e-003
      0. 0. 0. 0. 0. 0. 0. 0. 0. 0. 0. 1.50829565e-003 0. 0. 0. 0. 0. 0.
      0. 0. 0. 3.01659130e-003 0. 1.50829565e-003 0. 1.50829565e-003 0.
      0. 1.50829565e-003 0. 0. 0. 0. 0. 0. 0. 0. 0. 0. 0. 0. 0.
      1.50829565e-003 0. 0. 1.50829565e-003 0. 0. 0. 0. 0. 0. 0. 0.
      1.50829565e-003 0. 0. 0. 0. 0. 0. 0. 0. 0. 0. 0. 0. 0. 0. 0.
      1.50829565e-003 0. 0. 1.50829565e-003 0. 1.50829565e-003 0. 0. 0.
      0. 0. 0. 0. 0. 1.50829565e-003 0. 0. 0. 0. 0. 0. 0. 0.
      1.50829565e-003 0. 0. 0. 1.50829565e-003 0. 0. 6.03318261e-003 0.
      0. 0. 1.50829565e-003 0. 1.50829565e-003 0. 3.01659130e-003 0. 0.
      0. 4.52488707e-003 0. 0. 0. 0. 0. 0. 0. 0. 0. 0. 0. 0. 0. 0. 0. 0.
      0. 0. 0. 3.01659130e-003 3.01659130e-003 1.50829565e-003 0.
      3.01659130e-003 0. 0. 0. 0. 1.50829565e-003 0. 0. 0. 0. 0. 0. 0.
      0. 0. 3.01659130e-003 1.50829565e-003 1.50829565e-003 0. 0. 0. 0.
      1.50829565e-003 0. 0. 0. 0. 1.50829565e-003 0. 0. 0.
      1.50829565e-003 0. 4.52488707e-003 0. 0. 0. 0. 0. 0. 0. 0. 0. 0.
      0. 0. 0. 0. 0. 1.50829565e-003 0. 0. 0. 0. 0. 0. 0. 0. 0. 0. 0. 0.
      0. 0. 0. 1.50829565e-003 0. 0. 0. 0. 0. 0. 0. 0. 0. 0. 0. 0. 0.
      1.50829565e-003 1.50829565e-003 0. 0. 0. 0. 0. 0. 0. 0. 0. 0.
      1.50829565e-003 0. 1.50829565e-003 0. 0. 1.50829565e-003 0. 0. 0.
      0. 0. 0. 0. 0. 0. 1.50829565e-003 0. 0. 0. 0. 0. 0. 0. 0. 0. 0. 0.
      0. 0. 0. 0. 0. 0. 0. 0. 0. 0. 0. 0. 0. 0. 0. 1.50829565e-003 0. 0.
      0. 0. 1.50829565e-003 3.01659130e-003 0. 0. 0. 0. 0. 0. 0. 0. 0.
      1.50829565e-003 1.50829565e-003 3.01659130e-003 0. 0. 0. 0. 0. 0.
      0. 0. 0. 0. 0. 0. 0. 0. 0. 0. 0. 0. 0. 1.50829565e-003 0. 0. 0. 0.
      0. 0. 1.50829565e-003 0. 0. 0. 0. 4.52488707e-003 0. 0. 0. 0. 0.
      0. 0. 0. 0. 1.50829565e-003 0. 0. 3.01659130e-003 0. 0.
      1.50829565e-003 0. 0. 0. 0. 0. 0. 0. 0. 0. 0. 0. 0. 0. 0. 0. 0. 0.
      0. 0. 0. 0. 0. 0. 0. 1.50829565e-003 1.50829565e-003 0. 0. 0. 0.
      0. 0. 1.50829565e-003 1.50829565e-003 0. 0. 1.50829565e-003 0. 0.
      0. 0. 0. 0. 0. 3.01659130e-003 0. 0. 1.50829565e-003 0. 0. 0. 0.
      0. 0. 0. 0. 0. 0. 0. 0. 0. 0. 1.50829565e-003 0. 0. 0. 0. 0. 0. 0.
      1.50829565e-003 0. 0. 0. 1.50829565e-003 0. 1.50829565e-003
      1.50829565e-003 0. 1.50829565e-003 1.50829565e-003 0. 0. 0. 0. 0.
      0. 0. 4.52488707e-003 0. 4.52488707e-003 1.50829565e-003 0. 0. 0.
      0. 0. 0. 0. 1.50829565e-003 0. 0. 1.50829565e-003 0. 0. 0. 0. 0.
      1.50829565e-003 1.50829565e-003 1.50829565e-003 0. 0.
      1.50829565e-003 0. 1.50829565e-003 0. 0. 0. 0. 0. 1.50829565e-003
      0. 0. 0. 0. 0. 0. 0. 1.50829565e-003 0. 0. 0. 0. 0. 0. 0.
      1.50829565e-003 0. 0. 0. 0. 1.50829565e-003 0. 0. 0. 0. 0.
      3.01659130e-003 0. 0. 0. 0. 1.50829565e-003 0. 0. 0. 0. 0. 0. 0.
      0. 0. 0. 0. 0. 0. 0. 0. 0. 0. 0. 0. 0. 0. 0. 0. 0. 0. 0. 0. 0. 0.
      0. 0. 0. 1.50829563e-002 0. 0. 1.50829565e-003 0. 1.50829565e-003
      0. 0. 0. 0. 0. 0. 0. 0. 0. 1.50829565e-003 0. 0. 0. 0. 0. 0.
      1.50829565e-003 1.50829565e-003 0. 0. 0. 1.50829565e-003 0. 0. 0.
      0. 0. 0. 4.52488707e-003 1.50829565e-003 0. 0. 0. 0. 0. 0.
      3.01659130e-003 1.50829565e-003 0. 0. 0. 0. 0. 1.50829565e-003 0.
      1.50829565e-003 0. 0. 0. 0. 0. 0. 0. 1.50829565e-003 0. 0. 0. 0.
      0. 1.50829565e-003 0. 0. 0. 0. 0. 0. 0. 1.50829565e-003 0. 0. 0.
      0. 0. 0. 0. 0. 0. 0. 0. 0. 0. 0. 0. 0. 0. 1.50829565e-003 0. 0. 0.
      0. 0.</_>
    <_>
      0. 0. 0. 0. 0. 2.45098048e-003 0. 0. 4.90196096e-003 0. 0. 0. 0.
      0. 0. 0. 0. 1.22549022e-002 0. 0. 0. 0. 0. 0. 2.45098048e-003 0.
      0. 0. 0. 0. 0. 0. 0. 0. 0. 2.45098048e-003 0. 0. 0. 0. 0. 0. 0. 0.
      0. 2.45098048e-003 0. 0. 0. 2.45098048e-003 0. 0. 0. 0. 0. 0. 0.
      0. 0. 0. 0. 0. 0. 0. 0. 4.90196096e-003 0. 0. 0. 0. 0. 0. 0. 0. 0.
      0. 0. 0. 4.90196096e-003 0. 4.90196096e-003 0. 9.80392192e-003 0.
      2.45098048e-003 0. 0. 0. 0. 0. 0. 2.45098048e-003 0. 0. 0. 0. 0.
      0. 0. 0. 0. 0. 0. 0. 2.45098048e-003 0. 0. 0. 0. 0. 0. 0. 0. 0. 0.
      0. 0. 0. 0. 0. 2.45098048e-003 0. 0. 0. 0. 0. 0. 0. 0. 0. 0. 0. 0.
      0. 0. 0. 0. 0. 2.45098048e-003 0. 0. 2.45098048e-003
      2.45098048e-003 0. 0. 0. 0. 0. 0. 2.45098048e-003 0. 0. 0. 0. 0.
      0. 0. 0. 0. 0. 0. 0. 0. 0. 0. 0. 0. 0. 0. 0. 0. 0. 0. 0. 0. 0. 0.
      0. 0. 0. 0. 0. 0. 0. 0. 0. 0. 0. 0. 0. 0. 0. 0. 0. 2.45098048e-003
      0. 0. 0. 0. 0. 0. 0. 0. 0. 0. 0. 0. 0. 0. 0. 0. 0. 0. 0. 0.
      9.80392192e-003 0. 0. 0. 0. 0. 0. 0. 0. 0. 0. 0. 0.
      2.45098048e-003 0. 0. 4.90196096e-003 0. 0. 2.45098048e-003 0. 0.
      0. 0. 0. 0. 0. 0. 0. 4.90196096e-003 0. 0. 0. 0. 0. 0. 0. 0. 0. 0.
      0. 0. 0. 0. 0. 0. 0. 0. 0. 4.90196096e-003 0. 0. 2.45098048e-003
      0. 0. 0. 0. 0. 0. 0. 4.90196096e-003 2.45098048e-003 0.
      2.45098048e-003 0. 0. 0. 0. 0. 0. 0. 0. 0. 0. 0. 0. 0. 0. 0. 0. 0.
      0. 0. 0. 0. 0. 0. 0. 0. 0. 0. 0. 0. 0. 0. 0. 0. 0. 0. 0. 0. 0. 0.
      0. 0. 0. 0. 0. 0. 0. 0. 0. 0. 0. 0. 0. 0. 0. 0. 0. 1.47058833e-002
      0. 0. 0. 0. 0. 0. 0. 0. 0. 0. 0. 0. 0. 0. 0. 0. 0. 0. 0. 0. 0. 0.
      0. 0. 0. 0. 0. 0. 4.90196096e-003 0. 0. 0. 0. 0. 0. 0. 0. 0. 0. 0.
      0. 0. 0. 0. 0. 0. 0. 2.45098048e-003 0. 0. 0. 0. 0. 0. 0. 0. 0. 0.
      0. 0. 0. 0. 0. 0. 0. 0. 0. 0. 0. 0. 0. 0. 0. 0. 0. 0. 0. 0. 0. 0.
      0. 0. 0. 0. 0. 0. 0. 0. 2.45098048e-003 0. 0. 0. 0. 0. 0. 0. 0. 0.
      0. 0. 0. 0. 0. 0. 0. 0. 0. 0. 0. 0. 0. 0. 0. 0. 0. 0. 0. 0. 0. 0.
      0. 0. 0. 0. 0. 0. 4.90196096e-003 0. 0. 0. 0. 0. 0. 0. 0. 0. 0. 0.
      0. 0. 0. 0. 0. 2.45098048e-003 0. 0. 0. 0. 0. 0. 0.
      4.90196096e-003 0. 0. 0. 0. 0. 0. 0. 2.45098048e-003
      2.45098048e-003 0. 0. 0. 0. 0. 0. 0. 0. 0. 0. 0. 0. 0. 0. 0. 0. 0.
      0. 0. 0. 0. 0. 0. 0. 0. 0. 0. 0. 0. 0. 0. 0. 0. 0. 0. 0. 0. 0. 0.
      0. 0. 0. 0. 0. 0. 0. 0. 0. 0. 0. 0. 0. 0. 0. 0. 0. 0. 0. 0. 0. 0.
      0. 0. 0. 0. 2.45098048e-003 0. 0. 2.45098048e-003 0. 0. 0. 0. 0.
      0. 0. 0. 0. 0. 0. 0. 0. 0. 0. 0. 0. 0. 0. 0. 0. 0. 0.
      2.45098048e-003 0. 0. 0. 0. 0. 0. 0. 0. 0. 0. 0. 0. 0. 0. 0. 0.
      2.45098048e-003 0. 0. 0. 0. 0. 0. 0. 0. 0. 0. 0. 0. 0. 0. 0. 0. 0.
      0. 0. 2.45098048e-003 0. 0. 0. 0. 1.22549022e-002 0. 0. 0. 0. 0.
      0. 0. 0. 0. 0. 0. 2.45098048e-003 0. 0. 0. 0. 0. 0. 0. 0. 0. 0. 0.
      0. 0. 0. 0. 0. 0. 0. 0. 0. 0. 0. 0. 0. 0. 0. 0. 0. 0. 0. 0. 0. 0.
      0. 0. 0. 0. 0. 0. 0. 0. 0. 0. 0. 0. 2.45098048e-003 0. 0. 0. 0. 0.
      0. 0. 2.45098048e-003 0. 0. 2.45098048e-003 0. 4.90196096e-003 0.
      0. 0. 0. 0. 0. 0. 0. 0. 0. 7.35294167e-003 0. 2.45098048e-003 0.
      0. 0. 0. 0. 0. 0. 0. 0. 0. 9.80392192e-003 0. 0. 0. 0. 0. 0. 0. 0.
      0. 0. 0. 0. 0. 0. 0. 0. 0. 0. 2.45098048e-003 0. 0. 0. 0. 0. 0. 0.
      0. 4.90196096e-003 0. 0. 0. 0. 0. 0. 0. 4.90196096e-003 0. 0. 0.
      0. 0. 0. 0. 0. 0. 0. 0. 0. 0. 0. 0. 0. 0. 0. 0. 0. 0. 0. 0. 0. 0.
      0. 0. 0. 0. 0. 0. 0. 0. 0. 4.90196096e-003 0. 0. 0. 0. 0. 0. 0. 0.
      0. 0. 0. 0. 0. 0. 0. 0. 0. 0. 0. 0. 0. 2.45098048e-003 0.
      4.90196096e-003 0. 0. 0. 0. 0. 0. 0. 0. 9.80392192e-003 0. 0. 0.
      4.90196096e-003 0. 0. 0. 0. 0. 0. 0. 0. 0. 0. 7.35294167e-003 0.
      0. 0. 2.45098048e-003 0. 2.45098048e-003 2.45098048e-003 0. 0. 0.
      0. 0. 0. 0. 0. 0. 0. 0. 0. 0. 2.45098048e-003 0. 0. 0. 0. 0. 0. 0.
      0. 0. 0. 2.45098048e-003 0. 0. 0. 1.71568636e-002 0. 0. 0. 0. 0.
      0. 0. 0. 0. 0. 0. 0. 0. 0. 0. 0. 0. 2.45098048e-003 0. 0. 0. 0. 0.
      0. 0. 0. 0. 0. 0. 0. 0. 0. 0. 0. 0. 0. 0. 0. 0. 0. 0. 0. 0. 0. 0.
      0. 0. 0. 0. 0. 0. 0. 0. 0. 0. 0. 0. 0. 0. 0. 0. 0. 0. 0.
      7.35294167e-003 0. 0. 0. 2.45098048e-003 0. 2.45098048e-003 0. 0.
      0. 0. 0. 0. 0. 0. 2.45098048e-003 0. 0. 4.90196096e-003 0. 0. 0.
      0. 2.45098048e-003 0. 0. 0. 0. 0. 0. 0. 0. 2.45098048e-003 0. 0.
      0. 0. 0. 0. 0. 0. 0. 0. 0. 0. 0. 2.20588241e-002 0. 0. 0. 0.
      2.45098048e-003 0. 0. 0. 2.45098048e-003 0. 0. 0. 0. 0.
      4.90196096e-003 0. 0. 0. 0. 7.35294167e-003 0. 0. 0. 0. 0. 0. 0.
      0. 0. 0. 0. 0. 2.20588241e-002 0. 0. 0. 0. 0. 0. 0. 0. 0. 0. 0. 0.
      0. 0. 0. 0. 4.90196096e-003 0. 0. 0. 0. 0. 4.90196096e-003 0. 0.
      0. 0. 0. 2.45098048e-003 0. 2.45098048e-003 0. 0. 0. 0. 0. 0. 0.
      0. 0. 0. 0. 0. 0. 0. 0. 0. 0. 0. 0. 0. 0. 0. 0. 0. 0. 0. 0. 0. 0.
      0. 0. 0. 0. 0. 0. 0. 0. 2.45098048e-003 0. 0. 2.45098048e-003 0.
      2.45098048e-003 0. 0. 0. 0. 0. 0. 0. 0. 0. 0. 2.45098048e-003 0.
      0. 0. 0. 0. 0. 0. 0. 0. 0. 2.45098048e-003 0. 0. 0. 0. 0. 0. 0. 0.
      0. 0. 0. 0. 0. 0. 0. 0. 0. 2.45098048e-003 2.45098048e-003 0. 0.
      0. 0. 0. 0. 7.35294167e-003 0. 0. 0. 0. 0. 0. 0. 0. 0. 0. 0. 0. 0.
      0. 0. 0. 0. 0. 0. 0. 0. 0. 0. 2.45098048e-003 0. 0. 0. 0. 0. 0. 0.
      0. 0. 0. 0. 7.35294167e-003 0. 0. 0. 0. 0. 0. 0. 0. 0. 0. 0. 0.
      2.45098048e-003 0. 4.90196096e-003 0. 0. 0. 0. 0. 0. 0. 0. 0. 0.
      0. 0. 0. 0. 0. 0. 7.35294167e-003 0. 0. 0. 0. 0. 0. 0. 0. 0. 0. 0.
      0. 0. 0. 0. 7.35294167e-003 0. 0. 0. 0. 0. 0. 0. 0. 0. 0. 0. 0. 0.
      0. 0. 0. 0. 0. 2.45098048e-003 0. 0. 0. 0. 0. 0. 0. 0. 0. 0. 0. 0.
      0. 0. 0. 0. 0. 2.45098048e-003 0. 0. 0. 0. 0. 0. 0. 0. 0. 0. 0. 0.
      0. 0. 0. 0. 0. 0. 0. 0. 0. 0. 0. 0. 0. 0. 0. 0. 0. 0. 0. 0. 0. 0.
      0. 0. 0. 0. 0. 0. 0. 2.45098048e-003 0. 0. 0. 0. 0. 0. 0. 0. 0. 0.
      0. 0. 0. 0. 0. 0. 0. 0. 0. 2.45098048e-003 0. 0. 0.
      4.90196096e-003 0. 0. 7.35294167e-003 0. 0. 0. 0. 0. 0. 0. 0. 0.
      0. 0. 0. 0. 0. 0. 0. 0. 0. 0. 0. 0. 2.45098048e-003 0. 0. 0.
      2.45098048e-003 0. 0. 0. 2.45098048e-003 0. 0. 0. 0. 0. 0. 0. 0.
      0. 0. 0. 0. 0. 2.45098048e-003 7.35294167e-003 0. 0. 0. 0. 0. 0.
      0. 0. 0. 0. 0. 0. 0. 0. 0. 0. 0. 7.35294167e-003 0. 0.
      7.35294167e-003 0. 0. 0. 0. 0. 0. 2.45098048e-003 0. 0. 0. 0. 0.
      0. 0. 0. 0. 0. 0. 0. 0. 0. 0. 0. 0. 0. 0. 2.45098048e-003 0.
      2.45098048e-003 0. 0. 2.45098048e-003 0. 0. 0. 0. 0. 0. 0. 0. 0.
      0. 0. 0. 0. 0. 0. 0. 0. 0. 0. 0. 0. 0. 0. 0. 0. 0. 0. 0. 0. 0. 0.
      0. 0. 0. 0. 0. 0. 0. 0. 0. 0. 0. 0. 0. 0. 0. 0. 0. 0. 0. 0. 0. 0.
      0. 0. 0. 0. 0. 4.90196096e-003 0. 0. 0. 0. 4.90196096e-003
      4.90196096e-003 0. 0. 2.45098048e-003 0. 0. 0. 0. 0. 0. 0. 0. 0.
      0. 0. 2.45098048e-003 0. 0. 0. 0. 0. 0. 0. 0. 0. 0. 0. 0. 0. 0. 0.
      0. 0. 0. 0. 0. 0. 0. 0. 0. 0. 0. 0. 0. 0. 0. 0. 0. 0. 0. 0. 0. 0.
      0. 0. 0. 0. 0. 0. 0. 0. 0. 0. 0. 0. 0. 0. 0. 0. 4.90196096e-003 0.
      0. 0. 7.35294167e-003 0. 0. 0. 4.90196096e-003 0. 0. 0. 0. 0.
      2.45098048e-003 0. 0. 0. 0. 0. 0. 4.90196096e-003 0. 0. 0. 0. 0.
      0. 0. 0. 0. 0. 0. 0. 0. 0. 0. 0. 0. 0. 0. 0. 0. 0. 0. 0. 0. 0.
      2.45098048e-003 0. 0. 0. 0. 0. 0. 0. 0. 2.45098048e-003 0. 0. 0.
      0. 0. 0. 0. 0. 0. 0. 0. 0. 0. 0. 0. 0. 0. 9.80392192e-003 0. 0. 0.
      4.90196096e-003 0. 0. 0. 0. 0. 0. 0. 0. 0. 0. 0. 0. 0. 0. 0. 0. 0.
      0. 2.45098048e-003 0. 0. 0. 0. 0. 0. 0. 0. 0. 0. 0. 0. 0. 0. 0. 0.
      0. 0. 2.45098048e-003 2.69607846e-002 0. 0. 0. 0. 0. 0. 0. 0. 0.
      0. 0. 0. 0. 0. 0. 0. 0. 0. 2.45098048e-003 0. 0. 0. 0. 0. 0. 0. 0.
      0. 0. 0. 0. 0. 0. 0. 0. 0. 0. 0. 0. 0. 0. 0. 0. 0. 0. 0. 0. 0. 0.
      0. 0. 0. 0. 0. 0. 0. 0. 0. 0. 0. 0. 0. 0. 0. 0. 0. 0. 0. 0. 0. 0.
      0. 0. 0. 0. 0. 0. 0. 0. 2.45098048e-003 0. 0. 0. 0. 0. 0. 0. 0.
      2.45098048e-003 0. 0. 0. 2.45098048e-003 0. 0. 0. 0. 0. 0. 0. 0.
      0. 0. 0. 0. 0. 0. 0. 0. 0. 0. 0. 0. 0. 0. 0. 0. 0. 0. 0. 0. 0.
      2.45098048e-003 0. 0. 0. 0. 0. 0. 0. 0. 0. 0. 0. 0. 0. 0.
      7.35294167e-003 0. 0. 0. 0. 0. 0. 0. 0. 0. 0. 0. 0. 0. 0. 0. 0. 0.
      2.45098048e-003 2.45098048e-003 0. 0. 0. 0. 0. 0. 0. 0. 0. 0. 0.
      0. 0. 0. 0. 0. 0. 0. 0. 0. 0. 0. 0. 2.45098048e-003 0. 0. 0. 0. 0.
      0. 0. 0. 0. 0. 0. 0. 0. 0. 2.45098048e-003 0. 0. 0. 0.
      2.45098048e-003 0. 2.45098048e-003 0. 0. 0. 0. 0. 0. 0. 0. 0. 0.
      0. 4.90196096e-003 0. 0. 0. 0. 0. 0. 0. 0. 0. 2.20588241e-002 0.
      0. 0. 0. 0. 0. 0. 0. 0. 0. 0. 0. 0. 0. 0. 0. 0. 0. 0. 0. 0. 0. 0.
      0. 0. 0. 0. 0. 0. 9.80392192e-003 0. 0. 0. 0. 0. 0. 0. 0.
      2.45098048e-003 0. 0. 0. 0. 2.45098048e-003 0. 2.45098048e-003 0.
      0. 0. 0. 0. 0. 0. 0. 0. 2.45098048e-003 0. 0. 0. 0. 0. 0. 0. 0. 0.
      0. 0. 0. 0. 0. 0. 0. 0. 0. 0. 0. 0. 0. 0. 0. 0. 0. 0. 0. 0. 0. 0.
      0. 0. 0. 0. 0. 2.45098048e-003 0. 0. 0. 0. 0. 0. 0. 0. 0. 0. 0. 0.
      0. 0. 0. 0. 4.90196096e-003 0. 0. 0. 0. 0. 0. 0. 0. 0. 0. 0. 0. 0.
      0. 0. 0. 0. 0. 0. 0. 0. 4.90196096e-003 0. 0. 0. 2.45098048e-003
      0. 0. 0. 0. 0. 0. 0. 0. 0. 0. 0. 0. 0. 0. 0. 0. 0. 0. 0. 0. 0. 0.
      2.45098048e-003 0. 0. 0. 0. 2.45098048e-003 0. 0. 0. 0. 0. 0. 0.
      4.90196096e-003 0. 9.80392192e-003 0. 0. 0. 0. 0. 0. 0. 0. 0. 0.
      2.45098048e-003 0. 0. 0. 1.96078438e-002 0. 0. 0. 0. 0. 0. 0. 0.
      0. 0. 0. 0. 0. 0. 2.45098048e-003 0. 0. 0. 0. 0. 2.45098048e-003
      0. 0. 0. 0. 0. 4.90196096e-003 0. 0. 0. 4.90196096e-003 0. 0.
      2.45098048e-003 0. 0. 0. 0. 0. 0. 0. 0. 0. 0. 0. 0. 0. 0. 0. 0. 0.
      0. 0. 0. 0. 0. 0. 0. 0. 0. 0. 0. 0. 0. 0. 0. 0. 0. 0. 0. 0. 0. 0.
      0. 0. 0. 0. 0. 0. 0. 0. 0. 0. 0. 0. 0. 0. 0. 0. 0. 0. 0. 0. 0. 0.
      0. 0. 0. 0. 0. 0. 0. 0. 0. 0. 0. 0. 0. 4.90196096e-003 0. 0. 0. 0.
      0. 0. 0. 0. 0. 0. 0. 0. 0. 0. 0. 0. 0. 0. 0. 0. 0. 0.
      7.35294167e-003 0. 0. 0. 0. 0. 0. 0. 0. 0. 0. 0. 0. 0. 0. 0. 0. 0.
      0. 0. 0. 0. 0. 0. 0. 0. 0. 0. 0. 0. 0. 0. 0. 0. 0. 0. 0. 0. 0. 0.
      0. 0. 0. 0. 0. 0. 0. 0. 0. 0. 0. 0. 0. 0. 0. 0. 0. 0. 0. 0.
      2.45098048e-003 0. 0. 0. 0. 0. 0. 0. 2.45098048e-003 0. 0. 0. 0.
      0. 0. 0. 2.45098048e-003 0. 0. 0. 0. 0. 0. 0. 0. 0. 0. 0. 0. 0. 0.
      0. 0. 0. 0. 0. 0. 0. 0. 0. 0. 0. 1.47058833e-002 0. 0. 0. 0. 0. 0.
      0. 0. 0. 0. 0. 0. 0. 0. 0. 0. 0. 0. 0. 0. 0. 0. 0. 0. 0. 0. 0. 0.
      0. 7.35294167e-003 0. 0. 2.45098048e-003 0. 0. 0. 0. 0. 0. 0.
      4.90196096e-003 0. 0. 0. 0. 0. 0. 0. 0. 0. 0. 0. 0. 0. 0. 0. 0. 0.
      0. 0. 0. 0. 0. 0. 0. 0. 0. 0. 0. 0. 0. 0. 0. 0. 0. 0. 0. 0. 0. 0.
      4.90196096e-003 0. 0. 0. 0. 0. 0. 0. 0. 0. 0. 0. 0.
      2.45098048e-003 0. 0. 0. 0. 0. 0. 0. 0. 0. 0. 0. 0. 0. 0. 0. 0. 0.
      0. 0. 0. 0. 0. 0. 0. 0. 0. 0. 0. 0. 0. 0. 0. 0. 0. 0. 0. 0. 0. 0.
      0. 0. 0. 0. 0. 0. 0. 2.45098048e-003 0. 2.45098048e-003 0. 0. 0.
      0. 0. 0. 0. 0. 0. 0. 0. 0. 0. 0. 0. 2.45098048e-003 0. 0. 0. 0. 0.
      0. 0. 0. 0. 0. 0. 0. 0. 0. 0. 0. 0. 0. 0. 0. 0. 0. 0. 0. 0. 0. 0.
      0. 0. 0. 0. 0. 0. 0. 0. 0. 0. 0. 0. 0. 0. 0. 0. 0. 0. 0. 0. 0. 0.
      0. 0. 0. 0. 0. 0. 0. 0. 0. 0. 0. 0. 2.45098048e-003 0. 0. 0. 0. 0.
      0. 0. 0. 0. 0. 0. 0. 0. 0. 0. 0. 0. 0. 0. 0. 0. 0. 0. 0.
      2.45098048e-003 0. 0. 0. 0. 0. 0. 0. 2.45098048e-003 0. 0. 0. 0.
      0. 0. 0. 0. 0. 4.90196096e-003 4.90196096e-003 0. 0. 0. 0. 0. 0.
      7.35294167e-003 0. 0. 0. 0. 0. 0. 0. 0. 0. 2.45098048e-003
      2.45098048e-003 0. 0. 0. 0. 0. 0. 0. 0. 0. 0. 0. 0. 0. 0. 0. 0. 0.
      0. 0. 0. 0. 0. 0. 0. 0. 0. 0. 0. 2.45098048e-003 0. 0. 0. 0. 0. 0.
      0. 2.45098048e-003 0. 0. 0. 2.45098048e-003 0. 0. 0. 0. 0. 0. 0.
      2.45098048e-003 0. 0. 0. 0. 0. 0. 0. 0. 0. 0. 0. 2.45098048e-003
      0. 0. 0. 0. 0. 0. 0. 0. 0. 0. 0. 2.45098048e-003 0. 0. 0. 0.
      1.22549022e-002 0. 0. 0. 0. 0. 0. 0. 0. 0. 0. 0. 0. 0. 0. 0. 0. 0.
      0. 0. 0. 0. 0. 0. 0. 0. 0. 0. 9.80392192e-003 0. 0. 0. 0. 0. 0. 0.
      0. 0. 0. 0. 0. 0. 0. 0. 0. 0. 4.90196096e-003 0. 0. 0. 0.
      2.45098048e-003 0. 0. 0. 0. 0. 0. 0. 0. 0. 0. 0. 0.
      9.80392192e-003 0. 0. 0. 0. 0. 0. 0. 0. 0. 0. 0. 4.90196096e-003
      0. 0. 0. 0. 0. 0. 0. 0. 0. 2.45098048e-003 0. 0. 0. 0. 0.
      2.45098048e-003 0. 0. 0. 0. 0. 0. 2.45098048e-003 0. 0. 0. 0. 0.
      0. 0. 0. 0. 0. 0. 0. 0. 0. 0. 0. 0. 0. 0. 2.45098048e-003 0. 0. 0.
      0. 0. 2.45098048e-003 0. 0. 0. 0. 0. 0. 0. 0. 0. 0. 0. 0. 0. 0. 0.
      0. 0. 0. 0. 0. 0. 0. 0. 0. 0. 0. 0. 0. 0. 0. 0. 0. 0. 0. 0. 0. 0.
      0. 0. 0. 0. 0. 0. 0. 0. 0. 0. 0. 0. 0. 2.45098048e-003
      2.45098048e-003 0. 0. 0. 0. 0. 0. 0. 0. 0. 0. 0. 0. 0. 0. 0. 0. 0.
      0. 0. 0. 3.18627469e-002 0. 0. 0. 0. 0. 0. 0. 0. 0. 0. 0. 0. 0. 0.
      0. 0. 0. 0. 0. 0. 0. 0. 0. 0. 0. 2.45098048e-003 0. 0. 0. 0.
      7.35294167e-003 0. 0. 0. 0. 0. 0. 0. 4.90196096e-003 0. 0. 0. 0.
      0. 0. 0. 0. 0. 0. 0. 0. 0. 0. 0. 0. 0. 0. 0. 0. 0. 0. 0.
      2.45098048e-003 0. 0. 0. 0. 0. 0. 0. 1.22549022e-002 0. 0. 0. 0.
      0. 0. 0. 0. 0. 0. 0. 0. 0. 0. 0. 0. 0. 2.45098048e-003 0. 0. 0. 0.
      0. 0. 0. 0. 0. 0. 0. 0. 0. 0. 0. 0.</_>
    <_>
      0. 0. 0. 0. 0. 9.46969725e-004 0. 0. 0. 0. 0. 0. 0. 0. 0. 0. 0. 0.
      0. 0. 0. 0. 0. 0. 0. 0. 0. 0. 0. 0. 0. 0. 0. 0. 0. 0. 0. 0. 0. 0.
      0. 0. 0. 0. 0. 0. 0. 0. 9.46969725e-004 0. 0. 0. 9.46969725e-004
      0. 0. 0. 0. 0. 0. 0. 0. 1.89393945e-003 0. 0. 0. 0. 0. 0. 0. 0. 0.
      0. 0. 2.84090918e-003 0. 1.89393945e-003 0. 0. 0. 0. 0. 0. 0. 0.
      0. 0. 0. 0. 0. 0. 0. 0. 0. 0. 0. 0. 0. 0. 0. 0. 0. 0. 0. 0. 0. 0.
      0. 0. 0. 9.46969725e-004 0. 2.84090918e-003 0. 6.62878808e-003 0.
      0. 0. 0. 0. 0. 0. 0. 0. 0. 0. 0. 9.46969725e-004 6.62878808e-003
      9.46969725e-004 0. 0. 0. 0. 0. 0. 0. 0. 0. 0. 0. 0. 0. 0. 0. 0. 0.
      0. 0. 0. 0. 0. 0. 0. 0. 0. 0. 0. 0. 0. 0. 0. 0. 0. 2.55681835e-002
      0. 0. 0. 0. 0. 0. 0. 0. 0. 0. 0. 0. 1.89393945e-003 0. 0. 0. 0. 0.
      0. 0. 0. 0. 0. 0. 0. 0. 0. 0. 0. 2.84090918e-003 0. 0. 0. 0.
      1.89393945e-003 0. 0. 0. 0. 0. 0. 0. 0. 0. 0. 0. 0. 0. 0. 0. 0. 0.
      0. 0. 0. 0. 0. 2.84090918e-003 0. 0. 0. 1.89393945e-003 0. 0. 0.
      0. 0. 0. 0. 0. 0. 0. 0. 0. 0. 0. 0. 0. 0. 0. 0. 3.78787890e-003 0.
      0. 0. 0. 0. 0. 0. 0. 0. 9.46969725e-004 9.46969725e-004 0. 0. 0.
      0. 0. 0. 0. 0. 0. 0. 0. 0. 0. 0. 0. 0. 0. 0. 0. 0. 0. 0. 0. 0.
      9.46969725e-004 0. 0. 0. 0. 0. 0. 0. 0. 0. 0. 0. 0. 0. 0. 0. 0. 0.
      0. 0. 0. 0. 0. 0. 0. 1.89393945e-003 0. 0. 0. 0. 0. 0. 0. 0. 0. 0.
      0. 0. 0. 0. 0. 0. 0. 0. 9.46969725e-004 0. 0. 0. 0. 0.
      1.89393945e-002 0. 0. 0. 0. 0. 0. 0. 0. 0. 0. 0. 0. 0.
      1.89393945e-003 0. 0. 0. 0. 0. 0. 0. 0. 0. 1.89393945e-003 0. 0.
      9.46969725e-004 0. 0. 0. 0. 0. 0. 0. 0. 1.89393945e-003 0. 0. 0.
      0. 0. 0. 0. 0. 0. 1.89393945e-003 0. 0. 9.46969725e-004 0. 0. 0.
      0. 9.46969725e-004 0. 9.46969725e-004 0. 0. 0. 0. 0.
      9.46969725e-004 0. 0. 0. 0. 0. 0. 0. 0. 0. 0. 0. 9.46969725e-004
      0. 0. 0. 0. 0. 0. 0. 0. 0. 0. 0. 0. 0. 0. 0. 0. 0. 0. 0.
      1.89393945e-003 0. 0. 9.46969725e-004 0. 0. 0. 0. 0. 0.
      9.46969725e-004 1.89393945e-003 0. 1.89393945e-003 0. 0. 0. 0. 0.
      0. 0. 0. 0. 0. 9.46969725e-004 0. 0. 0. 0. 0. 0. 0. 0. 0. 0. 0. 0.
      0. 0. 0. 0. 0. 0. 0. 0. 0. 0. 0. 1.89393945e-003 0. 0. 0. 0. 0. 0.
      9.46969725e-004 0. 0. 0. 0. 0. 0. 0. 0. 0. 0. 0. 0. 0.
      9.46969725e-004 0. 0. 0. 0. 0. 0. 0. 0. 0. 0. 0. 9.46969725e-004
      0. 0. 0. 9.46969725e-004 0. 0. 0. 0. 0. 0. 0. 0. 0. 0. 0. 0. 0. 0.
      0. 0. 0. 0. 5.68181835e-003 0. 9.46969725e-004 0. 0.
      1.89393945e-003 0. 0. 0. 0. 0. 2.84090918e-003 0. 0. 0. 0. 0. 0.
      0. 0. 0. 0. 0. 0. 0. 0. 0. 0. 0. 1.04166670e-002 0. 0. 0. 0. 0. 0.
      0. 0. 0. 0. 0. 0. 0. 0. 0. 0. 0. 0. 0. 0. 0. 0. 0. 0. 0. 0. 0. 0.
      0. 0. 0. 0. 0. 0. 0. 9.46969725e-004 0. 0. 9.46969725e-004 0. 0.
      0. 0. 0. 9.46969725e-004 0. 0. 0. 0. 0. 0. 0. 0. 0. 0. 0. 0. 0. 0.
      0. 0. 0. 0. 0. 0. 0. 0. 0. 0. 0. 0. 0. 0. 0. 0. 0. 0. 0. 0. 0. 0.
      0. 0. 0. 0. 0. 0. 0. 0. 0. 0. 2.84090918e-003 0. 0.
      3.78787890e-003 0. 0. 9.46969725e-004 0. 0. 0. 9.46969725e-004
      1.89393945e-003 9.46969725e-004 0. 0. 0. 0. 0. 0. 0. 0. 0. 0. 0.
      0. 0. 0. 0. 0. 0. 0. 0. 0. 0. 0. 0. 0. 0. 0. 0. 0. 0. 0. 0.
      9.46969725e-004 0. 0. 0. 8.52272753e-003 0. 0. 0. 0. 0.
      1.60984844e-002 0. 0. 0. 0. 0. 0. 0. 1.89393945e-003 0. 0. 0. 0.
      0. 0. 1.89393945e-003 0. 0. 0. 0. 0. 0. 0. 1.89393945e-003 0. 0.
      0. 0. 0. 0. 0. 0. 0. 0. 0. 0. 0. 0. 0. 9.46969725e-004 0. 0. 0. 0.
      0. 0. 0. 0. 0. 0. 9.46969725e-004 0. 0. 0. 0. 0. 0. 0. 0. 0. 0. 0.
      0. 0. 9.46969725e-004 0. 0. 0. 9.46969725e-004 0. 0.
      9.46969725e-004 0. 0. 0. 0. 0. 0. 0. 0. 1.89393945e-003 0. 0. 0.
      0. 0. 0. 0. 9.46969725e-004 0. 0. 0. 0. 0. 0. 0. 0. 0. 0. 0. 0. 0.
      0. 0. 0. 0. 0. 0. 0. 0. 0. 0. 0. 0. 0. 0. 0. 0. 0. 0. 0. 0.
      9.46969725e-004 0. 0. 0. 0. 0. 0. 0. 0. 0. 0. 0. 0. 0. 0. 0. 0. 0.
      0. 0. 0. 1.89393945e-003 0. 0. 0. 0. 0. 0. 0. 0. 0. 0.
      9.46969725e-004 0. 0. 0. 0. 0. 0. 6.62878808e-003 0.
      9.46969725e-004 0. 0. 7.57575780e-003 0. 0. 0. 0. 0. 0. 0. 0. 0.
      0. 0. 1.89393945e-003 0. 0. 0. 0. 0. 0. 0. 0. 0. 1.89393945e-003
      0. 0. 0. 0. 0. 0. 0. 0. 0. 0. 0. 0. 0. 0. 1.89393945e-003 0. 0. 0.
      0. 0. 0. 0. 0. 0. 0. 0. 3.78787890e-003 9.46969725e-004 0. 0. 0.
      0. 0. 0. 0. 0. 0. 0. 0. 0. 0. 0. 0. 0. 0. 0. 0. 0. 0. 0. 0. 0. 0.
      0. 0. 0. 0. 0. 0. 0. 0. 0. 9.46969725e-004 9.46969725e-003 0. 0.
      9.46969725e-004 0. 0. 0. 0. 0. 0. 0. 0. 0. 0. 4.73484863e-003 0.
      0. 0. 0. 0. 0. 0. 0. 0. 0. 1.89393945e-003 0. 9.46969725e-004
      9.46969725e-004 0. 0. 0. 0. 0. 0. 0. 0. 0. 0. 0. 0. 0. 0. 0. 0. 0.
      0. 0. 0. 0. 1.89393945e-003 0. 1.89393945e-002 0. 0.
      9.46969725e-004 0. 0. 6.62878808e-003 0. 0. 0. 0. 0. 0. 0. 0.
      2.84090918e-003 7.57575780e-003 0. 0. 0. 0. 0. 0. 0. 0. 0.
      2.84090918e-003 0. 0. 0. 0. 0. 0. 0. 0. 0. 0. 0. 0. 0. 0.
      1.89393945e-003 0. 0. 0. 0. 0. 0. 0. 0. 9.46969725e-004 0. 0. 0.
      0. 0. 0. 0. 0. 9.46969725e-004 0. 0. 0. 0. 0. 0. 0. 0. 0. 0. 0. 0.
      0. 0. 0. 0. 0. 0. 9.46969725e-004 0. 0. 0. 0. 0. 0. 0. 0. 0. 0. 0.
      0. 0. 0. 0. 0. 0. 0. 0. 0. 0. 0. 0. 0. 2.84090918e-003 0. 0. 0. 0.
      0. 0. 0. 0. 0. 0. 0. 0. 0. 0. 0. 0. 0. 1.89393945e-003 0.
      3.78787890e-003 9.46969725e-004 2.84090918e-003 0. 0. 0. 0. 0. 0.
      1.23106064e-002 9.46969725e-004 0. 0. 0. 0. 0. 0. 0. 0. 0. 0. 0.
      0. 9.46969725e-004 0. 0. 0. 0. 0. 0. 0. 0. 0. 0. 0. 0. 0. 0.
      9.46969725e-004 0. 0. 0. 0. 0. 0. 0. 0. 0. 0. 2.08333340e-002 0.
      0. 0. 0. 0. 1.89393945e-003 0. 3.78787890e-003 0. 0. 0. 0. 0. 0.
      0. 0. 0. 0. 0. 0. 0. 0. 0. 0. 0. 0. 0. 0. 0. 0. 0. 0.
      2.84090918e-003 0. 0. 0. 0. 0. 0. 0. 0. 0. 0. 0. 0. 0. 0. 0. 0. 0.
      0. 0. 0. 0. 0. 0. 0. 0. 0. 0. 0. 0. 0. 0. 0. 0. 0. 0. 0. 0. 0. 0.
      0. 0. 0. 6.62878808e-003 0. 0. 0. 0. 0. 0. 0. 0. 0. 0. 0. 0. 0. 0.
      9.46969725e-004 0. 0. 0. 0. 0. 0. 0. 0. 0. 0. 1.89393945e-003
      5.68181835e-003 0. 0. 0. 0. 0. 0. 0. 0. 0. 0. 0. 0. 0. 0.
      9.46969725e-004 0. 0. 0. 0. 0. 0. 0. 0. 0. 0. 0. 0. 0. 0. 0. 0. 0.
      0. 0. 0. 0. 0. 0. 0. 0. 0. 0. 0. 0. 0. 0. 0. 0. 0. 0. 0. 0. 0. 0.
      0. 0. 0. 0. 0. 0. 0. 9.46969725e-004 0. 0. 0. 3.12500000e-002 0.
      0. 0. 0. 0. 0. 1.89393945e-003 0. 0. 0. 0. 0. 0. 0. 0. 0. 0. 0. 0.
      0. 0. 0. 0. 1.89393945e-003 0. 0. 0. 0. 0. 0. 1.89393945e-003 0.
      0. 0. 0. 0. 0. 0. 0. 3.78787890e-003 0. 0. 0. 0. 0. 0. 0. 0. 0. 0.
      0. 0. 0. 2.84090918e-003 0. 0. 0. 0. 0. 0. 0. 0. 0. 0. 0. 0. 0. 0.
      0. 0. 0. 0. 0. 0. 0. 0. 0. 0. 0. 0. 1.89393945e-003 0. 0. 0. 0. 0.
      0. 0. 0. 0. 0. 0. 0. 0. 0. 0. 1.89393945e-003 0. 0. 0. 0. 0. 0. 0.
      0. 0. 3.78787890e-003 0. 0. 0. 0. 0. 0. 2.84090918e-003 0. 0.
      5.68181835e-003 0. 0. 0. 0. 0. 0. 0. 0. 0. 0. 0. 0.
      9.46969725e-004 0. 0. 4.73484863e-003 3.78787890e-003 0. 0. 0. 0.
      0. 0. 0. 0. 0. 0. 0. 0. 0. 0. 9.46969725e-004 0. 0. 0. 0. 0. 0. 0.
      0. 0. 0. 0. 0. 0. 0. 0. 0. 0. 0. 0. 0. 0. 0. 0. 0. 0. 0. 0. 0. 0.
      0. 0. 9.46969725e-004 0. 9.46969725e-004 0. 0. 0. 0. 0. 0. 0. 0.
      0. 0. 0. 0. 0. 0. 0. 1.89393945e-003 0. 0. 0. 0. 0. 0. 0. 0. 0. 0.
      0. 0. 0. 0. 0. 9.46969725e-004 0. 0. 0. 0. 0. 0. 0. 0. 0.
      9.46969725e-004 0. 0. 0. 9.46969725e-004 0. 0. 0. 0. 0.
      1.89393945e-003 0. 9.46969725e-004 0. 0. 0. 9.46969725e-004 0. 0.
      0. 0. 0. 0. 0. 0. 0. 0. 0. 0. 0. 0. 0. 0. 0. 0. 0. 0. 0. 0. 0. 0.
      0. 0. 0. 0. 0. 0. 0. 0. 0. 2.65151523e-002 0. 0. 0. 0. 0. 0. 0. 0.
      0. 0. 0. 0. 0. 1.89393945e-003 0. 0. 0. 0. 0. 0. 0. 0. 0. 0.
      6.62878808e-003 8.52272753e-003 3.78787890e-003 0. 0.
      9.46969725e-004 9.46969725e-004 0. 0. 0. 0. 0. 0. 0. 0. 0. 0. 0.
      6.62878808e-003 0. 0. 0. 0. 0. 9.46969725e-004 9.46969725e-004 0.
      4.73484863e-003 0. 0. 0. 0. 0. 9.46969725e-004 4.73484863e-003 0.
      0. 0. 0. 0. 0. 0. 0. 0. 0. 0. 0. 0. 9.46969725e-004 0. 0.
      6.62878808e-003 0. 0. 0. 0. 8.52272753e-003 0. 0. 0. 0. 0. 0. 0.
      0. 0. 0. 0. 1.89393945e-003 0. 0. 0. 0. 0. 0. 0. 0. 0. 0.
      6.62878808e-003 0. 0. 0. 0. 9.46969725e-004 0. 9.46969725e-004 0.
      0. 0. 0. 0. 0. 0. 0. 0. 0. 0. 3.78787890e-003 0. 0. 0. 0. 0. 0. 0.
      0. 0. 0. 0. 0. 9.46969725e-004 0. 0. 0. 0. 0. 0. 0. 0. 0. 0. 0. 0.
      0. 0. 0. 0. 0. 0. 9.46969725e-004 0. 0. 0. 1.89393945e-003
      1.89393945e-003 9.46969725e-004 0. 0. 0. 0. 0. 0. 0. 0. 0. 0. 0.
      0. 0. 0. 0. 0. 0. 0. 0. 0. 0. 0. 0. 0. 0. 0. 0. 0. 0. 0. 0. 0. 0.
      0. 0. 9.46969725e-004 9.46969725e-004 0. 0. 0. 3.78787890e-003 0.
      0. 0. 0. 0. 0. 0. 0. 0. 0. 2.84090918e-003 0. 0. 0.
      9.46969725e-004 9.46969725e-004 0. 0. 0. 0. 0. 0. 0. 0. 0. 0. 0.
      0. 0. 0. 0. 0. 0. 0. 0. 0. 0. 0. 0. 0. 0. 2.84090918e-003 0. 0. 0.
      6.62878808e-003 0. 0. 0. 0. 0. 0. 0. 0. 0. 0. 0. 0. 0. 0. 0. 0. 0.
      0. 0. 0. 0. 0. 0. 0. 0. 0. 0. 0. 0. 0. 0. 0. 0. 0. 0. 0. 0. 0. 0.
      9.46969725e-004 0. 0. 0. 0. 0. 0. 0. 0. 0. 0. 0. 9.46969725e-004
      0. 0. 0. 0. 0. 0. 0. 0. 9.46969725e-004 9.46969725e-004 0. 0. 0.
      0. 0. 9.46969725e-004 0. 0. 0. 0. 0. 0. 0. 0. 2.84090918e-003 0.
      0. 0. 0. 0. 0. 0. 0. 0. 0. 0. 0. 0. 0. 0. 1.89393945e-003 0. 0. 0.
      0. 0. 0. 1.23106064e-002 0. 0. 9.46969725e-004 0. 0. 0. 0. 0. 0.
      0. 0. 0. 0. 0. 0. 0. 0. 0. 0. 1.89393945e-003 0. 2.84090918e-003
      0. 0. 0. 0. 0. 0. 0. 0. 0. 0. 0. 0. 0. 0. 0. 0. 0. 9.46969725e-004
      0. 0. 0. 0. 0. 0. 0. 9.46969725e-004 0. 0. 9.46969725e-004 0. 0.
      0. 0. 0. 0. 9.46969725e-004 9.46969725e-004 0. 9.46969725e-004 0.
      0. 0. 0. 9.46969725e-004 2.84090918e-003 0. 0. 0. 0. 0. 0. 0. 0.
      0. 0. 4.64015156e-002 0. 0. 0. 0. 0. 0. 0. 1.89393945e-003 0. 0.
      0. 0. 0. 0. 0. 9.46969725e-004 0. 0. 0. 0. 0. 1.04166670e-002 0.
      0. 0. 0. 0. 0. 0. 9.46969725e-004 0. 0. 0. 0. 0. 0. 0. 0. 0. 0. 0.
      0. 0. 0. 0. 0. 0. 0. 0. 0. 0. 0. 0. 0. 1.89393945e-003 0.
      2.84090918e-003 0. 0. 0. 9.46969725e-004 0. 0. 0. 0. 0. 0. 0. 0.
      0. 0. 0. 0. 0. 0. 0. 0. 0. 0. 0. 0. 0. 0. 0. 0. 0. 0. 0. 0. 0. 0.
      9.46969725e-004 0. 0. 0. 0. 0. 0. 0. 0. 0. 0. 0. 0. 0. 0. 0. 0.
      2.84090918e-003 0. 0. 0. 0. 0. 0. 0. 0. 0. 0. 4.73484863e-003 0.
      0. 0. 0. 0. 0. 0. 0. 0. 0. 0. 0. 0. 0. 0. 0. 0. 0. 0. 0. 0.
      3.78787890e-003 0. 0. 0. 1.89393945e-003 0. 0. 0. 9.46969725e-004
      0. 0. 0. 0. 0. 0. 0. 0. 0. 0. 0. 0. 0. 1.89393945e-003 0. 0. 0. 0.
      0. 2.84090918e-003 2.08333340e-002 0. 0. 3.78787890e-003
      9.46969725e-004 0. 0. 0. 0. 0. 0. 0. 0. 0. 0. 0. 0. 0. 0. 0. 0. 0.
      0. 0. 0. 0. 0. 0. 0. 9.46969725e-004 0. 0. 0. 0. 0. 0. 0. 0. 0.
      9.46969725e-004 0. 0. 0. 0. 0. 0. 0. 0. 0. 5.68181835e-003
      9.46969725e-004 0. 0. 0. 0. 0. 0. 0. 0. 0. 0. 0. 0. 0. 0. 0. 0.
      1.89393945e-003 0. 0. 0. 0. 0. 0. 0. 0. 3.78787890e-003
      6.62878808e-003 0. 0. 0. 0. 9.46969725e-004 0. 0. 0. 0. 0. 0. 0.
      0. 0. 0. 0. 0. 0. 0. 0. 0. 0. 0. 0. 0. 0. 0. 0. 0. 0. 0. 0. 0. 0.
      0. 0. 0. 0. 0. 0. 0. 0. 0. 0. 0. 0. 0. 0. 0. 0. 0. 0.
      3.78787890e-003 0. 0. 0. 0. 0. 0. 0. 1.89393945e-003 0. 0. 0. 0.
      0. 0. 0. 1.13636367e-002 0. 0. 0. 0. 0. 0. 0. 0. 0. 0. 0. 0. 0. 0.
      0. 0. 0. 0. 0. 0. 0. 0. 0. 0. 0. 0. 0. 0. 0. 0. 0. 0. 0. 0. 0. 0.
      0. 0. 0. 0. 1.89393945e-003 0. 9.46969725e-004 0. 0. 0. 0.
      2.84090918e-003 0. 0. 0. 0. 0. 0. 0. 0. 0. 0. 0. 9.46969725e-004
      0. 0. 0. 1.89393945e-003 0. 9.46969725e-004 0. 0. 0. 0. 0. 0. 0.
      0. 0. 0. 0. 0. 9.46969725e-004 0. 0. 9.46969725e-004 0. 0. 0. 0.
      0. 0. 0. 0. 0. 0. 0. 0. 3.69318202e-002 0. 0. 0. 0. 0. 0. 0. 0. 0.
      0. 6.62878808e-003 0. 0. 0. 0. 0. 0. 0. 0. 0. 0. 0. 0. 0. 0. 0. 0.
      0. 0. 0. 4.73484863e-003 0. 0. 0. 3.78787890e-003 0. 0. 0. 0. 0.
      0. 0. 0. 0. 0. 0. 0. 0. 0. 0. 1.79924257e-002 0. 0. 0.
      2.84090918e-003 9.46969725e-004 0. 1.89393945e-003 0. 0. 0. 0. 0.
      9.46969725e-004 0. 0. 0. 0. 0. 0. 0. 9.46969725e-004 0.
      2.84090918e-003 0. 0. 0. 0. 0. 0. 0. 0. 0. 0. 0. 0. 0. 0. 0. 0. 0.
      0. 0. 0. 0. 0. 0. 0. 0. 0. 0. 0. 0. 9.46969725e-004 0. 0.
      1.13636367e-002 0. 0. 0. 0. 0. 0. 0. 0. 0. 0. 0. 0. 0. 0. 0. 0. 0.
      0. 0. 0. 0. 0. 0. 0. 0. 0. 9.46969725e-004 0. 0. 0. 0. 0. 0. 0. 0.
      0. 0. 0. 0. 0. 0. 0. 0. 0. 0. 0. 0. 0. 0. 0. 0. 0. 0. 0. 0. 0. 0.
      0. 0. 0. 0. 0. 0. 0. 0. 0. 6.62878808e-003 0. 0. 0. 0. 0. 0. 0. 0.
      0. 2.84090918e-003 9.46969725e-004 0. 4.73484863e-003
      7.57575780e-003 0. 0. 0. 0. 0. 0. 0. 0. 0. 0. 0. 0. 0. 0. 0.
      1.89393945e-003 0. 0. 0. 0. 0. 0. 0. 0. 0. 0. 0. 1.89393945e-003
      0. 2.84090918e-003 0. 0. 0. 0. 0. 0. 3.40909101e-002 0. 0. 0.
      9.46969725e-004 0. 0. 1.89393945e-003 0. 0. 0. 0. 0. 0.
      1.89393945e-003 0. 9.46969725e-004 0. 0. 0. 0. 0. 0.
      9.46969725e-004 0. 0. 0. 0. 0. 0. 0. 0. 0. 0. 0. 0. 0. 0. 0. 0. 0.
      0. 0. 0. 9.46969725e-004 0. 0. 0. 0. 0. 0. 0. 0. 0. 0. 0. 0. 0. 0.
      0. 0. 0. 0. 0. 0. 0. 0. 4.73484863e-003 0. 0. 0. 0. 0. 0. 0. 0. 0.
      0. 0. 0. 0. 0. 0. 0. 2.84090918e-003 0. 0. 0. 0. 0. 0.
      7.57575780e-003 9.46969725e-004 0. 0. 0. 0. 0. 0. 0. 0. 0. 0. 0.
      0. 0. 0. 0. 0. 0. 0. 0. 0. 0. 0. 0. 0. 0. 0. 0. 0. 0. 0. 0.
      9.46969725e-004 0. 0. 0. 0. 9.46969725e-004 0. 0. 0.
      1.89393945e-003 0. 0. 0. 0. 0. 0. 0. 0. 0. 0. 0. 0. 0. 0. 0. 0. 0.
      1.13636367e-002 0. 0. 0. 0. 0. 0. 0. 0. 0. 0. 0. 0.
      9.46969725e-004 0. 0. 0. 0. 0. 0. 0. 0. 0. 0. 0. 0. 0. 0. 0. 0. 0.
      9.46969725e-004 0. 0. 0. 0. 1.89393945e-003 0. 1.89393945e-003 0.
      0. 0. 0. 6.62878808e-003 0. 0. 0. 0. 0. 0. 0. 9.46969725e-004 0.
      0. 0. 0. 0. 0. 0. 0. 0. 0. 0. 0. 0. 0. 0. 0. 0. 0. 1.89393945e-003
      0. 0. 8.52272753e-003 0. 0. 0. 0. 0. 0. 0. 0. 0. 0. 0. 0.
      3.78787890e-003 0. 0. 0. 0. 0. 0. 0. 0. 0. 0. 0. 0. 0. 0. 0. 0. 0.
      0. 0. 0. 0. 0. 0. 0. 9.46969725e-004 0. 0. 0. 0. 0. 0. 0. 0. 0. 0.
      0. 0. 0. 0. 0. 0. 0. 0. 0. 0. 0. 0. 0. 0. 0. 0. 9.46969725e-004 0.
      0. 0. 0. 0. 0. 9.46969725e-004 0. 3.78787890e-003 0. 0. 0. 0. 0.
      0. 0. 0. 0. 0. 0. 0. 0. 0.</_>
    <_>
      0. 0. 0. 0. 0. 0. 3.26797389e-003 1.63398695e-003 0. 0.
      4.90196096e-003 0. 0. 0. 0. 0. 0. 0. 0. 0. 4.90196096e-003
      1.63398695e-003 0. 0. 0. 0. 1.63398695e-003 0. 0. 0. 0. 0. 0. 0.
      0. 0. 0. 0. 0. 0. 0. 0. 0. 1.63398695e-003 0. 0. 0. 0. 0. 0. 0. 0.
      0. 0. 0. 0. 0. 4.90196096e-003 0. 0. 0. 0. 0. 0. 0. 0. 0. 0. 0. 0.
      0. 0. 0. 0. 0. 0. 0. 1.63398695e-003 0. 0. 0. 0. 0. 0. 0. 0. 0. 0.
      0. 0. 1.63398695e-003 0. 0. 0. 0. 0. 1.63398695e-003 0. 0. 0. 0.
      0. 0. 0. 0. 0. 0. 0. 0. 0. 0. 0. 0. 1.63398695e-003 0. 0.
      1.63398695e-003 0. 0. 0. 0. 0. 0. 0. 0. 0. 0. 0. 0. 0. 0. 0. 0. 0.
      0. 0. 0. 0. 0. 0. 0. 0. 0. 0. 0. 0. 0. 0. 0. 0. 0. 0. 0. 0. 0. 0.
      0. 0. 0. 0. 0. 0. 0. 0. 0. 0. 0. 0. 0. 0. 0. 0. 0. 0. 0. 0. 0.
      4.90196096e-003 0. 0. 0. 0. 0. 0. 0. 1.63398695e-003 0. 0. 0. 0.
      0. 0. 0. 0. 1.63398695e-003 0. 0. 0. 0. 0. 1.63398695e-003 0. 0.
      0. 0. 0. 0. 0. 0. 0. 0. 0. 0. 0. 0. 0. 0. 0. 0. 0. 0. 0. 0. 0. 0.
      1.63398695e-003 0. 3.26797389e-003 0. 0. 0. 0. 0. 0. 0.
      1.63398695e-003 0. 0. 0. 0. 0. 0. 0. 0. 3.26797389e-003 0. 0.
      1.63398695e-003 0. 0. 0. 0. 0. 0. 0. 0. 4.90196096e-003 0. 0. 0.
      0. 0. 0. 1.63398695e-003 0. 0. 0. 0. 0. 0. 0. 0. 0. 0. 0. 0. 0. 0.
      1.63398695e-003 0. 0. 0. 0. 0. 0. 1.63398695e-003 0. 0. 0. 0. 0.
      0. 0. 0. 0. 0. 0. 0. 4.90196096e-003 0. 0. 0. 0. 0. 0. 0.
      1.63398695e-003 0. 0. 0. 3.26797389e-003 0. 0. 0. 0. 0. 0.
      1.63398695e-003 0. 0. 0. 0. 3.26797389e-003 0. 0. 0. 0. 0. 0. 0.
      0. 0. 0. 0. 0. 0. 0. 0. 0. 0. 1.63398695e-003 0. 0. 0. 0.
      1.63398695e-003 0. 0. 0. 0. 0. 1.63398695e-003 1.63398695e-003
      1.63398695e-003 0. 0. 0. 0. 0. 0. 3.26797389e-003 1.63398695e-003
      0. 0. 0. 0. 0. 3.26797389e-003 0. 0. 0. 3.26797389e-003 0. 0. 0.
      0. 0. 0. 0. 0. 0. 0. 0. 0. 0. 8.16993508e-003 0. 0. 0. 0. 0. 0. 0.
      0. 0. 0. 0. 0. 1.63398695e-003 0. 0. 4.90196096e-003 0. 0. 0. 0.
      0. 0. 0. 0. 1.63398695e-003 1.63398695e-003 0. 0. 0.
      1.63398695e-003 0. 0. 1.63398695e-003 0. 0. 0. 0. 0. 0. 0. 0. 0.
      0. 0. 0. 0. 0. 0. 1.63398695e-003 0. 0. 0. 0. 0. 0. 0. 0. 0. 0. 0.
      0. 0. 0. 0. 0. 0. 1.63398695e-003 0. 1.63398695e-003
      1.63398695e-003 0. 0. 0. 0. 0. 0. 0. 0. 0. 0. 0. 0. 0. 0. 0. 0.
      4.90196096e-003 0. 0. 0. 0. 0. 0. 0. 1.63398695e-003 0. 0. 0. 0.
      0. 0. 0. 0. 0. 0. 0. 0. 0. 0. 0. 0. 0. 0. 0. 0. 0. 0. 0. 0. 0. 0.
      0. 0. 0. 0. 0. 0. 1.63398695e-003 0. 0. 0. 0. 0. 0. 0. 0. 0. 0. 0.
      0. 0. 1.63398695e-003 0. 3.26797389e-003 0. 0. 0. 0. 0. 0. 0. 0.
      0. 0. 0. 1.63398695e-003 0. 0. 0. 0. 0. 0. 0. 0. 0. 0. 0. 0. 0. 0.
      0. 0. 9.80392192e-003 0. 0. 0. 0. 0. 0. 0. 0. 0. 0. 0. 0. 0. 0. 0.
      0. 1.63398695e-003 0. 0. 0. 0. 0. 0. 0. 0. 0. 0. 0. 0. 0. 0. 0.
      1.63398695e-003 0. 1.63398695e-003 0. 1.63398695e-003 0. 0. 0. 0.
      0. 0. 0. 0. 0. 0. 0. 1.63398695e-003 0. 0. 0. 0. 0. 0. 0. 0. 0. 0.
      0. 0. 1.63398695e-003 0. 0. 0. 0. 0. 0. 0. 0. 0. 0. 0. 0. 0. 0. 0.
      0. 0. 0. 3.26797389e-003 0. 0. 0. 0. 0. 0. 0. 0. 0. 0. 0. 0.
      1.63398695e-003 0. 0. 0. 0. 0. 1.63398695e-003 1.63398695e-003
      1.63398695e-003 0. 0. 0. 0. 0. 0. 0. 0. 0. 0. 0. 0. 0. 0.
      1.63398695e-003 0. 0. 0. 0. 0. 0. 0. 0. 0. 0. 0. 0. 0. 0.
      1.63398695e-003 0. 0. 0. 0. 0. 0. 0. 0. 0. 0. 0. 0. 0. 0. 0. 0. 0.
      0. 0. 0. 0. 0. 0. 0. 0. 0. 0. 0. 3.26797389e-003 0. 0. 0. 0. 0. 0.
      0. 0. 1.63398695e-003 0. 0. 0. 0. 0. 0. 0. 0. 0. 0. 0. 0. 0. 0.
      1.63398695e-003 0. 0. 0. 0. 0. 0. 0. 1.63398695e-003 0. 0. 0. 0.
      0. 1.63398695e-003 0. 0. 0. 0. 0. 0. 0. 1.63398695e-003 0. 0.
      1.63398695e-003 0. 0. 0. 6.53594779e-003 0. 0. 0. 0. 0. 0. 0. 0.
      0. 0. 3.26797389e-003 0. 6.53594779e-003 0. 0. 0. 0. 0. 0.
      1.63398695e-003 0. 0. 0. 0. 0. 0. 0. 0. 0. 0. 0. 0. 0. 0. 0. 0. 0.
      0. 0. 0. 0. 0. 0. 0. 0. 0. 0. 0. 0. 0. 1.63398695e-003 0. 0. 0. 0.
      0. 0. 0. 0. 0. 0. 0. 0. 0. 0. 0. 0. 0. 0. 0. 0. 0. 0. 0. 0. 0. 0.
      0. 0. 0. 0. 0. 0. 0. 1.63398695e-003 0. 0. 0. 0. 0. 0. 0. 0. 0. 0.
      0. 0. 0. 0. 0. 0. 0. 0. 1.63398695e-003 0. 0. 0. 0. 0. 0. 0. 0. 0.
      0. 0. 0. 0. 0. 0. 0. 0. 0. 0. 1.63398695e-003 0. 0. 0. 0. 0. 0. 0.
      6.53594779e-003 0. 0. 1.63398695e-003 0. 0. 0. 0. 0. 0. 0. 0. 0.
      0. 0. 0. 0. 0. 0. 0. 0. 0. 0. 0. 0. 0. 0. 0. 0. 0. 0. 0.
      3.26797389e-003 0. 0. 3.26797389e-003 0. 1.63398695e-003 0. 0. 0.
      0. 0. 0. 0. 0. 0. 0. 0. 0. 0. 0. 3.92156877e-002 0.
      3.26797389e-003 6.53594779e-003 0. 0. 0. 0. 0. 0. 0. 0. 0. 0. 0.
      1.63398695e-003 0. 0. 0. 0. 0. 0. 0. 0. 0. 0. 0. 4.90196096e-003
      0. 0. 0. 0. 0. 0. 0. 0. 0. 0. 0. 1.63398695e-003 3.26797389e-003
      0. 0. 0. 0. 0. 0. 0. 0. 0. 0. 0. 1.63398695e-003 0. 0. 0. 0. 0. 0.
      0. 0. 0. 0. 0. 0. 0. 0. 0. 0. 0. 0. 0. 0. 0. 0. 0. 0. 0. 0. 0. 0.
      0. 0. 0. 0. 0. 0. 0. 0. 0. 0. 0. 0. 0. 0. 0. 0. 0. 0. 0. 0. 0. 0.
      0. 0. 0. 0. 0. 0. 3.26797389e-003 1.63398695e-003 0. 0. 0. 0. 0.
      1.63398695e-003 0. 0. 0. 0. 0. 0. 0. 0. 0. 0. 0. 0. 0. 0. 0. 0. 0.
      0. 0. 0. 1.63398695e-003 0. 0. 1.63398695e-003 0. 1.63398695e-003
      0. 0. 0. 0. 0. 0. 0. 0. 0. 0. 0. 0. 0. 1.63398695e-003 0. 0. 0. 0.
      0. 0. 0. 0. 0. 0. 0. 0. 0. 0. 0. 0. 0. 0. 3.26797389e-003
      1.63398695e-003 0. 0. 0. 0. 0. 0. 3.26797389e-003 4.90196096e-003
      1.63398695e-003 0. 0. 0. 0. 0. 0. 0. 0. 1.63398695e-003 0. 0. 0.
      9.80392192e-003 0. 0. 0. 0. 0. 3.26797389e-003 0. 1.63398695e-003
      0. 0. 0. 0. 0. 0. 0. 0. 0. 0. 0. 0. 0. 0. 0. 0. 1.63398695e-003 0.
      0. 0. 0. 0. 0. 0. 0. 0. 0. 3.26797389e-003 0. 0. 0. 0. 0. 0. 0.
      4.90196096e-003 0. 0. 0. 0. 0. 0. 0. 0. 0. 0. 1.63398695e-003 0.
      0. 0. 1.63398695e-003 1.63398695e-003 0. 0. 0. 0. 0. 0. 0. 0. 0.
      1.63398695e-003 0. 0. 0. 0. 0. 0. 0. 0. 0. 0. 0. 0. 0. 0. 0. 0. 0.
      1.63398695e-003 0. 0. 0. 0. 0. 0. 0. 0. 0. 0. 0. 3.26797389e-003
      0. 3.26797389e-003 0. 0. 0. 0. 0. 3.26797389e-003 0. 0. 0. 0. 0.
      0. 0. 0. 0. 3.26797389e-003 0. 0. 0. 0. 0. 0. 0. 0. 0. 0. 0. 0. 0.
      0. 0. 0. 0. 0. 0. 0. 1.63398695e-003 0. 0. 0. 0. 0. 0. 0. 0. 0. 0.
      0. 0. 0. 0. 0. 0. 8.16993508e-003 0. 0. 0. 0. 0. 0.
      1.63398695e-003 0. 3.26797389e-003 0. 0. 0. 0. 0. 0. 0. 0. 0. 0.
      0. 0. 0. 0. 0. 0. 0. 0. 0. 0. 0. 0. 0. 0. 0. 0. 6.53594779e-003 0.
      0. 0. 0. 0. 0. 0. 0. 0. 0. 0. 0. 0. 0. 0. 0. 0. 0. 0. 0. 0. 0. 0.
      1.63398695e-003 0. 0. 1.63398695e-003 0. 0. 1.63398695e-003 0. 0.
      0. 0. 0. 0. 0. 0. 0. 0. 0. 0. 0. 0. 0. 1.63398695e-003 0. 0. 0. 0.
      0. 0. 0. 1.63398695e-003 0. 0. 1.14379087e-002 0. 0. 0. 0. 0. 0.
      0. 1.63398695e-003 0. 0. 0. 0. 0. 0. 0. 0. 0. 0. 0. 0. 0. 0. 0. 0.
      0. 0. 0. 0. 0. 0. 0. 0. 0. 0. 0. 0. 0. 0. 0. 0. 0. 0.
      4.90196096e-003 0. 0. 0. 0. 0. 0. 0. 0. 0. 1.63398702e-002 0.
      1.63398695e-003 0. 0. 0. 0. 0. 0. 0. 0. 0. 0. 0. 1.63398695e-003
      0. 0. 0. 1.63398695e-003 0. 0. 0. 0. 0. 0. 0. 0. 0. 0. 0. 0. 0. 0.
      0. 0. 0. 0. 0. 0. 0. 3.26797389e-003 0. 0. 0. 1.63398695e-003 0.
      0. 0. 0. 0. 0. 0. 0. 0. 0. 0. 0. 0. 0. 0. 0. 0. 0. 0. 0. 0. 0.
      1.63398695e-003 0. 0. 0. 1.63398695e-003 0. 0. 0. 0. 0. 0. 0. 0.
      3.26797389e-003 0. 0. 0. 0. 0. 0. 0. 0. 0. 0. 0. 0. 0. 0. 0. 0. 0.
      0. 3.26797389e-003 0. 0. 0. 0. 0. 0. 0. 0. 1.63398695e-003 0. 0.
      0. 0. 0. 0. 0. 0. 0. 0. 0. 3.26797389e-003 0. 3.26797389e-003 0.
      0. 0. 0. 0. 0. 0. 0. 0. 0. 0. 0. 1.63398695e-003 0.
      1.63398695e-003 0. 1.63398695e-003 0. 0. 0. 0. 0. 0. 0. 0. 0. 0.
      0. 0. 0. 0. 0. 0. 0. 0. 0. 0. 0. 0. 0. 0. 1.14379087e-002 0. 0. 0.
      0. 0. 0. 0. 0. 0. 0. 0. 0. 0. 0. 0. 1.63398695e-003 0. 0.
      6.53594779e-003 0. 0. 0. 0. 0. 0. 0. 0. 0. 0. 0. 3.26797389e-003
      0. 0. 0. 0. 0. 0. 0. 0. 0. 0. 0. 0. 0. 0. 0. 0. 0. 0. 0. 0. 0.
      3.26797389e-003 0. 0. 4.90196096e-003 0. 0. 0. 0. 0. 0. 0. 0. 0.
      0. 0. 0. 0. 0. 1.63398695e-003 0. 3.26797389e-003 0. 0. 0. 0. 0.
      0. 0. 0. 0. 0. 0. 0. 0. 0. 0. 0. 0. 0. 0. 0. 0. 0. 0. 0.
      1.63398695e-003 0. 0. 0. 0. 0. 0. 0. 0. 0. 0. 0. 0. 0. 0. 0. 0. 0.
      0. 1.63398695e-003 0. 3.26797389e-003 0. 0. 0. 0. 0. 0. 0. 0. 0.
      0. 0. 0. 0. 0. 0. 0. 1.63398695e-003 0. 0. 0. 0. 0. 0. 0. 0. 0. 0.
      0. 4.90196096e-003 0. 0. 0. 0. 0. 0. 0. 0. 0. 0. 0. 0. 0. 0. 0. 0.
      0. 0. 0. 0. 0. 0. 0. 0. 0. 0. 0. 0. 0. 1.63398695e-003 0. 0. 0. 0.
      0. 0. 0. 0. 0. 0. 0. 0. 0. 0. 0. 0. 0. 0. 0. 0. 0. 0. 0. 0. 0. 0.
      0. 0. 0. 0. 0. 0. 0. 0. 0. 0. 0. 0. 0. 0. 0. 0. 0. 3.26797389e-003
      0. 0. 0. 0. 0. 0. 0. 0. 0. 1.63398695e-003 0. 0. 0. 0. 0. 0. 0. 0.
      0. 0. 0. 0. 0. 0. 1.63398695e-003 0. 1.47058824e-002 0. 0.
      1.79738570e-002 0. 0. 0. 1.63398695e-003 0. 0. 0. 0. 0. 0. 0. 0.
      0. 0. 0. 0. 0. 0. 0. 0. 0. 0. 0. 0. 0. 0. 0. 0. 0. 0. 0. 0.
      3.26797389e-003 0. 0. 0. 0. 3.26797389e-003 0. 4.90196096e-003 0.
      0. 0. 1.63398695e-003 0. 0. 0. 0. 0. 0. 0. 0. 0. 0. 0. 0.
      1.63398695e-003 0. 1.63398695e-003 0. 0. 0. 0. 0. 0. 0. 0. 0.
      1.63398695e-003 0. 0. 0. 3.26797389e-003 0. 0. 0. 0. 0.
      1.63398695e-003 0. 0. 0. 0. 0. 0. 0. 3.26797389e-003 0. 0. 0. 0.
      0. 0. 0. 0. 0. 0. 0. 0. 0. 0. 0. 0. 0. 0. 0. 0. 0. 0.
      1.63398695e-003 0. 0. 0. 0. 0. 0. 0. 0. 3.26797389e-003 0.
      3.26797389e-003 3.26797389e-003 0. 0. 0. 0. 0. 0. 0. 0. 0. 0. 0.
      0. 0. 0. 0. 0. 0. 0. 1.63398695e-003 0. 0. 0. 0. 0. 0.
      6.53594779e-003 1.63398695e-003 0. 0. 1.63398695e-003 0. 0. 0. 0.
      0. 1.63398695e-003 1.63398695e-003 3.26797389e-003 0. 0. 0. 0. 0.
      0. 0. 1.63398695e-003 0. 0. 0. 0. 0. 3.26797389e-003 0. 0. 0. 0.
      0. 0. 0. 0. 0. 0. 0. 0. 0. 0. 0. 0. 0. 0. 0. 0. 0. 0. 0. 0. 0.
      9.64052305e-002 0. 0. 0. 3.26797389e-003 0. 0. 0. 0. 0. 0. 0. 0.
      0. 0. 0. 0. 0. 0. 0. 0. 0. 0. 0. 0. 0. 0. 0. 0. 0. 0. 0. 0. 0. 0.
      0. 0. 0. 0. 0. 0. 0. 0. 0. 0. 0. 0. 0. 0. 0. 0. 0. 0. 0. 0.
      1.63398695e-003 0. 0. 0. 0. 0. 1.63398695e-003 0. 0. 0. 0. 0. 0.
      0. 0. 0. 0. 0. 0. 0. 0. 0. 0. 0. 0. 0. 0. 0. 0. 0. 0. 0. 0. 0. 0.
      0. 0. 0. 0. 0. 0. 1.63398695e-003 1.63398695e-003 3.26797389e-003
      0. 4.90196096e-003 1.63398695e-003 0. 1.63398695e-003 0. 0. 0. 0.
      0. 0. 0. 0. 3.26797389e-003 0. 0. 0. 0. 0. 0. 0. 0. 0. 0. 0. 0. 0.
      0. 0. 0. 0. 0. 0. 0. 0. 1.63398695e-003 3.26797389e-003 0. 0. 0.
      0. 0. 0. 1.63398695e-003 1.63398695e-003 0. 0. 0. 1.63398695e-003
      0. 4.24836613e-002 0. 0. 1.63398695e-003 0. 1.63398695e-003 0. 0.
      0. 0. 0. 0. 0. 0. 0. 0. 1.63398695e-003 0. 0. 0. 0.
      1.63398695e-003 0. 0. 0. 0. 0. 0. 0. 0. 0. 0. 0. 0. 0. 0. 0. 0. 0.
      1.63398695e-003 0. 0. 0. 0. 0. 1.63398695e-003 0. 0. 0. 0. 0.
      1.63398695e-003 1.63398695e-003 0. 0. 0. 0. 0. 0. 0. 0. 0. 0. 0.
      0. 0. 0. 1.63398695e-003 0. 0. 0. 0. 0. 0. 0. 0. 0. 0. 0. 0. 0. 0.
      0. 1.63398695e-003 0. 0. 0. 0. 0. 1.63398695e-003 0. 0. 0. 0.
      1.63398695e-003 0. 1.63398695e-003 0. 0. 0. 1.63398695e-003 0. 0.
      0. 0. 0. 0. 0. 0. 0. 0. 0. 0. 0. 0. 0. 0. 0. 0. 0. 0. 0. 0. 0. 0.
      0. 0. 0. 0. 0. 0. 0. 0. 0. 0. 0. 0. 0. 0. 3.26797389e-003 0. 0. 0.
      0. 0. 0. 1.14379087e-002 0. 0. 0. 0. 0. 0. 0. 0. 0. 0. 0. 0. 0. 0.
      0. 0. 0. 0. 0. 0. 0. 0. 0. 0. 0. 0. 0. 0. 0. 0. 0. 0. 0. 0. 0. 0.
      0. 0. 0. 0. 0. 3.26797389e-003 0. 0. 0. 0. 0. 3.26797389e-003 0.
      0. 0. 0. 0. 0. 0. 0. 0. 0. 0. 3.26797389e-003 0. 0. 0. 0. 0. 0. 0.
      0. 0. 0. 0. 0. 0. 0. 0. 0. 0. 0. 0. 0. 0. 1.63398695e-003 0. 0. 0.
      0. 1.63398695e-003 3.26797389e-003 0. 0. 0. 0. 0. 0. 0.
      1.63398695e-003 1.63398695e-003 0. 0. 0. 0. 0. 0. 0.
      1.63398695e-003 1.63398695e-003 1.63398695e-003 0. 0. 0. 0. 0. 0.
      0. 0. 0. 0. 0. 0. 0. 0. 0. 0. 0. 0. 4.90196096e-003 0. 0. 0.
      1.63398695e-003 0. 0. 0. 0. 0. 0. 0. 0. 0. 0. 0. 0. 0. 0. 0.
      1.63398695e-003 0. 0. 0. 0. 0. 0. 0. 0. 0. 0. 0. 0.
      4.90196096e-003 0. 0. 0. 0. 0. 0. 0. 8.16993508e-003 0. 0. 0. 0.
      8.16993508e-003 0. 0. 0. 0. 0. 0. 0. 0. 0. 0. 0. 0. 0. 0.
      1.63398695e-003 0. 0. 0. 0. 0. 0. 0. 0. 1.63398695e-003 0. 0. 0.
      0. 0. 0. 0. 0. 0. 0. 0. 0. 1.63398695e-003 0. 0. 0. 0. 0. 0. 0. 0.
      0. 0. 0. 0. 0. 0. 0. 0. 0. 0. 0. 0. 0. 0. 0. 1.63398695e-003 0. 0.
      0. 0. 0. 1.63398695e-003 0. 0. 0. 0. 0. 0. 0. 0. 0.
      1.63398695e-003 0. 0. 0. 0. 0. 0. 0. 0. 0. 0. 0. 0. 0. 0. 0. 0. 0.
      0. 0. 0. 0. 0. 0. 0. 0. 0. 0. 0. 0. 0. 3.26797389e-003 0. 0.
      1.63398695e-003 0. 0. 0. 0. 0. 0. 0. 0. 4.90196096e-003 0. 0. 0.
      0. 0. 0. 0. 0. 3.26797389e-003 0. 0. 0. 0. 0. 0. 0. 0. 0. 0. 0. 0.
      0. 0. 0. 0. 0. 0. 4.90196096e-003 0. 1.63398695e-003 0. 0. 0. 0.
      0. 0. 0. 0. 0. 0. 0. 1.63398695e-003 0. 0. 0. 0. 0. 0. 0. 0. 0. 0.
      0. 0. 0. 0. 0. 0. 0. 0. 1.63398695e-003 0. 0. 0. 0. 0. 0. 0. 0. 0.
      0. 0. 0. 0. 0. 1.63398695e-003 0. 0. 0. 0. 0. 4.90196096e-003 0.
      0. 0. 0. 3.26797389e-003 0. 0. 9.80392192e-003 0. 0.
      1.63398695e-003 1.63398695e-003 0. 0. 0. 0. 0. 0. 0. 0. 0. 0. 0.
      0. 0. 0. 0. 0. 0. 1.63398695e-003 0. 0. 0. 0. 0. 4.90196096e-003
      1.63398695e-003 1.63398695e-003 0. 1.63398695e-003 0. 0. 0.
      1.30718956e-002 0. 0. 0. 0. 0. 0. 0. 0. 0. 0. 0. 0. 0. 0. 0. 0. 0.
      0. 0. 0. 1.63398695e-003 0. 0. 0. 0. 0. 0. 0. 0. 0.
      3.26797389e-003 0. 0. 0. 0. 0. 0. 0. 0. 1.63398695e-003 0. 0. 0.
      0. 0. 0. 0. 0. 0. 0. 0. 0. 0. 0. 0. 0. 0. 0. 0. 0. 0. 0. 0. 0. 0.
      1.63398695e-003 0. 0. 0. 0. 1.63398695e-003 0. 0. 0. 0. 0. 0. 0.
      0. 0. 0. 0. 0. 0. 0. 0. 0. 0. 3.26797389e-003 0. 0. 0. 0. 0. 0.
      1.63398695e-003 0. 0. 0. 1.63398695e-003 0. 0. 0. 0. 0. 0. 0. 0.
      0. 0. 0. 0. 0. 0. 0. 0. 0. 0. 0. 0. 0. 0. 4.90196096e-003 0. 0. 0.
      0. 0. 0. 0. 0. 0. 0. 0. 0. 0. 0. 0. 0. 0. 1.63398695e-003 0. 0. 0.
      0. 0. 0. 0. 0. 0. 0. 0. 0. 6.53594779e-003 0. 0. 0. 0. 0.
      1.63398695e-003 0. 0. 0. 0. 0. 0. 0. 0. 0. 0. 1.63398695e-003 0.
      0. 1.63398695e-003 3.26797389e-003 0. 0. 0. 0. 0. 0. 0. 0. 0. 0.
      0. 0. 0. 0. 1.63398695e-003 0. 0. 0. 0. 0. 0. 0. 0. 0. 0. 0.
      1.63398695e-003 0. 0. 1.63398695e-003 0. 0. 0. 0. 0. 0. 0. 0. 0.</_>
    <_>
      0. 0. 0. 0. 0. 0. 0. 0. 0. 0. 0. 1.50829565e-003 0. 0. 0. 0. 0. 0.
      0. 0. 0. 0. 0. 0. 0. 0. 0. 0. 0. 0. 1.50829565e-003 0. 0. 0. 0. 0.
      3.01659130e-003 0. 0. 0. 0. 0. 1.50829565e-003 1.50829565e-003 0.
      1.50829565e-003 0. 0. 0. 0. 0. 0. 1.50829565e-003 3.01659130e-003
      0. 0. 0. 0. 0. 0. 0. 0. 0. 0. 0. 0. 0. 0. 0. 0. 0. 0. 0.
      3.01659130e-003 0. 0. 1.50829565e-003 0. 0. 0. 1.50829565e-003 0.
      0. 0. 0. 0. 0. 0. 0. 0. 0. 0. 0. 0. 0. 0. 0. 0. 0. 0. 0. 0. 0.
      4.52488707e-003 0. 0. 0. 0. 0. 0. 0. 0. 0. 1.50829565e-003 0. 0.
      0. 0. 0. 0. 0. 0. 0. 0. 0. 1.50829565e-003 0. 0. 0. 0. 0. 0. 0. 0.
      0. 1.50829565e-003 0. 0. 0. 0. 0. 0. 1.50829565e-003 0. 0. 0. 0.
      0. 0. 0. 0. 0. 3.01659130e-003 0. 0. 0. 0. 0. 0. 0. 0. 0. 0. 0. 0.
      0. 0. 0. 0. 0. 0. 0. 0. 0. 0. 0. 0. 0. 0. 0. 0. 0. 0. 0. 0. 0. 0.
      0. 0. 0. 0. 0. 0. 0. 1.50829565e-003 0. 0. 0. 0. 1.50829565e-003
      0. 0. 0. 0. 0. 0. 0. 0. 0. 0. 0. 0. 0. 1.50829565e-003 0. 0. 0.
      1.50829565e-003 0. 0. 0. 0. 0. 0. 9.04977415e-003 0. 0.
      1.50829565e-003 0. 0. 0. 0. 0. 0. 0. 0. 0. 0. 0. 0. 0. 0. 0. 0. 0.
      0. 0. 0. 0. 0. 0. 0. 0. 0. 0. 0. 0. 0. 0. 0. 0. 0. 0. 0.
      1.50829565e-003 0. 0. 0. 0. 0. 0. 0. 0. 0. 0. 0. 0. 0. 0. 0. 0. 0.
      0. 0. 0. 1.50829565e-003 0. 0. 0. 0. 0. 0. 0. 0. 0. 0. 0. 0. 0. 0.
      0. 0. 0. 0. 0. 0. 0. 0. 0. 0. 3.01659130e-003 0. 0. 0. 0. 0. 0. 0.
      0. 1.65912528e-002 0. 0. 0. 0. 0. 0. 0. 0. 0. 0. 0. 0. 0. 0. 0. 0.
      0. 0. 0. 0. 0. 0. 0. 0. 0. 0. 0. 1.50829565e-003 0. 0. 0. 0. 0. 0.
      0. 0. 0. 0. 3.01659130e-003 0. 0. 0. 0. 0. 0. 0. 0.
      1.50829565e-003 0. 9.04977415e-003 0. 0. 0. 0. 1.50829565e-003 0.
      3.01659130e-003 0. 0. 0. 0. 0. 0. 0. 0. 1.50829565e-003 0. 0. 0.
      0. 1.50829565e-003 0. 6.03318261e-003 0. 0. 0. 0. 0. 0. 0. 0. 0.
      0. 0. 0. 0. 0. 0. 0. 0. 0. 0. 0. 1.50829565e-003 0. 0. 0. 0. 0. 0.
      0. 0. 0. 0. 0. 0. 0. 0. 0. 0. 0. 0. 0. 0. 0. 0. 0. 0. 0. 0. 0. 0.
      0. 0. 0. 0. 3.01659130e-003 0. 0. 0. 0. 0. 0. 0. 1.50829565e-003
      0. 0. 0. 0. 0. 0. 0. 0. 0. 1.50829565e-003 1.50829565e-003 0. 0.
      0. 0. 0. 0. 0. 0. 0. 0. 0. 0. 0. 3.01659130e-003 1.50829565e-003
      0. 0. 0. 0. 0. 1.50829565e-003 0. 0. 0. 3.01659130e-003 0.
      1.50829565e-003 0. 0. 0. 0. 0. 0. 3.01659130e-003 0. 0. 0. 0. 0.
      0. 3.01659130e-003 0. 1.50829565e-003 0. 0. 0. 1.50829565e-003 0.
      0. 0. 0. 0. 1.50829565e-003 0. 0. 0. 0. 0. 0. 0. 0. 0. 0. 0.
      1.50829565e-003 0. 3.01659130e-003 0. 0. 0. 0. 0. 0. 0. 0. 0. 0.
      0. 0. 0. 0. 0. 0. 0. 0. 0. 1.50829565e-003 0. 0. 0. 0. 0.
      1.50829565e-003 0. 0. 0. 0. 0. 0. 0. 0. 0. 0. 0. 0. 0. 0. 0. 0. 0.
      1.50829565e-003 0. 0. 0. 0. 0. 0. 0. 0. 0. 0. 1.50829565e-003 0.
      0. 0. 0. 0. 0. 0. 0. 1.50829565e-003 0. 0. 0. 0. 0. 0. 0. 0. 0. 0.
      0. 0. 0. 0. 0. 0. 0. 0. 0. 0. 0. 0. 0. 0. 0. 1.50829565e-003 0. 0.
      0. 1.50829565e-003 0. 0. 0. 0. 0. 1.50829565e-003 0. 0.
      1.50829565e-003 0. 0. 0. 0. 0. 0. 0. 0. 0. 0. 0. 0. 0. 0.
      6.03318261e-003 0. 0. 0. 0. 1.50829565e-003 0. 0. 0. 0. 0. 0. 0.
      0. 0. 0. 0. 0. 0. 0. 0. 0. 0. 0. 0. 0. 0. 0. 0. 0. 0. 0. 0. 0.
      3.01659130e-003 0. 0. 0. 0. 0. 0. 0. 0. 3.01659130e-003 0. 0. 0.
      0. 0. 0. 0. 0. 0. 0. 1.50829565e-003 1.50829565e-003 0. 0. 0. 0.
      0. 0. 0. 0. 0. 1.50829565e-003 0. 0. 0. 0. 0. 0. 0. 0.
      1.50829565e-003 0. 0. 0. 0. 0. 0. 0. 0. 0. 1.05580697e-002 0. 0.
      1.50829565e-003 0. 0. 0. 0. 0. 0. 0. 0. 0. 0. 0. 0. 0. 0. 0. 0. 0.
      0. 0. 1.50829565e-003 0. 0. 0. 0. 0. 0. 0. 0. 0. 0. 0. 0. 0. 0. 0.
      0. 0. 0. 0. 0. 1.50829565e-003 0. 0. 0. 0. 0. 0. 0. 0.
      1.50829565e-003 0. 1.50829565e-003 0. 0. 0. 0. 0. 0. 0. 0. 0. 0.
      0. 0. 0. 0. 0. 0. 1.50829565e-003 0. 2.41327304e-002
      9.04977415e-003 0. 0. 0. 0. 0. 0. 0. 0. 0. 0. 0. 0. 0. 0. 0. 0. 0.
      0. 0. 0. 0. 1.50829565e-003 0. 0. 3.01659130e-003 1.50829565e-003
      0. 0. 0. 0. 0. 0. 0. 0. 0. 0. 0. 0. 0. 0. 0. 0. 0. 0. 0. 0. 0. 0.
      0. 0. 0. 3.01659130e-003 0. 0. 0. 0. 0. 0. 0. 0. 0. 0. 0.
      3.01659130e-003 1.50829565e-003 0. 0. 0. 0. 0. 0. 0. 0. 0. 0. 0.
      1.50829565e-003 0. 0. 0. 0. 0. 0. 0. 0. 0. 0. 0. 0. 0. 0.
      1.50829563e-002 0. 0. 3.01659130e-003 0. 0. 3.01659130e-003 0. 0.
      0. 0. 0. 0. 0. 0. 0. 0. 0. 1.50829565e-003 1.50829565e-003 0. 0.
      0. 0. 0. 1.50829565e-003 0. 0. 0. 0. 0. 0. 3.01659130e-003 0. 0.
      0. 0. 1.35746608e-002 0. 0. 0. 0. 0. 0. 0. 0. 0. 0. 0. 0. 0. 0. 0.
      0. 0. 0. 0. 0. 0. 0. 0. 0. 0. 0. 0. 0. 1.50829565e-003
      7.54147815e-003 0. 0. 0. 0. 0. 0. 0. 0. 0. 0. 0. 0. 0. 0.
      3.01659130e-003 0. 0. 0. 0. 0. 0. 0. 0. 3.01659130e-003
      1.50829565e-003 0. 0. 0. 0. 0. 0. 0. 0. 1.50829565e-003 0. 0. 0.
      1.50829565e-003 1.50829565e-003 0. 0. 0. 1.50829565e-003 0. 0. 0.
      0. 0. 0. 1.50829565e-003 0. 0. 0. 3.01659130e-003 0.
      4.52488707e-003 0. 0. 0. 0. 0. 0. 0. 0. 1.50829565e-003 0. 0. 0.
      0. 0. 0. 1.50829565e-003 0. 0. 0. 0. 0. 1.50829565e-003 0. 0. 0.
      0. 0. 3.01659130e-003 1.50829565e-003 0. 3.01659130e-003 0. 0. 0.
      0. 0. 0. 0. 0. 0. 0. 0. 0. 0. 0. 0. 0. 0. 0. 0. 0. 0. 0. 0. 0. 0.
      1.50829565e-003 0. 0. 0. 0. 0. 0. 0. 0. 0. 0. 0. 0.
      1.50829565e-003 0. 0. 0. 1.50829565e-003 0. 0. 0. 0. 0. 0. 0. 0.
      0. 0. 0. 0. 0. 0. 0. 0. 0. 0. 0. 0. 0. 0. 0. 0. 0. 0. 0. 0. 0. 0.
      0. 0. 0. 1.50829565e-003 0. 1.50829565e-003 0. 0. 0. 0. 0. 0. 0.
      0. 0. 0. 0. 0. 0. 0. 0. 0. 0. 0. 0. 0. 0. 0. 0. 0. 0. 0. 0. 0.
      1.50829565e-003 0. 0. 0. 0. 0. 0. 0. 3.01659130e-003 0. 0.
      3.01659130e-003 0. 0. 0. 0. 0. 0. 0. 1.50829565e-003 0. 0. 0. 0.
      0. 0. 0. 0. 0. 1.50829565e-003 1.50829565e-003 0. 0. 0. 0. 0. 0.
      3.61990966e-002 0. 0. 0. 0. 0. 0. 0. 0. 0. 0. 0. 0. 0. 0. 0. 0. 0.
      0. 0. 1.50829565e-003 0. 0. 0. 0. 1.50829565e-003 0. 0. 0. 0. 0.
      0. 0. 0. 0. 0. 0. 0. 0. 0. 0. 0. 0. 0. 0. 1.50829565e-003 0.
      1.50829565e-003 0. 0. 0. 0. 0. 0. 0. 1.50829565e-003 0. 0. 0. 0.
      0. 0. 0. 0. 0. 0. 0. 0. 0. 0. 7.54147815e-003 0. 0. 0. 0.
      1.50829565e-003 0. 0. 0. 0. 0. 0. 0. 0. 1.50829565e-003 0. 0.
      3.01659130e-003 0. 0. 0. 0. 0. 0. 1.50829565e-003 1.50829565e-003
      0. 0. 1.50829565e-003 0. 0. 1.50829565e-003 0. 1.50829565e-003 0.
      0. 0. 0. 0. 0. 4.52488707e-003 0. 0. 0. 0. 0. 0. 0. 0. 0.
      7.54147815e-003 0. 0. 0. 0. 0. 0. 0. 0. 0. 0. 0. 0. 0. 0. 0. 0. 0.
      0. 0. 0. 0. 1.50829565e-003 0. 0. 0. 0. 0. 0. 0. 0. 0. 0. 0. 0. 0.
      1.50829565e-003 0. 0. 0. 0. 0. 0. 0. 0. 0. 0. 0. 0. 0. 0. 0. 0.
      1.50829565e-003 0. 0. 0. 0. 0. 0. 0. 0. 0. 0. 0. 0. 0. 0. 0. 0. 0.
      3.01659130e-003 0. 0. 0. 0. 0. 0. 0. 0. 0. 0. 0. 1.50829565e-003
      0. 0. 0. 0. 0. 0. 1.50829565e-003 4.52488707e-003 0. 0. 0. 0. 0.
      0. 0. 0. 0. 0. 3.01659130e-003 0. 0. 0. 3.01659130e-003 0. 0. 0.
      0. 0. 0. 0. 0. 0. 4.52488707e-003 3.01659130e-003 0. 0.
      3.01659130e-003 0. 0. 0. 0. 0. 0. 0. 0. 0. 0. 0. 0. 0. 0. 0. 0. 0.
      0. 0. 0. 0. 0. 0. 0. 0. 0. 0. 0. 0. 0. 0. 0. 0. 0. 0. 0. 0. 0. 0.
      0. 0. 0. 0. 0. 0. 1.50829565e-003 0. 0. 3.01659130e-003 0. 0. 0.
      0. 0. 0. 0. 1.50829565e-003 0. 0. 0. 0. 0. 0. 1.50829565e-003 0.
      0. 0. 0. 0. 0. 0. 0. 0. 0. 0. 0. 0. 0. 0. 1.50829565e-003 0. 0. 0.
      1.50829565e-003 0. 0. 0. 0. 0. 1.05580697e-002 0. 0. 0. 0. 0. 0.
      0. 0. 0. 0. 0. 0. 0. 0. 0. 0. 0. 0. 0. 0. 0. 0. 0. 0. 0. 0. 0. 0.
      0. 0. 0. 0. 0. 0. 0. 0. 0. 0. 0. 0. 0. 0. 0. 0. 0. 0. 0. 0. 0. 0.
      0. 0. 0. 0. 0. 1.50829565e-003 0. 0. 0. 0. 0. 0. 0. 0. 0. 0. 0. 0.
      0. 0. 1.50829565e-003 0. 0. 0. 0. 0. 0. 0. 0. 0. 0. 0. 0. 0. 0. 0.
      0. 0. 0. 0. 0. 3.01659130e-003 0. 0. 0. 0. 0. 0. 0. 0. 0.
      1.50829565e-003 0. 0. 0. 0. 0. 0. 0. 0. 1.50829565e-003 0. 0. 0.
      0. 0. 1.50829565e-003 0. 0. 3.01659130e-003 6.03318261e-003 0.
      1.50829565e-003 0. 0. 0. 0. 0. 0. 3.01659130e-003 0. 0.
      4.52488707e-003 1.50829565e-003 0. 0. 0. 0. 0. 0. 0. 0. 0. 0. 0.
      0. 0. 0. 6.03318261e-003 0. 0. 0. 0. 1.50829565e-003 0. 0. 0. 0.
      0. 0. 0. 0. 0. 0. 0. 0. 0. 0. 0. 3.01659130e-003 0. 0. 0. 0. 0. 0.
      0. 1.50829565e-003 0. 0. 0. 0. 6.03318261e-003 0. 0.
      3.01659130e-003 1.50829565e-003 0. 1.50829565e-003 0. 0. 0. 0. 0.
      0. 0. 0. 0. 0. 0. 0. 0. 3.01659130e-003 0. 0. 1.50829565e-003 0.
      0. 0. 0. 0. 0. 1.50829565e-003 0. 1.50829565e-003 1.50829565e-003
      0. 1.50829565e-003 0. 0. 1.50829565e-003 0. 0. 0. 0. 0. 0. 0. 0.
      1.50829565e-003 0. 0. 0. 0. 0. 1.50829565e-003 0. 0. 0.
      1.50829565e-003 0. 0. 0. 0. 0. 0. 0. 0. 0. 1.50829565e-003 0. 0.
      0. 0. 1.50829565e-003 0. 0. 0. 0. 0. 0. 0. 0. 0. 0. 0. 0.
      1.50829565e-003 0. 0. 0. 3.01659130e-003 1.50829565e-003 0. 0. 0.
      0. 1.50829565e-003 0. 0. 0. 0. 0. 0. 1.50829565e-003 0. 0. 0. 0.
      0. 0. 0. 0. 0. 0. 0. 0. 0. 0. 0. 1.50829565e-003 0. 0. 0. 0. 0. 0.
      0. 0. 0. 0. 0. 0. 0. 0. 0. 0. 0. 0. 0. 0. 0. 0. 0. 1.50829565e-003
      0. 0. 0. 0. 0. 0. 0. 0. 0. 0. 0. 0. 0. 1.50829565e-003 0. 0.
      1.50829565e-003 0. 0. 0. 0. 0. 0. 0. 0. 0. 0. 0. 0. 0. 0. 0. 0. 0.
      0. 0. 0. 0. 0. 0. 0. 0. 0. 0. 0. 0. 1.50829565e-003 0. 0.
      1.50829565e-003 0. 0. 0. 1.50829565e-003 1.50829565e-003 0.
      1.50829565e-003 0. 0. 0. 0. 0. 0. 0. 0. 0. 0. 0. 0. 0. 0. 0. 0. 0.
      0. 0. 0. 0. 0. 4.52488707e-003 1.50829565e-003 0. 0. 0.
      1.50829565e-003 0. 0. 0. 0. 0. 0. 0. 0. 1.50829565e-003 0. 0. 0.
      0. 0. 0. 0. 0. 0. 0. 0. 0. 0. 0. 0. 1.50829565e-003 0. 0. 0. 0. 0.
      0. 0. 0. 0. 3.01659130e-003 0. 0. 0. 0. 0. 0. 0. 0. 0. 0. 0. 0. 0.
      0. 0. 1.50829565e-003 0. 0. 0. 0. 0. 0. 0. 0. 0. 0. 0. 0. 0. 0. 0.
      0. 0. 0. 0. 0. 0. 0. 0. 0. 0. 0. 0. 0. 0. 0. 0. 3.01659130e-003 0.
      0. 0. 0. 0. 0. 0. 0. 0. 0. 0. 0. 0. 0. 0. 1.50829565e-003 0. 0. 0.
      0. 0. 0. 0. 0. 4.52488707e-003 0. 0. 0. 0. 0. 0. 0. 0. 0. 0. 0. 0.
      0. 0. 0. 0. 1.50829565e-003 0. 0. 0. 0. 0. 0. 0. 0. 0. 0. 0. 0. 0.
      0. 1.50829565e-003 0. 0. 0. 0. 0. 1.50829565e-003 3.01659130e-003
      1.50829565e-003 0. 0. 0. 0. 0. 0. 0. 1.50829565e-003 0. 0.
      3.01659130e-003 0. 9.04977415e-003 0. 0. 0. 0. 0. 0. 0. 0. 0. 0.
      0. 1.50829565e-003 0. 0. 0. 0. 0. 0. 9.04977415e-003 0. 0.
      1.50829565e-003 0. 1.50829565e-003 0. 0. 0. 0. 0. 1.50829565e-003
      0. 0. 0. 3.01659130e-003 0. 0. 0. 0. 0. 0. 0. 0. 0. 0. 0. 0. 0. 0.
      0. 1.50829565e-003 0. 0. 0. 0. 0. 0. 0. 0. 0. 0. 0.
      1.50829565e-003 1.50829565e-003 0. 0. 0. 1.50829565e-003
      1.50829565e-003 0. 0. 0. 0. 0. 0. 0. 0. 0. 0. 1.50829565e-003 0.
      0. 0. 0. 0. 0. 0. 0. 0. 1.50829565e-003 0. 0. 0. 0. 0. 0. 0. 0. 0.
      1.50829565e-003 0. 0. 1.50829565e-003 0. 0. 0. 0. 0.
      1.50829565e-003 0. 0. 0. 0. 1.50829565e-003 0. 0. 0. 0. 0.
      1.50829565e-003 0. 0. 0. 0. 0. 0. 0. 0. 2.41327304e-002 0. 0. 0.
      0. 0. 0. 0. 0. 0. 0. 0. 3.01659130e-003 0. 0. 0. 0. 0. 0. 0. 0.
      4.52488707e-003 0. 0. 0. 0. 0. 0. 0. 0. 0. 1.50829565e-003 0. 0.
      0. 0. 0. 1.50829565e-003 0. 0. 0. 0. 0. 0. 0. 0. 0. 0. 0. 0. 0.
      1.50829565e-003 1.50829565e-003 0. 3.01659130e-003 0. 0. 0. 0.
      7.54147815e-003 0. 0. 0. 0. 7.54147815e-003 0. 0. 0. 0. 0. 0. 0.
      1.50829565e-003 0. 0. 0. 0. 0. 0. 0. 0. 0. 0. 0. 0. 0. 0. 0. 0. 0.
      0. 0. 1.50829565e-003 0. 0. 0. 0. 0. 0. 6.03318261e-003 0. 0. 0.
      0. 0. 0. 0. 0. 0. 0. 0. 0. 0. 0. 0. 0. 0. 0. 0. 0. 0. 0. 0. 0. 0.
      0. 0. 0. 0. 7.54147815e-003 0. 0. 0. 0. 0. 0. 0. 0. 0. 0. 0. 0. 0.
      0. 0. 0. 0. 0. 0. 0. 0. 0. 0. 0. 4.52488707e-003 0. 0. 0. 0. 0. 0.
      4.52488707e-003 0. 0. 1.50829565e-003 0. 0. 0. 0. 0.
      6.03318261e-003 0. 0. 0. 1.50829565e-003 0. 0. 0. 0. 0. 0.
      1.50829565e-003 0. 0. 0. 0. 0. 0. 0. 0. 0. 0. 0. 0. 0. 0. 0. 0. 0.
      0. 0. 0. 0. 0. 0. 0. 0. 0. 0. 0. 0. 0. 0. 0. 0. 0. 0. 0.
      9.04977415e-003 0. 0. 0. 0. 0. 0. 0. 0. 1.50829565e-003 0. 0. 0.
      1.50829565e-003 0. 0. 0. 0. 0. 0. 0. 0. 0. 0. 0. 0.
      1.50829565e-003 0. 0. 0. 0. 0. 0. 0. 0. 0. 0. 0. 0. 0. 0. 0. 0. 0.
      0. 0. 6.03318261e-003 0. 0. 0. 0. 0. 0. 0. 0. 0. 0. 0. 0. 0. 0. 0.
      0. 0. 0. 3.01659130e-003 3.01659130e-003 1.50829565e-003 0.
      1.50829565e-003 0. 0. 0. 0. 0. 1.50829565e-003 0. 0.
      3.01659130e-003 0. 0. 0. 0. 0. 0. 0. 0. 0. 0. 0. 0. 0.
      1.50829565e-003 0. 0. 0. 1.50829565e-003 0. 0. 0. 0. 0. 0. 0. 0.
      0. 0. 0. 0. 0. 0. 0. 0. 0. 0. 0. 0. 0. 0. 0. 0. 4.52488707e-003 0.
      0. 0. 0. 0. 0. 0. 0. 0. 0. 0. 0. 0. 0. 0. 0. 0. 0. 0. 0. 0.
      1.50829565e-003 0. 0. 0. 0. 0. 0. 0. 0. 0. 0. 0. 1.50829565e-003
      0. 0. 0. 0. 1.50829565e-003 3.01659130e-003 0. 0. 0. 0. 0. 0. 0.
      0. 9.04977415e-003 1.50829565e-003 0. 0. 0. 0. 0. 0. 0. 0.
      3.01659130e-003 0. 4.52488707e-003 3.31825055e-002 0. 0. 0. 0. 0.
      0. 0. 0. 0. 4.52488707e-003 0. 0. 0. 0. 0. 0. 0. 0. 0. 0. 0. 0. 0.
      0. 0. 0. 0. 0. 0. 1.50829565e-003 0. 0. 0. 1.50829565e-003 0. 0.
      0. 0. 0. 1.50829565e-003 0. 0. 0. 0. 0. 0. 6.03318261e-003 0. 0.
      0. 0. 0. 0. 0. 0. 1.50829565e-003 4.52488707e-003 3.01659130e-003
      0. 0. 0. 0. 0. 0. 0. 0. 0. 0. 0. 0. 0. 0. 0. 0. 0. 0. 0. 0.
      3.92156877e-002 0. 0. 0. 0. 0. 0. 0. 1.50829565e-003 0. 0. 0. 0.
      0. 0. 0. 0. 0. 0. 0. 0. 0. 0. 0. 0. 0. 0. 0. 1.50829565e-003 0. 0.
      0. 0. 0. 0. 0. 0. 0. 0. 0. 1.50829565e-003 0. 1.50829565e-003 0.
      3.01659130e-003 0. 0. 0. 0. 0. 1.50829565e-003 0. 0.
      3.01659130e-003 0. 0. 0. 0. 0. 1.50829565e-003 0. 0. 0. 0. 0. 0.
      0. 0. 0. 1.50829565e-003 0. 0. 0. 0. 0. 0. 0. 0. 0. 0. 0. 0. 0. 0.
      0. 0. 0. 0. 0. 0. 0. 0. 0. 0. 0. 0. 0. 0. 0. 0. 0. 0. 0. 0. 0. 0.
      0. 1.50829565e-003 0. 0. 0. 1.50829565e-003 1.50829565e-003 0. 0.
      0. 0. 0. 0. 0. 0. 0. 3.01659130e-003 0. 0. 0. 0. 0. 0. 0. 0. 0. 0.
      0. 1.50829565e-003 0. 0. 3.01659130e-003 0. 0. 0. 0. 0. 0. 0. 0.
      0. 0. 0. 0. 0. 0. 1.50829565e-003 0. 0. 0. 0. 0. 0. 0. 0. 0. 0.
      1.50829565e-003 1.50829565e-003 0. 0. 0. 0. 1.35746608e-002 0. 0.
      0. 0. 0. 0. 0. 0. 0. 0. 0. 0. 0. 0. 0. 0. 0. 0. 1.50829565e-003 0.
      0. 0. 0. 0. 6.03318261e-003 0. 0. 0. 0. 0. 1.50829565e-003 0.
      1.50829565e-003 0. 0. 0. 4.52488707e-003 0. 0. 0. 0.
      1.50829565e-003 0. 0. 0. 4.52488707e-003 0. 0. 0. 0. 0. 0. 0.
      4.52488707e-003 0. 0. 0. 0. 1.50829565e-003 0. 0. 0. 0. 0. 0. 0.
      0. 1.50829565e-003 0. 0. 3.01659130e-003 0. 0. 0. 0. 0. 0. 0. 0.
      0. 0. 0. 0. 0. 0. 0. 0. 1.50829565e-003 0. 9.04977415e-003 0. 0.
      0. 0. 0. 0. 1.50829565e-003 0. 0. 0. 0. 0. 0. 0. 0. 0. 0. 0. 0. 0.
      0. 0. 0. 0. 0. 0. 0. 1.50829565e-003 0. 0. 0.</_>
    <_>
      0. 0. 0. 7.65403733e-004 0. 3.06161499e-004 0. 7.65403747e-005 0.
      7.65403747e-005 6.88863394e-004 0. 2.29621131e-004 0. 0. 0. 0.
      4.59242263e-004 0. 0. 0. 5.35782601e-004 7.65403747e-005 0.
      7.65403747e-005 0. 0. 4.59242263e-004 2.29621131e-004 0. 0. 0.
      1.91350933e-003 0. 8.41944129e-004 7.65403747e-005 0. 0. 0. 0. 0.
      0. 0. 7.65403747e-005 0. 2.29621120e-003 7.65403747e-005
      1.83696905e-003 0. 0. 0. 7.65403747e-005 2.29621131e-004
      1.53080749e-004 2.29621131e-004 0. 7.65403747e-005 3.06161499e-004
      0. 0. 0. 4.89858398e-003 0. 0. 0. 0. 0. 1.53080749e-004
      7.65403747e-005 0. 5.97014930e-003 0. 0. 7.65403747e-005 0. 0. 0.
      8.57252162e-003 0. 0. 0. 0. 0. 0. 0. 6.12322998e-004 0. 0. 0.
      7.65403733e-004 0. 0. 7.65403747e-005 0. 0. 7.65403747e-005 0. 0.
      7.65403747e-005 0. 0. 0. 3.82701866e-004 0. 1.53080749e-004
      7.65403747e-005 0. 0. 3.82701866e-004 0. 0. 0. 7.65403747e-005
      1.53080749e-004 0. 0. 4.20972053e-003 7.65403747e-005 0. 0. 0.
      1.53080749e-004 2.29621131e-004 1.53080749e-004 1.53080749e-004
      3.06161499e-004 0. 8.41944129e-004 0. 0. 7.65403747e-005
      7.65403747e-005 0. 1.22464600e-003 1.53080749e-004 0. 0.
      7.65403747e-005 0. 6.12322998e-004 1.22464600e-003 0. 0. 0. 0. 0.
      0. 0. 0. 2.29621131e-004 0. 0. 7.65403747e-005 0. 0. 0.
      7.65403747e-005 0. 0. 0. 5.35782601e-004 0. 0. 3.82701866e-004
      7.65403747e-005 0. 7.65403747e-005 2.29621131e-004 0.
      7.65403747e-005 0. 0. 0. 0. 0. 0. 1.22464600e-003 6.12322998e-004
      0. 2.37275171e-003 7.65403747e-005 1.53080749e-004 0. 0. 0. 0.
      6.88863394e-004 0. 3.82701866e-004 0. 0. 0. 0. 8.41944129e-004
      7.65403733e-004 0. 0. 0. 0. 0. 7.65403747e-005 9.95024922e-004
      2.29621131e-004 0. 0. 0. 7.65403747e-005 0. 0. 0. 1.14810560e-003
      0. 0. 0. 0. 0. 0. 7.65403747e-005 0. 0. 3.06161499e-004
      4.59242263e-004 0. 0. 0. 1.53080749e-004 0. 1.45426707e-003 0. 0.
      0. 2.29621131e-004 2.29621131e-004 0. 0. 1.53080749e-004 0. 0. 0.
      0. 0. 3.82701866e-004 2.29621131e-004 0. 0. 1.20933792e-002 0.
      1.53080749e-004 7.65403747e-005 0. 0. 0. 7.65403747e-005 0.
      2.29621131e-004 7.65403747e-005 6.42939145e-003 0. 7.65403747e-005
      7.65403747e-005 0. 1.53080749e-004 1.53080749e-004 3.06161499e-004
      0. 0. 3.06161499e-004 3.82701866e-004 0. 3.06161499e-004
      1.50019135e-002 0. 0. 7.65403747e-005 5.35782601e-004 0. 0.
      7.65403747e-005 7.65403747e-005 0. 0. 0. 0. 0. 1.53080749e-004
      3.06161499e-004 0. 0. 0. 1.37772679e-003 0. 0. 3.06161499e-004 0.
      9.18484526e-004 0. 5.35782601e-004 0. 0. 0. 0. 0. 0. 0.
      7.65403747e-005 0. 3.06161499e-004 0. 0. 0. 7.65403747e-005 0. 0.
      7.65403747e-005 0. 0. 7.65403747e-005 0. 7.65403747e-005 0. 0. 0.
      0. 3.06161499e-004 0. 1.53080747e-003 0. 0. 1.53080749e-004
      7.65403747e-005 0. 7.65403733e-004 0. 1.53080749e-004 0. 0.
      6.88863394e-004 0. 1.07156520e-003 0. 0. 1.53080749e-004 0. 0.
      1.53080749e-004 2.29621131e-004 0. 7.65403747e-005 7.65403747e-005
      1.53080749e-004 0. 0. 0. 3.06161493e-003 0. 0. 0. 0.
      3.06161499e-004 0. 7.65403747e-005 7.65403747e-005 0. 0. 0.
      3.82701866e-004 0. 0. 0. 0. 0. 0. 0. 7.65403747e-005 0.
      7.65403747e-005 0. 1.53080749e-004 1.53080747e-003 7.65403747e-005
      8.41944129e-004 0. 0. 0. 7.65403747e-005 5.74052799e-003 0. 0. 0.
      7.65403747e-005 0. 8.41944129e-004 0. 0. 0. 0. 0. 0. 0. 0. 0.
      7.65403747e-005 2.37275171e-003 0. 2.29621131e-004 1.53080749e-004
      0. 7.65403747e-005 0. 0. 1.53080749e-004 2.29621131e-004
      7.65403747e-005 1.53080749e-004 0. 7.65403747e-005 0.
      3.06161499e-004 0. 0. 0. 0. 0. 0. 0. 3.06161493e-003
      1.53080749e-004 1.37772679e-003 4.59242263e-004 0. 0. 0.
      1.53080749e-004 1.83696905e-003 0. 1.53080749e-004 7.65403747e-005
      0. 7.65403747e-005 1.37772679e-003 1.74512062e-002 7.65403747e-005
      0. 1.53080749e-004 0. 2.29621131e-004 0. 7.65403747e-005
      2.60237278e-003 0. 0. 3.82701866e-004 1.53080749e-004 0.
      2.29621131e-004 0. 0. 6.88863394e-004 0. 7.65403747e-005
      2.75545358e-003 0. 0. 0. 0. 7.65403747e-005 2.29621131e-004 0.
      7.65403747e-005 0. 0. 0. 8.41944129e-004 6.12322998e-004 0. 0.
      5.35782601e-004 0. 0. 0. 0. 0. 0. 0. 7.65403747e-005 0. 0.
      7.65403747e-005 0. 0. 5.35782601e-004 0. 0. 0. 8.41944129e-004 0.
      0. 2.29621131e-004 0. 6.12322998e-004 0. 0. 0. 7.65403747e-005 0.
      0. 8.41944129e-004 1.53080749e-004 0. 0. 7.65403747e-005 0. 0.
      1.53080749e-004 0. 0. 7.65403747e-005 0. 7.65403747e-005 0. 0. 0.
      0. 6.88863394e-004 0. 0. 1.37772679e-003 2.29621131e-004 0.
      1.53080747e-003 2.29621131e-004 0. 0. 7.65403747e-005 0. 0. 0.
      7.65403747e-005 7.65403747e-005 0. 4.59242263e-004 7.65403747e-005
      7.65403747e-005 0. 7.65403747e-005 0. 0. 0. 0. 0. 7.65403747e-005
      7.65403747e-005 7.65403747e-005 0. 0. 0. 0. 1.76042865e-003
      6.04668958e-003 0. 0. 0. 0. 0. 0. 0. 5.35782601e-004 0. 0.
      2.29621131e-004 1.53080749e-004 3.82701866e-004 0. 0.
      1.01033291e-002 0. 0. 3.06161499e-004 7.65403747e-005 0.
      2.29621131e-004 2.29621131e-004 2.29621131e-004 0. 0. 0. 0.
      7.65403747e-005 5.35782601e-004 0. 7.65403747e-005 6.42939145e-003
      0. 2.29621131e-004 6.12322998e-004 1.53080749e-004 0.
      1.22464600e-003 0. 0. 3.82701866e-004 0. 0. 7.65403747e-005 0. 0.
      0. 0. 0. 0. 0. 0. 0. 0. 7.65403747e-005 0. 0. 0. 0. 0. 0. 0.
      7.65403747e-005 0. 0. 0. 7.65403747e-005 3.82701866e-004 0. 0.
      9.18484526e-004 0. 0. 0. 0. 0. 0. 0. 0. 7.65403747e-005 0. 0. 0.
      0. 0. 0. 0. 3.82701866e-004 1.53080749e-004 0. 1.53080749e-004
      3.06161499e-004 1.53080749e-004 0. 0. 0. 4.59242263e-004 0. 0. 0.
      9.18484526e-004 0. 2.29621131e-004 0. 0. 0. 3.06161499e-004 0. 0.
      0. 0. 0. 0. 0. 0. 7.65403747e-005 7.65403747e-005 7.65403747e-005
      0. 0. 0. 7.65403747e-005 1.07156520e-003 0. 1.53080749e-004 0. 0.
      1.53080749e-004 7.65403747e-005 0. 1.53080749e-004 1.53080749e-004
      0. 2.29621131e-004 1.53080749e-004 0. 3.06161499e-004
      1.07156520e-003 9.18484526e-004 3.82701866e-004 0. 0. 0.
      1.14810560e-003 1.53080749e-004 1.53080749e-004 0. 1.30118639e-003
      3.82701866e-004 2.29621131e-004 0. 0. 1.14810560e-003 0.
      1.53080749e-004 0. 0. 7.65403747e-005 0. 1.22464600e-003 0. 0.
      7.65403747e-005 9.18484526e-004 0. 0. 0. 0. 7.65403747e-005
      1.60734786e-003 0. 0. 0. 0. 0. 0. 4.43934184e-003 0. 0. 0. 0. 0.
      0. 4.28626081e-003 0. 0. 7.65403747e-005 0. 1.53080749e-004
      2.19670869e-002 0. 0. 0. 7.65403747e-005 7.65403747e-005
      1.53080749e-004 1.53080747e-003 7.65403747e-005 0. 0. 0. 0. 0. 0.
      0. 0. 3.06161499e-004 0. 6.50593173e-003 0. 7.65403747e-005 0.
      1.28587829e-002 3.82701866e-004 0. 0. 0. 0. 0. 0. 0. 0. 0.
      7.65403747e-005 4.59242263e-004 6.88863394e-004 0. 0.
      2.29621131e-004 0. 0. 0. 0. 0. 0. 0. 0. 1.53080749e-004 0. 0.
      7.65403747e-005 0. 0. 0. 0. 1.53080749e-004 0. 0. 0.
      1.53080749e-004 7.65403747e-005 0. 0. 7.65403747e-005 0. 0. 0.
      1.30118639e-003 0. 0. 0. 0. 0. 7.65403747e-005 6.12322998e-004 0.
      7.65403747e-005 0. 1.14810560e-003 0. 7.65403747e-005 0. 0. 0.
      7.65403747e-005 0. 0. 7.65403747e-005 0. 0. 0. 4.59242263e-004 0.
      5.43436641e-003 0. 0. 0. 0. 3.06161499e-004 5.35782601e-004 0.
      3.82701866e-004 0. 0. 0. 2.29621131e-004 0. 0. 7.65403747e-005
      2.29621131e-004 0. 0. 9.95024922e-004 0. 0. 3.82701866e-004
      1.53080749e-004 3.21469572e-003 0. 0. 0. 2.29621131e-004 0.
      7.65403747e-005 7.65403747e-005 6.88863394e-004 6.12322998e-004 0.
      7.65403747e-005 0. 0. 8.41944129e-004 8.41944129e-004
      7.65403747e-005 0. 0. 0. 0. 3.06161499e-004 7.65403747e-005 0. 0.
      5.35782601e-004 2.29621131e-004 0. 1.53080749e-004 7.65403747e-005
      0. 0. 0. 0. 0. 7.65403747e-005 1.53080749e-004 7.65403747e-005 0.
      0. 0. 0. 0. 7.65403747e-005 0. 2.29621131e-004 0. 6.12322998e-004
      2.29621131e-004 7.65403747e-005 1.37772679e-003 1.53080749e-004
      2.14313040e-003 0. 6.88863394e-004 1.53080749e-004 0. 0. 0.
      2.29621131e-004 0. 0. 0. 7.65403747e-005 0. 0. 0. 2.14313040e-003
      0. 5.35782601e-004 0. 0. 0. 0. 0. 0. 0. 0. 3.82701866e-004 0. 0.
      0. 0. 0. 0. 0. 0. 0. 2.29621131e-004 1.23230005e-002 0.
      7.65403747e-005 9.95024922e-004 0. 1.53080749e-004 0.
      7.65403747e-005 7.65403747e-005 9.95024922e-004 0. 0.
      6.12322998e-004 3.06161499e-004 0. 2.29621131e-004 4.59242263e-004
      0. 0. 1.53080749e-004 0. 3.82701866e-004 3.82701866e-004 0. 0. 0.
      0. 4.59242263e-004 0. 7.65403747e-005 0. 0. 0. 0. 0.
      4.59242263e-004 8.41944129e-004 1.45426707e-003 0. 0.
      8.41944129e-004 0. 0. 3.06161499e-004 1.53080749e-004 0.
      3.82701866e-004 0. 0. 0. 7.65403747e-005 1.07156520e-003 0. 0. 0.
      3.98009969e-003 4.28626081e-003 0. 6.12322998e-004 0. 0. 0.
      7.65403747e-005 0. 0. 0. 0. 1.53080749e-004 0. 1.53080749e-004
      3.82701866e-004 0. 2.90853414e-003 0. 0. 0. 0. 6.88863394e-004
      3.06161499e-004 0. 9.18484526e-004 0. 0. 0. 0. 0. 2.29621131e-004
      2.29621131e-004 0. 0. 0. 0. 0. 0. 0. 0. 0. 0. 0. 0. 0. 0. 0.
      3.82701866e-004 0. 0. 0. 0. 7.65403747e-005 7.65403747e-005
      7.65403733e-004 4.59242263e-004 0. 0. 1.53080749e-004 0. 0. 0. 0.
      0. 0. 0. 0. 7.65403747e-005 7.65403747e-005 3.82701866e-004
      2.29621131e-004 7.65403747e-005 0. 0. 2.29621131e-004 0.
      4.59242263e-004 2.29621131e-004 7.65403747e-005 1.53080749e-004 0.
      1.53080749e-004 0. 0. 7.65403747e-005 0. 1.53080749e-004 0. 0.
      2.75545358e-003 0. 3.82701866e-004 7.65403747e-005 0. 0. 0.
      8.41944129e-004 0. 7.65403733e-004 2.29621131e-004 0. 0. 0. 0.
      7.65403747e-005 0. 0. 3.82701866e-004 0. 0. 0. 0. 0.
      4.97512426e-003 0. 0. 0. 9.95024922e-004 0. 4.59242263e-004
      5.35782601e-004 0. 0. 0. 0. 0. 0. 4.59242263e-004 0.
      8.41944129e-004 7.65403747e-005 0. 7.65403747e-005 1.53080749e-004
      0. 0. 0. 0. 0. 0. 7.65403747e-005 0. 9.56754666e-003
      1.53080749e-004 3.82701866e-004 1.53080749e-004 1.53080749e-004 0.
      1.53080749e-004 0. 0. 0. 0. 7.65403747e-005 4.59242263e-004 0. 0.
      0. 2.29621131e-004 0. 3.06161499e-004 0. 0. 0. 0. 0.
      7.65403747e-005 1.22464600e-003 1.22464600e-003 1.53080749e-004
      6.88863394e-004 7.65403747e-005 0. 0. 2.60237278e-003 0.
      3.82701866e-004 1.53080749e-004 4.59242263e-004 0. 0. 0. 0. 0. 0.
      0. 4.13318025e-003 0. 0. 0. 0. 0. 0. 0. 6.88863394e-004 0.
      3.82701866e-004 1.53080749e-004 1.53080749e-004 0. 0. 0. 0. 0. 0.
      0. 7.65403747e-005 1.53080749e-004 7.65403747e-005 7.65403747e-005
      0. 0. 0. 0. 0. 0. 7.65403747e-005 0. 0. 0. 0. 0. 0. 0. 0.
      7.65403747e-005 0. 0. 0. 0. 2.21967092e-003 0. 0. 0. 0. 0. 0. 0.
      0. 0. 0. 7.65403747e-005 0. 0. 6.88863394e-004 0. 5.89360902e-003
      6.12322998e-004 0. 0. 7.65403747e-005 7.65403747e-005 0. 0. 0. 0.
      7.65403747e-005 0. 0. 3.82701866e-004 0. 7.65403747e-005
      7.65403747e-005 0. 0. 0. 0. 2.29621131e-004 7.65403747e-005 0. 0.
      2.29621131e-004 1.53080749e-004 7.65403747e-005 0. 0. 0.
      3.06161499e-004 0. 1.53080749e-004 0. 7.65403747e-005 0.
      1.53080749e-004 1.53080749e-004 0. 7.65403747e-005 0. 0. 0.
      1.14810560e-003 7.65403747e-005 0. 0. 0. 0. 4.59242263e-004 0.
      7.65403747e-005 0. 0. 0. 0. 6.12322998e-004 0. 9.18484526e-004 0.
      2.29621131e-004 0. 0. 0. 0. 0. 1.30118639e-003 0. 0.
      7.65403747e-005 1.22464600e-003 2.29621131e-004 0. 0.
      3.06161499e-004 0. 0. 0. 7.65403747e-005 0. 0. 0. 1.53080749e-004
      0. 0. 0. 0. 0. 7.65403747e-005 0. 1.53080749e-004 0. 0. 0.
      1.53080749e-004 0. 0. 7.65403733e-004 5.28128585e-003 0.
      1.53080749e-004 0. 0. 0. 0. 0. 0. 0. 0. 7.65403747e-005 0. 0. 0.
      0. 2.29621131e-004 0. 7.65403747e-005 0. 0. 2.29621131e-004 0. 0.
      0. 0. 0. 0. 0. 1.53080749e-004 0. 0. 1.53080749e-004
      2.29621131e-004 0. 0. 0. 0. 0. 0. 0. 1.22464600e-003 0.
      3.52085731e-003 0. 0. 1.10218143e-002 0. 0. 0. 0. 0.
      7.65403747e-005 0. 7.65403747e-005 0. 0. 0. 0. 0. 7.65403747e-005
      0. 0. 3.52085731e-003 0. 0. 0. 3.06161499e-004 0. 0. 0. 0. 0.
      9.18484526e-004 2.29621131e-004 0. 0. 0. 0. 0. 7.65403747e-005
      7.65403747e-005 0. 0. 1.53080749e-004 0. 0. 0. 0. 1.99004984e-003
      0. 7.65403747e-005 0. 0. 0. 0. 0. 0. 0. 2.08189823e-002
      7.04171462e-003 2.29621131e-004 0. 1.14810560e-003 0. 0.
      7.65403747e-005 0. 0. 1.00267893e-002 3.06161499e-004 0. 0.
      4.59242263e-004 0. 0. 0. 6.88863394e-004 0. 3.06161499e-004 0. 0.
      7.65403747e-005 0. 0. 1.53080749e-004 7.65403747e-005
      6.12322998e-004 0. 0. 0. 4.28626081e-003 0. 7.65403747e-005 0. 0.
      1.68388826e-003 0. 0. 1.53080749e-004 0. 3.82701866e-004 0.
      3.06161499e-004 0. 5.35782601e-004 0. 0. 9.95024922e-004 0.
      4.59242263e-004 6.12322998e-004 0. 2.29621131e-004 1.53080749e-004
      0. 0. 0. 0. 0. 0. 0. 0. 0. 0. 7.65403747e-005 7.65403747e-005
      2.29621131e-004 0. 0. 7.65403733e-004 0. 2.29621131e-004 0.
      1.27057023e-002 1.53080749e-004 0. 2.14313040e-003 3.82701866e-004
      1.53080749e-004 0. 3.21469572e-003 0. 0. 0. 3.82701866e-004 0. 0.
      0. 0. 0. 0. 0. 1.53080749e-004 0. 7.65403747e-005 1.53080749e-004
      0. 7.65403747e-005 1.53080749e-004 0. 0. 0. 4.59242263e-004
      3.82701866e-004 0. 0. 0. 0. 0. 0. 2.75545358e-003 0.
      2.29621131e-004 0. 2.29621131e-004 0. 0. 0. 3.82701866e-004
      7.65403747e-005 2.29621131e-004 0. 0. 0. 7.65403747e-005
      1.07156520e-003 2.90853414e-003 0. 1.53080747e-003 6.88863394e-004
      0. 2.67891306e-003 0. 1.53080749e-004 7.65403747e-005
      2.29621120e-003 0. 0. 1.53080749e-004 1.53080749e-004 0. 0. 0.
      7.65403747e-005 7.65403747e-005 3.06161499e-004 0. 2.29621131e-004
      3.75047838e-003 0. 1.45426707e-003 0. 7.65403747e-005
      1.53080749e-004 2.29621131e-004 0. 0. 0. 1.53080749e-004 0. 0. 0.
      3.82701866e-004 7.65403747e-005 7.65403747e-005 1.53080749e-004
      4.59242263e-004 0. 0. 0. 0. 2.29621131e-004 0. 7.65403747e-005 0.
      7.65403747e-005 0. 0. 2.29621131e-004 0. 1.53080749e-004 0. 0.
      7.65403747e-005 0. 7.65403747e-005 0. 0. 7.65403747e-005
      1.53080749e-004 0. 3.82701866e-004 1.46192117e-002 5.35782601e-004
      7.65403747e-005 0. 2.29621131e-004 1.53080749e-004 0. 0. 0. 0. 0.
      7.65403747e-005 0. 1.53080749e-004 7.65403733e-004 6.88863394e-004
      7.65403747e-005 5.28128585e-003 0. 0. 0. 0. 0. 8.41944129e-004
      3.06161499e-004 0. 7.42441649e-003 0. 3.06161499e-004 0.
      7.65403747e-005 0. 0. 0. 0. 0. 0. 0. 0. 0. 0. 7.65403747e-005 0.
      0. 0. 1.53080749e-004 0. 0. 0. 0. 1.53080749e-004 7.65403747e-005
      3.06161499e-004 0. 1.53080749e-004 5.35782601e-004 0. 0. 0. 0.
      1.07156520e-003 1.30118639e-003 0. 2.60237278e-003 0. 0.
      2.29621131e-004 4.59242263e-004 9.95024922e-004 0. 0. 0. 0. 0. 0.
      0. 0. 0. 2.60237278e-003 0. 2.06659012e-003 0. 0. 0. 0.
      7.65403733e-004 0. 0. 0. 7.65403747e-005 0. 0. 0. 0. 0. 0. 0. 0.
      0. 0. 0. 7.65403747e-005 2.29621131e-004 0. 1.14810560e-003 0. 0.
      0. 0. 0. 9.18484526e-004 1.07156520e-003 0. 0. 0. 0. 0. 0.
      1.53080749e-004 0. 2.29621131e-004 0. 7.65403747e-005 0.
      7.65403747e-005 2.29621131e-004 0. 0. 7.65403747e-005 0.
      7.65403733e-004 7.65403747e-005 0. 0. 3.82701866e-004
      2.14313040e-003 3.29123600e-003 1.53080749e-004 7.65403747e-005 0.
      0. 0. 7.65403747e-005 0. 2.29621131e-004 7.65403747e-005 0. 0.
      2.90853414e-003 0. 0. 0. 7.65403747e-005 0. 0. 0. 1.53080749e-004
      0. 0. 0. 0. 0. 1.22464600e-003 0. 3.06161499e-004 0. 0. 0.
      1.53080749e-004 7.65403747e-005 1.53080749e-004 0. 6.12322998e-004
      0. 0. 0. 0. 0. 0. 0. 1.53080749e-004 0. 0. 0. 0. 0.
      1.45426707e-003 0. 3.82701866e-004 0. 0. 7.65403747e-005
      7.65403747e-005 0. 0. 7.65403747e-005 0. 1.53080749e-004 0. 0.
      1.53080749e-004 0. 0. 0. 0. 0. 0. 7.65403747e-005 0. 0. 0. 0. 0.
      0. 0. 0. 0. 0. 0. 7.65403747e-005 0. 0. 1.07156520e-003
      7.65403747e-005 0. 0. 0. 7.65403747e-005 7.65403747e-005 0. 0.
      8.03673919e-003 0. 7.65403747e-005 0. 0. 0. 0. 0. 2.08189823e-002
      0. 7.65403747e-005 0. 1.53080749e-004 0. 1.53080749e-004 0. 0. 0.
      0. 6.12322998e-004 2.67891306e-003 6.88863394e-004 3.82701866e-004
      0. 3.82701866e-004 5.35782601e-004 0. 0. 0. 3.90355918e-003 0.
      2.00535785e-002 0. 0. 0. 0. 0. 0. 2.29621131e-004 7.65403747e-005
      0. 3.06161499e-004 1.53080749e-004 5.81706828e-003 0. 0.
      3.06161499e-004 7.65403747e-005 0. 0. 1.53080749e-004 0.
      7.65403747e-005 9.18484526e-004 7.65403747e-005 2.29621131e-004 0.
      1.53080749e-004 3.82701866e-004 8.41944129e-004 0. 0.
      1.22464600e-003 7.65403747e-005 0. 0. 0. 0. 2.29621131e-004 0.
      1.53080749e-004 4.59242263e-004 0. 0. 0. 0. 0. 0. 2.29621131e-004
      0. 0. 0. 0. 1.76042865e-003 1.53080749e-004 7.65403747e-005
      7.65403747e-005 4.13318025e-003 1.53080749e-004 0. 0.
      6.12322998e-004 0. 0. 2.29621131e-004 0. 0. 2.29621131e-004 0.
      7.65403747e-005 0. 0. 0. 3.06161499e-004 0. 0. 0. 0. 0. 0.
      1.53080749e-004 5.35782601e-004 7.65403747e-005 3.98009969e-003
      1.53080749e-004 0. 7.65403747e-005 7.65403747e-005 0. 0.
      1.53080749e-004 0. 0. 7.65403747e-005 0. 0. 3.82701866e-004 0.
      7.65403747e-005 7.65403747e-005 8.26636050e-003 3.82701866e-004
      4.59242263e-004 0. 0. 0. 4.59242263e-004 0. 0. 9.95024922e-004
      7.65403747e-005 0. 6.88863394e-004 1.76042865e-003 0. 0.
      3.06161499e-004 7.65403747e-005 0. 7.65403747e-005 1.99004984e-003
      9.18484526e-004 9.18484526e-004 0. 0. 0. 0. 0. 0. 0. 0.
      3.06161499e-004 5.35782601e-004 0. 0. 7.65403747e-005 0. 0.
      3.82701866e-004 7.65403747e-005 0. 0. 3.82701866e-004 0. 0. 0. 0.
      3.82701866e-004 7.65403747e-005 0. 7.65403747e-005 7.65403747e-005
      7.65403733e-004 0. 0. 0. 0. 0. 0. 0. 0. 4.24799062e-002 0.
      3.82701866e-003 0. 1.53080749e-004 0. 0. 0. 4.28626081e-003 0. 0.
      0. 0. 0. 0. 0. 0. 1.53080749e-004 0. 0. 7.65403747e-005 0. 0. 0.
      0. 7.65403747e-005 7.65403747e-005 0. 1.53080749e-004 0. 0. 0. 0.
      3.82701866e-004 0. 2.29621131e-004 0. 7.65403747e-005 0.
      7.65403747e-005 0. 0. 7.65403747e-005 0. 7.65403747e-005
      1.53080749e-004 0. 1.53080747e-003 0. 1.53080749e-004 0. 0. 0.
      7.65403747e-005 0. 1.53080749e-004 7.65403747e-005 7.65403747e-005
      0. 0. 0. 0. 0. 0. 2.29621131e-004 1.53080749e-004 0. 0. 0.
      7.65403747e-005 2.29621131e-004 0. 0. 0. 6.88863394e-004 0. 0. 0.
      1.53080749e-004 0. 7.65403747e-005 0. 0. 7.65403747e-005
      1.53080747e-003 0. 0. 0. 3.06161499e-004 0. 0. 1.53080749e-004
      3.06161499e-004 7.65403747e-005 1.45426707e-003 0. 7.65403747e-005
      2.29621131e-004 1.14810560e-003 2.29621131e-004 6.88863394e-004
      7.65403747e-005 3.06161499e-004 1.37772679e-003 0. 3.82701866e-004
      0. 2.21967092e-003 0. 0. 0. 3.82701866e-004 1.60734786e-003 0. 0.
      0. 7.65403747e-005 2.29621131e-004 0. 0. 3.06161499e-004 0. 0.
      1.53080749e-004 1.53080749e-004 0. 0. 0. 7.65403747e-005 0. 0. 0.
      2.29621131e-004 0. 0. 4.59242263e-004 0. 4.59242263e-004
      2.29621131e-004 0. 2.29621131e-004 0. 3.06161499e-004 0. 0.
      7.65403747e-005 0. 0. 2.29621131e-004 8.03673919e-003 0. 0.
      3.21469572e-003 8.41944129e-004 7.65403747e-005 2.29621131e-004 0.
      0. 1.53080749e-004 7.65403747e-005 0. 0. 7.65403747e-005 0. 0.
      7.65403747e-005 0. 0. 0. 0. 0. 0. 7.65403747e-005 0. 0.
      7.65403747e-005 0. 7.65403747e-005 6.88863394e-004 5.35782601e-004
      0. 0. 4.59242263e-004 0. 0. 1.53080749e-004 0. 4.59242263e-004 0.
      0. 7.65403747e-005 8.41944129e-004 0. 0. 7.65403747e-005
      1.53080749e-004 0. 0. 0. 1.53080749e-004 4.66896268e-003 0. 0. 0.
      0. 0. 0. 0. 0. 5.35782601e-004 1.30118639e-003 0. 0. 0. 0. 0.
      7.65403747e-005 0. 0. 7.65403747e-005 7.65403747e-005 0.
      2.29621131e-004 7.65403733e-004 0. 7.65403747e-005 1.53080749e-004
      0. 0. 0. 0. 2.29621131e-004 1.14810560e-003 0. 0. 0.
      9.95024922e-004 0. 7.65403747e-005 0. 0. 0. 0. 0. 0.
      3.06161499e-004 0. 0. 7.65403747e-005 7.65403747e-005 0.
      1.53080749e-004 0. 7.65403747e-005 0. 0. 0. 0. 3.82701866e-004 0.
      0. 0. 1.14810560e-003 0. 7.65403747e-005 0. 2.29621131e-004 0. 0.
      0. 0. 0. 9.95024922e-004 2.29621131e-004 0. 0. 3.82701866e-004 0.
      0. 1.53080749e-004 0. 0. 0. 0. 0. 0. 0. 1.53080749e-004 0. 0.
      7.65403747e-005 1.14810560e-003 1.53080749e-004 0. 0.
      3.52085731e-003 7.65403747e-005 0. 0. 0. 7.65403747e-005 0. 0.
      3.06161499e-004 0. 7.65403747e-005 0. 0. 4.59242263e-004 0. 0. 0.
      0. 0. 0. 0. 0. 0. 0. 0. 0. 0. 0. 0. 0. 0. 0. 0. 0. 0.
      7.65403747e-005 0. 0. 0. 0. 6.88863394e-004 0. 6.88863394e-004
      2.29621131e-004 7.65403747e-005 0. 7.65403747e-005 7.65403747e-005
      2.29621131e-004 0. 0. 7.65403747e-005 7.65403747e-005
      8.41944129e-004 0. 0. 7.65403747e-005 7.65403747e-005 0. 0.
      5.35782601e-004 0. 0. 0. 3.06161499e-004 7.65403747e-005
      2.29621131e-004 0. 0. 7.65403747e-005 1.22464600e-003 0. 0. 0. 0.
      0. 6.12322998e-004 0. 0. 0. 0. 0. 0. 1.53080749e-004 0. 0. 0.
      1.45426707e-003 7.65403747e-005 0. 0. 1.53080749e-004
      7.65403747e-005 0. 7.65403747e-005 2.29621131e-004 9.18484526e-004
      3.06161499e-004 0. 1.53080749e-004 2.29621131e-004 0. 0. 0. 0.
      7.65403747e-005 7.65403747e-005 0. 0. 0. 3.82701866e-004 0. 0.
      7.65403747e-005 7.65403747e-005 7.65403747e-005 0. 0. 0. 0.
      1.53080749e-004 0. 7.65403747e-005 7.65403747e-005 0.
      3.21469572e-003 3.06161499e-004 0. 0. 0. 1.53080749e-004 0.
      7.65403747e-005 2.29621131e-004 0. 0. 0. 0. 0. 0. 0. 0. 0.
      4.59242263e-004 0. 7.65403747e-005 2.06659012e-003 0.
      7.65403747e-005 0. 0. 4.59242263e-004 0. 7.65403747e-005 0.
      7.65403747e-005 0. 7.65403747e-005 0. 6.88863394e-004
      7.65403747e-005 2.44929199e-003 0. 0. 0. 0. 0. 4.59242263e-004 0.
      1.53080749e-004 1.63030997e-002 0. 7.65403747e-005 3.82701866e-004
      0. 0. 0. 7.65403733e-004 0. 9.95024922e-004 0. 9.95024922e-004 0.
      0. 0. 0. 8.34290124e-003 7.65403747e-005 0. 5.35782601e-004
      3.06161499e-004 7.65403747e-005 0. 0. 0. 0. 0. 0. 0.
      1.30118639e-003 0. 7.65403747e-005 0. 3.06161499e-004 0. 0. 0. 0.
      0. 0. 0. 0. 0. 0. 0. 0. 0. 0. 0. 3.06161499e-004 0. 0. 0. 0. 0.
      2.29621131e-004 0. 0. 0. 3.06161499e-004 0. 0. 0. 0. 0. 0. 0. 0.
      0. 0. 1.53080749e-004 3.06161499e-004 0. 7.65403747e-005 0. 0. 0.
      7.65403747e-005 1.46957524e-002 1.53080749e-004 0. 3.82701866e-004
      0. 0. 7.65403747e-005 0. 0. 0. 0. 2.75545358e-003 5.35782601e-004
      0. 0. 1.53080749e-004 0. 7.65403747e-005 0. 2.29621131e-004 0. 0.
      0. 0. 0. 1.53080749e-004 0. 0. 0. 0. 3.82701866e-004
      2.29621131e-004 7.65403747e-005 0. 7.65403747e-005 0. 0. 0. 0.
      1.53080749e-004 7.65403747e-005 0. 0. 1.53080749e-004
      7.65403747e-005 0. 0. 1.76042865e-003 0. 0. 7.65403747e-005
      5.35782601e-004 0. 0. 0. 0. 0. 0. 0. 0. 7.65403747e-005 0. 0. 0.
      0. 3.06161499e-004 0. 1.45426707e-003 0. 7.65403747e-005 0. 0.
      6.12322998e-004 0. 0. 8.11327994e-003 0. 7.65403747e-005 0. 0.
      3.06161499e-004 0. 0. 0. 6.12322998e-004 0. 6.12322998e-004 0. 0.
      0. 2.29621131e-004 4.28626081e-003 1.53080749e-004 1.53080749e-004
      1.53080749e-004 1.37772679e-003 0. 1.07156520e-003 2.29621131e-004
      7.65403747e-005 7.65403747e-005 1.07156520e-003 0. 1.53080749e-004
      6.12322998e-004 2.14313040e-003 2.29621131e-004 4.59242263e-004 0.
      0. 0. 3.06161499e-004 0. 0. 7.65403747e-005 0. 0. 0. 0.
      1.53080749e-004 0. 2.52583227e-003 0. 0. 0. 0. 3.06161499e-004
      1.53080749e-004 7.65403747e-005 0. 0. 7.65403747e-005 0.
      7.65403747e-005 1.30118639e-003 0. 0. 4.59242263e-004 0.
      3.52085731e-003 1.53080749e-004 0. 0. 0. 2.29621131e-004 0. 0. 0.
      7.65403747e-005 7.65403747e-005 0. 0. 0. 5.35782601e-004 0.
      1.53080749e-004 7.65403747e-005 0. 0. 0. 6.88863394e-004 0.
      3.82701866e-004 0. 8.41944129e-004 7.65403747e-005 1.22464600e-003
      0. 4.66896268e-003 0. 2.29621131e-004 0. 0. 1.53080749e-004
      2.29621131e-004 0. 4.43934184e-003 3.13815544e-003 2.29621131e-004
      9.03176423e-003 7.65403747e-005 0. 7.65403747e-005 7.65403747e-005
      0. 7.65403747e-005 0. 0. 0. 7.65403747e-005 6.88863394e-004
      5.35782601e-004 7.65403747e-005 0. 0. 7.65403747e-005
      1.53080747e-003 3.06161499e-004 0. 0. 0. 1.53080749e-004 0. 0. 0.
      4.59242263e-004 0. 0. 7.65403747e-005 7.65403747e-005 0. 0. 0.
      1.53080749e-004 6.88863394e-004 0. 0. 1.53080749e-004 0. 0.
      7.65403747e-005 0. 0. 3.82701866e-004 0. 0. 0. 0. 0. 0. 0. 0.
      6.12322998e-004 0. 0. 1.53080749e-004 7.65403747e-005
      1.53080749e-004 1.53080749e-004 0. 0. 0. 1.53080749e-004
      7.65403747e-005 0. 0. 0. 0. 0. 0. 0. 0. 7.65403747e-005 0.
      3.06161499e-004 1.53080749e-004 0. 0. 0. 1.53080749e-004 0.
      9.72062722e-003 7.65403747e-005 0. 0. 2.29621120e-003
      3.82701866e-004 7.65403747e-005 7.65403747e-005 7.65403747e-005 0.
      0. 0. 0. 2.29621131e-004 0. 0. 0. 0. 0. 0. 0. 7.65403747e-005 0.
      6.12322998e-004 0. 0. 0. 0. 7.65403747e-005 0. 1.53080749e-004
      2.37275171e-003 0. 0. 2.29621131e-004 7.65403747e-005 0. 0. 0. 0.
      3.98009969e-003 0. 0. 7.65403747e-005 1.53080749e-004 0. 0. 0.
      2.83199386e-003 1.53080749e-004 1.83696905e-003 0. 0.
      1.53080749e-004 0. 0. 3.06161499e-004 0. 0. 0. 0. 3.06161499e-004
      0. 9.95024922e-004 0. 0. 0. 8.41944129e-004 0. 6.35285117e-003
      5.35782601e-004 1.53080749e-004 0. 2.29621131e-004 6.12322998e-004
      2.29621131e-004 0. 0. 0. 0. 3.82701866e-004 0. 3.82701866e-004 0.
      8.41944129e-004 3.06161499e-004 9.95024922e-004 0. 0.
      7.65403747e-005 0. 1.53080749e-004 0. 0. 0. 3.82701866e-004 0. 0.
      0. 0. 0. 0. 0. 0. 7.65403747e-005 0. 7.65403747e-005
      7.65403747e-005 0. 1.14810560e-003 0. 3.06161499e-004 0. 0. 0.
      7.65403747e-005 0. 0. 0. 0. 0. 0. 7.65403747e-005 0.</_>
    <_>
      0. 0. 0. 0. 0. 0. 0. 0. 0. 4.52488707e-003 0. 0. 0. 0. 0.
      1.50829565e-003 0. 0. 0. 0. 0. 0. 3.01659130e-003 0. 0. 0. 0. 0.
      0. 0. 0. 0. 0. 0. 0. 0. 0. 0. 0. 0. 0. 0. 0. 0. 0. 0.
      1.50829565e-003 0. 0. 0. 0. 0. 0. 0. 0. 0. 0. 0. 0. 0. 0. 0. 0. 0.
      0. 0. 0. 0. 0. 0. 0. 0. 0. 0. 0. 1.50829565e-003 0.
      9.04977415e-003 0. 0. 0. 0. 4.52488707e-003 0. 0. 7.54147815e-003
      0. 0. 0. 0. 0. 1.50829565e-003 0. 0. 0. 0. 0. 0. 0. 0. 0. 0. 0. 0.
      0. 0. 0. 0. 0. 0. 1.50829565e-003 0. 0. 0. 0. 0. 0. 0. 0. 0. 0. 0.
      0. 0. 0. 0. 0. 0. 0. 0. 0. 0. 0. 0. 0. 0. 0. 0. 0. 0. 0. 0. 0. 0.
      0. 0. 0. 0. 0. 0. 0. 0. 0. 0. 0. 0. 0. 0. 0. 0. 0. 0. 0. 0. 0. 0.
      0. 0. 0. 0. 1.50829565e-003 0. 0. 0. 0. 0. 0. 0. 0. 0. 0.
      1.50829565e-003 0. 0. 0. 0. 0. 0. 0. 0. 0. 0. 0. 0. 0. 0. 0. 0. 0.
      0. 0. 0. 1.50829565e-003 0. 0. 0. 0. 0. 0. 0. 1.50829565e-003 0.
      0. 0. 0. 0. 0. 0. 0. 0. 0. 0. 0. 1.50829565e-003 0. 0.
      4.52488707e-003 3.01659130e-003 1.50829565e-003 0. 0. 0.
      1.50829565e-003 0. 4.52488707e-003 0. 0. 0. 0. 0. 0. 0.
      3.01659130e-003 0. 0. 0. 0. 0. 0. 0. 0. 0. 0. 0. 0. 0. 0. 0. 0. 0.
      0. 0. 0. 0. 4.52488707e-003 0. 0. 1.50829565e-003 0. 0. 0. 0. 0.
      0. 0. 0. 0. 0. 1.50829565e-003 0. 0. 0. 0. 0. 0. 1.50829565e-003
      0. 0. 0. 0. 0. 1.50829565e-003 3.01659130e-003 0. 0. 0. 0. 0. 0.
      0. 0. 0. 0. 0. 0. 0. 0. 0. 0. 0. 0. 0. 0. 0. 0. 0. 0. 0. 0. 0. 0.
      0. 0. 4.52488707e-003 0. 0. 0. 0. 0. 0. 0. 0. 0. 0. 0. 0. 0. 0. 0.
      0. 0. 0. 0. 0. 0. 0. 0. 5.58069386e-002 0. 0. 0. 0.
      3.01659130e-003 0. 0. 0. 0. 0. 0. 0. 0. 0. 0. 0. 0. 0. 0. 0. 0. 0.
      0. 0. 0. 0. 0. 0. 0. 0. 0. 0. 0. 0. 1.50829565e-003 0. 0.
      1.50829565e-003 0. 0. 0. 0. 0. 0. 0. 0. 0. 0. 0. 0. 0. 0. 0. 0. 0.
      0. 0. 0. 0. 0. 0. 0. 3.01659130e-003 0. 0. 0. 0. 0. 0. 0. 0. 0. 0.
      0. 0. 0. 0. 0. 0. 0. 0. 0. 0. 0. 0. 0. 0. 0. 0. 0. 0. 0. 0. 0. 0.
      0. 0. 0. 0. 0. 0. 0. 0. 9.04977415e-003 0. 0. 0. 0. 0. 0. 0. 0.
      3.01659130e-003 1.50829565e-003 0. 0. 0. 0. 0. 0. 0. 0. 0. 0.
