<?xml version="1.0"?>
<opencv_storage>
<my_svm type_id="opencv-ml-svm">
  <svm_type>C_SVC</svm_type>
  <kernel><type>RBF</type>
    <gamma>10.</gamma></kernel>
  <C>15.</C>
  <term_criteria><epsilon>2.2204460492503131e-016</epsilon>
    <iterations>100</iterations></term_criteria>
  <var_all>3000</var_all>
  <var_count>3000</var_count>
  <class_count>2</class_count>
  <class_labels type_id="opencv-matrix">
    <rows>1</rows>
    <cols>2</cols>
    <dt>i</dt>
    <data>
      -1 1</data></class_labels>
  <sv_total>169</sv_total>
  <support_vectors>
    <_>
      0. 0. 0. 0. 0. 0. 0. 0. 0. 0. 0. 1.98412710e-003 0. 0. 0. 0. 0. 0.
      0. 0. 0. 1.98412710e-003 0. 0. 0. 0. 0. 0. 3.96825420e-003 0. 0.
      0. 0. 0. 0. 0. 0. 3.96825420e-003 0. 0. 0. 0. 0. 0. 0. 0. 0. 0. 0.
      0. 0. 0. 1.98412710e-003 0. 0. 0. 0. 0. 0. 0. 0. 0. 0. 0. 0. 0. 0.
      0. 0. 0. 0. 0. 0. 0. 0. 0. 0. 0. 0. 0. 0. 0. 1.98412710e-003
      1.98412710e-003 0. 1.98412710e-003 0. 0. 0. 0. 0. 0. 0. 0. 0.
      7.93650839e-003 0. 0. 0. 0. 0. 0. 0. 0. 0. 0. 0. 0. 0. 0. 0. 0. 0.
      0. 0. 0. 0. 1.98412710e-003 0. 0. 0. 0. 0. 0. 0. 0. 0. 0. 0. 0. 0.
      0. 0. 0. 0. 1.98412710e-003 0. 0. 0. 0. 0. 0. 0. 0. 0. 0. 0. 0. 0.
      0. 0. 0. 0. 0. 0. 0. 0. 0. 0. 0. 0. 0. 0. 0. 7.93650839e-003 0. 0.
      0. 0. 0. 0. 0. 0. 0. 0. 0. 0. 0. 0. 0. 0. 0. 0. 0. 0. 0. 0. 0.
      1.98412710e-003 0. 0. 0. 0. 0. 0. 0. 0. 0. 0. 5.95238153e-003 0.
      0. 0. 0. 0. 0. 0. 0. 0. 0. 0. 0. 0. 0. 1.98412710e-003 0. 0. 0. 0.
      0. 0. 0. 3.96825420e-003 0. 9.92063526e-003 0. 1.19047631e-002 0.
      1.98412710e-003 0. 0. 0. 0. 0. 0. 0. 0. 0. 0. 0. 0.
      1.98412710e-003 0. 0. 0. 0. 0. 0. 0. 0. 0. 0. 0. 0. 0. 0. 0. 0. 0.
      0. 0. 0. 0. 0. 3.96825420e-003 0. 0. 3.96825420e-003 0.
      3.96825420e-003 0. 0. 0. 0. 0. 3.96825420e-003 0. 0. 0. 0. 0. 0.
      0. 0. 0. 0. 0. 0. 0. 0. 1.98412710e-003 0. 0. 0. 1.98412710e-003
      0. 0. 0. 0. 1.98412710e-003 0. 0. 0. 5.95238153e-003 0. 0. 0. 0.
      0. 0. 0. 0. 1.98412710e-003 0. 0. 0. 0. 0. 0. 0. 0. 0. 0. 0. 0. 0.
      0. 0. 0. 0. 0. 0. 0. 0. 0. 3.96825420e-003 0. 1.98412710e-003 0.
      0. 0. 0. 7.93650839e-003 0. 0. 0. 0. 0. 0. 0. 0. 0. 0. 0. 0. 0. 0.
      0. 1.98412710e-003 0. 0. 0. 0. 0. 0. 0. 0. 0. 0. 0. 0. 0. 0. 0. 0.
      0. 1.98412710e-003 0. 0. 0. 0. 0. 0. 1.98412710e-003 0. 0. 0. 0.
      0. 0. 0. 0. 0. 0. 0. 0. 0. 0. 0. 0. 0. 0. 0. 0. 0. 0. 0. 0. 0. 0.
      0. 0. 0. 0. 0. 0. 0. 0. 0. 0. 0. 0. 0. 0. 0. 0. 0. 0. 0. 0. 0. 0.
      0. 1.98412710e-003 0. 0. 0. 0. 0. 1.98412710e-003 1.19047631e-002
      0. 0. 0. 0. 0. 0. 0. 0. 0. 0. 0. 0. 0. 0. 1.98412710e-003 0. 0. 0.
      0. 0. 0. 0. 0. 0. 0. 1.98412710e-003 0. 0. 0. 0. 0. 0. 0. 0. 0. 0.
      0. 0. 0. 0. 0. 0. 1.98412710e-003 0. 0. 0. 0. 0. 1.98412710e-003
      0. 0. 0. 0. 0. 0. 0. 0. 0. 0. 0. 0. 1.98412710e-003 0. 0.
      3.96825420e-003 1.98412710e-003 0. 1.98412710e-003 0. 0. 0. 0. 0.
      0. 0. 0. 0. 0. 0. 0. 0. 1.98412710e-003 0. 0. 0. 0. 0. 0. 0. 0. 0.
      0. 0. 0. 0. 0. 0. 0. 0. 0. 0. 0. 1.98412710e-003 0. 0. 0. 0.
      3.96825420e-003 0. 0. 0. 0. 0. 0. 0. 0. 0. 0. 0. 0. 0.
      1.98412710e-003 0. 0. 0. 0. 0. 0. 1.98412710e-003 0. 0. 0. 0. 0.
      0. 0. 0. 0. 0. 0. 0. 0. 0. 0. 0. 0. 0. 0. 0. 0. 0. 0. 0. 0. 0. 0.
      0. 0. 0. 0. 0. 1.98412710e-003 0. 0. 0. 0. 1.98412710e-003
      1.98412710e-003 0. 0. 0. 0. 0. 0. 0. 0. 0. 0. 0. 0. 0. 0. 0.
      1.98412710e-003 0. 0. 0. 0. 0. 0. 0. 1.98412710e-003 0. 0. 0. 0.
      0. 0. 0. 0. 0. 0. 0. 0. 0. 0. 0. 0. 0. 0. 1.98412710e-003 0. 0. 0.
      0. 1.98412710e-003 1.98412710e-003 0. 0. 0. 0. 0. 0. 0. 0. 0. 0.
      1.98412710e-003 0. 0. 0. 0. 0. 0. 0. 0. 0. 0. 0. 0. 0. 0. 0. 0. 0.
      0. 0. 0. 0. 0. 0. 0. 1.98412710e-003 3.96825420e-003 0. 0. 0. 0.
      0. 0. 0. 0. 0. 0. 0. 0. 0. 0. 0. 0. 0. 0. 0. 0. 0. 0. 0.
      1.98412710e-003 0. 0. 0. 0. 0. 0. 0. 0. 0. 0. 0. 0. 0. 0. 0. 0. 0.
      3.96825420e-003 0. 0. 0. 0. 0. 0. 0. 1.19047631e-002 0. 0. 0. 0.
      0. 0. 1.98412710e-003 0. 0. 1.98412710e-003 0. 1.98412710e-003 0.
      0. 0. 0. 0. 0. 0. 0. 0. 0. 0. 0. 0. 0. 1.98412710e-003 0. 0. 0. 0.
      0. 0. 0. 0. 0. 0. 0. 0. 0. 0. 0. 0. 0. 0. 0. 0. 0. 0. 0. 0.
      3.96825420e-003 0. 0. 0. 1.98412710e-003 0. 0. 0. 0. 0.
      5.95238153e-003 0. 0. 0. 0. 0. 0. 0. 0. 0. 0. 0. 0. 0. 0. 0. 0. 0.
      0. 0. 0. 0. 0. 0. 1.98412710e-003 0. 0. 0. 3.96825420e-003
      1.98412710e-003 0. 0. 0. 0. 0. 0. 0. 0. 0. 7.93650839e-003 0. 0.
      0. 0. 0. 0. 0. 0. 0. 0. 0. 0. 0. 0. 0. 1.98412710e-003
      1.98412710e-003 0. 0. 0. 0. 0. 0. 0. 0. 0. 0. 0. 0. 0. 0. 0.
      5.95238153e-003 0. 0. 1.98412710e-003 0. 0. 0. 0. 0. 0. 0. 0. 0.
      0. 0. 0. 0. 0. 0. 0. 3.96825420e-003 0. 0. 0. 0. 0. 0. 0. 0. 0. 0.
      0. 1.98412710e-003 0. 0. 0. 5.95238153e-003 0. 0. 0. 0. 0. 0. 0.
      0. 0. 0. 0. 0. 0. 0. 0. 0. 0. 0. 0. 0. 0. 0. 0. 0. 0.
      1.98412710e-003 0. 0. 0. 0. 1.98412710e-003 0. 0. 0.
      1.98412710e-003 0. 0. 0. 0. 0. 1.98412710e-003 0. 0. 0. 0. 0.
      1.98412710e-003 0. 0. 0. 0. 0. 0. 0. 0. 0. 0. 0. 0. 0. 0. 0.
      1.98412710e-003 3.96825420e-003 0. 0. 0. 3.96825420e-003 0. 0.
      3.96825420e-003 0. 0. 0. 0. 0. 0. 0. 0. 0. 0. 0. 0. 0. 0. 0. 0. 0.
      0. 0. 0. 0. 0. 0. 0. 0. 1.98412710e-003 1.98412710e-003 0. 0. 0.
      0. 0. 0. 1.98412710e-003 0. 0. 0. 0. 0. 0. 0. 0. 0. 0. 0. 0. 0. 0.
      0. 0. 0. 0. 0. 0. 0. 0. 0. 0. 0. 0. 0. 0. 0. 0. 0. 0. 0. 0. 0.
      1.98412710e-003 0. 0. 0. 1.98412710e-003 0. 1.98412710e-003 0.
      1.98412710e-003 0. 0. 0. 0. 0. 0. 1.98412710e-003 0. 0. 0. 0. 0.
      0. 0. 1.98412710e-003 0. 0. 0. 0. 0. 0. 0. 0. 0. 0. 0. 0. 0. 0. 0.
      0. 0. 0. 0. 0. 0. 0. 0. 1.98412710e-003 0. 0. 0. 0. 0.
      1.98412710e-003 0. 5.95238153e-003 1.98412710e-003 0. 0. 0. 0. 0.
      0. 0. 0. 0. 0. 0. 0. 0. 1.19047631e-002 0. 0. 0. 0. 0. 0. 0. 0. 0.
      3.96825420e-003 0. 0. 0. 0. 0. 0. 0. 0. 0. 0. 0. 0. 0.
      1.98412710e-003 0. 0. 0. 0. 0. 0. 0. 0. 1.98412710e-003 0. 0. 0.
      0. 1.98412710e-003 0. 0. 0. 0. 0. 0. 0. 0. 0. 0. 0. 0. 0. 0. 0. 0.
      0. 0. 0. 0. 0. 0. 0. 0. 0. 0. 0. 0. 1.98412710e-003 0. 0. 0. 0. 0.
      0. 0. 0. 0. 0. 1.98412710e-003 0. 0. 0. 0. 1.98412710e-003 0. 0.
      1.98412710e-003 0. 0. 0. 0. 0. 0. 0. 0. 0. 0. 0. 0. 0. 0. 0. 0. 0.
      0. 0. 0. 0. 0. 0. 0. 0. 3.96825420e-003 0. 0. 0. 0. 0. 0.
      1.98412710e-003 0. 0. 0. 1.98412710e-003 0. 0. 0. 0. 0. 0. 0. 0.
      0. 3.96825420e-003 0. 0. 0. 0. 0. 0. 0. 0. 0. 0. 0. 0. 0. 0. 0.
      3.96825420e-003 0. 0. 0. 0. 1.98412710e-003 0. 0. 0.
      5.95238153e-003 0. 0. 0. 0. 0. 0. 0. 0. 1.98412710e-003 0. 0. 0.
      0. 0. 0. 0. 0. 0. 0. 0. 0. 0. 0. 0. 0. 0. 0. 0. 0. 0. 0. 0. 0. 0.
      0. 0. 1.98412710e-003 0. 0. 0. 0. 0. 0. 0. 0. 0. 0. 0. 0. 0. 0. 0.
      0. 1.98412710e-003 0. 1.98412710e-003 0. 0. 0. 0. 0. 0. 0. 0. 0.
      1.98412710e-003 0. 0. 0. 0. 0. 0. 0. 0. 0. 1.98412710e-003 0. 0.
      0. 0. 0. 0. 0. 1.98412710e-003 3.96825420e-003 0. 0. 0.
      1.98412710e-003 0. 0. 1.98412710e-003 0. 0. 0. 0. 0. 0. 0.
      1.98412710e-003 0. 0. 0. 0. 0. 0. 0. 0. 0. 0. 0. 3.96825420e-003
      0. 3.96825420e-003 1.98412710e-003 0. 0. 0. 0. 0. 0. 0. 0. 0. 0.
      0. 0. 0. 0. 0. 0. 0. 0. 0. 0. 0. 0. 1.98412710e-003 0. 0.
      3.96825420e-003 0. 0. 0. 0. 0. 0. 0. 0. 0. 0. 0. 0. 0. 0. 0. 0. 0.
      0. 0. 0. 0. 0. 0. 0. 0. 0. 0. 0. 0. 0. 0. 0. 0. 0. 0. 0. 0. 0. 0.
      0. 0. 0. 0. 0. 0. 0. 0. 0. 1.98412710e-003 0. 0. 0. 0. 0.
      1.98412710e-003 0. 0. 0. 0. 0. 0. 0. 0. 0. 0. 0. 0. 0.
      5.95238153e-003 1.98412710e-003 0. 0. 0. 0. 0. 0. 0. 0.
      3.96825420e-003 0. 0. 0. 0. 0. 1.98412710e-003 0. 0. 0.
      7.93650839e-003 0. 1.98412710e-003 0. 0. 0. 0. 0. 0. 0. 0.
      1.98412710e-003 0. 0. 0. 0. 0. 0. 0. 0. 0. 0. 0. 0.
      1.98412710e-003 0. 0. 0. 0. 0. 0. 0. 0. 0. 0. 0. 0. 0. 0. 0. 0. 0.
      0. 0. 0. 0. 0. 0. 0. 0. 0. 0. 0. 1.98412710e-003 0. 0. 0. 0. 0. 0.
      0. 0. 0. 0. 0. 0. 3.96825420e-003 0. 0. 0. 0. 1.98412710e-003 0.
      0. 0. 0. 0. 3.96825420e-003 1.98412710e-003 0. 0. 0. 0. 0. 0. 0.
      0. 0. 0. 0. 1.98412710e-003 0. 0. 1.98412710e-003 0. 0. 0. 0. 0.
      0. 0. 0. 0. 0. 0. 0. 0. 0. 0. 1.98412710e-003 0. 0. 0.
      1.98412710e-003 0. 0. 0. 0. 0. 0. 3.96825420e-003 0. 0. 0.
      1.98412710e-003 0. 0. 0. 0. 0. 0. 0. 0. 0. 0. 0. 0. 0. 0. 0. 0. 0.
      0. 0. 0. 0. 5.95238153e-003 1.98412710e-003 0. 0. 0. 0. 0. 0.
      1.98412710e-003 0. 0. 1.98412710e-003 0. 0. 0. 0. 0. 0. 0. 0. 0.
      0. 0. 0. 0. 0. 0. 0. 0. 0. 0. 7.93650839e-003 0. 0. 0. 0. 0. 0. 0.
      0. 0. 0. 0. 0. 0. 0. 1.98412710e-003 0. 0. 0. 0. 0. 0. 0. 0. 0. 0.
      1.98412710e-003 0. 0. 0. 0. 0. 0. 1.98412710e-003 0. 0. 0. 0. 0.
      0. 0. 0. 0. 0. 0. 0. 0. 0. 0. 0. 0. 0. 0. 1.98412710e-003 0.
      1.98412710e-003 0. 0. 7.93650839e-003 0. 0. 0. 0. 0.
      1.98412710e-003 0. 3.96825420e-003 0. 0. 0. 0. 0. 3.96825420e-003
      0. 0. 0. 0. 1.98412710e-003 0. 0. 0. 0. 0. 0. 0. 0. 0.
      3.96825420e-003 0. 0. 0. 0. 0. 0. 0. 0. 0. 0. 0. 0. 0. 0. 0. 0.
      1.98412710e-003 0. 0. 0. 0. 0. 0. 0. 0. 0. 0. 0. 0. 0.
      5.95238153e-003 1.98412710e-003 0. 0. 0. 1.98412710e-003
      1.98412710e-003 0. 0. 0. 0. 0. 0. 0. 0. 0. 0. 0. 0. 0. 0. 0. 0. 0.
      0. 1.98412710e-003 0. 0. 0. 0. 0. 0. 5.95238153e-003 0. 0. 0.
      1.98412710e-003 0. 0. 0. 0. 0. 1.98412710e-003 0. 0. 0. 0.
      1.98412710e-003 0. 0. 0. 0. 0. 0. 0. 0. 1.98412710e-003 0. 0.
      1.98412710e-003 0. 0. 0. 0. 0. 0. 0. 0. 0. 0. 0. 0. 0. 0. 0. 0. 0.
      0. 0. 0. 0. 1.98412710e-003 0. 0. 0. 0. 0. 0. 0. 0. 0. 0. 0. 0. 0.
      0. 0. 1.98412710e-003 0. 0. 0. 0. 0. 0. 0. 0. 0. 0. 0. 0. 0. 0. 0.
      0. 0. 0. 0. 0. 0. 0. 0. 0. 0. 0. 0. 0. 0. 5.95238153e-003 0. 0. 0.
      0. 0. 0. 0. 5.95238153e-003 0. 0. 0. 0. 0. 0. 0. 0. 0. 0. 0. 0. 0.
      0. 0. 0. 0. 0. 0. 0. 0. 0. 0. 0. 0. 0. 0. 0. 0. 0. 0.
      1.98412710e-003 0. 0. 0. 0. 0. 0. 0. 0. 0. 0. 0. 0. 0. 0. 0. 0. 0.
      0. 1.98412710e-003 0. 0. 1.98412710e-003 0. 0. 0. 0. 0. 0. 0. 0.
      0. 0. 1.98412710e-003 0. 0. 0. 0. 0. 0. 0. 1.98412710e-003 0.
      1.98412710e-003 0. 0. 0. 0. 9.92063526e-003 0. 0. 0.
      1.98412710e-003 0. 0. 0. 0. 0. 0. 0. 0. 0. 1.98412710e-003 0. 0.
      0. 0. 0. 0. 1.98412710e-003 0. 0. 0. 0. 0. 0. 0. 0. 0. 0. 0. 0. 0.
      0. 0. 0. 0. 0. 0. 0. 0. 0. 1.98412710e-003 0. 0. 0. 0. 0. 0. 0. 0.
      0. 0. 0. 0. 0. 0. 0. 0. 5.95238153e-003 0. 0. 0. 1.98412710e-003
      1.98412710e-003 0. 0. 0. 0. 0. 0. 0. 0. 0. 0. 0. 5.95238153e-003
      3.96825420e-003 0. 0. 0. 0. 0. 0. 0. 0. 0. 0. 0. 0. 0.
      1.98412710e-003 0. 0. 0. 0. 0. 0. 1.98412710e-003 0. 0. 0. 0.
      3.96825420e-003 1.98412710e-003 0. 0. 0. 0. 0. 0. 1.98412710e-003
      0. 0. 0. 0. 0. 1.98412710e-003 0. 0. 1.98412710e-003 0. 0. 0.
      5.95238153e-003 0. 0. 0. 0. 0. 0. 5.95238153e-003 0.
      1.98412710e-003 3.96825420e-003 0. 1.98412710e-003 0. 0. 0. 0.
      1.98412710e-003 0. 0. 0. 0. 0. 0. 0. 0. 0. 0. 0. 0. 0. 0. 0. 0. 0.
      0. 0. 0. 0. 0. 0. 1.98412710e-003 0. 0. 0. 0. 0. 0. 0. 0. 0. 0. 0.
      0. 0. 0. 0. 0. 0. 0. 0. 0. 0. 0. 0. 0. 0. 0. 0. 0. 0. 0. 0. 0. 0.
      1.98412710e-003 0. 0. 0. 0. 0. 0. 0. 0. 0. 0. 0. 0. 0. 0. 0. 0.
      1.98412710e-003 0. 0. 0. 0. 0. 0. 0. 0. 0. 0. 0. 0. 0. 0. 0. 0.
      1.98412710e-003 0. 0. 1.98412710e-003 0. 0. 0. 0. 0. 0. 0. 0. 0.
      0. 0. 0. 0. 0. 0. 0. 0. 0. 0. 0. 0. 7.93650839e-003 0. 0. 0. 0.
      1.98412710e-003 0. 0. 0. 0. 1.98412710e-003 0. 0. 0.
      1.98412710e-003 0. 1.98412710e-003 0. 0. 0. 0. 1.98412710e-003 0.
      0. 0. 0. 0. 0. 0. 0. 0. 0. 0. 0. 0. 0. 0. 0. 0. 0. 0. 0. 0. 0. 0.
      0. 0. 0. 0. 0. 0. 0. 3.96825420e-003 0. 0. 0. 0. 0. 0. 0. 0. 0. 0.
      0. 0. 0. 1.98412710e-003 0. 0. 0. 0. 0. 0. 0. 0. 0. 0. 0. 0. 0. 0.
      0. 0. 0. 1.98412710e-003 0. 0. 0. 0. 0. 0. 3.96825420e-003 0. 0.
      0. 0. 0. 0. 1.98412710e-003 0. 5.95238153e-003 0. 0. 0. 0. 0. 0.
      0. 0. 0. 0. 0. 0. 0. 0. 0. 0. 0. 0. 0. 0. 0. 0. 0. 1.98412710e-003
      0. 0. 0. 0. 0. 0. 0. 1.98412710e-003 0. 0. 0. 0. 0. 0. 0. 0. 0. 0.
      0. 1.98412710e-003 0. 0. 7.93650839e-003 1.98412710e-003 0. 0. 0.
      0. 0. 0. 0. 0. 0. 0. 0. 0. 0. 0. 0. 5.95238153e-003 0. 0. 0. 0. 0.
      0. 0. 0. 0. 0. 0. 0. 0. 0. 0. 0. 0. 0. 0. 0. 0. 0. 0. 0.
      1.98412710e-003 0. 0. 3.96825420e-003 0. 0. 0. 1.98412710e-003 0.
      0. 0. 0. 1.98412710e-003 0. 0. 0. 0. 7.93650839e-003
      7.93650839e-003 0. 0. 3.96825420e-003 3.96825420e-003 0. 0.
      1.98412710e-003 0. 0. 0. 0. 0. 0. 0. 0. 7.93650839e-003 0. 0. 0.
      0. 0. 1.98412710e-003 0. 0. 0. 0. 0. 0. 0. 0. 1.98412710e-003
      1.98412710e-003 0. 0. 0. 0. 1.98412710e-003 3.96825420e-003 0. 0.
      0. 0. 0. 0. 0. 0. 1.98412710e-003 0. 5.95238153e-003 0. 0. 0. 0.
      0. 0. 0. 0. 0. 0. 0. 0. 0. 0. 0. 0. 0. 3.96825420e-003 0. 0. 0. 0.
      0. 0. 0. 0. 0. 0. 1.98412710e-003 0. 0. 0. 0. 0. 0. 0. 0. 0.
      1.98412710e-003 0. 0. 0. 0. 0. 1.98412710e-003 0. 0. 0. 0. 0. 0.
      7.93650839e-003 0. 0. 0. 0. 0. 0. 0. 1.98412710e-003 0. 0.
      1.98412710e-003 0. 0. 1.98412710e-003 0. 0. 1.98412710e-003 0. 0.
      0. 0. 1.98412710e-003 0. 1.58730168e-002 1.98412710e-003
      5.95238153e-003 1.98412710e-003 0. 0. 0. 0. 0. 0. 1.98412710e-003
      0. 0. 0. 0. 0. 0. 0. 0. 0. 0. 0. 0. 3.96825420e-003
      1.98412710e-003 1.98412710e-003 0. 0. 0. 0. 0. 0. 0. 0. 0. 0. 0.
      0. 0. 0. 0. 0. 0. 0. 0. 0. 0. 1.98412710e-003 0. 0. 0. 0. 0. 0. 0.
      0. 0. 0. 0. 0. 1.98412710e-003 0. 0. 0. 1.98412710e-003 0. 0. 0.
      1.98412710e-003 1.98412710e-003 0. 0. 0. 0. 0. 0. 0. 0. 0. 0. 0.
      1.98412710e-003 0. 0. 1.98412710e-003 0. 0. 0. 1.98412710e-003 0.
      0. 0. 0. 0. 0. 0. 0. 0. 0. 0. 0. 0. 0. 0. 0. 0. 0. 0. 0. 0. 0. 0.
      0. 1.98412710e-003 0. 0. 0. 0. 0. 0. 0. 1.98412710e-003 0. 0. 0.
      0. 0. 0. 0. 0. 0. 0. 0. 1.98412710e-003 0. 0. 0. 0.
      1.98412710e-003 0. 0. 0. 0. 0. 5.95238153e-003 0. 0.
      1.98412710e-003 0. 0. 0. 1.98412710e-003 0. 0. 0. 0. 0.
      1.98412710e-003 0. 3.96825420e-003 0. 0. 0. 0. 0. 0. 0. 0. 0.
      1.98412710e-003 0. 0. 0. 0. 0. 0. 0. 9.92063526e-003 0. 0.
      1.98412710e-003 1.98412710e-003 0. 3.96825420e-003 0. 0. 0. 0. 0.
      0. 0. 0. 0. 0. 0. 0. 0. 0. 0. 0. 0. 0. 0. 0. 3.96825420e-003 0. 0.
      0. 3.96825420e-003 0. 0. 0. 0. 0. 0. 0. 0. 0. 0. 0. 0. 0. 0.
      1.98412710e-003 0. 0. 0. 0. 3.96825420e-003 0. 0. 0. 0. 0.
      1.98412710e-003 0. 0. 0. 0. 0. 0. 0. 0. 0. 0. 0. 9.92063526e-003
      0. 0. 0. 0. 0. 0. 0. 0. 0. 0. 0. 0. 0. 0. 0. 0. 1.19047631e-002 0.
      0. 0. 0. 0. 0. 0. 0. 0. 0. 0. 0. 1.98412710e-003 0.
      1.98412710e-003 0. 0. 0. 0. 0. 0. 0. 0. 0. 0. 0. 0. 0. 0. 0. 0. 0.
      0. 0. 0. 0. 0. 1.98412710e-003 1.98412710e-003 0. 0. 0. 0. 0. 0.
      9.92063526e-003 0. 0. 0. 0. 0. 0. 0. 3.96825420e-003 0. 0. 0. 0.
      0. 0. 0. 0. 0. 0. 0. 0. 0. 0. 0. 0. 0. 1.98412710e-003 0. 0. 0. 0.
      1.98412710e-003 0. 0. 3.96825420e-003 0. 0. 0. 0. 0. 0. 0.
      3.96825420e-003 0. 0. 0. 0. 0. 0. 0. 0. 0. 0. 0. 0. 0. 0. 0. 0. 0.
      0. 0. 0. 0. 0. 0. 1.98412710e-003 0. 0. 0. 0. 0. 0. 0. 0. 0.</_>
    <_>
      0. 0. 0. 0. 0. 0. 0. 0. 0. 0. 0. 0. 0. 0. 0. 0. 0. 0. 0.
      4.90196096e-003 0. 0. 0. 0. 0. 0. 0. 0. 0. 0. 0. 0. 0. 0. 0. 0. 0.
      0. 0. 0. 0. 0. 0. 0. 0. 0. 0. 0. 0. 0. 0. 0. 0. 0. 1.63398695e-003
      0. 0. 0. 0. 0. 0. 0. 0. 1.79738570e-002 0. 0. 0. 0.
      1.63398695e-003 0. 0. 0. 0. 0. 0. 1.63398695e-003 1.63398695e-003
      0. 0. 0. 0. 0. 0. 0. 0. 0. 0. 0. 0. 0. 0. 0. 0. 0. 0. 0. 0. 0.
      1.63398695e-003 0. 0. 0. 0. 0. 0. 0. 0. 1.63398695e-003 0. 0. 0.
      0. 0. 0. 0. 0. 1.47058824e-002 6.53594779e-003 0. 0. 0. 0. 0. 0.
      0. 0. 0. 0. 0. 3.26797389e-003 0. 0. 0. 0. 0. 1.63398695e-003 0.
      0. 0. 0. 0. 0. 0. 0. 0. 0. 0. 0. 0. 0. 0. 0. 0. 0. 0. 0. 0. 0. 0.
      0. 0. 1.63398695e-003 0. 0. 0. 0. 0. 0. 0. 0. 0. 0. 0. 0. 0. 0.
      1.63398695e-003 0. 0. 0. 0. 0. 0. 0. 0. 0. 0. 0. 0. 0. 0. 0. 0. 0.
      0. 0. 0. 0. 0. 0. 0. 1.63398695e-003 0. 0. 0. 0. 0. 0. 0. 0.
      1.63398695e-003 0. 0. 0. 0. 0. 0. 0. 0. 0. 0. 0. 0. 0. 0. 0. 0. 0.
      0. 0. 0. 0. 0. 0. 0. 0. 0. 0. 0. 0. 0. 0. 0. 0. 0. 0. 0. 0. 0. 0.
      0. 0. 0. 0. 1.96078438e-002 0. 0. 0. 0. 0. 0. 0. 0. 0. 0. 0. 0. 0.
      0. 0. 0. 0. 0. 0. 0. 0. 0. 0. 0. 0. 0. 0. 0. 0. 3.26797389e-003 0.
      0. 1.63398695e-003 0. 0. 0. 0. 0. 0. 0. 0. 0. 0. 0. 0. 0. 0. 0. 0.
      0. 0. 0. 0. 0. 0. 0. 0. 0. 0. 0. 0. 0. 0. 0. 1.63398695e-003 0. 0.
      0. 6.53594779e-003 0. 0. 0. 0. 0. 3.26797389e-003 0. 0. 0. 0. 0.
      0. 0. 0. 0. 0. 0. 0. 0. 0. 0. 0. 0. 0. 0. 0. 0. 0. 0.
      1.63398695e-003 0. 0. 0. 0. 0. 0. 0. 0. 0. 0. 0. 0. 0. 0. 0. 0. 0.
      0. 0. 0. 0. 0. 0. 0. 0. 0. 0. 0. 0. 0. 0. 6.53594779e-003 0. 0. 0.
      1.63398695e-003 0. 1.63398695e-003 0. 0. 0. 0. 0. 0. 0. 0. 0. 0.
      0. 0. 0. 0. 0. 0. 0. 0. 1.63398695e-003 0. 0. 0. 1.63398695e-003
      0. 0. 0. 0. 0. 0. 0. 0. 0. 0. 0. 0. 0. 1.63398695e-003 0. 0. 0.
      1.63398702e-002 1.63398695e-003 0. 0. 0. 0. 0. 0. 0. 0. 0. 0. 0.
      8.16993508e-003 0. 0. 0. 0. 0. 3.26797389e-003 0. 0. 0. 0. 0. 0.
      0. 0. 9.80392192e-003 0. 0. 0. 0. 0. 0. 0. 0. 0. 0. 0. 0. 0. 0. 0.
      7.67973885e-002 0. 0. 0. 0. 0. 0. 0. 0. 0. 0. 0. 0. 0. 0. 0. 0. 0.
      0. 0. 0. 0. 0. 0. 1.63398695e-003 0. 0. 0. 0. 0. 0. 0. 0. 0. 0. 0.
      0. 0. 0. 6.53594779e-003 0. 0. 0. 0. 0. 0. 0. 0. 1.63398695e-003
      0. 1.63398695e-003 0. 0. 0. 0. 0. 0. 1.63398695e-003 0. 0. 0. 0.
      0. 0. 0. 0. 0. 0. 0. 0. 0. 0. 0. 0. 0. 0. 0. 0. 0. 0. 0. 0. 0. 0.
      0. 0. 0. 0. 0. 0. 0. 0. 0. 0. 0. 0. 0. 0. 0. 0. 0. 0. 0. 0. 0. 0.
      0. 0. 0. 0. 1.63398695e-003 0. 0. 0. 0. 0. 0. 0. 0. 0. 0. 0. 0. 0.
      0. 0. 0. 0. 0. 0. 0. 0. 0. 4.90196096e-003 0. 0. 0.
      3.26797389e-003 0. 0. 0. 0. 0. 0. 1.63398695e-003 0. 0. 0. 0. 0.
      0. 0. 0. 0. 1.63398702e-002 0. 0. 0. 0. 0. 0. 0. 0. 0. 0. 0. 0. 0.
      0. 0. 0. 1.63398695e-003 0. 0. 0. 0. 0. 0. 0. 0. 0. 0. 0. 0.
      1.63398695e-003 0. 0. 0. 0. 0. 0. 0. 0. 0. 0. 0. 0. 0. 0. 0. 0. 0.
      0. 0. 0. 0. 0. 1.63398695e-003 0. 0. 0. 0. 1.47058824e-002 0. 0.
      0. 0. 0. 0. 1.63398695e-003 0. 0. 0. 0. 0. 0. 0. 3.26797389e-003
      0. 0. 0. 1.63398695e-003 0. 0. 0. 0. 0. 0. 1.63398695e-003 0. 0.
      0. 0. 0. 0. 0. 0. 0. 0. 0. 0. 0. 0. 0. 0. 0. 0. 0. 0. 0. 0. 0. 0.
      0. 0. 0. 0. 0. 0. 0. 0. 0. 0. 0. 0. 0. 0. 0. 0. 0. 0. 0. 0. 0. 0.
      0. 0. 0. 0. 0. 0. 0. 0. 0. 0. 0. 0. 0. 0. 0. 0. 0. 0. 0. 0. 0. 0.
      0. 1.63398695e-003 0. 0. 0. 0. 0. 0. 0. 0. 0. 0. 0. 0. 0. 0. 0. 0.
      0. 0. 0. 0. 0. 0. 0. 0. 0. 0. 0. 0. 0. 0. 0. 0. 3.43137272e-002 0.
      0. 0. 0. 0. 0. 0. 0. 0. 0. 0. 0. 0. 0. 0. 0. 0. 0. 0. 0. 0. 0.
      1.63398695e-003 0. 0. 0. 0. 0. 0. 0. 0. 0. 0. 0. 0. 0. 0. 0. 0. 0.
      0. 2.61437912e-002 0. 0. 0. 0. 0. 0. 0. 0. 0. 0. 0. 0. 0. 0. 0. 0.
      0. 0. 0. 0. 0. 0. 0. 0. 0. 0. 0. 0. 0. 0. 0. 0. 0. 0. 0. 0. 0. 0.
      0. 0. 0. 0. 0. 0. 0. 0. 1.63398695e-003 0. 0. 0. 0. 0. 0. 0.
      1.30718956e-002 0. 9.80392192e-003 0. 0. 0. 0. 0. 0. 0. 0. 0. 0.
      0. 0. 0. 0. 0. 0. 0. 0. 0. 0. 0. 0. 0. 0. 0. 0. 0. 0. 0. 0. 0. 0.
      0. 0. 0. 0. 0. 0. 0. 0. 0. 0. 0. 0. 0. 0. 0. 0. 3.26797389e-003 0.
      0. 0. 0. 0. 0. 0. 0. 0. 0. 0. 0. 0. 0. 0. 0. 0. 0. 0. 0. 0. 0. 0.
      0. 0. 0. 0. 0. 0. 0. 0. 0. 0. 0. 0. 0. 0. 0. 0. 0. 0. 0. 0. 0. 0.
      0. 0. 0. 0. 0. 0. 0. 0. 0. 0. 0. 0. 0. 0. 0. 0. 0. 0. 0. 0. 0. 0.
      0. 1.63398695e-003 0. 3.26797403e-002 0. 0. 0. 0. 0. 0.
      1.96078438e-002 0. 0. 0. 0. 0. 0. 0. 0. 0. 0. 0. 0. 0. 0. 0. 0. 0.
      0. 0. 0. 0. 0. 3.26797389e-003 0. 0. 0. 0. 0. 0. 0. 0. 0. 0. 0. 0.
      0. 0. 0. 0. 0. 0. 0. 0. 0. 0. 1.63398695e-003 0. 1.63398695e-003
      0. 0. 0. 0. 0. 0. 0. 0. 0. 0. 0. 1.47058824e-002 0. 0. 0. 0. 0. 0.
      0. 0. 0. 0. 0. 0. 0. 0. 0. 0. 0. 0. 0. 0. 0. 1.79738570e-002 0. 0.
      0. 0. 0. 0. 0. 0. 0. 0. 0. 0. 0. 0. 0. 0. 0. 0. 0. 0. 0. 0. 0. 0.
      0. 0. 0. 0. 8.16993508e-003 0. 0. 0. 0. 0. 1.63398695e-003
      4.90196096e-003 0. 0. 0. 0. 1.63398695e-003 0. 0. 0.
      3.26797389e-003 0. 0. 0. 0. 0. 0. 0. 0. 1.63398695e-003 0. 0. 0.
      0. 0. 0. 0. 0. 0. 0. 0. 0. 0. 0. 0. 0. 0. 0. 0. 0. 0. 0. 0. 0. 0.
      0. 0. 0. 0. 0. 0. 0. 0. 0. 0. 0. 0. 0. 0. 0. 0. 0. 0. 0. 0. 0. 0.
      0. 0. 0. 0. 0. 0. 0. 4.90196096e-003 0. 0. 1.63398695e-003 0. 0.
      0. 0. 0. 0. 0. 0. 0. 0. 0. 0. 0. 0. 0. 0. 0. 0. 0. 0.
      3.26797389e-003 0. 0. 0. 0. 0. 0. 0. 0. 0. 0. 0. 0.
      1.63398695e-003 0. 0. 0. 0. 0. 0. 0. 0. 0. 1.63398695e-003 0. 0.
      0. 0. 0. 0. 0. 0. 0. 0. 0. 0. 0. 0. 0. 0. 0. 0. 0. 0. 0. 0. 0. 0.
      0. 0. 0. 0. 0. 0. 0. 0. 0. 0. 0. 0. 0. 0. 0. 0. 0. 0. 0. 0. 0. 0.
      0. 0. 0. 0. 0. 0. 0. 0. 0. 0. 0. 0. 0. 0. 0. 0. 0. 0. 0. 0. 0.
      6.53594779e-003 0. 0. 0. 0. 0. 0. 0. 1.63398695e-003 0. 0. 0. 0.
      0. 0. 0. 0. 0. 0. 0. 0. 0. 0. 0. 0. 0. 0. 0. 0. 0. 0.
      1.63398695e-003 0. 0. 0. 0. 0. 0. 0. 0. 3.26797389e-003 0. 0. 0.
      0. 0. 0. 0. 0. 0. 0. 0. 0. 0. 0. 0. 0. 0. 0. 0. 0. 0. 0. 0. 0. 0.
      0. 0. 0. 0. 0. 0. 0. 0. 0. 0. 0. 0. 0. 1.63398695e-003 0. 0. 0. 0.
      0. 0. 0. 0. 0. 0. 0. 0. 0. 0. 0. 0. 0. 0. 0. 0. 0. 0. 0. 0. 0. 0.
      0. 1.63398695e-003 0. 0. 0. 0. 0. 0. 0. 0. 0. 0. 1.63398702e-002
      0. 0. 0. 0. 0. 0. 0. 0. 0. 0. 0. 0. 0. 0. 0. 0. 0. 0. 0.
      4.90196096e-003 4.90196096e-003 0. 0. 0. 0. 1.63398695e-003 0. 0.
      0. 0. 0. 0. 0. 0. 0. 0. 0. 0. 0. 0. 0. 0. 0. 0. 0. 0. 0. 0. 0. 0.
      0. 0. 0. 0. 0. 1.63398695e-003 0. 0. 0. 0. 0. 0. 0. 0. 0. 0.
      1.63398695e-003 1.14379087e-002 0. 0. 0. 0. 0. 0. 1.14379087e-002
      0. 0. 0. 0. 0. 0. 0. 0. 0. 0. 0. 0. 0. 0. 0. 0. 0. 0. 0. 0. 0. 0.
      0. 0. 0. 3.26797389e-003 0. 1.63398695e-003 0. 0. 0. 0. 0. 0. 0.
      0. 0. 0. 0. 0. 0. 0. 0. 0. 0. 0. 0. 0. 0. 0. 0. 0. 0.
      2.45098043e-002 0. 0. 0. 0. 0. 0. 0. 0. 0. 0. 0. 0. 0. 0. 0. 0. 0.
      0. 0. 0. 0. 0. 0. 0. 0. 0. 0. 0. 0. 0. 0. 0. 0. 0. 0. 0. 0. 0. 0.
      0. 0. 0. 0. 0. 0. 0. 0. 0. 3.26797389e-003 0. 0. 0. 0. 0. 0. 0. 0.
      0. 0. 0. 0. 0. 0. 0. 0. 0. 0. 0. 0. 0. 0. 0. 0. 0. 0. 0. 0. 0. 0.
      0. 0. 0. 0. 1.63398695e-003 0. 0. 0. 0. 0. 0. 0. 0. 0. 0. 0. 0. 0.
      0. 0. 0. 0. 0. 0. 0. 0. 9.80392192e-003 0. 0. 0. 0. 0. 0. 0. 0. 0.
      0. 0. 0. 0. 0. 0. 0. 0. 0. 0. 0. 0. 0. 0. 0. 0. 0. 0. 0. 0. 0. 0.
      0. 0. 0. 0. 0. 0. 0. 0. 0. 0. 0. 0. 0. 0. 0. 0. 0. 0. 0. 0. 0. 0.
      0. 0. 0. 0. 0. 0. 0. 0. 0. 0. 0. 0. 1.63398695e-003 0. 0. 0. 0. 0.
      0. 3.26797389e-003 0. 0. 1.63398695e-003 0. 0. 0. 0. 0. 0. 0. 0.
      0. 0. 0. 0. 0. 0. 0. 0. 1.63398695e-003 0. 0. 0. 0. 0. 0. 0. 0. 0.
      0. 0. 0. 0. 0. 0. 0. 0. 0. 0. 0. 0. 0. 0. 0. 0. 0. 0. 0. 0. 0. 0.
      0. 0. 0. 0. 0. 0. 0. 0. 0. 0. 0. 3.26797389e-003 6.53594779e-003
      0. 0. 1.63398695e-003 0. 0. 0. 0. 0. 0. 0. 0. 0. 0. 0. 0. 0. 0. 0.
      0. 0. 0. 0. 0. 0. 0. 0. 0. 0. 0. 0. 0. 0. 0. 0. 0. 0. 0. 0. 0. 0.
      0. 0. 0. 0. 0. 0. 0. 0. 0. 0. 0. 0. 0. 0. 0. 0. 0. 0. 0. 0. 0. 0.
      0. 0. 0. 0. 0. 0. 0. 0. 0. 1.63398695e-003 0. 0. 0. 0. 0. 0. 0. 0.
      8.16993508e-003 0. 9.80392192e-003 0. 0. 0. 0. 0. 0. 0. 0. 0. 0.
      0. 0. 0. 0. 0. 0. 0. 0. 0. 0. 0. 0. 0. 0. 0. 0. 0. 0. 0. 0. 0. 0.
      0. 0. 0. 0. 0. 0. 6.53594779e-003 0. 0. 0. 0. 0. 0. 0. 0. 0. 0.
      6.53594779e-003 0. 0. 1.63398695e-003 0. 0. 0. 0. 0. 0. 0. 0. 0.
      0. 0. 0. 0. 0. 0. 0. 0. 0. 0. 0. 0. 0. 0. 0. 0. 0. 0. 0. 0. 0. 0.
      0. 0. 0. 0. 0. 0. 0. 0. 0. 0. 0. 0. 1.63398702e-002
      1.63398695e-003 0. 0. 0. 0. 0. 3.26797389e-003 0. 0. 0. 0.
      1.63398695e-003 6.53594779e-003 0. 0. 0. 0. 0. 0. 0. 0. 0. 0. 0.
      0. 0. 0. 0. 0. 4.90196096e-003 1.47058824e-002 0. 0. 0. 0. 0. 0.
      0. 0. 1.63398695e-003 0. 0. 0. 0. 0. 0. 0. 0. 0. 0. 0. 0. 0. 0. 0.
      0. 0. 0. 0. 0. 0. 0. 0. 0. 0. 0. 0. 0. 0. 0. 0. 0. 0. 0. 0.
      1.63398695e-003 0. 0. 0. 0. 1.63398695e-003 0. 0. 0. 0. 0. 0.
      1.63398695e-003 0. 0. 0. 0. 0. 0. 0. 6.53594779e-003 0. 0. 0. 0.
      0. 0. 0. 0. 0. 0. 0. 0. 0. 0. 0. 0. 0. 0. 0. 0. 0. 0. 0. 0. 0. 0.
      3.26797389e-003 0. 0. 0. 0. 0. 0. 0. 3.26797389e-003 0. 0. 0. 0.
      0. 0. 0. 0. 0. 1.63398702e-002 1.14379087e-002 0. 0.
      3.26797389e-003 0. 0. 0. 0. 0. 0. 0. 0. 0. 0. 0. 0. 0. 0. 0. 0. 0.
      1.79738570e-002 0. 3.26797389e-003 0. 0. 0. 0. 0. 0. 0. 0. 0. 0.
      0. 0. 0. 0. 0. 0. 0. 0. 0. 0. 0. 0. 0. 0. 0. 0. 0. 0. 0. 0. 0. 0.
      0. 0. 0. 0. 1.63398695e-003 0. 0. 0. 0. 0. 3.26797389e-003 0. 0.
      0. 0. 0. 0. 0. 0. 0. 0. 0. 0. 0. 0. 0. 0. 0. 0. 0. 0. 0. 0. 0. 0.
      0. 0. 0. 0. 0. 0. 0. 0. 0. 0. 0. 0. 0. 0. 0. 0. 0. 0. 0.
      1.63398695e-003 1.63398702e-002 0. 0. 0. 0. 0. 0. 0. 0. 0. 0. 0.
      0. 0. 0. 0. 0. 0. 0. 0. 0. 0. 0. 0. 0. 0. 0. 0. 0. 0. 0. 0. 0. 0.
      0. 0. 1.63398695e-003 0. 0. 0. 0. 0. 0. 0. 0. 0. 0. 0. 0. 0. 0. 0.
      0. 0. 0. 0. 0. 0. 0. 0. 0. 0. 4.90196096e-003 0. 0. 0. 0. 0. 0. 0.
      0. 0. 1.63398695e-003 0. 0. 0. 0. 0. 0. 0. 0. 0. 0. 0. 0. 0. 0. 0.
      0. 0. 0. 0. 0. 0. 0. 0. 0. 0. 0. 0. 0. 0. 0. 0. 0. 0. 0. 0. 0. 0.
      4.90196096e-003 0. 0. 0. 0. 0. 0. 0. 0. 0. 0. 0. 0. 0. 0. 0. 0. 0.
      0. 0. 0. 0. 0. 0. 0. 0. 0. 0. 0. 0. 0. 0. 0. 0. 0. 0. 0. 0. 0. 0.
      0. 0. 0. 0. 0. 0. 0. 0. 0. 0. 0. 1.63398695e-003 0. 0. 0.
      1.63398695e-003 0. 0. 0. 0. 0. 0. 0. 0. 0. 0. 0. 0. 0. 0. 0. 0. 0.
      0. 0. 0. 0. 0. 0. 0. 0. 4.90196096e-003 0. 0. 0. 0. 0. 0. 0. 0. 0.
      0. 0. 0. 0. 0. 0. 0. 0. 0. 0. 0. 0. 0. 0. 1.63398695e-003 0. 0. 0.
      0. 0. 0. 0. 0. 0. 0. 0. 0. 0. 0. 0. 0. 1.14379087e-002 0. 0. 0. 0.
      0. 0. 0. 0. 0. 0. 0. 0. 0. 0. 0. 0. 0. 0. 0. 0. 0. 0. 0.
      3.26797389e-003 0. 0. 0. 0. 0. 0. 0. 0. 0. 0. 0. 0. 0. 0. 0. 0. 0.
      0. 0. 0. 0. 0. 0. 0. 0. 0. 1.63398695e-003 0. 1.63398695e-003 0.
      0. 0. 0. 0. 0. 0. 0. 0. 0. 0. 0. 0. 0. 0. 0. 0. 6.53594779e-003 0.
      0. 0. 0. 0. 0. 0. 0. 0. 0. 0. 0. 0. 0. 0. 1.30718956e-002 0. 0. 0.
      0. 0. 1.63398695e-003 0. 0. 0. 1.63398695e-003 0. 0. 0. 0. 0. 0.
      0. 0. 1.63398695e-003 0. 0. 0. 0. 0. 0. 0. 0. 0. 0. 0. 0. 0. 0. 0.
      0. 0. 0. 0. 0. 0. 0. 0. 9.80392192e-003 0. 0. 0. 0. 0. 0. 0. 0. 0.
      0. 0. 0. 0. 0. 0. 0. 0. 0. 0. 0. 0. 0. 0. 0. 0. 0. 0. 0. 0. 0. 0.
      0. 0. 0. 0. 0. 0. 0. 0. 0. 1.63398702e-002 0. 0. 0. 0. 0. 0. 0. 0.
      1.63398695e-003 0. 0. 0. 0. 0. 0. 0. 0. 0. 0. 0. 0. 0. 0.
      4.90196096e-003 0. 0. 0. 0. 0. 0. 0. 0. 0. 0. 0. 0.
      1.63398695e-003 0. 0. 0. 0. 0. 0. 0. 0. 0. 0. 0. 0.
      9.80392192e-003 0. 0. 0. 0. 0. 0. 0. 0. 0. 0. 0. 0. 0. 0. 0. 0. 0.
      0. 0. 0. 0. 0. 0. 0. 0. 0. 0. 0. 0. 0. 0. 0. 0. 0. 0. 0. 0. 0. 0.
      0. 0. 0. 0. 0. 0. 0. 0. 0. 0. 0. 0. 0. 0. 0. 0. 0. 0.
      1.79738570e-002 0. 0. 0. 0. 0. 0. 0. 0. 0. 0. 0. 0. 0. 0. 0. 0. 0.
      0. 0. 0. 0. 0. 0. 0. 0. 0. 0. 0. 0. 0. 0. 0. 0. 0. 0. 0.
      1.63398695e-003 0. 0. 0. 0. 0. 0. 0. 0. 0. 0. 0. 0. 0. 0. 0. 0. 0.
      0. 0. 0. 0. 0. 0. 0. 0. 0. 0. 0. 0. 0. 0. 0. 0. 0. 0. 0. 0. 0. 0.
      0. 0. 0. 0. 0. 1.63398695e-003 0. 0. 0. 0. 0. 0. 0. 0. 0. 0.
      6.53594779e-003 0. 0. 0. 0. 0. 0. 0. 0. 0. 0. 0. 0.
      3.26797389e-003 0. 0. 0. 0. 0. 0. 0. 0. 0. 0. 0. 1.63398695e-003
      0. 0. 0. 0. 0. 0. 0. 0. 0. 0. 0. 0. 0. 0. 1.63398695e-003 0. 0. 0.
      0. 0. 0. 0. 0. 0. 0. 0. 0. 0. 0. 0. 0. 0. 0. 0. 0. 1.63398695e-003
      0. 0. 0. 0. 0. 0. 0. 1.30718956e-002 0. 0. 0. 0. 0. 0. 0. 0. 0. 0.
      0. 0. 0. 4.90196096e-003 3.26797389e-003 0. 0. 0. 0. 0. 0. 0. 0.
      0. 0. 0. 0. 0. 0. 0. 0. 0. 0. 0. 0. 0. 0. 0. 0. 0. 0. 0. 0. 0. 0.
      0. 0. 0. 0. 0. 0. 0. 0. 0.</_>
    <_>
      0. 0. 0. 0. 0. 0. 0. 0. 0. 0. 0. 0. 0. 0. 0. 0. 0. 0. 0. 0. 0. 0.
      0. 0. 0. 0. 0. 0. 0. 0. 0. 0. 2.84900283e-003 1.42450146e-002 0.
      0. 0. 0. 0. 0. 0. 0. 0. 0. 0. 0. 0. 0. 0. 0. 0. 0. 0. 0. 0. 0. 0.
      0. 0. 0. 0. 0. 0. 0. 0. 0. 0. 1.42450142e-003 0. 0.
      1.42450142e-003 0. 0. 0. 0. 2.84900283e-003 2.84900283e-003 0. 0.
      0. 0. 0. 0. 0. 0. 0. 0. 0. 0. 0. 0. 0. 0. 0. 0. 0. 0. 0. 0. 0. 0.
      0. 0. 0. 0. 0. 0. 0. 0. 0. 0. 0. 0. 0. 0. 0. 0. 0. 0. 0. 0. 0. 0.
      0. 0. 0. 0. 1.42450142e-003 0. 0. 0. 0. 0. 0. 0. 0. 0. 0. 0. 0. 0.
      0. 0. 0. 0. 0. 0. 0. 0. 0. 0. 0. 0. 0. 0. 0. 0. 2.84900283e-003 0.
      0. 0. 0. 0. 1.42450146e-002 0. 0. 0. 0. 0. 0. 0. 0. 0. 0. 0. 0. 0.
      0. 0. 0. 0. 0. 0. 0. 0. 0. 1.42450142e-003 0. 0. 0. 0. 0. 0. 0. 0.
      0. 0. 0. 0. 0. 0. 0. 0. 0. 0. 0. 0. 0. 0. 0. 1.42450142e-003 0. 0.
      0. 0. 0. 0. 0. 0. 0. 0. 0. 0. 0. 0. 0. 0. 0. 0. 0. 0. 0. 0. 0. 0.
      0. 0. 0. 0. 0. 0. 1.42450142e-003 2.84900283e-003 0. 0. 0. 0. 0.
      0. 0. 0. 0. 0. 0. 5.69800567e-003 0. 1.42450142e-003 0. 0. 0.
      1.42450142e-003 0. 0. 2.84900283e-003 0. 0. 0. 0. 0. 0. 0. 0. 0.
      0. 0. 0. 0. 0. 1.42450142e-003 0. 0. 0. 0. 0. 0. 0. 0. 0.
      2.84900283e-003 5.69800586e-002 0. 0. 0. 0. 1.42450142e-003 0. 0.
      0. 0. 0. 0. 0. 0. 0. 0. 0. 0. 0. 0. 0. 0. 0. 0. 0. 0. 0. 0. 0. 0.
      0. 0. 0. 0. 1.42450142e-003 0. 0. 0. 0. 0. 1.42450142e-003 0. 0.
      0. 0. 0. 0. 0. 0. 0. 0. 0. 0. 0. 0. 0. 0. 0. 0. 0. 0. 0. 0. 0. 0.
      0. 0. 0. 0. 2.84900283e-003 0. 1.42450142e-003 0. 0. 0. 0.
      1.42450142e-003 0. 0. 0. 0. 0. 0. 0. 0. 0. 0. 0. 8.54700804e-003
      0. 0. 0. 0. 0. 0. 0. 0. 0. 0. 0. 9.97150969e-003 0. 0. 0. 0. 0. 0.
      0. 0. 0. 0. 0. 4.27350402e-003 0. 0. 0. 0. 0. 0. 0. 0. 0. 0. 0. 0.
      0. 0. 0. 0. 0. 0. 0. 0. 0. 0. 0. 0. 0. 1.42450142e-003
      2.84900283e-003 0. 0. 0. 1.42450142e-003 0. 0. 0. 0. 0. 0. 0. 0.
      0. 0. 0. 0. 0. 0. 0. 0. 0. 0. 1.42450142e-003 0. 0. 0. 0. 0. 0. 0.
      0. 0. 0. 0. 0. 0. 0. 0. 0. 0. 0. 0. 0. 0. 0. 0. 0. 9.97150969e-003
      0. 0. 0. 0. 0. 0. 0. 0. 0. 0. 0. 0. 0. 0. 0. 0. 0. 0. 0. 0. 0. 0.
      0. 0. 0. 0. 0. 0. 0. 1.42450142e-003 0. 0. 0. 0. 0. 0. 0. 0. 0.
      1.42450142e-003 0. 0. 0. 0. 0. 0. 0. 0. 0. 1.42450142e-003 0. 0.
      1.42450142e-003 0. 0. 0. 1.42450142e-003 0. 0. 0. 0. 0. 0.
      2.84900283e-003 0. 0. 0. 0. 0. 0. 0. 0. 0. 0. 0. 0. 0. 0. 0. 0.
      1.42450142e-003 1.42450142e-003 0. 0. 0. 0. 0. 0. 0. 0. 0. 0. 0.
      0. 0. 0. 0. 0. 0. 0. 0. 0. 0. 0. 0. 0. 0. 0. 0. 0. 0. 0. 0. 0.
      1.42450142e-003 0. 0. 4.27350402e-003 0. 0. 0. 0. 0. 0. 0. 0. 0.
      0. 0. 0. 0. 0. 0. 0. 0. 0. 0. 0. 0. 0. 0. 0. 0. 0. 0. 0. 0. 0. 0.
      0. 0. 0. 0. 0. 0. 0. 0. 0. 0. 0. 0. 0. 0. 0. 0. 0. 0. 0. 0. 0. 0.
      0. 0. 0. 0. 1.42450142e-003 0. 0. 0. 0. 0. 0. 0. 1.42450142e-003
      0. 1.42450142e-003 0. 0. 0. 0. 0. 0. 0. 0. 0. 0. 0. 0. 0. 0. 0. 0.
      0. 0. 0. 0. 0. 0. 0. 0. 0. 0. 0. 0. 9.97150969e-003 0. 0.
      9.97150969e-003 0. 0. 0. 9.97150969e-003 0. 0. 0. 0. 0. 0. 0. 0.
      5.69800567e-003 0. 1.42450142e-003 0. 0. 1.42450142e-003 0. 0. 0.
      0. 0. 0. 4.27350402e-003 0. 1.42450142e-003 0. 0. 0. 0. 0. 0. 0.
      0. 0. 0. 0. 0. 0. 0. 0. 0. 0. 0. 0. 0. 0. 1.42450142e-003 0. 0. 0.
      0. 0. 0. 0. 1.42450142e-003 0. 0. 0. 0. 1.42450142e-003 0.
      2.84900283e-003 0. 0. 0. 0. 0. 0. 0. 0. 0. 0. 0. 0. 0.
      1.42450142e-003 0. 0. 0. 0. 0. 0. 0. 0. 0. 0. 0. 0. 0. 0. 0. 0. 0.
      0. 0. 0. 0. 0. 0. 0. 0. 0. 0. 0. 0. 0. 0. 0. 0. 0. 0. 0. 0. 0. 0.
      0. 0. 0. 0. 0. 1.42450142e-003 0. 0. 0. 0. 0. 0. 1.42450142e-003
      0. 0. 0. 0. 0. 0. 0. 0. 0. 0. 0. 0. 0. 0. 0. 0. 0. 0. 0. 0. 0. 0.
      0. 0. 0. 0. 0. 0. 0. 0. 0. 0. 0. 0. 4.27350402e-003 0. 0. 0. 0. 0.
      0. 0. 0. 0. 0. 0. 0. 0. 0. 0. 0. 0. 0. 0. 0. 0. 0. 0. 0. 0. 0. 0.
      0. 0. 0. 0. 0. 0. 0. 0. 0. 0. 0. 0. 0. 0. 0. 0. 0. 1.42450142e-003
      0. 0. 0. 0. 0. 0. 0. 0. 0. 1.42450142e-003 0. 0. 0. 0. 0.
      1.42450142e-003 0. 0. 0. 0. 0. 0. 0. 0. 0. 0. 0. 0. 0. 0. 0. 0. 0.
      0. 0. 0. 0. 0. 0. 0. 0. 0. 0. 0. 0. 0. 0. 0. 0. 0. 0. 0. 0. 0. 0.
      0. 2.84900283e-003 0. 1.42450142e-003 0. 0. 0. 0. 0. 0. 0.
      1.42450142e-003 0. 0. 0. 0. 0. 0. 0. 0. 0. 0. 0. 0. 0. 0.
      2.84900283e-003 0. 0. 0. 0. 0. 0. 0. 0. 0. 0. 0. 0. 0. 0. 0. 0. 0.
      0. 0. 7.12250732e-003 0. 0. 0. 0. 1.42450142e-003 0. 0. 0. 0. 0.
      0. 2.84900283e-003 0. 0. 0. 0. 0. 0. 0. 0. 0. 1.42450142e-003 0.
      0. 0. 0. 1.42450142e-003 0. 0. 1.42450142e-003 0. 0. 0. 0.
      1.42450142e-003 0. 1.42450142e-003 0. 0. 0. 0. 0. 0. 0. 0. 0. 0.
      0. 0. 0. 0. 0. 0. 0. 0. 0. 0. 0. 0. 0. 1.42450142e-003 0.
      1.42450142e-003 0. 0. 0. 0. 0. 0. 0. 0. 0. 0. 0. 0. 0. 0. 0. 0. 0.
      0. 0. 0. 0. 0. 0. 0. 0. 0. 0. 0. 0. 0. 0. 0. 0. 0. 0. 0. 0. 0. 0.
      0. 0. 0. 0. 0. 0. 0. 0. 0. 0. 0. 0. 0. 0. 0. 0. 0. 0. 0. 0. 0. 0.
      4.27350402e-003 0. 0. 0. 0. 0. 0. 0. 0. 0. 0. 0. 0. 0. 0. 0. 0. 0.
      0. 0. 0. 0. 0. 1.42450142e-003 0. 0. 0. 0. 0. 0. 0. 0. 0. 0. 0. 0.
      0. 0. 0. 0. 0. 0. 0. 0. 0. 1.42450142e-003 0. 0. 0. 0. 0. 0. 0. 0.
      0. 0. 0. 0. 0. 0. 0. 0. 0. 0. 0. 0. 0. 0. 0. 0. 0. 0. 0. 0. 0. 0.
      0. 0. 0. 0. 0. 0. 0. 0. 0. 0. 0. 0. 2.84900283e-003 0. 0. 0. 0. 0.
      0. 0. 0. 0. 0. 0. 0. 0. 0. 0. 0. 0. 0. 0. 0. 0. 0. 0. 0. 0. 0. 0.
      0. 0. 0. 0. 0. 0. 0. 0. 0. 1.42450142e-003 0. 0. 0. 0. 0. 0. 0. 0.
      0. 0. 0. 0. 0. 0. 0. 0. 0. 0. 0. 0. 0. 0. 0. 0. 0. 0. 0. 0. 0. 0.
      0. 0. 0. 0. 0. 0. 0. 0. 0. 0. 0. 0. 0. 0. 0. 8.54700804e-003 0. 0.
      0. 0. 0. 0. 0. 0. 0. 1.42450142e-003 0. 0. 0. 0. 0. 0. 0. 0. 0. 0.
      0. 0. 0. 0. 0. 0. 0. 0. 0. 0. 0. 0. 0. 0. 0. 0. 0. 0. 0. 0. 0. 0.
      0. 0. 0. 0. 0. 0. 0. 0. 0. 0. 0. 4.27350402e-003 0. 0. 0. 0. 0. 0.
      0. 0. 0. 0. 0. 0. 0. 0. 0. 0. 0. 0. 0. 0. 0. 0. 0. 0. 0. 0. 0. 0.
      0. 0. 0. 0. 0. 0. 0. 0. 0. 0. 0. 0. 0. 0. 0. 0. 0. 0.
      2.84900283e-003 0. 0. 0. 0. 0. 0. 0. 0. 0. 0. 0. 0. 0. 0. 0. 0. 0.
      0. 0. 0. 0. 0. 0. 0. 0. 0. 0. 0. 0. 0. 0. 0. 0. 0. 1.42450142e-003
      0. 0. 0. 0. 0. 0. 0. 1.42450142e-003 0. 0. 0. 0. 0. 0. 0. 0. 0.
      1.42450142e-003 0. 1.42450142e-003 0. 0. 0. 0. 0. 0. 0. 0.
      1.42450142e-003 0. 0. 0. 0. 0. 0. 5.69800567e-003 0. 0. 0. 0. 0.
      0. 0. 1.42450142e-003 0. 0. 0. 0. 0. 0. 0. 0. 0. 0.
      1.42450142e-003 0. 0. 0. 0. 0. 0. 0. 0. 0. 0. 0. 1.42450142e-003
      0. 0. 0. 0. 0. 0. 0. 0. 0. 0. 0. 0. 0. 0. 0. 0. 0. 0. 0. 0. 0.
      1.42450142e-003 0. 0. 0. 0. 0. 0. 0. 0. 0. 0. 0. 0.
      1.42450142e-003 0. 2.84900283e-003 0. 0. 0. 0. 0. 0. 0. 0. 0. 0.
      0. 0. 0. 0. 0. 0. 0. 0. 0. 0. 0. 4.27350402e-003 0. 0. 0. 0. 0. 0.
      0. 0. 0. 0. 0. 0. 0. 0. 0. 0. 0. 0. 0. 0. 0. 0. 0. 0. 0. 0. 0. 0.
      0. 0. 0. 0. 0. 0. 0. 0. 0. 0. 0. 0. 0. 0. 0. 0. 0. 0. 0. 0. 0. 0.
      0. 0. 0. 0. 0. 0. 0. 0. 0. 0. 0. 0. 0. 0. 0. 0. 0. 0. 0. 0. 0. 0.
      0. 0. 0. 0. 0. 0. 0. 0. 0. 0. 0. 0. 0. 0. 1.42450142e-003 0. 0. 0.
      0. 0. 0. 0. 4.27350402e-003 0. 0. 0. 0. 0. 5.69800567e-003 0. 0.
      0. 0. 0. 0. 0. 0. 0. 0. 8.54700804e-003 0. 0. 0. 0. 0. 0. 0. 0. 0.
      0. 0. 0. 0. 0. 0. 1.42450142e-003 0. 0. 0. 0. 0. 0. 0. 0. 0. 0. 0.
      0. 0. 0. 0. 1.42450142e-003 0. 0. 0. 0. 0. 0. 0. 0. 0. 0. 0. 0. 0.
      0. 0. 1.42450142e-003 0. 0. 0. 0. 0. 0. 0. 0. 0. 0. 0. 0. 0. 0. 0.
      0. 0. 0. 0. 0. 0. 0. 0. 0. 0. 0. 0. 1.42450142e-003 0. 0. 0.
      4.27350402e-003 0. 0. 0. 0. 0. 7.12250732e-003 0. 0. 0. 0. 0.
      1.42450142e-003 0. 0. 0. 0. 0. 0. 5.69800567e-003 0. 0. 0. 0. 0.
      4.27350402e-003 0. 0. 1.42450142e-003 1.42450142e-003 0. 0. 0. 0.
      0. 0. 0. 0. 0. 0. 0. 0. 5.69800567e-003 0. 0. 0. 0. 0. 0. 0. 0. 0.
      0. 0. 0. 0. 2.84900283e-003 0. 1.42450142e-003 0. 0. 0.
      1.42450142e-003 0. 0. 0. 0. 0. 0. 0. 0. 0. 0. 0. 0. 0. 0. 0. 0. 0.
      0. 0. 5.84045574e-002 0. 0. 0. 2.84900283e-003 0. 0. 0. 0. 0. 0.
      0. 0. 0. 0. 0. 1.42450142e-003 0. 0. 0. 0. 0. 0. 0. 0. 0. 0. 0. 0.
      0. 0. 0. 0. 0. 0. 0. 0. 0. 0. 0. 0. 0. 0. 0. 0. 0. 0. 0. 0. 0. 0.
      0. 0. 0. 0. 0. 0. 0. 0. 0. 0. 0. 0. 0. 0. 0. 0. 1.42450142e-003 0.
      0. 0. 1.42450142e-003 0. 0. 1.42450142e-003 0. 0. 0. 0. 0. 0. 0.
      3.56125347e-002 0. 1.42450142e-003 0. 0. 0. 0. 0. 0. 0. 0. 0. 0.
      0. 0. 0. 0. 0. 0. 0. 0. 0. 0. 0. 0. 0. 0. 0. 0. 0. 0. 0. 0. 0. 0.
      0. 0. 0. 0. 0. 0. 0. 0. 0. 0. 1.42450142e-003 0. 0. 0. 0.
      1.42450142e-003 0. 1.42450142e-003 0. 0. 5.69800567e-003 0. 0.
      1.42450142e-003 0. 0. 0. 2.84900283e-003 0. 0. 0. 0. 0. 0. 0. 0.
      0. 0. 0. 7.12250732e-003 0. 0. 0. 0. 0. 0. 0. 0. 0. 0. 0. 0. 0. 0.
      0. 0. 0. 0. 0. 0. 0. 0. 0. 0. 7.12250732e-003 0. 0. 0. 0. 0. 0. 0.
      0. 0. 0. 0. 0. 0. 0. 0. 0. 0. 0. 0. 0. 0. 0. 0. 0. 0. 0. 0. 0. 0.
      0. 1.42450142e-003 0. 0. 0. 0. 0. 0. 0. 0. 0. 0. 0. 0.
      5.69800567e-003 0. 0. 0. 0. 0. 0. 0. 0. 1.13960113e-002 0. 0. 0.
      0. 0. 0. 0. 1.42450142e-003 0. 0. 0. 0. 0. 0. 0. 0. 0. 0. 0. 0. 0.
      0. 1.42450142e-003 0. 0. 0. 0. 3.98860388e-002 0. 0. 0. 0. 0. 0.
      5.69800567e-003 0. 0. 0. 0. 0. 0. 0. 0. 0. 0. 0. 0. 0. 0. 0. 0. 0.
      0. 0. 0. 0. 0. 0. 0. 0. 0. 0. 0. 0. 0. 0. 0. 0. 0. 0.
      2.84900293e-002 0. 0. 0. 0. 0. 0. 0. 0. 0. 0. 0. 0.
      1.42450142e-003 0. 0. 0. 0. 0. 0. 0. 0. 0. 0. 0. 0. 0. 0. 0.
      1.42450142e-003 1.42450142e-003 0. 0. 0. 0. 0. 0. 0. 0. 0. 0. 0.
      0. 0. 0. 0. 0. 0. 0. 1.42450142e-003 0. 0. 1.42450142e-003
      2.84900283e-003 0. 0. 0. 1.42450142e-003 0. 0. 0. 0. 0. 0. 0. 0.
      1.42450142e-003 0. 0. 0. 0. 0. 0. 0. 0. 2.84900283e-003 0. 0. 0.
      0. 0. 1.42450142e-003 0. 0. 0. 0. 0. 0. 0. 0. 0. 0. 0. 0.
      1.42450142e-003 0. 0. 0. 0. 0. 0. 0. 0. 0. 0. 0. 0.
      1.42450142e-003 0. 0. 0. 0. 0. 0. 0. 0. 0. 0. 0. 0. 0. 0. 0. 0. 0.
      0. 0. 0. 0. 0. 0. 0. 0. 0. 0. 0. 0. 0. 0. 0. 0. 0. 0. 0. 0. 0. 0.
      0. 0. 0. 0. 0. 0. 0. 0. 0. 0. 0. 0. 0. 0. 2.84900283e-003 0. 0. 0.
      1.42450142e-003 0. 0. 0. 0. 0. 0. 0. 0. 0. 0. 0. 0. 0. 0. 0. 0. 0.
      0. 0. 0. 0. 0. 0. 0. 0. 2.42165234e-002 0. 0. 0. 0. 0. 0. 0. 0. 0.
      0. 0. 0. 0. 0. 0. 0. 0. 0. 0. 0. 0. 0. 0. 0. 0. 0. 0. 0. 0. 0. 0.
      0. 0. 0. 0. 0. 0. 0. 0. 0. 0. 0. 0. 0. 0. 0. 0. 0. 0. 0. 0. 0. 0.
      0. 0. 0. 0. 0. 0. 0. 0. 0. 0. 0. 0. 0. 0. 0. 0. 0. 0. 0. 0. 0.
      1.42450142e-003 0. 0. 0. 0. 0. 0. 0. 0. 0. 0. 0. 0. 0. 0. 0. 0. 0.
      0. 0. 0. 0. 0. 0. 0. 0. 0. 0. 0. 0. 0. 0. 0. 0. 0. 0. 0. 0. 0. 0.
      0. 0. 0. 0. 0. 0. 0. 0. 0. 0. 0. 0. 0. 0. 1.42450142e-003 0. 0. 0.
      0. 0. 1.42450142e-003 0. 0. 0. 0. 0. 0. 0. 0. 0. 0. 0.
      1.42450142e-003 0. 0. 0. 0. 0. 2.84900283e-003 0. 0. 0. 0. 0.
      8.54700804e-003 0. 0. 0. 0. 0. 0. 0. 0. 0. 0. 0. 1.42450142e-003
      0. 0. 0. 0. 0. 0. 0. 0. 0. 0. 0. 0. 0. 0. 0. 0. 0. 0. 0. 0. 0. 0.
      0. 0. 0. 0. 0. 0. 1.42450142e-003 0. 0. 0. 0. 0. 0. 0. 0. 0. 0. 0.
      1.28205130e-002 0. 1.42450142e-003 0. 0. 0. 0. 2.84900283e-003 0.
      0. 0. 0. 1.42450142e-003 0. 0. 0. 0. 0. 0. 0. 0. 0. 0. 0. 0. 0. 0.
      0. 0. 0. 0. 0. 0. 0. 0. 0. 0. 0. 0. 0. 0. 0. 0. 0. 0. 0. 0. 0. 0.
      0. 0. 0. 0. 0. 0. 0. 1.42450142e-003 0. 0. 0. 0. 0. 0. 0. 0. 0. 0.
      0. 0. 0. 0. 0. 0. 0. 0. 0. 0. 0. 0. 0. 0. 0. 0. 0. 0. 0. 0. 0.
      1.13960113e-002 0. 0. 0. 0. 0. 0. 0. 0. 0. 0. 0. 0.
      1.42450142e-003 0. 0. 0. 0. 0. 0. 0. 0. 0. 0. 0. 0. 0. 0. 0. 0. 0.
      0. 4.27350402e-003 0. 0. 0. 0. 0. 0. 0. 0. 2.84900283e-003 0. 0.
      0. 0. 0. 0. 0. 0. 0. 0. 0. 0. 0. 0. 0. 0. 0. 0. 0. 0. 0. 0. 0. 0.
      0. 0. 0. 0. 0. 0. 1.42450142e-003 0. 0. 0. 0. 0. 0. 0. 0. 0. 0. 0.
      0. 0. 0. 0. 1.42450142e-003 0. 0. 0. 0. 0. 0. 0. 0. 0. 0. 0. 0. 0.
      0. 0. 0. 0. 0. 0. 0. 0. 0. 0. 0. 0. 0. 0. 0. 0. 0. 0. 0. 0. 0. 0.
      0. 0. 0. 0. 0. 0. 0. 0. 0. 0. 0. 0. 0. 0. 0. 0. 0. 0. 0. 0.
      1.42450142e-003 1.42450142e-003 0. 0. 0. 6.26780614e-002 0.
      8.54700804e-003 0. 0. 0. 0. 0. 0. 0. 0. 0. 0. 0. 0. 0. 0. 0. 0. 0.
      0. 0. 0. 0. 1.42450142e-003 0. 0. 0. 9.97150969e-003 0. 0. 0. 0.
      0. 0. 0. 0. 0. 0. 0. 0. 0. 0. 0. 0. 0. 1.42450142e-003 0. 0. 0. 0.
      0. 0. 0. 0. 0. 0. 0. 0. 0. 0. 0. 0. 0. 0. 0. 0. 0. 0. 0. 0. 0. 0.
      0. 0. 0. 0. 0. 0. 0. 0. 0. 0. 0. 0. 0. 0. 0. 0. 0. 1.42450142e-003
      0. 1.42450142e-003 2.99145300e-002 0. 0. 0. 1.42450142e-003
      2.84900283e-003 0. 0. 0. 0. 0. 0. 0. 2.84900283e-003 0. 0. 0. 0.
      0. 0. 0. 0. 0. 0. 0. 0. 0. 0. 0. 1.05413102e-001 0. 0. 0. 0. 0. 0.
      0. 0. 0. 0. 0. 0. 0. 0. 0. 0. 4.27350402e-003 0. 0. 0. 0. 0. 0. 0.
      0. 0. 2.84900283e-003 0. 0. 0. 0. 0. 0. 2.84900283e-003 0. 0. 0.
      0. 0. 5.69800567e-003 0. 0. 0. 0. 0. 1.42450142e-003 0. 0. 0. 0.
      0. 0. 0. 0. 0. 0. 0. 0. 0. 0. 0. 0. 0. 0. 0. 0. 0. 0. 0. 0. 0. 0.
      0. 0. 0. 0. 0. 0. 0. 0. 0. 1.42450142e-003 0. 0. 0. 0. 0. 0. 0. 0.
      0. 0. 1.42450142e-003 0.</_>
    <_>
      0. 0. 0. 0. 0. 4.90196096e-003 0. 0. 0. 6.53594779e-003
      1.63398695e-003 0. 0. 0. 0. 0. 0. 3.26797389e-003 0. 0. 0. 0. 0.
      0. 0. 0. 0. 4.90196096e-003 0. 0. 0. 0. 0. 0. 0. 0. 0. 0. 0. 0. 0.
      0. 0. 0. 0. 6.53594779e-003 0. 0. 0. 0. 0. 0. 0. 0. 0. 0. 0. 0. 0.
      0. 0. 0. 0. 0. 0. 0. 0. 0. 0. 0. 6.53594779e-003 0. 0. 0. 0. 0. 0.
      8.16993508e-003 0. 0. 0. 0. 1.63398695e-003 0. 0. 6.53594779e-003
      0. 0. 0. 0. 0. 0. 0. 0. 0. 0. 0. 0. 0. 0. 0. 0. 0. 0. 0. 0. 0. 0.
      0. 0. 0. 0. 0. 0. 0. 0. 0. 0. 0. 0. 0. 0. 0. 0. 0. 0. 0. 0. 0. 0.
      0. 0. 0. 0. 0. 0. 0. 0. 1.63398695e-003 1.63398695e-003 0. 0. 0.
      0. 0. 0. 0. 0. 0. 0. 0. 0. 0. 0. 0. 0. 0. 0. 0. 0. 0. 0. 0. 0. 0.
      0. 0. 0. 0. 0. 0. 0. 0. 0. 0. 0. 0. 0. 0. 0. 0. 1.63398695e-003 0.
      0. 0. 0. 0. 0. 0. 0. 0. 0. 0. 0. 1.63398695e-003 0. 0. 0. 0.
      1.63398695e-003 1.63398695e-003 0. 0. 0. 0. 0. 3.26797389e-003 0.
      0. 0. 0. 0. 0. 0. 0. 0. 3.26797389e-003 0. 0. 0. 0. 0. 0.
      1.63398695e-003 0. 0. 0. 4.90196096e-003 0. 0. 0. 0. 0. 0. 0. 0.
      0. 0. 0. 0. 0. 0. 0. 0. 0. 3.26797389e-003 0. 0. 0.
      1.63398695e-003 0. 0. 0. 0. 0. 0. 4.90196096e-003 0. 0. 0. 0. 0.
      0. 0. 1.47058824e-002 0. 3.26797389e-003 0. 0. 0. 0. 0. 0.
      3.26797389e-003 0. 0. 1.63398695e-003 0. 3.26797389e-003 0. 0.
      1.63398695e-003 0. 0. 0. 0. 0. 0. 0. 0. 1.63398695e-003 0.
      1.63398695e-003 0. 0. 0. 0. 0. 0. 0. 0. 0. 0. 0. 0. 0. 0. 0. 0.
      1.63398695e-003 0. 0. 0. 0. 0. 0. 0. 0. 0. 0. 0. 0. 0. 0. 0. 0. 0.
      0. 0. 0. 0. 0. 0. 0. 0. 0. 1.63398695e-003 0. 0. 0. 0. 0. 0. 0. 0.
      3.26797389e-003 0. 4.90196096e-003 0. 0. 0. 0. 0. 0. 0. 0. 0. 0.
      0. 0. 0. 1.63398695e-003 0. 0. 0. 0. 0. 0. 0. 0. 0. 0. 0. 0. 0. 0.
      9.80392192e-003 0. 0. 0. 0. 0. 0. 0. 0. 6.53594779e-003 0. 0. 0.
      0. 0. 0. 0. 0. 0. 0. 0. 0. 0. 0. 0. 4.90196096e-003 0. 0. 0. 0. 0.
      0. 0. 0. 0. 0. 0. 0. 0. 0. 0. 0. 0. 0. 0. 0. 0. 0. 0. 0. 0. 0. 0.
      0. 0. 0. 0. 0. 0. 0. 0. 0. 0. 0. 0. 0. 0. 0. 0. 0. 0. 0. 0. 0. 0.
      0. 1.63398695e-003 0. 0. 0. 0. 0. 0. 0. 0. 0. 0. 0. 0.
      3.26797389e-003 0. 0. 0. 0. 0. 0. 1.63398695e-003 0. 0. 0. 0. 0.
      0. 0. 0. 0. 0. 0. 0. 0. 0. 6.53594779e-003 0. 0. 0. 0. 0. 0. 0. 0.
      0. 0. 0. 0. 0. 1.63398695e-003 0. 0. 0. 0. 0. 0. 0. 0. 0. 0. 0. 0.
      0. 0. 0. 0. 0. 0. 0. 3.26797389e-003 0. 0. 0. 0. 0. 0. 0.
      3.26797389e-003 0. 0. 0. 0. 0. 0. 0. 0. 0. 0. 0. 0. 0. 0. 0. 0. 0.
      0. 0. 0. 3.26797389e-003 0. 4.90196096e-003 0. 0. 0. 0. 0.
      1.14379087e-002 0. 0. 0. 0. 0. 4.90196096e-003 0. 0. 0. 0. 0. 0.
      0. 0. 0. 0. 4.90196096e-003 0. 1.63398695e-003 0. 0. 0. 0. 0. 0.
      0. 0. 0. 0. 0. 0. 0. 0. 0. 0. 0. 0. 0. 0. 0. 0. 1.63398695e-003 0.
      0. 0. 0. 0. 0. 0. 0. 0. 0. 0. 0. 0. 0. 1.63398695e-003 0. 0. 0. 0.
      0. 0. 1.63398695e-003 0. 0. 0. 1.63398695e-003 0. 0. 0. 0. 0. 0.
      0. 0. 0. 0. 0. 0. 0. 0. 0. 0. 0. 0. 0. 0. 0. 0. 3.26797389e-003 0.
      0. 1.63398695e-003 0. 0. 0. 0. 0. 0. 0. 0. 6.53594779e-003 0. 0.
      0. 0. 0. 0. 0. 0. 0. 0. 0. 0. 0. 0. 0. 0. 0. 0. 0. 0. 0. 0. 0. 0.
      0. 0. 0. 0. 0. 0. 0. 0. 0. 0. 0. 0. 0. 1.63398695e-003 0. 0. 0. 0.
      0. 0. 0. 0. 0. 0. 0. 0. 0. 0. 0. 1.63398695e-003 0.
      1.63398695e-003 0. 1.63398695e-003 0. 0. 0. 0. 0. 0. 0. 0.
      1.63398695e-003 0. 0. 0. 0. 0. 0. 0. 0. 0. 0. 0. 0. 0.
      4.90196096e-003 0. 0. 0. 0. 0. 0. 0. 0. 0. 0. 0. 0. 0. 0.
      1.63398695e-003 0. 0. 0. 0. 0. 0. 0. 0. 0. 0. 0. 0. 0. 0.
      3.26797389e-003 0. 0. 0. 0. 0. 0. 0. 0. 0. 0. 0. 0. 0. 0. 0. 0. 0.
      0. 0. 0. 0. 0. 0. 0. 0. 0. 0. 0. 0. 0. 0. 0. 0. 4.90196096e-003 0.
      0. 0. 0. 0. 0. 0. 0. 0. 0. 0. 0. 0. 0. 0. 4.90196096e-003 0. 0. 0.
      0. 0. 0. 0. 0. 0. 0. 0. 0. 0. 0. 0. 0. 0. 0. 0. 0. 1.63398695e-003
      0. 1.14379087e-002 0. 0. 0. 0. 0. 4.90196096e-003 0. 0. 0. 0. 0.
      0. 0. 0. 0. 0. 0. 0. 0. 0. 0. 1.63398695e-003 0. 0. 0. 0. 0. 0. 0.
      0. 0. 0. 0. 0. 0. 4.90196096e-003 0. 0. 0. 0. 0. 0. 0. 0. 0. 0. 0.
      0. 0. 0. 0. 0. 0. 0. 0. 0. 0. 0. 0. 0. 0. 0. 0. 0. 0. 0. 0.
      1.63398695e-003 0. 0. 0. 0. 0. 1.63398695e-003 0. 0. 0. 0. 0. 0.
      0. 0. 0. 0. 0. 0. 0. 0. 0. 0. 0. 0. 0. 0. 0. 0. 0. 0. 0. 0. 0. 0.
      0. 0. 0. 0. 0. 0. 0. 0. 0. 0. 0. 0. 0. 0. 0. 0. 0. 0. 0. 0. 0. 0.
      0. 0. 0. 0. 0. 0. 0. 0. 1.63398695e-003 0. 0. 0. 0. 0. 0. 0. 0. 0.
      0. 0. 0. 4.90196096e-003 0. 0. 0. 0. 0. 0. 0. 1.63398695e-003 0.
      0. 0. 0. 0. 0. 0. 4.90196096e-003 0. 0. 0. 0. 0. 0. 0. 0.
      1.63398695e-003 0. 0. 0. 0. 0. 0. 1.47058824e-002 0.
      6.53594779e-003 0. 3.26797389e-003 0. 0. 0. 0. 0. 0. 0. 0. 0. 0.
      0. 0. 0. 0. 0. 0. 0. 0. 0. 0. 0. 0. 0. 0. 0. 0. 0. 0. 0. 0. 0. 0.
      0. 0. 0. 0. 0. 0. 0. 0. 0. 0. 0. 0. 0. 0. 0. 0. 0. 0. 0. 0. 0. 0.
      0. 0. 0. 0. 1.63398695e-003 0. 0. 0. 0. 0. 0. 0. 0. 0. 0. 0. 0. 0.
      0. 0. 4.90196096e-003 0. 0. 0. 0. 0. 0. 0. 1.63398695e-003 0. 0.
      0. 0. 0. 0. 0. 0. 0. 0. 0. 0. 0. 0. 0. 0. 0. 0. 1.63398695e-003 0.
      0. 0. 0. 0. 0. 0. 0. 0. 0. 0. 4.90196096e-003 0. 0. 0. 0. 0. 0. 0.
      0. 1.63398695e-003 0. 0. 0. 0. 0. 0. 0. 0. 0. 4.90196096e-003 0.
      0. 0. 0. 3.26797389e-003 0. 0. 0. 0. 0. 0. 0. 0. 0. 0. 0. 0. 0. 0.
      0. 0. 0. 1.63398695e-003 0. 0. 0. 0. 0. 0. 0. 0. 0. 0. 0. 0. 0. 0.
      0. 0. 0. 0. 0. 0. 0. 0. 0. 0. 0. 0. 0. 0. 0. 0. 0. 0. 0. 0. 0. 0.
      0. 0. 0. 0. 0. 0. 0. 0. 0. 0. 0. 0. 0. 0. 0. 0. 0. 0. 0.
      1.63398695e-003 0. 0. 1.63398695e-003 0. 0. 0. 0. 0. 0. 0. 0. 0.
      0. 0. 0. 0. 0. 0. 0. 3.26797389e-003 0. 0. 0. 0. 0. 0. 0. 0. 0.
      1.63398695e-003 0. 1.63398695e-003 0. 0. 0. 0. 0. 0. 0. 0. 0. 0.
      1.63398695e-003 0. 0. 0. 0. 0. 0. 0. 0. 1.63398695e-003 0. 0. 0.
      0. 0. 0. 0. 0. 0. 0. 0. 0. 0. 0. 0. 0. 0. 0. 3.26797389e-003 0. 0.
      0. 0. 0. 0. 0. 0. 0. 0. 0. 0. 0. 0. 0. 0. 0. 0. 8.16993508e-003 0.
      0. 8.16993508e-003 0. 0. 0. 0. 1.63398695e-003 0. 0. 0. 0. 0. 0.
      0. 3.26797389e-003 1.63398695e-003 0. 0. 0. 0. 0. 0. 0. 0. 0. 0.
      0. 0. 1.63398695e-003 0. 0. 0. 0. 0. 0. 0. 0. 0. 0. 0. 0. 0. 0. 0.
      0. 0. 0. 0. 0. 0. 0. 0. 0. 0. 0. 0. 0. 0. 0. 0. 0. 0. 0. 0. 0. 0.
      0. 0. 0. 8.16993508e-003 0. 0. 1.79738570e-002 0. 0. 0. 0. 0. 0.
      0. 0. 0. 0. 0. 0. 0. 0. 0. 0. 0. 0. 0. 0. 0. 0. 0. 0. 0. 0. 0. 0.
      0. 3.26797389e-003 0. 0. 0. 0. 0. 0. 0. 0. 0. 0. 0. 0.
      2.28758175e-002 0. 0. 0. 0. 0. 0. 0. 0. 0. 3.26797389e-003 0. 0.
      0. 0. 0. 0. 0. 0. 0. 1.63398695e-003 0. 0. 0. 0. 0. 0. 0.
      1.63398702e-002 0. 0. 0. 0. 0. 0. 0. 0. 0. 0. 0. 0. 0. 0. 0. 0. 0.
      0. 0. 0. 0. 0. 0. 0. 0. 3.26797389e-003 0. 0. 1.63398695e-003 0.
      1.47058824e-002 0. 0. 0. 0. 0. 0. 0. 0. 0. 0. 0. 0. 0. 0. 0. 0. 0.
      0. 0. 0. 0. 0. 0. 0. 0. 0. 1.63398695e-003 0. 0. 0. 0. 0. 0. 0. 0.
      0. 0. 0. 0. 0. 0. 0. 0. 0. 0. 0. 0. 0. 0. 0. 0. 0. 0. 0. 0. 0. 0.
      0. 0. 0. 0. 0. 0. 0. 0. 0. 0. 0. 0. 0. 0. 8.16993508e-003
      1.63398695e-003 0. 0. 0. 0. 4.90196096e-003 0. 0. 0.
      1.63398695e-003 0. 0. 0. 0. 0. 0. 0. 0. 0. 0. 0. 0. 0. 0. 0. 0. 0.
      0. 0. 0. 0. 0. 0. 0. 3.26797389e-003 0. 0. 0. 1.63398695e-003 0.
      0. 0. 0. 0. 0. 0. 0. 0. 0. 0. 0. 0. 0. 0. 0. 0. 0. 1.63398695e-003
      0. 0. 0. 0. 0. 0. 3.26797389e-003 0. 0. 0. 0. 0. 0. 0. 0.
      8.16993508e-003 0. 0. 0. 0. 0. 0. 0. 0. 0. 0. 0. 3.26797389e-003
      6.53594779e-003 0. 0. 0. 0. 0. 0. 0. 0. 4.90196096e-003 0. 0.
      4.90196096e-003 0. 0. 0. 0. 0. 0. 0. 0. 0. 0. 0. 0. 0. 0. 0. 0. 0.
      0. 0. 3.26797389e-003 0. 0. 0. 0. 0. 0. 0. 0. 0. 0. 0. 0. 0.
      1.63398695e-003 0. 0. 0. 0. 0. 0. 0. 0. 0. 0. 0. 0. 0. 0. 0. 0. 0.
      0. 0. 0. 0. 0. 0. 0. 0. 0. 0. 0. 0. 0. 0. 0. 0. 0. 0. 0. 0.
      1.47058824e-002 0. 0. 0. 0. 0. 1.63398695e-003 0. 0. 0. 0. 0.
      1.63398695e-003 0. 0. 0. 0. 0. 0. 0. 0. 0. 0. 0. 0. 0. 0. 0. 0. 0.
      0. 0. 0. 0. 0. 0. 0. 1.63398695e-003 0. 0. 0. 0. 0. 0. 0. 0. 0. 0.
      0. 0. 0. 0. 0. 0. 0. 0. 0. 0. 0. 0. 0. 1.63398695e-003 0. 0. 0. 0.
      0. 0. 0. 0. 0. 0. 0. 0. 0. 0. 0. 0. 0. 0. 0. 0. 0. 0. 0. 0. 0. 0.
      0. 0. 0. 0. 0. 0. 0. 0. 0. 0. 0. 0. 0. 0. 0. 0. 0. 0. 0. 0. 0. 0.
      0. 0. 0. 0. 0. 0. 0. 0. 0. 0. 0. 6.53594779e-003 0. 0.
      1.14379087e-002 0. 0. 0. 0. 0. 0. 0. 0. 0. 0. 0. 0. 0. 0. 0. 0. 0.
      0. 0. 0. 0. 0. 0. 0. 0. 0. 0. 0. 0. 8.16993508e-003 0. 0.
      1.63398695e-003 1.63398695e-003 0. 0. 0. 1.63398695e-003 0.
      1.14379087e-002 0. 0. 0. 0. 0. 0. 0. 0. 0. 0. 0. 0. 0. 0. 0. 0. 0.
      0. 0. 4.90196096e-003 0. 0. 6.53594779e-003 0. 0. 0. 0. 0. 0. 0.
      8.16993508e-003 0. 0. 0. 0. 0. 0. 0. 0. 0. 0. 0. 0. 0. 0. 0. 0. 0.
      0. 0. 1.63398695e-003 0. 0. 0. 0. 8.16993508e-003 0. 0. 0. 0. 0.
      0. 1.63398695e-003 0. 0. 0. 0. 0. 0. 1.63398695e-003 0. 0. 0. 0.
      0. 0. 0. 0. 0. 1.63398695e-003 0. 3.59477140e-002 0. 0. 0. 0. 0.
      0. 0. 0. 0. 0. 0. 0. 1.63398695e-003 0. 0. 0. 0. 0. 0. 0. 0.
      9.80392192e-003 1.63398695e-003 1.63398695e-003 4.90196096e-003 0.
      0. 0. 0. 0. 0. 0. 0. 0. 0. 1.63398695e-003 0. 0. 0. 0. 0. 0. 0. 0.
      0. 0. 0. 0. 0. 0. 0. 0. 0. 0. 0. 0. 0. 0. 0. 0. 0. 0. 0. 0. 0. 0.
      0. 0. 3.26797389e-003 1.63398695e-003 0. 0. 0. 0. 0. 0.
      1.63398695e-003 3.26797389e-003 4.90196096e-003 0. 3.26797389e-003
      0. 0. 0. 0. 0. 0. 0. 0. 0. 0. 0. 0. 0. 0. 0. 0. 0. 0. 0. 0. 0.
      1.63398695e-003 0. 0. 0. 0. 0. 0. 0. 0. 0. 0. 0. 0. 0. 0. 0. 0. 0.
      0. 0. 0. 0. 1.63398695e-003 0. 0. 0. 0. 1.63398695e-003
      1.63398695e-003 0. 0. 0. 0. 0. 0. 0. 0. 0. 0. 0. 0. 0. 0.
      1.63398695e-003 0. 0. 0. 0. 0. 0. 0. 0. 3.26797389e-003 0. 0. 0.
      0. 0. 1.63398695e-003 0. 0. 0. 1.63398695e-003 0. 0. 0. 0. 0. 0.
      0. 0. 1.63398695e-003 3.26797389e-003 3.26797389e-003 0. 0.
      1.63398695e-003 0. 0. 0. 0. 0. 0. 0. 0. 0. 0. 0. 1.63398695e-003
      0. 0. 0. 0. 1.14379087e-002 0. 0. 0. 0. 0. 0. 0. 0. 0. 0. 0. 0. 0.
      0. 0. 0. 0. 0. 0. 0. 0. 0. 0. 0. 0. 0. 0. 0. 0. 0. 3.26797389e-003
      0. 0. 0. 0. 0. 0. 0. 0. 0. 0. 0. 0. 0. 0. 0. 4.90196096e-003 0. 0.
      0. 0. 0. 0. 0. 0. 0. 0. 0. 0. 0. 0. 0. 0. 0. 0. 0. 0. 0. 0. 0. 0.
      0. 1.63398695e-003 0. 0. 0. 0. 0. 0. 0. 0. 4.90196096e-003 0. 0.
      0. 0. 0. 0. 0. 0. 0. 0. 3.26797389e-003 0. 0. 0. 0.
      3.26797389e-003 0. 0. 0. 0. 6.53594779e-003 0. 0. 0. 0. 0. 0. 0.
      0. 0. 0. 0. 0. 0. 0. 0. 0. 0. 0. 0. 0. 0. 0. 0. 0. 0. 0. 0. 0. 0.
      1.63398695e-003 0. 0. 1.63398695e-003 0. 0. 0. 0. 0. 0. 0. 0.
      1.63398695e-003 0. 0. 0. 0. 0. 0. 0. 0. 0. 0. 0. 0. 0. 0. 0. 0. 0.
      0. 0. 0. 0. 0. 0. 0. 0. 3.26797389e-003 0. 0. 0. 0. 0.
      6.53594779e-003 0. 0. 0. 0. 0. 0. 0. 0. 0. 0. 0. 0.
      1.14379087e-002 0. 0. 1.63398695e-003 0. 0. 0. 0. 0. 0. 0. 0. 0.
      0. 0. 0. 0. 0. 0. 0. 0. 0. 0. 0. 0. 0. 0. 0. 0. 0. 0. 0. 0. 0. 0.
      0. 0. 0. 0. 0. 0. 0. 0. 0. 0. 0. 0. 0. 0. 0. 0. 0. 0. 0. 0. 0. 0.
      1.63398695e-003 0. 0. 0. 0. 0. 3.26797389e-003 0. 0. 0. 0. 0.
      1.63398695e-003 0. 0. 0. 0. 0. 0. 0. 0. 0. 0. 0. 1.63398695e-003
      0. 0. 0. 0. 0. 0. 0. 0. 0. 0. 0. 0. 0. 0. 0. 0. 0. 0. 0. 0. 0. 0.
      1.63398695e-003 0. 0. 0. 0. 0. 0. 0. 0. 6.53594779e-003 0. 0. 0.
      0. 0. 0. 0. 0. 0. 0. 0. 0. 0. 0. 0. 0. 0. 0. 3.26797389e-003 0. 0.
      0. 0. 0. 0. 0. 0. 0. 0. 0. 0. 0. 0. 0. 0. 0. 0. 0. 0. 0. 0. 0. 0.
      0. 1.63398695e-003 3.26797389e-003 0. 0. 0. 3.26797389e-003 0. 0.
      0. 0. 1.63398695e-003 0. 0. 0. 0. 0. 0. 0. 0. 0. 0. 0. 0. 0. 0. 0.
      0. 0. 0. 0. 0. 0. 0. 0. 0. 0. 0. 0. 1.63398695e-003 0. 0. 0. 0. 0.
      0. 0. 0. 0. 0. 0. 0. 0. 0. 0. 0. 0. 0. 0. 0. 0. 0. 0. 0. 0. 0. 0.
      0. 0. 0. 0. 0. 0. 0. 0. 0. 0. 0. 0. 1.63398695e-003
      3.26797389e-003 0. 0. 1.63398695e-003 0. 0. 0. 0. 0. 0.
      8.16993508e-003 0. 0. 0. 0. 0. 0. 0. 0. 0. 0. 0. 0.
      1.30718956e-002 0. 0. 0. 0. 1.63398695e-003 0. 3.26797389e-003 0.
      0. 1.63398695e-003 0. 0. 0. 0. 0. 0. 0. 0. 1.63398695e-003 0. 0.
      0. 0. 0. 0. 0. 0. 0. 0. 0. 0. 3.26797389e-003 0. 0. 0. 0. 0. 0. 0.
      0. 0. 0. 0. 0. 0. 0. 0. 0. 0. 0. 0. 0. 0. 0. 0. 0. 0. 0. 0. 0. 0.
      0. 0. 0. 0. 0. 0. 0. 0. 0. 0. 0. 0. 0. 0. 0. 3.26797389e-003
      1.63398695e-003 0. 0. 0. 0. 0. 0. 0. 0. 0. 0. 0. 0. 0. 0. 0. 0. 0.
      0. 0. 0. 0. 0. 0. 0. 0. 0. 0. 0. 0. 0. 0. 0. 0. 0. 0. 0. 0. 0. 0.
      3.26797389e-003 1.63398695e-003 0. 0. 0. 0. 0. 0. 0. 0. 0. 0. 0.
      0. 0. 0. 0. 0. 0. 0. 0. 0. 0. 0. 0. 0. 0. 0. 0. 0. 0. 0. 0. 0. 0.
      0. 0. 0. 0. 0. 0. 0. 0. 0. 0. 0. 0. 1.63398695e-003 0. 0. 0. 0. 0.
      0. 0. 0. 0. 0. 8.16993508e-003 0. 0. 0. 1.63398695e-003
      1.14379087e-002 0. 0. 0. 0. 0. 0. 0. 0. 0. 0. 0. 0. 0. 0. 0. 0. 0.
      0. 0. 0. 0. 0. 0. 0. 0. 4.90196096e-003 0. 0. 0. 0. 0. 0. 0. 0. 0.
      0. 0. 0. 3.26797389e-003 0. 0. 0. 0. 0. 0. 0. 0. 0.
      8.16993508e-003 0. 0. 0. 0. 0. 0. 0. 6.04575165e-002 0. 0. 0. 0.
      0. 0. 0. 0. 0. 0. 0. 0. 0. 0. 0. 0. 0. 0. 0. 0. 0. 0. 0. 0.
      9.80392192e-003 0. 0. 0. 0. 0. 0. 0. 0. 0. 0. 0. 0. 0. 0. 0. 0. 0.
      0. 0. 0. 4.90196096e-003 0. 0. 0. 0. 0. 0. 0. 0. 0. 0. 0. 0. 0. 0.
      0. 0. 0. 0. 0. 0. 1.63398695e-003 0. 0. 0. 0. 0. 1.63398695e-003
      1.63398695e-003 0. 0. 0. 0. 0. 0. 0. 0. 0. 0. 0. 0. 0. 0. 0. 0. 0.
      0. 0. 0. 0. 0. 0. 0. 0. 0. 0. 0. 0. 0. 0. 0. 0. 0. 0. 0. 0. 0. 0.
      0. 0. 0. 0. 0. 0. 0. 0.</_>
    <_>
      0. 0. 0. 0. 0. 0. 0. 0. 0. 0. 0. 0. 0. 0. 0. 0. 0. 0. 0. 0. 0. 0.
      0. 0. 0. 0. 0. 3.01659130e-003 0. 0. 0. 0. 0. 0. 0. 0. 0. 0. 0. 0.
      0. 0. 0. 0. 0. 0. 0. 0. 0. 0. 0. 0. 0. 0. 0. 0. 0. 0. 0. 0. 0. 0.
      0. 0. 0. 0. 0. 0. 0. 0. 1.50829565e-003 0. 0. 0. 0.
      1.50829565e-003 0. 4.52488707e-003 0. 0. 0. 0. 0. 0. 0. 0. 0. 0.
      1.50829565e-003 6.03318261e-003 0. 0. 0. 0. 0. 0. 0. 0.
      7.54147815e-003 0. 0. 0. 0. 0. 0. 0. 0. 0. 0. 0. 0.
      1.50829565e-003 0. 0. 0. 0. 3.01659126e-002 0. 0. 0. 0. 0. 0. 0.
      0. 0. 0. 0. 0. 0. 0. 0. 0. 0. 0. 0. 0. 0. 0. 0. 0. 0. 0. 0. 0. 0.
      0. 0. 0. 0. 0. 0. 0. 0. 0. 0. 0. 0. 0. 0. 0. 0. 0. 4.52488707e-003
      0. 0. 0. 0. 0. 0. 0. 0. 0. 0. 0. 0. 7.54147815e-003 0. 0.
      1.50829565e-003 3.01659130e-003 0. 0. 0. 0. 0. 1.50829565e-003 0.
      0. 0. 0. 0. 0. 1.50829565e-003 0. 0. 0. 0. 0. 0. 0. 0. 0. 0. 0. 0.
      0. 0. 0. 0. 0. 0. 0. 0. 0. 0. 0. 0. 0. 0. 0. 0. 0. 0. 0. 0. 0. 0.
      0. 0. 0. 0. 0. 0. 0. 0. 0. 0. 0. 0. 0. 0. 0. 0. 0. 3.01659130e-003
      0. 0. 0. 0. 0. 0. 0. 0. 0. 0. 7.54147815e-003 0. 0. 0. 0. 0. 0. 0.
      0. 0. 0. 0. 0. 0. 0. 0. 0. 0. 0. 0. 0. 0. 0. 0. 0. 0.
      1.50829565e-003 0. 0. 0. 0. 0. 0. 0. 0. 0. 0. 0. 1.50829565e-003
      0. 0. 0. 1.50829565e-003 0. 0. 0. 0. 0. 0. 0. 0. 0. 0. 0. 0. 0. 0.
      0. 0. 0. 0. 0. 0. 0. 0. 0. 0. 0. 0. 0. 0. 0. 0. 0. 0.
      1.50829565e-003 0. 0. 0. 0. 0. 0. 0. 0. 0. 0. 0. 0. 0.
      1.50829565e-003 0. 0. 0. 0. 0. 0. 0. 1.50829565e-003 0. 0. 0. 0.
      0. 0. 0. 1.50829565e-003 0. 0. 0. 0. 0. 0. 0. 0. 0. 0. 0.
      1.50829565e-003 0. 0. 0. 0. 0. 0. 0. 0. 0. 0. 0. 1.80995483e-002
      0. 0. 0. 1.50829565e-003 0. 0. 0. 0. 0. 0. 0. 0. 0. 0. 0.
      1.50829565e-003 0. 0. 0. 0. 0. 0. 0. 0. 6.03318261e-003 0. 0. 0.
      0. 0. 0. 0. 0. 0. 0. 0. 0. 0. 0. 0. 0. 6.03318261e-003
      1.50829565e-003 0. 0. 0. 0. 1.50829565e-003 0. 0. 0. 0. 0. 0. 0.
      0. 0. 0. 0. 0. 0. 0. 0. 0. 0. 3.77073921e-002 0. 0. 0.
      1.50829565e-003 0. 0. 0. 0. 2.41327304e-002 0. 0. 0. 0. 0. 0. 0.
      0. 0. 0. 0. 3.01659130e-003 0. 0. 0. 2.86576170e-002 0. 0. 0. 0.
      1.50829565e-003 0. 0. 0. 0. 0. 0. 0. 0. 0. 0. 0. 0. 0. 0. 0. 0. 0.
      0. 0. 0. 0. 0. 0. 0. 0. 0. 0. 0. 0. 0. 0. 0. 0. 0. 0. 0.
      1.50829565e-003 0. 0. 0. 0. 0. 0. 0. 4.52488707e-003 0. 0.
      1.20663652e-002 0. 0. 0. 0. 0. 0. 0. 0. 0. 0. 0. 0. 0. 0. 0. 0. 0.
      0. 0. 0. 0. 0. 0. 0. 0. 0. 0. 0. 6.03318261e-003 0. 0. 0. 0.
      1.50829565e-003 0. 0. 0. 0. 0. 0. 0. 0. 0. 0. 0. 0. 0. 0. 0. 0. 0.
      0. 0. 0. 0. 0. 0. 1.50829565e-003 0. 0. 0. 1.50829565e-003 0. 0.
      0. 0. 0. 0. 0. 0. 0. 0. 0. 0. 0. 0. 0. 0. 0. 0. 0. 0. 0.
      1.50829565e-003 0. 0. 0. 0. 0. 0. 0. 0. 0. 0. 0. 0. 0. 0. 0. 0. 0.
      0. 0. 0. 0. 0. 0. 0. 0. 0. 0. 0. 0. 0. 0. 0. 0. 0. 0. 0.
      1.50829565e-003 0. 0. 0. 0. 0. 0. 0. 0. 0. 6.03318261e-003 0. 0.
      0. 0. 0. 0. 0. 0. 0. 0. 0. 0. 0. 0. 0. 0. 0. 0. 0. 0. 0. 0. 0. 0.
      0. 0. 0. 0. 0. 0. 0. 0. 0. 0. 0. 0. 0. 0. 0. 0. 0. 0. 0. 0.
      1.50829565e-003 0. 0. 0. 0. 0. 0. 0. 0. 0. 0. 0. 0. 0. 0. 0. 0. 0.
      0. 3.01659130e-003 0. 0. 0. 1.50829565e-003 0. 0. 0. 0. 0. 0. 0.
      0. 0. 0. 0. 0. 0. 1.50829565e-003 0. 0. 0. 0. 0. 0. 0. 0. 0. 0. 0.
      0. 0. 0. 0. 0. 0. 0. 0. 0. 0. 0. 0. 4.52488707e-003 0. 0. 0. 0. 0.
      3.01659130e-003 0. 0. 0. 0. 0. 0. 0. 0. 0. 0. 0. 0. 0. 0. 0. 0. 0.
      0. 0. 0. 0. 0. 0. 0. 0. 0. 0. 0. 0. 0. 0. 0. 0. 0. 0. 0. 0. 0. 0.
      0. 4.52488707e-003 0. 0. 0. 0. 0. 0. 0. 0. 0. 0. 1.50829565e-003
      1.50829565e-003 0. 0. 0. 0. 0. 0. 0. 0. 0. 0. 0. 0. 0.
      1.50829565e-003 0. 0. 0. 3.01659130e-003 0. 0. 0. 0. 0.
      1.50829565e-003 0. 0. 0. 0. 0. 0. 0. 0. 0. 0. 0. 1.50829565e-003
      0. 0. 0. 0. 0. 4.52488707e-003 0. 0. 0. 1.50829565e-003 0. 0. 0.
      0. 1.50829565e-003 0. 0. 0. 0. 0. 1.50829565e-003 0. 0. 0. 0. 0.
      0. 3.01659130e-003 0. 0. 0. 0. 0. 0. 0. 0. 0. 0. 0. 0. 0.
      1.50829565e-003 1.50829565e-003 0. 0. 0. 0. 0. 0. 0. 0. 0. 0. 0.
      0. 0. 0. 0. 0. 0. 0. 0. 0. 0. 0. 0. 0. 0. 0. 0. 0. 0.
      7.54147815e-003 0. 0. 0. 0. 0. 0. 0. 0. 0. 0. 0. 0. 0.
      1.50829565e-003 0. 0. 0. 0. 0. 0. 0. 1.96078438e-002 0. 0. 0. 0.
      0. 0. 0. 0. 0. 0. 0. 0. 0. 0. 0. 4.52488707e-003 0. 0. 0. 0. 0. 0.
      0. 0. 0. 0. 0. 0. 0. 0. 0. 0. 0. 0. 1.50829565e-003 0.
      1.50829565e-003 0. 0. 3.01659130e-003 0. 0. 0. 1.50829565e-003 0.
      1.50829565e-003 0. 0. 0. 0. 1.50829565e-003 0. 0. 0. 0. 0. 0.
      3.01659130e-003 0. 0. 0. 0. 0. 0. 0. 0. 0. 0. 1.50829565e-003
      3.01659130e-003 0. 0. 0. 0. 0. 1.50829565e-003 3.01659130e-003 0.
      0. 0. 0. 0. 0. 0. 0. 0. 0. 0. 0. 0. 0. 0. 0. 0. 0. 0. 0. 0. 0. 0.
      0. 0. 0. 0. 0. 0. 0. 0. 0. 0. 0. 0. 1.50829565e-003 0. 0. 0. 0. 0.
      0. 0. 0. 0. 0. 0. 0. 0. 0. 0. 0. 0. 0. 0. 0. 0. 0. 0. 0. 0. 0. 0.
      0. 0. 0. 0. 0. 0. 0. 0. 0. 0. 0. 0. 0. 0. 0. 0. 0. 0. 0. 0. 0. 0.
      0. 0. 0. 0. 0. 0. 0. 0. 0. 0. 0. 0. 0. 1.50829565e-003 0. 0. 0. 0.
      0. 0. 0. 0. 1.50829565e-003 0. 0. 0. 0. 0. 0. 0. 0. 0. 0. 0. 0.
      1.65912528e-002 0. 1.50829565e-003 0. 0. 0. 1.50829565e-003 0. 0.
      0. 0. 0. 0. 0. 0. 0. 0. 0. 0. 0. 0. 0. 0. 0. 1.50829565e-003
      4.52488707e-003 0. 0. 0. 0. 0. 0. 0. 0. 0. 0. 0. 0. 0. 0. 0. 0. 0.
      0. 4.52488707e-003 0. 0. 0. 0. 0. 0. 0. 0. 0. 0. 0. 0. 0. 0. 0. 0.
      0. 0. 0. 0. 1.50829565e-003 0. 0. 0. 0. 0. 0. 0. 0. 0. 0. 0. 0. 0.
      0. 1.50829565e-003 0. 0. 0. 0. 0. 0. 0. 0. 0. 3.01659130e-003 0.
      0. 0. 0. 0. 0. 0. 0. 0. 0. 0. 3.01659130e-003 0. 0. 0. 0. 0. 0. 0.
      0. 0. 0. 0. 0. 0. 0. 0. 0. 0. 0. 0. 0. 0. 0. 0. 1.50829565e-003 0.
      0. 3.01659130e-003 0. 1.50829565e-003 0. 0. 0. 0. 0. 0. 0. 0. 0.
      0. 0. 0. 0. 0. 0. 0. 0. 0. 0. 0. 6.03318261e-003 0. 0. 0. 0. 0. 0.
      0. 0. 0. 0. 0. 0. 7.54147815e-003 0. 0. 0. 0. 0. 0. 0. 0. 0. 0. 0.
      0. 0. 0. 0. 0. 0. 0. 0. 0. 0. 0. 0. 0. 0. 1.50829565e-003 0. 0. 0.
      0. 0. 0. 0. 0. 1.50829565e-003 0. 0. 0. 0. 0. 0. 0. 0. 0. 0. 0. 0.
      0. 0. 0. 0. 4.52488707e-003 0. 0. 0. 0. 0. 0. 0. 0. 0. 0. 0. 0. 0.
      0. 0. 0. 0. 0. 0. 0. 0. 0. 0. 0. 0. 0. 3.01659130e-003 0.
      4.52488707e-003 0. 0. 9.04977415e-003 0. 0. 0. 0. 0. 0. 0. 0. 0.
      0. 0. 0. 0. 0. 0. 0. 0. 0. 0. 0. 0. 0. 0. 0. 0. 0. 0. 0. 0. 0. 0.
      0. 0. 0. 0. 0. 0. 0. 0. 0. 0. 0. 4.52488707e-003 0. 0. 0. 0. 0. 0.
      0. 0. 0. 1.65912528e-002 0. 0. 0. 0. 0. 0. 0. 0. 0. 0. 0. 0. 0. 0.
      0. 0. 0. 0. 0. 0. 0. 0. 0. 0. 0. 0. 0. 0. 0. 0. 0. 0. 0. 0. 0. 0.
      0. 0. 0. 0. 0. 0. 0. 0. 0. 0. 0. 0. 1.50829565e-003 0. 0. 0. 0. 0.
      0. 0. 0. 0. 0. 0. 0. 0. 0. 0. 0. 0. 0. 0. 0. 0. 1.50829565e-003 0.
      0. 0. 0. 0. 0. 3.01659130e-003 0. 0. 0. 9.04977415e-003 0. 0. 0.
      0. 0. 0. 0. 0. 0. 0. 0. 0. 0. 0. 0. 0. 1.50829565e-003 0. 0. 0. 0.
      3.01659130e-003 0. 0. 0. 0. 0. 0. 0. 0. 0. 0. 0. 0. 0. 0. 0. 0. 0.
      0. 0. 0. 0. 0. 0. 0. 0. 1.50829565e-003 0. 0. 0. 0. 0. 0.
      1.50829565e-003 0. 0. 0. 0. 0. 0. 0. 0. 0. 0. 0. 0. 0. 0. 0. 0. 0.
      0. 0. 0. 0. 0. 0. 0. 0. 0. 3.01659130e-003 0. 0. 0. 0. 0. 0. 0. 0.
      0. 0. 0. 0. 0. 0. 0. 0. 0. 0. 0. 0. 0. 0. 0. 0. 0. 0. 0. 0. 0. 0.
      1.50829565e-003 0. 0. 0. 0. 0. 3.01659130e-003 0. 0. 0. 0. 0. 0.
      0. 0. 0. 0. 0. 0. 0. 0. 0. 4.52488707e-003 0. 0. 9.04977415e-003
      0. 0. 0. 0. 0. 1.50829565e-003 0. 0. 0. 0. 0. 0. 0. 0. 0.
      9.04977415e-003 0. 0. 0. 0. 0. 0. 0. 0. 0. 0. 0. 0. 0. 0. 0. 0. 0.
      0. 0. 0. 1.50829565e-003 1.50829565e-003 0. 0. 0. 0. 0. 0. 0. 0.
      0. 0. 0. 0. 0. 0. 0. 0. 0. 0. 0. 0. 0. 0. 0. 0. 0. 0. 0. 0. 0. 0.
      0. 0. 0. 0. 0. 0. 0. 1.50829565e-003 0. 0. 0. 0. 0. 0. 0.
      3.01659130e-003 0. 0. 0. 0. 0. 0. 0. 0. 0. 0. 0. 0. 0. 0. 0. 0. 0.
      0. 0. 0. 0. 0. 0. 0. 1.50829565e-003 0. 0. 0. 0. 0. 0. 0. 0. 0. 0.
      0. 0. 3.16742100e-002 0. 0. 0. 0. 0. 0. 0. 0. 0. 0. 0. 0. 0. 0. 0.
      0. 0. 0. 0. 0. 0. 0. 0. 0. 0. 0. 0. 0. 0. 0. 0. 0. 0. 0. 0. 0. 0.
      3.01659130e-003 0. 1.50829565e-003 0. 0. 0. 1.50829565e-003 0. 0.
      0. 0. 0. 0. 0. 0. 0. 0. 0. 0. 0. 0. 0. 0. 0. 0. 0. 0. 0. 0. 0. 0.
      0. 0. 0. 0. 0. 0. 0. 0. 0. 0. 0. 0. 0. 0. 0. 0. 0. 0. 0. 0. 0. 0.
      0. 0. 0. 0. 0. 0. 0. 3.01659130e-003 0. 0. 0. 0. 1.50829565e-003
      0. 0. 0. 1.50829565e-003 0. 0. 0. 0. 6.03318261e-003 0.
      1.50829565e-003 0. 0. 0. 0. 0. 0. 0. 0. 0. 0. 0. 0. 0. 0. 0. 0. 0.
      0. 0. 0. 0. 0. 0. 0. 0. 0. 0. 0. 0. 0. 0. 0. 0. 0. 0. 0. 0. 0. 0.
      0. 0. 0. 0. 0. 0. 0. 1.50829565e-003 0. 0. 0. 0. 0. 0. 0. 0.
      1.50829565e-003 0. 0. 0. 0. 0. 0. 1.50829565e-003 0. 0. 0. 0. 0.
      0. 3.01659130e-003 0. 0. 0. 0. 0. 0. 1.50829565e-003 0.
      1.50829565e-003 0. 0. 1.80995483e-002 0. 0. 0. 0. 0. 0. 0. 0. 0.
      1.50829565e-003 0. 0. 0. 0. 0. 0. 0. 1.50829565e-003
      1.50829565e-003 0. 0. 0. 1.50829565e-003 0. 3.01659130e-003 0.
      1.50829565e-003 0. 1.50829565e-003 1.50829565e-003 0. 0. 0. 0.
      3.01659130e-003 0. 4.52488707e-003 5.27903475e-002 0. 0. 0. 0. 0.
      0. 0. 0. 0. 0. 0. 0. 0. 4.52488707e-003 0. 0. 0. 0. 0. 0. 0. 0. 0.
      0. 0. 0. 0. 0. 0. 0. 1.50829565e-003 0. 0. 1.50829565e-003 0. 0.
      0. 0. 0. 2.56410260e-002 0. 4.52488707e-003 0. 0. 0. 0. 0.
      1.50829565e-003 0. 0. 0. 0. 0. 0. 0. 0. 1.50829565e-003 0. 0. 0.
      0. 0. 0. 0. 0. 0. 0. 0. 0. 0. 0. 0. 0. 0. 0. 0. 0. 0. 0. 0. 0. 0.
      0. 0. 0. 0. 4.52488707e-003 0. 0. 0. 0. 0. 0. 0. 1.50829565e-003
      0. 0. 0. 0. 0. 0. 0. 0. 0. 0. 0. 0. 0. 0. 0. 1.50829565e-003 0. 0.
      0. 0. 0. 0. 3.01659130e-003 0. 0. 0. 0. 0. 0. 0. 0. 0.
      4.52488707e-003 0. 0. 0. 0. 0. 0. 0. 0. 0. 6.03318261e-003 0.
      1.50829565e-003 0. 0. 0. 0. 1.50829565e-003 0. 1.50829565e-003 0.
      0. 1.50829565e-003 0. 4.52488707e-003 0. 0. 0. 0. 0. 0. 0. 0. 0.
      0. 0. 0. 0. 0. 0. 0. 0. 0. 0. 1.05580697e-002 0. 0. 0. 0. 0. 0. 0.
      0. 0. 7.54147815e-003 0. 0. 0. 0. 0. 0. 1.05580697e-002 0. 0.
      7.54147815e-003 0. 0. 0. 0. 0. 0. 0. 0. 0. 0. 0. 0.
      1.50829565e-003 0. 0. 0. 0. 0. 0. 0. 1.50829565e-003 0. 0. 0. 0.
      0. 0. 0. 0. 0. 0. 0. 0. 0. 0. 0. 0. 0. 0. 0. 0. 0. 0. 0. 0. 0. 0.
      4.22322787e-002 0. 0. 0. 0. 0. 0. 0. 0. 0. 0. 0. 0. 0. 0. 0.
      1.50829565e-003 1.50829565e-003 0. 0. 0. 0. 0. 0. 0. 0. 0. 0. 0.
      0. 0. 1.50829565e-003 0. 0. 0. 0. 1.50829565e-003 0. 0.
      3.01659130e-003 0. 0. 0. 0. 1.50829565e-003 1.50829565e-003 0. 0.
      0. 0. 0. 0. 0. 0. 0. 0. 0. 0. 0. 0. 0. 0. 0. 0. 0. 0. 0. 0. 0. 0.
      0. 0. 0. 0. 0. 0. 0. 0. 0. 0. 0. 0. 0. 0. 0. 0. 0. 0. 0. 0. 0. 0.
      0. 0. 0. 6.03318261e-003 0. 0. 0. 0. 1.50829565e-003 0. 0. 0. 0.
      0. 0. 0. 0. 0. 0. 0. 0. 0. 0. 0. 0. 0. 0. 0. 0. 0. 0. 0. 0. 0. 0.
      0. 0. 0. 0. 0. 0. 0. 0. 0. 0. 0. 0. 0. 0. 0. 0. 0. 0. 0. 0. 0. 0.
      0. 0. 0. 0. 0. 0. 1.50829565e-003 0. 0. 0. 0. 0. 0. 0. 0. 0. 0. 0.
      0. 0. 0. 0. 1.50829565e-003 0. 0. 0. 0. 0. 0. 0. 0. 0. 0.
      1.50829565e-003 0. 0. 0. 0. 0. 0. 1.50829565e-003 0.
      1.50829565e-003 0. 0. 0. 1.50829565e-003 0. 0. 0. 0. 0. 0. 0. 0.
      0. 0. 0. 0. 0. 1.50829565e-003 0. 0. 0. 0. 0. 0. 0. 0. 0. 0. 0.
      3.01659130e-003 0. 0. 0. 0. 0. 0. 0. 0. 0. 0. 0. 0. 0. 0. 0. 0.
      1.50829565e-003 0. 0. 1.50829565e-003 0. 0. 0. 0. 1.50829565e-003
      0. 0. 0. 0. 0. 0. 0. 0. 0. 4.52488707e-003 0. 0. 0. 0. 0.
      4.52488707e-003 0. 0. 0. 0. 0. 1.50829565e-003 0. 0. 0. 0. 0. 0.
      0. 0. 0. 0. 0. 0. 0. 0. 0. 0. 0. 0. 0. 0. 0. 0. 0. 0. 0. 0. 0. 0.
      0. 0. 0. 0. 0. 0. 0. 0. 0. 0. 0. 0. 0. 0. 0. 0. 0. 0. 0. 0. 0. 0.
      0. 0. 0. 0. 0. 0. 0. 0. 0. 0. 0. 0. 0. 0. 0. 0. 0. 0. 0. 0. 0. 0.
      0. 0. 0. 1.50829565e-003 0. 0. 0. 0. 0. 0. 0. 0. 0. 0. 0. 0. 0. 0.
      0. 0. 0. 0. 0. 0. 0. 0. 0. 0. 0. 0. 0. 0. 0. 0. 7.54147815e-003 0.
      0. 0. 0. 0. 0. 1.50829565e-003 0. 0. 0. 0. 0. 0. 0. 0. 0. 0. 0. 0.
      0. 0. 0. 0. 0. 0. 0. 0. 0. 0. 0. 0. 0. 0. 0. 1.50829565e-003 0. 0.
      0. 0. 0. 0. 0. 0. 0. 0. 0. 0. 0. 0. 0. 0. 0. 0. 0. 0. 0. 0. 0. 0.
      0. 0. 0. 0. 0. 3.01659130e-003 0. 0. 0. 0. 0. 1.50829565e-003 0.
      1.50829565e-003 0. 4.52488707e-003 0. 0. 0. 0. 0. 0. 0. 0. 0. 0.
      0. 0. 0. 0. 0. 1.50829565e-003 0. 0. 0. 0. 1.50829565e-003 0. 0.
      1.50829565e-003 0. 0. 1.50829565e-003 0. 0. 0. 0. 0. 0. 0. 0. 0.
      3.01659130e-003 0. 0. 0. 0. 0. 0. 0. 0. 1.50829565e-003 0.
      1.50829565e-003 0. 0. 0. 0. 0. 0. 9.04977415e-003 0.
      1.50829565e-003 0. 3.01659130e-003 0. 0. 0. 1.50829565e-003 0.
      3.01659130e-003 0. 0. 0. 0. 0. 0. 0. 0. 0. 0. 0. 0. 0. 0. 0. 0. 0.
      0. 1.50829565e-003 3.01659130e-003 0. 0. 0. 0. 1.50829565e-003 0.
      0. 0. 0. 0. 0. 0. 0. 0. 0. 0. 0. 0. 0. 0. 0. 0. 0. 0. 0. 0. 0. 0.
      0. 0. 0. 0. 0. 0. 0. 0. 0. 0. 0. 0. 0. 0. 0. 0. 0. 0. 0. 0. 0. 0.
      0. 0. 0. 0. 0. 0. 0. 0. 0. 0. 0. 0. 0. 0. 0. 0. 1.50829565e-003
      3.01659130e-003 0. 0. 0. 0. 0. 0. 0. 0. 0. 0. 0. 0. 0. 0. 0. 0. 0.
      0. 0. 0. 0. 0. 0. 0. 0. 0. 0. 0. 0. 0. 0. 0. 0. 0. 0. 0. 0. 0. 0.
      0. 0. 0. 0. 0. 0. 0. 0. 0. 1.20663652e-002 0. 0. 0. 0. 0. 0. 0. 0.
      0. 0. 0. 0. 0. 0. 3.01659130e-003 0. 0. 1.50829565e-003 0. 0.
      9.04977415e-003 0. 0. 0. 0. 0. 3.01659130e-003 0. 0. 0. 0.
      1.50829565e-003 0. 0. 0. 1.50829565e-003 0. 0. 0. 0. 0. 0. 0. 0.
      0. 0. 3.01659130e-003 0. 1.50829565e-003 0. 1.50829565e-003 0. 0.
      0. 0. 0. 0. 0. 0. 0. 0. 0. 0. 0. 0. 0. 0. 0. 0. 0. 0. 0. 0. 0. 0.</_>
    <_>
      0. 0. 0. 0. 0. 0. 0. 0. 0. 3.26797389e-003 0. 0. 0. 0. 0. 0. 0.
      1.63398695e-003 0. 0. 0. 0. 0. 0. 0. 0. 0. 0. 0. 0. 0. 0. 0. 0. 0.
      0. 0. 0. 0. 0. 0. 0. 0. 0. 0. 0. 0. 0. 0. 0. 0. 0. 0. 0. 0. 0. 0.
      0. 0. 0. 0. 0. 0. 0. 0. 0. 0. 0. 0. 0. 0. 0. 1.63398695e-003 0. 0.
      0. 0. 0. 0. 0. 0. 0. 1.63398695e-003 0. 0. 0. 0. 0. 0. 0. 0. 0. 0.
      0. 0. 0. 0. 0. 0. 0. 0. 0. 0. 0. 0. 0. 0. 0. 0. 0. 0. 0. 0. 0. 0.
      0. 0. 0. 0. 0. 0. 0. 0. 0. 0. 0. 0. 0. 0. 0. 0. 0. 0. 0. 0. 0. 0.
      0. 0. 0. 0. 0. 0. 0. 0. 0. 0. 0. 0. 0. 0. 0. 0. 0. 0. 0. 0. 0. 0.
      0. 0. 0. 0. 0. 1.96078438e-002 0. 0. 0. 0. 0. 0. 0. 0. 0. 0. 0. 0.
      0. 0. 0. 0. 0. 0. 0. 0. 0. 0. 0. 0. 0. 0. 0. 0. 0. 0. 0. 0. 0. 0.
      0. 0. 0. 0. 0. 0. 0. 0. 0. 0. 0. 0. 0. 0. 0. 0. 0. 0. 0. 0. 0. 0.
      0. 0. 0. 0. 0. 4.90196096e-003 0. 0. 0. 0. 0. 0. 0. 0.
      1.63398695e-003 0. 0. 0. 0. 0. 0. 0. 0. 0. 0. 0. 0. 0. 0. 0. 0. 0.
      0. 0. 0. 0. 0. 0. 0. 0. 0. 0. 0. 1.96078438e-002 0. 0. 0. 0. 0. 0.
      0. 0. 0. 0. 0. 0. 0. 0. 0. 0. 1.63398695e-003 0. 0. 0. 0. 0. 0. 0.
      0. 0. 0. 0. 0. 0. 0. 0. 0. 0. 0. 0. 0. 0. 0. 0. 0. 0. 0. 0. 0. 0.
      0. 0. 0. 0. 0. 0. 0. 0. 0. 0. 0. 0. 0. 0. 0. 0. 0. 0. 0. 0. 0. 0.
      0. 0. 0. 0. 0. 0. 0. 0. 0. 0. 0. 0. 0. 0. 2.22222224e-001 0. 0. 0.
      0. 0. 0. 0. 0. 0. 0. 0. 0. 0. 0. 0. 0. 0. 0. 0. 1.63398695e-003 0.
      0. 0. 0. 0. 0. 0. 0. 0. 0. 0. 0. 0. 0. 0. 0. 0. 0. 0. 0. 0. 0. 0.
      0. 0. 0. 0. 0. 0. 0. 0. 0. 0. 0. 0. 0. 0. 0. 0. 0. 0. 0. 0. 0. 0.
      0. 0. 0. 0. 0. 0. 1.63398695e-003 0. 0. 0. 0. 0. 0. 0. 0. 0. 0. 0.
      0. 0. 0. 0. 0. 0. 0. 0. 0. 0. 0. 0. 0. 0. 0. 0. 0. 0. 0. 0. 0. 0.
      0. 0. 0. 0. 0. 0. 0. 0. 0. 0. 0. 0. 0. 0. 0. 0. 0. 0. 0. 0. 0. 0.
      0. 0. 0. 0. 0. 0. 0. 0. 0. 0. 0. 0. 0. 0. 0. 0. 0. 0. 0. 0. 0. 0.
      0. 0. 0. 0. 0. 0. 0. 0. 0. 0. 0. 0. 0. 0. 0. 0. 0. 0. 0. 0. 0. 0.
      0. 0. 0. 0. 0. 0. 0. 0. 0. 0. 0. 0. 0. 0. 0. 0. 0. 0. 0. 0. 0. 0.
      0. 0. 0. 0. 0. 0. 0. 0. 0. 0. 0. 0. 0. 0. 0. 0. 0. 0. 0. 0. 0. 0.
      0. 0. 0. 0. 0. 0. 0. 0. 0. 0. 0. 0. 0. 0. 0. 0. 0. 0. 0. 0. 0. 0.
      0. 0. 0. 0. 0. 0. 0. 0. 0. 0. 0. 0. 0. 0. 0. 0. 0. 0. 0. 0. 0. 0.
      0. 0. 0. 0. 0. 0. 0. 0. 0. 0. 0. 0. 0. 0. 0. 1.63398695e-003 0. 0.
      0. 0. 0. 0. 0. 0. 0. 0. 0. 0. 0. 0. 0. 0. 0. 0. 0. 0. 0. 0. 0. 0.
      0. 0. 0. 0. 0. 0. 0. 0. 0. 0. 0. 0. 0. 0. 0. 0. 0. 0. 0. 0. 0. 0.
      0. 0. 0. 0. 0. 0. 0. 0. 0. 0. 0. 0. 0. 0. 0. 0. 0. 0. 0. 0. 0. 0.
      0. 0. 0. 0. 0. 0. 0. 0. 0. 0. 0. 0. 0. 0. 0. 0. 0. 0. 0. 0. 0. 0.
      0. 0. 0. 0. 0. 0. 0. 0. 0. 0. 0. 0. 0. 0. 0. 0. 0. 0. 0. 0. 0. 0.
      0. 0. 0. 0. 0. 0. 0. 0. 0. 0. 0. 0. 0. 0. 0. 0. 0. 0. 0. 0. 0. 0.
      1.14379087e-002 0. 0. 0. 0. 0. 0. 0. 0. 0. 0. 0. 0. 0. 0. 0. 0. 0.
      0. 0. 0. 0. 0. 0. 0. 0. 0. 0. 0. 0. 0. 0. 0. 0. 0. 0. 0. 0. 0. 0.
      0. 0. 0. 0. 0. 0. 0. 0. 0. 1.63398695e-003 0. 0. 3.59477140e-002
      0. 0. 0. 0. 0. 0. 0. 0. 0. 0. 0. 0. 0. 0. 0. 0. 0. 0. 0. 0. 0. 0.
      0. 0. 0. 0. 0. 0. 0. 0. 0. 0. 0. 0. 0. 2.20588237e-001 0. 0. 0. 0.
      0. 4.90196096e-003 0. 0. 0. 0. 0. 0. 0. 0. 0. 4.90196096e-003 0.
      0. 0. 0. 1.63398695e-003 0. 0. 0. 0. 0. 0. 0. 0. 0. 0. 0. 0. 0. 0.
      1.63398695e-003 0. 0. 0. 0. 0. 0. 0. 0. 0. 0. 0. 0. 0. 0. 0. 0. 0.
      0. 0. 0. 0. 0. 0. 0. 0. 0. 0. 0. 0. 0. 0. 0. 0. 0. 0. 0. 0.
      2.77777780e-002 0. 0. 0. 0. 0. 0. 0. 0. 0. 0. 0. 0. 0. 0. 0. 0. 0.
      0. 0. 0. 0. 0. 0. 0. 0. 0. 0. 0. 0. 0. 0. 0. 0. 0. 0. 0. 0. 0. 0.
      0. 0. 0. 0. 0. 0. 0. 0. 0. 0. 0. 0. 0. 0. 0. 0. 0. 0. 0. 0. 0. 0.
      0. 0. 0. 0. 0. 0. 0. 0. 0. 0. 0. 0. 0. 0. 0. 0. 0. 0. 0. 0. 0.
      1.63398695e-003 0. 0. 0. 0. 4.90196096e-003 0. 0. 0. 0. 0. 0. 0.
      0. 0. 0. 0. 0. 0. 0. 0. 0. 0. 0. 0. 0. 0. 0. 0. 0. 0. 0. 0. 0. 0.
      0. 0. 0. 0. 0. 0. 0. 0. 0. 0. 0. 0. 0. 0. 0. 0. 0. 0. 0. 0. 0. 0.
      0. 0. 0. 0. 0. 0. 0. 0. 0. 0. 0. 0. 0. 0. 0. 0. 0. 0. 0. 0. 0. 0.
      0. 0. 0. 0. 0. 0. 0. 0. 0. 0. 0. 0. 0. 0. 0. 0. 0. 0. 0. 0. 0. 0.
      0. 0. 0. 0. 0. 0. 0. 0. 0. 0. 0. 0. 0. 0. 0. 0. 0. 0. 0. 0. 0. 0.
      0. 0. 0. 0. 0. 0. 0. 0. 0. 0. 0. 0. 0. 0. 0. 0. 0. 0. 0. 0. 0.
      3.26797389e-003 0. 0. 0. 0. 0. 0. 0. 0. 0. 0. 0. 0. 0. 0. 0. 0. 0.
      0. 0. 0. 0. 0. 0. 0. 0. 0. 0. 0. 0. 0. 0. 0. 0. 0. 0. 0. 0. 0. 0.
      0. 0. 0. 0. 0. 0. 0. 0. 0. 0. 0. 0. 0. 0. 0. 0. 0. 0. 0. 0.
      1.63398695e-003 0. 0. 0. 0. 0. 0. 0. 0. 0. 0. 0. 0. 0. 0. 0. 0. 0.
      0. 0. 0. 0. 0. 0. 0. 0. 0. 0. 0. 0. 0. 0. 0. 0. 1.63398695e-003 0.
      0. 0. 0. 0. 0. 0. 0. 0. 0. 0. 0. 0. 0. 0. 0. 0. 0. 0. 0. 0. 0. 0.
      0. 0. 0. 0. 0. 0. 0. 0. 0. 0. 0. 0. 0. 0. 0. 0. 0. 0. 0. 0. 0. 0.
      0. 0. 0. 0. 0. 1.63398695e-003 0. 0. 0. 0. 0. 0. 0. 0. 0. 0. 0. 0.
      0. 0. 0. 0. 0. 0. 4.90196096e-003 0. 0. 0. 0. 0. 0. 0. 0. 0. 0. 0.
      0. 0. 0. 0. 0. 0. 0. 0. 0. 0. 0. 0. 0. 0. 0. 0. 0. 0. 0. 0. 0. 0.
      0. 0. 0. 0. 0. 0. 0. 0. 0. 0. 0. 0. 0. 0. 0. 0. 0. 0. 0. 0. 0. 0.
      0. 0. 0. 0. 0. 0. 0. 0. 0. 0. 0. 0. 0. 0. 0. 0. 0. 0. 0. 0. 0. 0.
      0. 0. 0. 0. 0. 0. 0. 0. 0. 0. 0. 0. 0. 0. 0. 0. 0. 0. 0. 0. 0. 0.
      0. 0. 0. 0. 0. 0. 0. 0. 0. 0. 0. 0. 0. 0. 0. 0. 0. 1.63398695e-003
      0. 0. 0. 0. 0. 0. 0. 0. 0. 0. 0. 0. 0. 0. 0. 0. 0. 0. 0. 0. 0. 0.
      0. 0. 0. 0. 0. 0. 0. 0. 0. 0. 0. 0. 0. 0. 0. 0. 0. 0. 0. 0. 0. 0.
      0. 0. 0. 0. 0. 0. 0. 0. 0. 0. 0. 0. 0. 0. 0. 0. 0. 0. 0. 0. 0. 0.
      0. 0. 0. 0. 0. 0. 0. 0. 0. 0. 0. 1.63398695e-003 0. 0. 0. 0. 0. 0.
      0. 0. 0. 0. 0. 0. 0. 0. 0. 0. 0. 0. 0. 0. 0. 0. 0. 0. 0. 0. 0. 0.
      0. 0. 0. 0. 0. 0. 0. 0. 0. 0. 0. 0. 0. 0. 0. 0. 0. 0. 0. 0. 0. 0.
      0. 0. 0. 0. 0. 0. 0. 0. 0. 0. 0. 0. 0. 0. 0. 0. 0. 0. 0. 0. 0.
      1.63398695e-003 0. 0. 0. 0. 0. 0. 0. 0. 0. 0. 0. 0. 0. 0. 0. 0. 0.
      0. 0. 0. 0. 0. 0. 0. 0. 0. 0. 0. 0. 0. 0. 0. 0. 0. 0. 0. 0. 0. 0.
      0. 0. 0. 0. 0. 0. 0. 0. 0. 0. 0. 0. 0. 0. 0. 0. 0. 0. 0. 0. 0. 0.
      0. 0. 0. 0. 0. 0. 0. 0. 0. 0. 0. 0. 1.63398695e-003 0. 0. 0. 0. 0.
      0. 0. 0. 0. 0. 0. 4.90196096e-003 0. 0. 0. 0. 0. 0. 0. 0. 0. 0. 0.
      0. 0. 0. 0. 4.90196096e-003 0. 0. 0. 0. 0. 0. 0. 0. 0. 0. 0. 0. 0.
      0. 0. 0. 0. 0. 0. 0. 0. 0. 0. 0. 0. 0. 0. 0. 0. 0. 0. 0. 0. 0. 0.
      0. 0. 0. 0. 0. 0. 0. 0. 0. 0. 0. 0. 1.63398695e-003 0. 0. 0. 0. 0.
      0. 0. 0. 0. 0. 0. 0. 0. 0. 0. 0. 0. 0. 0. 0. 9.80392192e-003 0. 0.
      0. 0. 0. 0. 0. 0. 0. 0. 0. 0. 0. 0. 0. 0. 0. 0. 0. 0. 0. 0. 0. 0.
      0. 0. 0. 0. 0. 0. 0. 0. 0. 0. 0. 0. 0. 0. 0. 0. 0. 0. 0. 0. 0. 0.
      0. 0. 0. 3.26797389e-003 0. 0. 0. 0. 0. 0. 0. 0. 0. 0. 0. 0. 0. 0.
      0. 0. 1.63398695e-003 0. 0. 0. 0. 0. 0. 0. 0. 0. 0. 0. 0. 0. 0. 0.
      0. 0. 0. 0. 0. 0. 0. 0. 0. 0. 0. 0. 0. 0. 0. 0. 0. 0. 0. 0. 0. 0.
      0. 0. 0. 0. 0. 0. 0. 0. 0. 0. 0. 0. 0. 0. 0. 0. 1.63398695e-003 0.
      0. 0. 0. 0. 0. 0. 0. 0. 0. 0. 0. 0. 0. 0. 0. 0. 0. 0. 0. 0. 0. 0.
      0. 0. 0. 0. 0. 0. 0. 0. 0. 0. 0. 0. 0. 0. 0. 0. 0. 0. 0. 0.
      2.12418307e-002 0. 0. 0. 0. 0. 0. 0. 0. 0. 0. 0. 0. 0. 0. 0. 0. 0.
      0. 0. 0. 0. 1.79738570e-002 0. 0. 0. 0. 0. 0. 0. 1.63398695e-003
      0. 0. 0. 0. 0. 0. 0. 0. 0. 0. 0. 0. 0. 0. 0. 0. 0. 0. 0. 0. 0. 0.
      0. 0. 0. 0. 0. 0. 0. 0. 0. 0. 0. 0. 0. 0. 0. 0. 0. 0. 0. 0. 0.
      3.26797389e-003 0. 0. 0. 0. 0. 0. 0. 0. 0. 0. 0. 0. 0. 0. 0. 0. 0.
      0. 0. 0. 0. 0. 0. 0. 0. 0. 0. 0. 4.90196096e-003 0. 0. 0. 0. 0. 0.
      0. 0. 0. 0. 0. 0. 0. 0. 0. 0. 0. 0. 0. 0. 0. 0. 0. 0. 0. 0. 0. 0.
      0. 0. 0. 0. 0. 0. 0. 0. 0. 0. 0. 0. 0. 0. 0. 0. 0. 0. 0. 0. 0. 0.
      0. 0. 0. 0. 1.63398695e-003 0. 0. 0. 0. 0. 0. 0. 0. 0. 0. 0. 0. 0.
      0. 0. 0. 0. 0. 0. 0. 0. 0. 0. 0. 0. 0. 0. 0. 0. 7.67973885e-002 0.
      0. 0. 0. 0. 0. 0. 0. 0. 0. 0. 0. 0. 0. 0. 0. 0. 0. 0. 0. 0. 0. 0.
      0. 0. 0. 0. 0. 0. 0. 0. 0. 0. 0. 0. 0. 0. 0. 0. 0. 0. 0. 0. 0. 0.
      0. 0. 0. 0. 0. 0. 0. 0. 0. 1.63398695e-003 0. 0. 0. 0. 0. 0. 0. 0.
      0. 0. 0. 0. 0. 0. 0. 0. 0. 0. 0. 0. 0. 0. 1.63398695e-003 0.
      4.90196096e-003 0. 0. 0. 0. 0. 0. 0. 0. 0. 0. 0. 0. 0. 0. 0. 0. 0.
      0. 0. 0. 0. 0. 0. 0. 0. 0. 0. 0. 0. 0. 0. 0. 0. 0. 0. 0. 0. 0. 0.
      0. 0. 0. 1.63398695e-003 0. 0. 0. 0. 0. 0. 0. 0. 0. 0. 0. 0. 0. 0.
      0. 0. 0. 0. 0. 0. 0. 0. 0. 0. 0. 0. 0. 0. 0. 0. 0. 0. 0. 0. 0. 0.
      0. 0. 0. 0. 0. 0. 0. 0. 0. 0. 0. 0. 0. 0. 0. 0. 0. 0. 0. 0. 0. 0.
      2.61437912e-002 0. 0. 0. 0. 0. 0. 0. 0. 0. 3.10457516e-002 0. 0.
      0. 0. 0. 0. 0. 0. 0. 0. 0. 0. 0. 0. 0. 0. 0. 0. 0. 0. 0. 0. 0. 0.
      0. 0. 0. 0. 0. 0. 0. 0. 0. 0. 0. 0. 0. 0. 0. 0. 0. 0. 0. 0. 0. 0.
      0. 0. 0. 0. 0. 0. 0. 0. 0. 0. 0. 0. 0. 0. 0. 1.63398695e-003 0. 0.
      0. 0. 0. 0. 0. 0. 0. 0. 0. 0. 0. 0. 0. 0. 0. 0. 1.14379087e-002 0.
      0. 0. 0. 0. 0. 0. 0. 0. 0. 0. 0. 0. 0. 0. 0. 0. 0. 0. 0. 0. 0. 0.
      0. 0. 0. 0. 0. 0. 0. 0. 0. 0. 0. 0. 0. 0. 0. 0. 0. 0. 0. 0. 0. 0.
      0. 0. 0. 0. 0. 0. 0. 0. 0. 0. 0. 0. 0. 0. 0. 0. 0. 0. 0. 0. 0. 0.
      0. 0. 0. 4.90196096e-003 0. 3.26797389e-003 0. 0. 0. 0. 0. 0. 0.
      0. 0. 0. 0. 0. 0. 0. 0. 0. 0. 0. 0. 0. 0. 0. 0. 0. 0. 0. 0. 0. 0.
      0. 0. 0. 0. 0. 0. 0. 0. 0. 0. 0. 0. 0. 0. 0. 0. 0. 1.63398695e-003
      0. 0. 0. 0. 0. 0. 0. 0. 0. 0. 0. 0. 0. 0. 0. 0. 0. 0. 0. 0. 0. 0.
      0. 0. 0. 0. 0. 0. 0. 0. 0. 0. 0. 0. 0. 0. 0. 0. 0. 0. 0. 0. 0. 0.
      0. 0. 0. 0. 0. 0. 0. 0. 0. 0. 0. 0. 0. 0. 0. 0. 0. 0. 0. 0. 0. 0.
      0. 0. 0. 0. 0. 0. 0. 0. 0. 0. 0. 0. 0. 0. 0. 0. 0. 0. 0. 0. 0. 0.
      0. 0. 0. 0. 0. 0. 0. 0. 0. 0. 0. 0. 0. 0. 0. 0. 0. 0. 0. 0. 0. 0.
      0. 0. 0. 0. 0. 0. 0. 0. 0. 0. 0. 0. 6.37254938e-002 0. 0. 0. 0. 0.
      0. 0. 0. 0. 0. 0. 0. 0. 0. 0. 0. 0. 0. 0. 0. 0. 0. 8.16993508e-003
      0. 0. 0. 0. 0. 0. 0. 0. 0. 0. 0. 0. 0. 0. 0. 0. 0. 0. 0. 0. 0. 0.
      0. 0. 0. 0. 0. 0. 0. 0. 0. 0. 0. 0. 0. 0. 0. 0. 0. 0. 0. 0. 0. 0.
      0. 0. 0. 4.90196096e-003 0. 0. 0. 0. 0. 0. 0. 0. 0. 0. 0. 0. 0. 0.
      0. 0. 0. 0. 0. 0. 0. 0. 0. 0. 0. 0. 0. 0. 0. 1.63398695e-003 0. 0.
      0. 0. 0. 0. 0. 0. 0. 0. 0. 0. 0. 0. 0. 0. 0. 0. 0. 1.63398695e-003
      0. 0. 0. 0. 0. 0. 0. 0. 0. 0. 0. 0. 0. 0. 0. 0. 0. 0. 0. 0. 0. 0.
      0. 0. 0. 0. 0. 0. 0. 0. 0. 0. 0. 0. 0. 0. 0. 0. 0. 0. 0. 0. 0. 0.
      0. 0. 0. 0. 0. 0. 0. 0. 0. 0. 0. 0. 0. 0. 0. 0. 0. 0. 0. 0. 0. 0.
      2.28758175e-002 0. 0. 0. 0. 0. 0. 0. 0. 0. 0. 0. 0. 0. 0. 0. 0. 0.
      0. 0. 0. 0. 0. 0. 0. 0. 0. 0. 0. 0. 0. 0. 0. 0. 0. 0. 0. 0. 0. 0.
      0. 0. 0. 0. 0. 0. 0. 0. 0. 1.63398695e-003 0. 0. 0. 0. 0. 0.
      1.63398695e-003 0. 0. 0. 0. 0. 0. 0. 0. 0. 0. 0. 0. 0. 0. 0. 0.
      2.28758175e-002 0. 0. 0. 0. 0. 0. 0. 0. 0. 0. 0. 0. 0. 0. 0. 0. 0.
      0. 0. 0. 0. 0. 0. 0. 0. 0. 0. 0. 0. 0. 0. 0. 0. 0. 0. 0. 0. 0. 0.
      0. 0. 0. 0. 0. 0. 6.53594779e-003 0. 0. 0. 0. 0. 0. 0. 0. 0. 0. 0.
      0. 0. 0. 0. 0. 0. 0. 0. 0. 0. 0. 0. 0. 0. 0. 0. 0. 0. 0. 0. 0. 0.
      0. 0. 0. 0. 0. 0. 0. 0. 0. 0. 0. 0. 0. 0. 0. 0. 0. 0. 0. 0. 0. 0.
      0. 0. 0. 0. 0. 0. 0. 0. 0. 0. 0. 0. 0. 0. 0. 0. 0. 0. 0. 0.</_>
    <_>
      0. 0. 0. 0. 0. 7.54147815e-003 0. 0. 0. 0. 0. 0. 0. 0. 0. 0. 0. 0.
      0. 0. 0. 0. 0. 0. 0. 0. 0. 0. 0. 0. 0. 0. 1.50829565e-003 0. 0. 0.
      0. 0. 0. 0. 0. 0. 0. 0. 0. 0. 0. 0. 0. 0. 0. 0. 0. 0.
      1.50829565e-003 0. 0. 0. 0. 0. 0. 0. 0. 3.01659130e-003 0. 0. 0.
      0. 0. 0. 1.50829565e-003 0. 0. 0. 0. 0. 0. 4.52488707e-003 0. 0.
      0. 0. 0. 0. 0. 9.04977415e-003 0. 0. 0. 0. 0. 0. 0. 0. 0. 0. 0. 0.
      0. 0. 0. 0. 0. 0. 0. 0. 0. 0. 0. 0. 0. 0. 0. 9.04977415e-003 0. 0.
      0. 0. 0. 0. 0. 0. 0. 0. 0. 0. 0. 0. 0. 0. 0. 0. 0. 0. 0. 0. 0. 0.
      0. 1.50829565e-003 0. 0. 0. 0. 0. 0. 0. 0. 0. 0. 0. 0. 0. 0. 0. 0.
      0. 0. 0. 0. 0. 0. 0. 7.54147815e-003 0. 0. 0. 0. 0. 0. 0. 0. 0. 0.
      0. 0. 1.50829565e-003 1.50829565e-003 0. 0. 0. 0. 0. 0. 0. 0. 0.
      0. 0. 0. 0. 0. 0. 1.50829565e-003 0. 0. 0. 0. 0. 1.50829565e-003
      1.50829565e-003 0. 0. 0. 0. 0. 0. 0. 0. 0. 0. 0. 0. 0. 0. 0. 0. 0.
      0. 0. 0. 0. 0. 0. 0. 0. 0. 1.50829565e-003 0. 0. 0. 0. 0. 0. 0. 0.
      0. 0. 0. 0. 0. 1.50829565e-003 1.50829565e-003 0. 0.
      9.04977415e-003 0. 0. 0. 0. 0. 0. 0. 0. 0. 0. 1.96078438e-002 0.
      0. 0. 0. 0. 0. 0. 0. 0. 0. 0. 0. 0. 0. 0. 0. 0. 0. 0. 0. 0. 0. 0.
      0. 0. 0. 0. 0. 0. 0. 1.50829565e-003 0. 0. 0. 0. 0. 0.
      1.50829565e-003 0. 0. 0. 0. 0. 0. 0. 0. 0. 0. 0. 1.50829565e-003
      0. 0. 0. 1.50829565e-003 0. 0. 1.50829565e-003 0. 0. 0. 0. 0. 0.
      0. 0. 0. 0. 0. 0. 0. 0. 0. 0. 0. 0. 0. 0. 0. 0. 0. 0. 0. 0. 0. 0.
      0. 0. 0. 1.50829565e-003 0. 0. 0. 1.50829565e-003 0. 0. 0.
      1.50829565e-003 0. 0. 0. 0. 0. 0. 0. 0. 0. 0. 0. 0. 0.
      1.50829565e-003 0. 0. 0. 0. 0. 0. 0. 0. 0. 0. 0. 0. 0. 0. 0. 0. 0.
      0. 0. 0. 0. 0. 0. 0. 0. 3.01659130e-003 0. 0. 0. 0. 0. 0. 0. 0. 0.
      0. 0. 0. 0. 0. 0. 0. 0. 0. 0. 0. 0. 0. 0. 0. 0. 0. 0. 0. 0. 0. 0.
      0. 0. 0. 0. 0. 0. 0. 0. 0. 0. 0. 0. 0. 0. 0. 0. 0. 0. 0. 0. 0. 0.
      1.50829565e-003 0. 0. 0. 0. 0. 0. 0. 0. 0. 0. 0. 0. 0. 0. 0. 0. 0.
      3.01659130e-003 0. 0. 0. 0. 0. 0. 0. 0. 0. 0. 0. 0. 0. 0. 0. 0. 0.
      0. 0. 0. 0. 0. 0. 0. 0. 0. 0. 0. 0. 0. 0. 0. 0. 0. 0. 0. 0. 0. 0.
      0. 0. 0. 0. 0. 0. 0. 0. 0. 0. 0. 0. 0. 0. 0. 0. 0. 0. 0. 0. 0.
      1.50829565e-003 0. 0. 7.54147815e-003 0. 0. 0. 3.01659130e-003 0.
      0. 0. 0. 0. 0. 0. 0. 0. 0. 0. 0. 0. 0. 0. 0. 0. 0. 0. 0. 0. 0. 0.
      0. 1.35746608e-002 0. 0. 0. 0. 1.50829565e-003 1.50829565e-003 0.
      0. 0. 0. 0. 0. 0. 0. 0. 0. 0. 0. 0. 0. 0. 0. 0. 0. 0. 0. 0. 0. 0.
      1.50829565e-003 0. 0. 0. 0. 0. 0. 0. 0. 0. 0. 0. 0. 0. 0.
      1.50829565e-003 0. 0. 0. 0. 0. 0. 0. 0. 0. 3.01659130e-003 0. 0.
      0. 0. 0. 0. 0. 0. 0. 0. 0. 0. 0. 0. 0. 0. 0. 0. 0. 0. 0.
      1.50829565e-003 0. 0. 0. 0. 0. 0. 0. 0. 0. 0. 0. 0. 0. 0. 0. 0.
      1.50829565e-003 0. 0. 0. 0. 0. 0. 0. 0. 0. 0. 0. 0. 0. 0. 0. 0. 0.
      0. 1.50829565e-003 0. 0. 0. 0. 0. 0. 0. 0. 0. 0. 0. 0. 0. 0. 0. 0.
      1.50829565e-003 0. 0. 0. 0. 1.50829565e-003 0. 0. 0.
      3.01659130e-003 0. 0. 0. 0. 0. 0. 0. 1.50829565e-003 0. 0. 0.
      1.50829565e-003 0. 0. 0. 0. 0. 0. 0. 0. 0. 1.50829565e-003 0. 0.
      0. 0. 0. 0. 0. 0. 0. 0. 0. 0. 0. 0. 0. 0. 0. 0. 0. 0. 0. 0. 0.
      1.05580697e-002 0. 0. 0. 0. 0. 0. 0. 0. 0. 0. 0. 3.01659130e-003
      0. 0. 0. 0. 0. 0. 0. 0. 0. 0. 0. 0. 0. 0. 0. 0. 1.80995483e-002 0.
      0. 0. 0. 0. 0. 0. 0. 0. 0. 0. 0. 0. 0. 0. 0. 0. 0. 0. 0. 0. 0. 0.
      0. 0. 0. 1.50829565e-003 0. 0. 0. 0. 0. 0. 0. 0. 0. 0. 0. 0. 0. 0.
      0. 0. 0. 0. 0. 0. 0. 0. 0. 1.50829565e-003 1.50829565e-003 0. 0.
      0. 0. 0. 0. 0. 0. 0. 0. 0. 0. 0. 0. 0. 0. 0. 0. 1.50829563e-002 0.
      0. 0. 0. 0. 0. 0. 0. 0. 0. 0. 0. 0. 0. 0. 0. 0. 0. 0. 0. 0. 0. 0.
      1.50829565e-003 0. 0. 0. 0. 0. 0. 0. 0. 0. 0. 0. 0. 0.
      1.50829565e-003 0. 0. 0. 0. 0. 0. 0. 0. 0. 0. 0. 0. 0. 0. 0. 0. 0.
      0. 0. 0. 0. 0. 0. 0. 0. 0. 0. 0. 0. 0. 0. 1.50829565e-003 0. 0. 0.
      0. 1.50829565e-003 0. 0. 0. 0. 0. 0. 0. 0. 0. 0. 0. 0. 0. 0. 0.
      1.05580697e-002 0. 0. 0. 0. 0. 0. 0. 0. 0. 0. 0. 0. 0. 0. 0. 0. 0.
      0. 0. 0. 0. 4.22322787e-002 0. 0. 1.05580697e-002 0. 0. 0. 0. 0.
      0. 0. 0. 0. 0. 1.50829565e-003 0. 0. 0. 0. 0. 0. 0.
      3.01659130e-003 0. 0. 0. 0. 0. 0. 0. 0. 0. 0. 0. 0.
      1.50829565e-003 0. 1.50829565e-003 0. 0. 0. 0. 0. 0. 0. 0. 0. 0.
      0. 0. 0. 0. 0. 0. 0. 0. 0. 0. 0. 0. 0. 0. 0. 0. 0. 0. 0.
      1.50829565e-003 0. 0. 0. 0. 0. 0. 0. 0. 0. 0. 0. 0.
      6.03318261e-003 0. 0. 0. 0. 0. 0. 0. 0. 0. 0. 0. 0. 0. 0. 0. 0. 0.
      0. 0. 0. 0. 0. 0. 0. 0. 0. 0. 0. 0. 0. 0. 0. 0. 0. 0. 0. 0. 0. 0.
      0. 0. 0. 0. 0. 1.50829565e-003 0. 0. 0. 0. 0. 0. 0. 0. 0. 0.
      1.50829565e-003 0. 0. 0. 0. 0. 0. 0. 0. 0. 1.50829565e-003 0. 0.
      0. 0. 0. 0. 0. 1.50829565e-003 0. 0. 0. 0. 0. 0. 0. 0. 0. 0. 0. 0.
      0. 0. 0. 0. 0. 0. 0. 0. 0. 1.50829565e-003 0. 0. 0. 0. 0. 0. 0. 0.
      0. 0. 0. 0. 0. 0. 0. 0. 0. 0. 0. 0. 0. 0. 0. 0. 0. 0. 0. 0. 0. 0.
      0. 0. 0. 0. 0. 0. 0. 0. 0. 0. 0. 0. 0. 0. 0. 0. 1.50829565e-003 0.
      0. 0. 0. 0. 0. 1.50829565e-003 0. 0. 0. 1.50829565e-003 0. 0. 0.
      0. 0. 0. 0. 4.52488707e-003 0. 0. 1.50829565e-003 0. 0. 0. 0. 0.
      0. 0. 0. 0. 0. 0. 0. 0. 0. 0. 0. 0. 0. 0. 0. 0. 0. 0. 0. 0. 0. 0.
      0. 0. 0. 0. 0. 0. 0. 0. 0. 0. 1.50829565e-003 0. 0. 0. 0. 0. 0. 0.
      0. 0. 0. 0. 0. 0. 0. 0. 0. 4.52488707e-003 0. 0. 0. 0. 0. 0. 0. 0.
      0. 0. 0. 0. 0. 0. 0. 1.50829565e-003 0. 3.01659130e-003 0. 0. 0.
      0. 0. 0. 0. 0. 0. 0. 0. 0. 0. 0. 0. 0. 0. 0. 1.50829565e-003 0. 0.
      0. 0. 0. 0. 0. 0. 0. 0. 0. 0. 0. 0. 0. 0. 0. 0. 0. 0. 0. 0. 0.
      1.50829565e-003 0. 4.52488707e-003 0. 0. 0. 0. 0. 0. 0. 0. 0. 0.
      0. 0. 0. 0. 0. 0. 0. 0. 0. 0. 0. 0. 0. 0. 0. 0. 0. 0. 0. 0. 0. 0.
      0. 0. 0. 0. 0. 0. 0. 3.01659130e-003 0. 0. 0. 0. 0. 0. 0. 0. 0. 0.
      0. 0. 0. 1.50829565e-003 0. 1.50829565e-003 0. 0. 0. 0. 0. 0. 0.
      0. 0. 0. 0. 0. 0. 0. 0. 0. 0. 0. 0. 0. 0. 0. 0. 0. 1.65912528e-002
      0. 0. 2.86576170e-002 0. 0. 0. 0. 0. 0. 0. 3.01659130e-003 0. 0.
      0. 0. 0. 0. 0. 0. 0. 0. 0. 0. 0. 0. 0. 0. 0. 0. 0. 0. 0. 0. 0. 0.
      0. 0. 0. 0. 0. 0. 0. 0. 0. 0. 9.04977415e-003 0. 0. 0. 0. 0. 0. 0.
      0. 0. 3.77073921e-002 0. 0. 0. 0. 0. 0. 0. 0. 0. 0. 0. 0. 0. 0. 0.
      0. 0. 4.52488707e-003 0. 0. 0. 0. 0. 0. 0. 0. 0. 0. 0. 0. 0. 0. 0.
      0. 0. 0. 0. 0. 0. 0. 0. 0. 0. 0. 0. 0. 0. 0. 0. 0. 0. 0. 0. 0. 0.
      0. 0. 0. 0. 0. 0. 0. 0. 0. 0. 0. 0. 0. 0. 0. 4.52488707e-003 0. 0.
      0. 0. 0. 0. 0. 0. 0. 0. 1.50829565e-003 0. 0. 0. 0. 0. 0. 0. 0. 0.
      0. 0. 0. 0. 0. 0. 0. 0. 0. 0. 0. 0. 0. 1.50829565e-003 0. 0. 0. 0.
      0. 0. 0. 0. 0. 0. 0. 0. 0. 0. 0. 0. 6.03318261e-003 0. 0. 0. 0. 0.
      0. 0. 0. 0. 0. 0. 0. 0. 0. 9.04977415e-003 0. 1.50829565e-003 0.
      0. 0. 0. 0. 0. 0. 0. 0. 0. 0. 0. 1.50829565e-003 0. 0. 0. 0. 0. 0.
      0. 0. 0. 0. 0. 1.20663652e-002 0. 0. 0. 0. 0. 0. 0. 0. 0. 0. 0. 0.
      0. 0. 0. 0. 0. 0. 0. 0. 0. 0. 0. 0. 0. 0. 0. 0. 0. 0.
      7.54147815e-003 0. 0. 1.50829565e-003 0. 0. 0. 0. 0. 0. 0. 0. 0.
      0. 0. 0. 0. 0. 0. 0. 0. 0. 4.52488707e-003 0. 0. 3.01659130e-003
      0. 0. 0. 0. 0. 0. 0. 0. 0. 0. 0. 0. 0. 0. 0. 0. 0. 0. 0.
      1.50829565e-003 0. 0. 0. 4.52488707e-003 3.01659130e-003 0. 0. 0.
      0. 0. 0. 0. 0. 0. 0. 0. 0. 0. 0. 0. 0. 0. 0. 1.50829565e-003 0. 0.
      0. 0. 0. 0. 0. 0. 0. 0. 0. 0. 0. 0. 0. 0. 0. 0. 0. 0. 0. 0. 0. 0.
      0. 1.50829565e-003 0. 0. 1.50829565e-003 0. 0. 0. 0. 0. 0. 0. 0.
      0. 0. 0. 0. 0. 0. 0. 0. 0. 0. 4.52488707e-003 0. 0. 0. 0. 0. 0. 0.
      0. 0. 0. 0. 0. 0. 0. 0. 0. 1.50829565e-003 0. 0. 0. 0. 0. 0. 0. 0.
      0. 0. 0. 0. 1.80995483e-002 0. 0. 0. 0. 0. 0. 0. 0. 0. 0. 0. 0. 0.
      0. 0. 0. 0. 0. 0. 0. 0. 0. 0. 0. 0. 0. 0. 0. 0. 0. 0. 0. 0. 0. 0.
      0. 0. 0. 0. 0. 0. 0. 0. 3.01659130e-003 0. 0. 0. 0. 0. 0. 0. 0. 0.
      0. 0. 0. 0. 0. 0. 0. 0. 0. 0. 0. 0. 0. 0. 0. 1.50829565e-003 0. 0.
      0. 0. 7.54147815e-003 0. 0. 0. 0. 0. 0. 0. 0. 0. 0. 0. 0. 0. 0. 0.
      0. 0. 0. 0. 0. 0. 0. 0. 0. 0. 0. 0. 0. 0. 0. 1.50829565e-003 0.
      1.50829565e-003 0. 0. 0. 0. 0. 0. 2.41327304e-002 0. 0. 0. 0. 0.
      0. 1.50829565e-003 0. 0. 0. 0. 3.01659130e-003 0. 0. 0. 0. 0. 0.
      0. 0. 0. 0. 0. 0. 0. 0. 0. 1.50829565e-003 0. 0. 0. 0. 0. 0. 0. 0.
      0. 0. 0. 0. 0. 0. 0. 0. 0. 0. 0. 0. 0. 0. 0. 0. 0. 0. 0.
      3.01659130e-003 0. 0. 0. 0. 0. 0. 0. 0. 0. 0. 0. 0. 0. 0. 0. 0. 0.
      0. 0. 0. 0. 0. 0. 0. 0. 1.35746608e-002 0. 0. 0. 0. 0. 0. 0. 0. 0.
      0. 0. 0. 0. 0. 0. 0. 0. 0. 0. 0. 0. 0. 0. 0. 0. 0. 0. 0. 0. 0. 0.
      0. 0. 0. 0. 0. 1.50829565e-003 0. 9.04977415e-003 0. 0. 0. 0. 0.
      0. 0. 0. 0. 0. 0. 0. 0. 0. 0. 0. 0. 0. 0. 0. 0. 0. 0. 0. 0. 0. 0.
      0. 0. 0. 0. 0. 0. 0. 0. 0. 0. 0. 1.43288091e-001 0.
      1.96078438e-002 0. 0. 0. 0. 0. 3.01659130e-003 0. 0. 0. 0. 0. 0.
      0. 0. 0. 0. 0. 0. 0. 0. 0. 0. 0. 0. 0. 0. 0. 0. 0. 0.
      1.50829565e-003 0. 0. 0. 0. 0. 0. 0. 0. 0. 0. 0. 0. 0. 0. 0. 0. 0.
      1.50829565e-003 0. 0. 0. 0. 0. 0. 0. 0. 0. 0. 0. 0. 0. 0. 0. 0.
      1.50829565e-003 0. 0. 0. 0. 0. 0. 0. 0. 0. 0. 0. 0. 0. 0. 0. 0. 0.
      0. 0. 0. 1.50829565e-003 0. 0. 0. 0. 0. 0. 0. 0. 1.50829563e-002
      0. 0. 0. 1.50829565e-003 0. 0. 0. 0. 0. 0. 0. 0. 0. 0. 0. 0. 0. 0.
      0. 0. 0. 0. 0. 0. 0. 0. 0. 0. 0. 0. 0. 0. 0. 0. 0. 0.
      4.52488707e-003 0. 0. 0. 0. 0. 0. 0. 0. 0. 0. 0. 0. 0.
      3.01659126e-002 0. 0. 4.52488707e-003 0. 0. 0. 0. 0. 0. 0. 0. 0.
      0. 0. 0. 0. 0. 0. 0. 0. 0. 0. 0. 0. 0. 0. 0. 0. 0. 0. 0. 0. 0. 0.
      0. 0. 0. 0. 0. 0. 0. 0. 0. 0. 0. 0. 0. 0. 0. 0. 4.52488707e-003 0.
      0. 0. 0. 0. 0. 0. 0. 0. 0. 0. 0. 0. 0. 0. 1.50829565e-003 0. 0. 0.
      0. 0. 0. 0. 0. 0. 0. 0. 0. 0. 0. 0. 0. 0. 0. 0. 0. 0. 0. 0. 0. 0.
      1.50829565e-003 0. 0. 1.50829565e-003 0. 0. 0. 0. 0. 0. 0. 0. 0.
      0. 0. 0. 0. 0. 0. 0. 0. 0. 0. 0. 0. 0. 0. 0. 0. 0. 0. 0. 0. 0. 0.
      0. 0. 0. 0. 0. 0. 0. 0. 0. 0. 1.50829565e-003 0. 0. 0.
      1.50829565e-003 1.50829565e-003 0. 0. 1.96078438e-002 0. 0. 0. 0.
      0. 0. 0. 0. 0. 0. 0. 0. 1.50829565e-003 0. 0. 0. 0. 0. 0. 0. 0. 0.
      0. 0. 0. 0. 0. 0. 0. 0. 0. 0. 0. 0. 0. 0. 0. 0. 0. 1.50829565e-003
      0. 0. 1.50829565e-003 0. 0. 0. 0. 0. 0. 0. 0. 0. 0. 0. 0. 0. 0. 0.
      0. 1.50829565e-003 0. 0. 0. 0. 0. 0. 0. 0. 0. 0. 0. 0. 0. 0. 0.
      1.50829565e-003 0. 0. 0. 0. 0. 0. 0. 0. 0. 0. 0. 1.50829565e-003
      1.50829565e-003 0. 0. 0. 0. 1.50829565e-003 0. 0. 0. 0. 0.
      1.50829565e-003 0. 0. 0. 0. 0. 0. 0. 0. 0. 0. 0. 0.
      1.50829565e-003 0. 0. 0. 0. 0. 0. 0. 0. 0. 0. 0. 0.
      7.54147815e-003 0. 0. 0. 0. 0. 0. 0. 0. 0. 0. 0. 0. 0. 0. 0. 0.
      1.50829565e-003 0. 0. 3.01659130e-003 0. 0. 0. 0. 0. 0. 0. 0. 0.
      0. 0. 0. 0. 0. 0. 0. 0. 0. 0. 0. 1.65912528e-002 0. 0. 0. 0. 0.
      1.50829565e-003 0. 0. 0. 0. 0. 0. 0. 0. 0. 0. 0. 0. 0. 0. 0. 0. 0.
      0. 0. 0. 0. 0. 0. 0. 0. 0. 0. 0. 0. 0. 0. 0. 0. 0. 0. 0. 0. 0. 0.
      0. 0. 0. 0. 0. 0. 0. 0. 0. 0. 0. 0. 0. 0. 0. 0. 0. 0. 0. 0. 0. 0.
      1.50829565e-003 0. 0. 0. 0. 0. 0. 0. 0. 0. 0. 0. 0. 0. 0. 0. 0. 0.
      0. 0. 0. 0. 0. 0. 0. 0. 0. 0. 0. 0. 0. 0. 0. 0. 0. 0. 0. 0. 0. 0.
      0. 0. 0. 3.01659130e-003 0. 2.11161394e-002 0. 0. 0. 0. 0. 0. 0.
      0. 0. 0. 0. 1.50829565e-003 0. 0. 0. 0. 0. 0. 0. 0. 0. 0. 0. 0. 0.
      0. 0. 0. 0. 0. 0. 0. 0. 0. 0. 0. 0. 0. 0. 3.01659130e-003 0. 0. 0.
      0. 0. 0. 0. 0. 0. 0. 0. 0. 0. 7.54147815e-003 0. 0. 0. 0. 0. 0. 0.
      0. 0. 0. 0. 0. 0. 0. 0. 0. 0. 0. 0. 0. 0. 0. 0. 1.50829565e-003 0.
      0. 0. 0. 0. 0. 0. 0. 0. 0. 0. 0. 0. 0. 0. 0. 0. 0. 0. 0. 0. 0. 0.
      0. 0. 0. 0. 0. 0. 0. 0. 0. 0. 3.01659130e-003 0. 0. 0.
      1.50829565e-003 0. 0. 0. 0. 1.50829565e-003 0. 0. 0. 0. 0. 0. 0.
      0. 0. 0. 1.05580697e-002 0. 0. 0. 0. 0. 0. 0. 0. 0. 0. 0. 0. 0. 0.
      0. 0. 0. 0. 0. 0. 0. 0. 0. 0. 0. 7.54147815e-003 1.50829565e-003
      0. 0. 0. 0. 0. 0. 0. 0. 0. 0. 0. 0. 0. 0. 0. 0. 0. 0. 0. 0. 0. 0.
      0. 1.50829565e-003 0. 0. 0. 0. 0. 0. 0. 0. 0. 0. 0. 0. 0. 0. 0. 0.
      3.01659130e-003 0. 0. 0. 0. 4.52488707e-003 0. 0. 0. 0. 0. 0. 0.
      0. 0. 0. 0. 0. 0. 0. 0. 0. 0. 0. 0. 0. 0. 0. 0. 0. 1.50829565e-003
      0. 0. 0. 4.52488707e-003 0. 0. 0. 0. 0. 0. 0. 0. 0. 0. 0. 0. 0. 0.
      0. 0. 0. 0. 1.50829565e-003 0. 0. 0. 0. 0. 0. 0. 0. 0. 0. 0. 0. 0.
      0. 0. 0. 0. 0. 0. 0. 0. 0. 0. 6.03318261e-003 3.01659130e-003 0.
      0. 0. 0. 0. 0. 0. 0. 0. 0. 0. 0. 0. 0. 0. 0. 0. 3.01659130e-003 0.
      0. 0. 0. 0. 0. 0. 0. 0. 0. 0. 0. 0. 0. 0. 0. 0. 0. 0. 0. 0. 0. 0.
      0. 0. 0. 0. 0. 0. 0. 0. 0. 0. 0. 0. 0. 0. 0. 0. 0. 0. 0. 0. 0. 0.
      0. 0. 0. 0. 0. 0. 0. 0. 0. 0. 0.</_>
    <_>
      0. 0. 0. 0. 0. 0. 0. 0. 0. 0. 0. 0. 0. 0. 0. 0. 0. 0. 0. 0. 0. 0.
      0. 0. 0. 0. 0. 0. 0. 0. 0. 0. 0. 3.92156877e-002 0. 0. 0. 0. 0. 0.
      0. 0. 0. 0. 0. 0. 0. 0. 0. 0. 0. 0. 0. 0. 0. 0. 0. 0. 0. 0. 0. 0.
      0. 0. 0. 0. 0. 0. 1.50829565e-003 0. 0. 0. 0. 0. 0. 0. 0. 0. 0. 0.
      0. 1.50829565e-003 0. 0. 0. 0. 0. 0. 0. 3.01659130e-003 0. 0. 0.
      0. 0. 0. 0. 0. 1.50829565e-003 0. 0. 0. 0. 0. 0. 0. 0. 0. 0. 0. 0.
      0. 0. 0. 0. 0. 1.05580697e-002 6.03318261e-003 0. 0. 0. 0. 0. 0.
      0. 0. 0. 0. 0. 0. 0. 0. 0. 0. 0. 0. 0. 0. 0. 0. 0. 0. 0. 0. 0. 0.
      0. 0. 0. 0. 0. 0. 0. 3.01659130e-003 0. 0. 0. 0. 0. 0. 0. 0. 0.
      2.41327304e-002 0. 0. 0. 0. 0. 0. 0. 0. 0. 0. 0. 0. 0. 0. 0. 0. 0.
      3.01659130e-003 0. 0. 0. 0. 0. 0. 0. 0. 0. 0. 1.50829565e-003 0.
      0. 0. 0. 0. 0. 0. 0. 0. 0. 0. 0. 0. 1.50829565e-003 0. 0. 0. 0. 0.
      0. 0. 0. 0. 0. 0. 0. 0. 0. 0. 0. 0. 0. 0. 0. 0. 0. 0. 0. 0. 0. 0.
      0. 0. 0. 0. 0. 0. 0. 0. 1.50829565e-003 0. 0. 0. 0. 0. 0. 0. 0. 0.
      0. 0. 4.52488707e-003 0. 0. 0. 0. 0. 6.03318261e-003 0. 0. 0. 0.
      0. 0. 0. 0. 0. 1.50829565e-003 0. 0. 0. 0. 0. 0. 0.
      1.50829565e-003 0. 0. 0. 0. 0. 0. 0. 0. 0. 0. 1.80995483e-002 0.
      0. 0. 0. 0. 0. 0. 0. 0. 6.03318261e-003 1.50829565e-003 0. 0. 0.
      0. 0. 0. 0. 0. 0. 0. 0. 0. 0. 0. 0. 0. 0. 0. 0. 0. 0. 0.
      1.50829565e-003 0. 0. 0. 0. 0. 0. 0. 6.03318261e-003 0. 0. 0. 0.
      0. 0. 0. 1.50829565e-003 0. 0. 0. 0. 0. 0. 0. 0. 0. 0. 0. 0. 0. 0.
      0. 1.50829565e-003 0. 0. 0. 0. 0. 0. 0. 0. 0. 0. 0.
      1.50829565e-003 0. 0. 0. 0. 0. 0. 0. 0. 1.50829565e-003 0. 0. 0.
      0. 0. 0. 0. 0. 1.50829565e-003 0. 0. 0. 6.03318261e-003 0. 0. 0.
      0. 0. 0. 0. 0. 0. 0. 0. 1.65912528e-002 0. 0. 0. 1.50829565e-003
      0. 0. 0. 0. 0. 0. 0. 0. 0. 0. 0. 0. 0. 0. 0. 0. 0. 0. 0. 0. 0. 0.
      0. 0. 0. 0. 0. 0. 0. 0. 0. 0. 0. 7.54147815e-003 0. 0. 0. 0. 0. 0.
      0. 0. 0. 0. 0. 4.52488707e-003 0. 0. 0. 0. 0. 0. 0. 0.
      9.04977415e-003 0. 0. 0. 0. 0. 0. 0. 0. 0. 0. 0. 0. 0. 0. 0.
      9.35143307e-002 0. 0. 0. 0. 0. 0. 0. 0. 0. 0. 0. 0. 0. 0. 0. 0. 0.
      0. 0. 0. 0. 0. 0. 0. 0. 0. 0. 0. 0. 0. 0. 0. 0. 0. 0. 0. 0. 0.
      1.50829565e-003 0. 0. 0. 0. 0. 0. 0. 0. 0. 0. 1.50829565e-003 0.
      0. 0. 0. 0. 0. 0. 0. 0. 0. 0. 0. 0. 0. 0. 0. 0. 0. 0. 0. 0. 0. 0.
      0. 0. 0. 0. 0. 0. 0. 1.50829565e-003 0. 0. 0. 0. 0. 0. 0. 0. 0. 0.
      0. 0. 0. 0. 0. 0. 3.01659130e-003 3.01659130e-003 0. 0.
      1.50829565e-003 0. 0. 0. 0. 0. 0. 0. 0. 3.01659130e-003 0. 0. 0.
      0. 0. 0. 0. 0. 0. 0. 0. 0. 0. 0. 0. 0. 0. 0. 0. 0. 0.
      1.50829565e-003 0. 0. 0. 1.50829565e-003 0. 0. 0. 0. 0. 0. 0. 0.
      0. 0. 0. 0. 0. 0. 0. 0. 0. 0. 0. 0. 0. 0. 0. 0. 0. 0. 0. 0. 0. 0.
      0. 0. 0. 0. 0. 0. 0. 0. 0. 0. 0. 0. 0. 0. 0. 0. 0. 0. 0. 0. 0. 0.
      7.54147815e-003 0. 0. 0. 0. 0. 0. 0. 0. 0. 0. 0. 0. 0. 0. 0. 0. 0.
      0. 0. 3.01659130e-003 0. 4.52488707e-003 0. 1.50829565e-003
      1.96078438e-002 0. 0. 0. 0. 0. 0. 1.50829565e-003 0. 0. 0. 0. 0.
      0. 0. 0. 3.01659130e-003 0. 0. 0. 0. 0. 0. 1.50829565e-003 0. 0.
      0. 0. 0. 0. 0. 0. 0. 0. 0. 0. 0. 0. 0. 0. 0. 0. 0. 0. 0. 0. 0. 0.
      0. 0. 0. 6.03318261e-003 0. 0. 0. 0. 0. 0. 0. 0. 0. 0. 0. 0. 0. 0.
      0. 0. 0. 0. 0. 0. 0. 0. 0. 0. 0. 0. 0. 0. 0. 0. 0. 0. 0. 0. 0. 0.
      0. 0. 0. 0. 0. 0. 0. 0. 0. 0. 0. 0. 0. 0. 0. 0. 0. 0. 0. 0. 0. 0.
      0. 0. 0. 0. 0. 3.01659130e-003 0. 0. 0. 1.50829565e-003 0. 0. 0.
      0. 0. 0. 0. 0. 0. 0. 0. 0. 0. 0. 0. 0. 0. 0. 0. 0. 0. 0. 0. 0. 0.
      0. 0. 0. 0. 0. 1.50829565e-003 0. 0. 0. 0. 0. 0. 0. 0.
      1.50829565e-003 0. 0. 0. 0. 3.01659130e-003 0. 0. 0.
      1.50829565e-003 0. 0. 0. 0. 0. 0. 0. 0. 0. 0. 3.01659130e-003 0.
      0. 0. 0. 0. 0. 0. 0. 0. 0. 0. 0. 0. 0. 0. 0. 0. 0. 0. 0. 0. 0. 0.
      0. 0. 0. 0. 0. 0. 0. 0. 0. 0. 0. 0. 0. 0. 0. 0. 0. 0. 0. 0. 0. 0.
      0. 0. 0. 1.50829565e-003 0. 0. 0. 0. 0. 0. 0. 0. 0. 0. 0. 0. 0. 0.
      0. 0. 0. 0. 0. 0. 0. 0. 0. 0. 0. 0. 0. 0. 0. 0. 0. 0. 0. 0. 0. 0.
      0. 0. 0. 0. 0. 0. 0. 0. 0. 0. 0. 0. 0. 0. 0. 0. 0. 1.50829565e-003
      0. 1.50829565e-003 0. 0. 0. 0. 0. 0. 0. 0. 0. 0. 3.01659130e-003
      0. 0. 0. 0. 0. 0. 0. 0. 1.50829565e-003 0. 0. 0. 0. 0. 0. 0. 0. 0.
      0. 0. 0. 0. 0. 0. 0. 0. 0. 3.01659130e-003 0. 0. 0. 0. 0. 0. 0. 0.
      0. 0. 0. 0. 0. 4.52488707e-003 0. 0. 0. 0. 0. 0. 0. 0. 0.
      1.50829565e-003 0. 0. 0. 0. 1.50829563e-002 0. 0. 1.50829565e-003
      0. 0. 0. 0. 0. 0. 0. 0. 0. 0. 0. 0. 1.50829565e-003 0. 0. 0. 0.
      1.50829565e-003 0. 1.50829565e-003 0. 0. 0. 0. 0. 0. 0. 0. 0. 0.
      0. 3.01659130e-003 0. 0. 0. 0. 0. 0. 0. 0. 0. 0. 0. 0. 0.
      1.50829565e-003 1.50829565e-003 0. 0. 0. 0. 0. 0. 0. 0. 0.
      1.50829565e-003 0. 0. 0. 0. 0. 0. 0. 0. 0. 0. 0. 0. 0. 0. 0. 0. 0.
      0. 0. 0. 0. 0. 0. 0. 0. 0. 0. 3.01659130e-003 0. 3.01659130e-003
      0. 0. 0. 0. 0. 0. 0. 1.50829565e-003 0. 0. 0. 0. 0. 0. 0. 0. 0. 0.
      0. 0. 1.50829565e-003 0. 0. 0. 0. 0. 0. 0. 0. 0. 0. 0. 0. 0. 0. 0.
      0. 0. 0. 0. 0. 0. 4.52488707e-003 0. 0. 0. 0. 0. 0. 0.
      3.01659130e-003 0. 0. 0. 0. 0. 0. 0. 0. 0. 0. 0. 0. 0. 0. 0. 0. 0.
      1.50829565e-003 0. 0. 0. 0. 0. 0. 0. 0. 0. 0. 0. 0. 0. 0. 0. 0.
      3.01659130e-003 0. 0. 0. 0. 0. 0. 0. 0. 0. 0. 0. 0. 0. 0. 0. 0. 0.
      0. 0. 0. 0. 0. 0. 0. 0. 0. 0. 0. 0. 0. 0. 0. 0. 0. 0. 0. 0. 0. 0.
      0. 1.50829565e-003 0. 0. 0. 0. 0. 0. 0. 0. 0. 0. 3.01659130e-003
      0. 0. 0. 0. 0. 0. 0. 0. 0. 0. 0. 0. 0. 0. 0. 0. 0. 0. 0. 0. 0. 0.
      0. 0. 0. 0. 0. 0. 0. 0. 1.50829565e-003 0. 0. 0. 1.50829565e-003
      0. 0. 0. 0. 3.01659130e-003 0. 0. 0. 0. 0. 3.01659130e-003 0. 0.
      0. 0. 0. 0. 0. 1.50829565e-003 0. 0. 0. 0. 0. 0. 0. 0. 0. 0. 0. 0.
      0. 0. 0. 0. 0. 0. 0. 0. 0. 0. 0. 0. 0. 3.01659130e-003 0. 0. 0. 0.
      0. 0. 0. 0. 0. 0. 0. 0. 0. 0. 0. 0. 0. 0. 0. 1.50829565e-003 0. 0.
      0. 0. 0. 0. 0. 0. 0. 0. 0. 0. 0. 0. 0. 0. 0. 0. 0. 0. 0. 0. 0. 0.
      0. 0. 0. 0. 0. 0. 0. 0. 0. 0. 3.01659130e-003 0. 0. 0. 0. 0. 0. 0.
      0. 0. 0. 0. 0. 0. 1.50829565e-003 0. 0. 0. 4.52488707e-003 0. 0.
      0. 0. 0. 0. 0. 0. 0. 0. 0. 0. 0. 1.50829565e-003 0. 0. 0. 0. 0. 0.
      0. 0. 0. 0. 0. 0. 0. 0. 0. 0. 1.50829565e-003 0. 0. 0. 0. 0. 0. 0.
      3.01659130e-003 0. 0. 0. 1.05580697e-002 0. 0. 0. 0. 0. 0. 0. 0.
      0. 0. 0. 0. 0. 0. 0. 0. 0. 0. 0. 3.01659130e-003 0. 0. 0. 0. 0. 0.
      0. 0. 0. 0. 0. 0. 0. 0. 0. 0. 0. 0. 0. 0. 0. 0. 0. 0. 0. 0. 0. 0.
      0. 0. 0. 0. 0. 0. 0. 0. 0. 0. 0. 0. 0. 0. 0. 0. 0. 0.
      1.50829565e-003 1.50829565e-003 0. 0. 0. 0. 0. 0. 0. 0. 0. 0. 0.
      0. 0. 0. 0. 0. 0. 0. 0. 0. 0. 0. 0. 0. 0. 0. 0. 0. 1.50829565e-003
      0. 0. 0. 0. 0. 1.50829565e-003 0. 0. 0. 0. 0. 0. 0. 0. 0. 0. 0. 0.
      0. 0. 0. 0. 0. 0. 0. 0. 0. 0. 0. 0. 0. 3.01659130e-003 0. 0. 0. 0.
      0. 0. 0. 0. 0. 0. 0. 0. 0. 0. 0. 0. 0. 0. 0. 7.54147815e-003 0. 0.
      0. 0. 0. 0. 0. 0. 0. 0. 0. 0. 0. 0. 0. 0. 0. 0. 0. 0. 0. 0. 0. 0.
      0. 0. 0. 0. 0. 0. 0. 0. 0. 0. 0. 0. 0. 0. 0. 0. 0. 0.
      1.50829565e-003 0. 0. 0. 0. 0. 4.52488707e-003 0. 0. 0. 0. 0. 0.
      0. 0. 0. 0. 1.50829565e-003 0. 0. 0. 1.50829565e-003 0. 0.
      1.50829565e-003 0. 0. 0. 0. 0. 0. 0. 0. 0. 0. 0. 0. 0. 0. 0. 0. 0.
      4.52488707e-003 0. 0. 0. 1.50829565e-003 0. 0. 0. 0. 0. 0. 0. 0.
      0. 1.50829565e-003 0. 0. 0. 0. 0. 0. 0. 0. 0. 1.50829565e-003 0.
      0. 0. 0. 0. 0. 0. 0. 0. 0. 0. 0. 0. 3.01659130e-003 0. 0. 0. 0. 0.
      0. 0. 0. 0. 0. 0. 0. 0. 0. 0. 0. 4.52488707e-003 4.52488707e-003
      0. 0. 0. 0. 0. 0. 0. 0. 0. 0. 6.03318261e-003 0. 0.
      1.50829565e-003 0. 0. 0. 1.35746608e-002 0. 0. 0. 0. 0. 0. 0. 0.
      0. 0. 0. 0. 0. 0. 0. 0. 0. 0. 0. 0. 0. 0. 0. 0. 0. 0. 0.
      1.50829565e-003 0. 0. 0. 0. 0. 0. 0. 0. 0. 0. 0. 0. 0. 0. 0. 0. 0.
      0. 0. 0. 0. 0. 4.52488707e-003 0. 0. 0. 0. 0. 0. 0. 0. 0. 0. 0.
      1.50829563e-002 0. 0. 0. 0. 0. 0. 0. 0. 0. 0. 0. 0. 0. 0. 0. 0. 0.
      0. 0. 1.50829565e-003 0. 0. 0. 0. 0. 0. 0. 1.50829565e-003 0. 0.
      0. 0. 0. 0. 0. 0. 0. 0. 0. 0. 0. 0. 0. 0. 0. 0. 0. 0. 0. 0. 0. 0.
      0. 0. 0. 0. 0. 3.01659130e-003 0. 0. 0. 0. 0. 0. 0. 0.
      4.52488707e-003 0. 0. 0. 0. 0. 0. 0. 0. 0. 0. 0. 0. 0. 0.
      2.11161394e-002 0. 0. 0. 0. 0. 0. 0. 1.50829565e-003 0. 0. 0. 0.
      1.50829565e-003 0. 0. 0. 0. 1.50829565e-003 0. 0. 0. 0. 0. 0. 0.
      0. 0. 0. 0. 0. 0. 0. 0. 0. 0. 0. 0. 0. 0. 0. 0. 0. 0. 0. 0. 0. 0.
      0. 0. 0. 0. 1.50829565e-003 0. 0. 0. 0. 0. 1.50829565e-003 0. 0.
      0. 0. 0. 0. 0. 0. 0. 0. 0. 0. 0. 0. 0. 3.01659130e-003 0. 0. 0. 0.
      0. 0. 0. 0. 0. 0. 0. 0. 0. 0. 0. 0. 0. 0. 0. 0. 0. 0.
      1.50829565e-003 0. 0. 0. 0. 0. 0. 0. 0. 0. 3.01659130e-003 0. 0.
      0. 0. 3.01659130e-003 0. 0. 0. 0. 0. 0. 0. 0. 0. 0. 0. 0. 0. 0. 0.
      0. 0. 6.03318261e-003 0. 0. 0. 0. 0. 0. 0. 0. 0. 0. 0. 0. 0. 0. 0.
      0. 0. 0. 0. 0. 0. 0. 0. 0. 0. 0. 0. 0. 0. 1.50829565e-003 0. 0. 0.
      0. 0. 0. 0. 0. 3.01659130e-003 0. 0. 0. 0. 0. 0. 0. 0. 0. 0.
      6.63650110e-002 0. 0. 0. 0. 0. 0. 6.03318261e-003 0. 0. 0. 0. 0.
      0. 0. 0. 0. 0. 1.50829565e-003 0. 0. 0. 0. 0. 0. 0. 0. 0. 0. 0. 0.
      0. 0. 0. 0. 0. 0. 1.50829565e-003 0. 0. 0. 0. 0. 4.52488707e-003
      0. 0. 0. 0. 0. 0. 0. 0. 0. 0. 0. 0. 0. 0. 0. 0. 0. 0. 0.
      1.50829565e-003 0. 0. 0. 0. 0. 0. 1.50829565e-003 0. 0. 0. 0. 0.
      0. 0. 0. 0. 0. 0. 0. 0. 0. 0. 0. 0. 0. 0. 0. 0. 0. 0. 0. 0. 0. 0.
      0. 0. 0. 0. 0. 0. 0. 0. 0. 0. 0. 0. 0. 0. 0. 0. 0. 0. 0. 0. 0. 0.
      0. 0. 0. 0. 0. 1.50829565e-003 0. 1.50829565e-003 0. 0. 0. 0. 0.
      0. 0. 0. 0. 0. 0. 0. 0. 0. 0. 3.01659130e-003 0. 0. 0. 0. 0. 0. 0.
      0. 0. 0. 0. 0. 1.50829565e-003 0. 0. 0. 0. 0. 0. 0. 0. 0. 0. 0.
      1.50829565e-003 0. 3.01659130e-003 0. 3.01659130e-003 0. 0. 0. 0.
      0. 0. 0. 0. 0. 0. 0. 0. 0. 0. 0. 0. 0. 0. 0. 0. 0. 0. 0. 0. 0. 0.
      0. 0. 0. 0. 0. 0. 0. 0. 0. 0. 0. 0. 0. 0. 0. 0. 0. 1.50829565e-003
      0. 0. 0. 0. 0. 0. 0. 0. 0. 0. 0. 0. 0. 0. 0. 0. 0. 2.41327304e-002
      0. 0. 0. 0. 0. 0. 0. 0. 0. 0. 1.50829565e-003 0. 0. 0. 0. 0.
      1.50829565e-003 0. 0. 0. 0. 0. 0. 0. 0. 0. 1.50829565e-003 0. 0.
      3.01659130e-003 0. 0. 0. 0. 0. 0. 0. 0. 0. 0. 0. 0. 0. 0. 0. 0. 0.
      0. 0. 0. 0. 0. 0. 0. 0. 0. 0. 0. 0. 6.03318261e-003 0. 0. 0. 0. 0.
      0. 0. 0. 0. 0. 0. 0. 1.50829565e-003 0. 0. 0. 0. 0. 0. 0. 0.
      1.50829565e-003 0. 0. 0. 0. 0. 0. 0. 0. 0. 0. 0. 0. 0.
